<?xml version="1.0" ?>

<BIF VERSION="0.3">
<NETWORK>

<!-- Variables -->
<VARIABLE TYPE="nature">
	<NAME>CreditRisk</NAME>
	<PROPERTY>description = </PROPERTY>
	<PROPERTY>fast = CreditRisk{Bad|Good}</PROPERTY>
<!- OUTCOME are not used in pyAgrum BIFXML (see fast property) but are kept for compatibility->
	<OUTCOME>Bad</OUTCOME>
	<OUTCOME>Good</OUTCOME>
</VARIABLE>

<VARIABLE TYPE="nature">
	<NAME>Purpose</NAME>
	<PROPERTY>description = </PROPERTY>
	<PROPERTY>fast = Purpose{business|car_new|car_used|domestic_appliances|education|furniture_equipment|others|radio_television|repairs|retraining}</PROPERTY>
<!- OUTCOME are not used in pyAgrum BIFXML (see fast property) but are kept for compatibility->
	<OUTCOME>business</OUTCOME>
	<OUTCOME>car_new</OUTCOME>
	<OUTCOME>car_used</OUTCOME>
	<OUTCOME>domestic_appliances</OUTCOME>
	<OUTCOME>education</OUTCOME>
	<OUTCOME>furniture_equipment</OUTCOME>
	<OUTCOME>others</OUTCOME>
	<OUTCOME>radio_television</OUTCOME>
	<OUTCOME>repairs</OUTCOME>
	<OUTCOME>retraining</OUTCOME>
</VARIABLE>

<VARIABLE TYPE="nature">
	<NAME>Capacity</NAME>
	<PROPERTY>description = </PROPERTY>
	<PROPERTY>fast = Capacity{low|medium|high}</PROPERTY>
<!- OUTCOME are not used in pyAgrum BIFXML (see fast property) but are kept for compatibility->
	<OUTCOME>low</OUTCOME>
	<OUTCOME>medium</OUTCOME>
	<OUTCOME>high</OUTCOME>
</VARIABLE>

<VARIABLE TYPE="nature">
	<NAME>Terms</NAME>
	<PROPERTY>description = </PROPERTY>
	<PROPERTY>fast = Terms{short|medium|long}</PROPERTY>
<!- OUTCOME are not used in pyAgrum BIFXML (see fast property) but are kept for compatibility->
	<OUTCOME>short</OUTCOME>
	<OUTCOME>medium</OUTCOME>
	<OUTCOME>long</OUTCOME>
</VARIABLE>

<VARIABLE TYPE="nature">
	<NAME>Property</NAME>
	<PROPERTY>description = </PROPERTY>
	<PROPERTY>fast = Property{building_society_savings__life_insurance|car_or_other|real_estate|unknown__no_property}</PROPERTY>
<!- OUTCOME are not used in pyAgrum BIFXML (see fast property) but are kept for compatibility->
	<OUTCOME>building_society_savings__life_insurance</OUTCOME>
	<OUTCOME>car_or_other</OUTCOME>
	<OUTCOME>real_estate</OUTCOME>
	<OUTCOME>unknown__no_property</OUTCOME>
</VARIABLE>

<VARIABLE TYPE="nature">
	<NAME>SavingsAccount</NAME>
	<PROPERTY>description = </PROPERTY>
	<PROPERTY>fast = SavingsAccount{_100to500_DM|_500to1000_DM|ge1000_DM|lt100_DM|unknown__no_savings}</PROPERTY>
<!- OUTCOME are not used in pyAgrum BIFXML (see fast property) but are kept for compatibility->
	<OUTCOME>_100to500_DM</OUTCOME>
	<OUTCOME>_500to1000_DM</OUTCOME>
	<OUTCOME>ge1000_DM</OUTCOME>
	<OUTCOME>lt100_DM</OUTCOME>
	<OUTCOME>unknown__no_savings</OUTCOME>
</VARIABLE>

<VARIABLE TYPE="nature">
	<NAME>Job</NAME>
	<PROPERTY>description = </PROPERTY>
	<PROPERTY>fast = Job{management_self_employed_highly_qualified_officer|skilled_employee_official|unemployed_unskilled__non_resident|unskilled__resident}</PROPERTY>
<!- OUTCOME are not used in pyAgrum BIFXML (see fast property) but are kept for compatibility->
	<OUTCOME>management_self_employed_highly_qualified_officer</OUTCOME>
	<OUTCOME>skilled_employee_official</OUTCOME>
	<OUTCOME>unemployed_unskilled__non_resident</OUTCOME>
	<OUTCOME>unskilled__resident</OUTCOME>
</VARIABLE>

<VARIABLE TYPE="nature">
	<NAME>OtherInstallmentPlans</NAME>
	<PROPERTY>description = </PROPERTY>
	<PROPERTY>fast = OtherInstallmentPlans{bank|none|stores}</PROPERTY>
<!- OUTCOME are not used in pyAgrum BIFXML (see fast property) but are kept for compatibility->
	<OUTCOME>bank</OUTCOME>
	<OUTCOME>none</OUTCOME>
	<OUTCOME>stores</OUTCOME>
</VARIABLE>

<VARIABLE TYPE="nature">
	<NAME>CreditHistory</NAME>
	<PROPERTY>description = </PROPERTY>
	<PROPERTY>fast = CreditHistory{All_credits_at_this_bank_paid_duly|Critical_account__other_credits_elsewhere|Delay_in_paying_off_in_the_past|Existing_credits_paid_duly_till_now|No_credits_taken__all_paid_duly}</PROPERTY>
<!- OUTCOME are not used in pyAgrum BIFXML (see fast property) but are kept for compatibility->
	<OUTCOME>All_credits_at_this_bank_paid_duly</OUTCOME>
	<OUTCOME>Critical_account__other_credits_elsewhere</OUTCOME>
	<OUTCOME>Delay_in_paying_off_in_the_past</OUTCOME>
	<OUTCOME>Existing_credits_paid_duly_till_now</OUTCOME>
	<OUTCOME>No_credits_taken__all_paid_duly</OUTCOME>
</VARIABLE>

<VARIABLE TYPE="nature">
	<NAME>EmploymentSince</NAME>
	<PROPERTY>description = </PROPERTY>
	<PROPERTY>fast = EmploymentSince{_1to4_years|_4to7_years|ge7_years|lt1_year|unemployed}</PROPERTY>
<!- OUTCOME are not used in pyAgrum BIFXML (see fast property) but are kept for compatibility->
	<OUTCOME>_1to4_years</OUTCOME>
	<OUTCOME>_4to7_years</OUTCOME>
	<OUTCOME>ge7_years</OUTCOME>
	<OUTCOME>lt1_year</OUTCOME>
	<OUTCOME>unemployed</OUTCOME>
</VARIABLE>

<VARIABLE TYPE="nature">
	<NAME>Income</NAME>
	<PROPERTY>description = </PROPERTY>
	<PROPERTY>fast = Income{low|medium|high}</PROPERTY>
<!- OUTCOME are not used in pyAgrum BIFXML (see fast property) but are kept for compatibility->
	<OUTCOME>low</OUTCOME>
	<OUTCOME>medium</OUTCOME>
	<OUTCOME>high</OUTCOME>
</VARIABLE>

<VARIABLE TYPE="nature">
	<NAME>CreditAmount</NAME>
	<PROPERTY>description = </PROPERTY>
	<PROPERTY>fast = CreditAmount{High|Low|Medium}</PROPERTY>
<!- OUTCOME are not used in pyAgrum BIFXML (see fast property) but are kept for compatibility->
	<OUTCOME>High</OUTCOME>
	<OUTCOME>Low</OUTCOME>
	<OUTCOME>Medium</OUTCOME>
</VARIABLE>

<VARIABLE TYPE="nature">
	<NAME>Duration</NAME>
	<PROPERTY>description = </PROPERTY>
	<PROPERTY>fast = Duration{Long|Medium|Short}</PROPERTY>
<!- OUTCOME are not used in pyAgrum BIFXML (see fast property) but are kept for compatibility->
	<OUTCOME>Long</OUTCOME>
	<OUTCOME>Medium</OUTCOME>
	<OUTCOME>Short</OUTCOME>
</VARIABLE>

<VARIABLE TYPE="nature">
	<NAME>Capital</NAME>
	<PROPERTY>description = </PROPERTY>
	<PROPERTY>fast = Capital{low|medium|high}</PROPERTY>
<!- OUTCOME are not used in pyAgrum BIFXML (see fast property) but are kept for compatibility->
	<OUTCOME>low</OUTCOME>
	<OUTCOME>medium</OUTCOME>
	<OUTCOME>high</OUTCOME>
</VARIABLE>

<VARIABLE TYPE="nature">
	<NAME>LiablePeople</NAME>
	<PROPERTY>description = </PROPERTY>
	<PROPERTY>fast = LiablePeople{1|2}</PROPERTY>
<!- OUTCOME are not used in pyAgrum BIFXML (see fast property) but are kept for compatibility->
	<OUTCOME>1</OUTCOME>
	<OUTCOME>2</OUTCOME>
</VARIABLE>

<VARIABLE TYPE="nature">
	<NAME>CheckingAccount</NAME>
	<PROPERTY>description = </PROPERTY>
	<PROPERTY>fast = CheckingAccount{_0to200|No_Checking|ge200|lt0}</PROPERTY>
<!- OUTCOME are not used in pyAgrum BIFXML (see fast property) but are kept for compatibility->
	<OUTCOME>_0to200</OUTCOME>
	<OUTCOME>No_Checking</OUTCOME>
	<OUTCOME>ge200</OUTCOME>
	<OUTCOME>lt0</OUTCOME>
</VARIABLE>

<VARIABLE TYPE="nature">
	<NAME>PersonalStatusSex</NAME>
	<PROPERTY>description = </PROPERTY>
	<PROPERTY>fast = PersonalStatusSex{female_divorced_separated_married|male_divorced_separated|male_married_widowed|male_single}</PROPERTY>
<!- OUTCOME are not used in pyAgrum BIFXML (see fast property) but are kept for compatibility->
	<OUTCOME>female_divorced_separated_married</OUTCOME>
	<OUTCOME>male_divorced_separated</OUTCOME>
	<OUTCOME>male_married_widowed</OUTCOME>
	<OUTCOME>male_single</OUTCOME>
</VARIABLE>

<VARIABLE TYPE="nature">
	<NAME>Age</NAME>
	<PROPERTY>description = </PROPERTY>
	<PROPERTY>fast = Age{Middle|Old|Young}</PROPERTY>
<!- OUTCOME are not used in pyAgrum BIFXML (see fast property) but are kept for compatibility->
	<OUTCOME>Middle</OUTCOME>
	<OUTCOME>Old</OUTCOME>
	<OUTCOME>Young</OUTCOME>
</VARIABLE>

<VARIABLE TYPE="nature">
	<NAME>Collateral</NAME>
	<PROPERTY>description = </PROPERTY>
	<PROPERTY>fast = Collateral{none|some|good}</PROPERTY>
<!- OUTCOME are not used in pyAgrum BIFXML (see fast property) but are kept for compatibility->
	<OUTCOME>none</OUTCOME>
	<OUTCOME>some</OUTCOME>
	<OUTCOME>good</OUTCOME>
</VARIABLE>

<VARIABLE TYPE="nature">
	<NAME>ForeignWorker</NAME>
	<PROPERTY>description = </PROPERTY>
	<PROPERTY>fast = ForeignWorker{no|yes}</PROPERTY>
<!- OUTCOME are not used in pyAgrum BIFXML (see fast property) but are kept for compatibility->
	<OUTCOME>no</OUTCOME>
	<OUTCOME>yes</OUTCOME>
</VARIABLE>

<VARIABLE TYPE="nature">
	<NAME>Housing</NAME>
	<PROPERTY>description = </PROPERTY>
	<PROPERTY>fast = Housing{for_free|own|rent}</PROPERTY>
<!- OUTCOME are not used in pyAgrum BIFXML (see fast property) but are kept for compatibility->
	<OUTCOME>for_free</OUTCOME>
	<OUTCOME>own</OUTCOME>
	<OUTCOME>rent</OUTCOME>
</VARIABLE>

<VARIABLE TYPE="nature">
	<NAME>OtherDebtors</NAME>
	<PROPERTY>description = </PROPERTY>
	<PROPERTY>fast = OtherDebtors{co_applicant|guarantor|none}</PROPERTY>
<!- OUTCOME are not used in pyAgrum BIFXML (see fast property) but are kept for compatibility->
	<OUTCOME>co_applicant</OUTCOME>
	<OUTCOME>guarantor</OUTCOME>
	<OUTCOME>none</OUTCOME>
</VARIABLE>

<VARIABLE TYPE="nature">
	<NAME>ResidenceSince</NAME>
	<PROPERTY>description = </PROPERTY>
	<PROPERTY>fast = ResidenceSince{1|2|3|4}</PROPERTY>
<!- OUTCOME are not used in pyAgrum BIFXML (see fast property) but are kept for compatibility->
	<OUTCOME>1</OUTCOME>
	<OUTCOME>2</OUTCOME>
	<OUTCOME>3</OUTCOME>
	<OUTCOME>4</OUTCOME>
</VARIABLE>

<VARIABLE TYPE="nature">
	<NAME>ExistingCredits</NAME>
	<PROPERTY>description = </PROPERTY>
	<PROPERTY>fast = ExistingCredits{1|2|3|4}</PROPERTY>
<!- OUTCOME are not used in pyAgrum BIFXML (see fast property) but are kept for compatibility->
	<OUTCOME>1</OUTCOME>
	<OUTCOME>2</OUTCOME>
	<OUTCOME>3</OUTCOME>
	<OUTCOME>4</OUTCOME>
</VARIABLE>

<VARIABLE TYPE="nature">
	<NAME>Character</NAME>
	<PROPERTY>description = </PROPERTY>
	<PROPERTY>fast = Character{bad|good}</PROPERTY>
<!- OUTCOME are not used in pyAgrum BIFXML (see fast property) but are kept for compatibility->
	<OUTCOME>bad</OUTCOME>
	<OUTCOME>good</OUTCOME>
</VARIABLE>

<VARIABLE TYPE="nature">
	<NAME>InstallmentRate</NAME>
	<PROPERTY>description = </PROPERTY>
	<PROPERTY>fast = InstallmentRate{1|2|3|4}</PROPERTY>
<!- OUTCOME are not used in pyAgrum BIFXML (see fast property) but are kept for compatibility->
	<OUTCOME>1</OUTCOME>
	<OUTCOME>2</OUTCOME>
	<OUTCOME>3</OUTCOME>
	<OUTCOME>4</OUTCOME>
</VARIABLE>

<VARIABLE TYPE="decision">
	<NAME>ApproveLoan</NAME>
	<PROPERTY>description = Approve or reject the loan</PROPERTY>
	<PROPERTY>fast = ApproveLoan{Approve|Reject}</PROPERTY>
<!- OUTCOME are not used in pyAgrum BIFXML (see fast property) but are kept for compatibility->
	<OUTCOME>Approve</OUTCOME>
	<OUTCOME>Reject</OUTCOME>
</VARIABLE>

<VARIABLE TYPE="utility">
	<NAME>Utility</NAME>
	<PROPERTY>description = Financial outcome of decision</PROPERTY>
	<PROPERTY>fast = Utility{0}</PROPERTY>
<!- OUTCOME are not used in pyAgrum BIFXML (see fast property) but are kept for compatibility->
	<OUTCOME>0</OUTCOME>
</VARIABLE>

<!-- Probability distributions -->
<DEFINITION>
	<FOR>CreditRisk</FOR><!--CreditRisk | Terms,Character,Collateral,Capacity,Capital,-->
	<GIVEN>Character</GIVEN>
	<GIVEN>Capital</GIVEN>
	<GIVEN>Capacity</GIVEN>
	<GIVEN>Collateral</GIVEN>
	<GIVEN>Terms</GIVEN>
	<TABLE>0.333333 0.666667 0.466667 0.533333 0.4 0.6 0.5 0.5 0.333333 0.666667 0.333333 0.666667 0.333333 0.666667 0.5 0.5 0.333333 0.666667 0.214286 0.785714 0.444444 0.555556 0.272727 0.727273 0.75 0.25 0.666667 0.333333 0.4 0.6 0.333333 0.666667 0.2 0.8 0.333333 0.666667 0.181818 0.818182 0.454545 0.545455 0.263158 0.736842 0.75 0.25 0.4 0.6 0.333333 0.666667 0.333333 0.666667 0.2 0.8 0.5 0.5 0.2 0.8 0.333333 0.666667 0.375 0.625 0.5 0.5 0.5 0.5 0.5 0.5 0.5 0.5 0.5 0.5 0.5 0.5 0.333333 0.666667 0.5 0.5 0.6 0.4 0.5 0.5 0.5 0.5 0.2 0.8 0.5 0.5 0.5 0.5 0.333333 0.666667 0.666667 0.333333 0.6 0.4 0.375 0.625 0.333333 0.666667 0.333333 0.666667 0.5 0.5 0.5 0.5 0.5 0.5 0.5 0.5 0.333333 0.666667 0.666667 0.333333 0.25 0.75 0.5 0.5 0.5 0.5 0.5 0.5 0.5 0.5 0.333333 0.666667 0.5 0.5 0.2 0.8 0.333333 0.666667 0.333333 0.666667 0.666667 0.333333 0.5 0.5 0.333333 0.666667 0.5 0.5 0.5 0.5 0.333333 0.666667 0.5 0.5 0.25 0.75 0.2 0.8 0.333333 0.666667 0.333333 0.666667 0.333333 0.666667 0.5 0.5 0.5 0.5 0.5 0.5 0.304348 0.695652 0.311111 0.688889 0.264151 0.735849 0.428571 0.571429 0.3 0.7 0.277778 0.722222 0.25 0.75 0.444444 0.555556 0.428571 0.571429 0.178571 0.821429 0.293103 0.706897 0.311688 0.688312 0.363636 0.636364 0.533333 0.466667 0.318182 0.681818 0.4 0.6 0.428571 0.571429 0.3 0.7 0.296296 0.703704 0.285714 0.714286 0.351852 0.648148 0.5 0.5 0.266667 0.733333 0.461538 0.538462 0.285714 0.714286 0.571429 0.428571 0.4 0.6 0.428571 0.571429 0.416667 0.583333 0.272727 0.727273 0.5 0.5 0.666667 0.333333 0.666667 0.333333 0.333333 0.666667 0.166667 0.833333 0.5 0.5 0.333333 0.666667 0.285714 0.714286 0.181818 0.818182 0.25 0.75 0.4 0.6 0.625 0.375 0.333333 0.666667 0.4 0.6 0.333333 0.666667 0.222222 0.777778 0.181818 0.818182 0.352941 0.647059 0.2 0.8 0.444444 0.555556 0.5 0.5 0.666667 0.333333 0.4 0.6 0.666667 0.333333 0.4 0.6 0.4 0.6 0.333333 0.666667 0.75 0.25 0.5 0.5 0.5 0.5 0.5 0.5 0.4 0.6 0.5 0.5 0.571429 0.428571 0.3 0.7 0.3 0.7 0.5 0.5 0.25 0.75 0.5 0.5 0.333333 0.666667 0.333333 0.666667 0.333333 0.666667 0.2 0.8 0.272727 0.727273 0.2 0.8 0.5 0.5 0.25 0.75 0.6 0.4 0.5 0.5 0.333333 0.666667 0.333333 0.666667 </TABLE>
</DEFINITION>
<DEFINITION>
	<FOR>Purpose</FOR><!--Purpose | -->
	<TABLE>0.0970297 0.232673 0.10297 0.0128713 0.050495 0.180198 0.0128713 0.278218 0.0227723 0.00990099 </TABLE>
</DEFINITION>
<DEFINITION>
	<FOR>Capacity</FOR><!--Capacity | OtherDebtors,LiablePeople,Income,ExistingCredits,-->
	<GIVEN>ExistingCredits</GIVEN>
	<GIVEN>Income</GIVEN>
	<GIVEN>LiablePeople</GIVEN>
	<GIVEN>OtherDebtors</GIVEN>
	<TABLE>0.2 0.4 0.4 0.166667 0.166667 0.666667 0.285714 0.387755 0.326531 0.333333 0.333333 0.333333 0.333333 0.333333 0.333333 0.166667 0.416667 0.416667 0.111111 0.666667 0.222222 0.363636 0.272727 0.363636 0.289474 0.453947 0.256579 0.333333 0.333333 0.333333 0.666667 0.166667 0.166667 0.238095 0.52381 0.238095 0.470588 0.235294 0.294118 0.333333 0.333333 0.333333 0.322581 0.354839 0.322581 0.166667 0.333333 0.5 0.333333 0.222222 0.444444 0.319149 0.297872 0.382979 0.166667 0.333333 0.5 0.285714 0.428571 0.285714 0.291667 0.416667 0.291667 0.333333 0.333333 0.333333 0.333333 0.333333 0.333333 0.363636 0.272727 0.363636 0.285714 0.571429 0.142857 0.166667 0.5 0.333333 0.280488 0.414634 0.304878 0.25 0.5 0.25 0.5 0.25 0.25 0.25 0.25 0.5 0.272727 0.545455 0.181818 0.2 0.5 0.3 0.319728 0.401361 0.278912 0.333333 0.333333 0.333333 0.25 0.25 0.5 0.307692 0.435897 0.25641 0.333333 0.333333 0.333333 0.333333 0.333333 0.333333 0.2 0.6 0.2 0.333333 0.333333 0.333333 0.333333 0.333333 0.333333 0.25 0.5 0.25 0.333333 0.333333 0.333333 0.333333 0.333333 0.333333 0.222222 0.333333 0.444444 0.333333 0.333333 0.333333 0.333333 0.333333 0.333333 0.333333 0.166667 0.5 0.333333 0.333333 0.333333 0.5 0.25 0.25 0.25 0.333333 0.416667 0.333333 0.333333 0.333333 0.333333 0.333333 0.333333 0.111111 0.444444 0.444444 0.333333 0.333333 0.333333 0.333333 0.333333 0.333333 0.25 0.25 0.5 0.333333 0.333333 0.333333 0.333333 0.333333 0.333333 0.25 0.25 0.5 0.333333 0.333333 0.333333 0.333333 0.333333 0.333333 0.4 0.2 0.4 0.333333 0.333333 0.333333 0.333333 0.333333 0.333333 0.333333 0.333333 0.333333 0.333333 0.333333 0.333333 0.333333 0.333333 0.333333 0.5 0.25 0.25 0.333333 0.333333 0.333333 0.333333 0.333333 0.333333 0.25 0.5 0.25 </TABLE>
</DEFINITION>
<DEFINITION>
	<FOR>Terms</FOR><!--Terms | CreditAmount,Duration,InstallmentRate,-->
	<GIVEN>InstallmentRate</GIVEN>
	<GIVEN>CreditAmount</GIVEN>
	<GIVEN>Duration</GIVEN>
	<TABLE>0.333333 0.333333 0.333333 0.333333 0.5 0.166667 0.2 0.6 0.2 0.333333 0.333333 0.333333 0.2 0.6 0.2 0.168317 0.386139 0.445545 0.5 0.25 0.25 0.375 0.1875 0.4375 0.133333 0.4 0.466667 0.4 0.2 0.4 0.166667 0.166667 0.666667 0.333333 0.333333 0.333333 0.25 0.5 0.25 0.275862 0.241379 0.482759 0.205128 0.371795 0.423077 0.285714 0.285714 0.428571 0.206897 0.241379 0.551724 0.105263 0.368421 0.526316 0.2 0.2 0.6 0.333333 0.333333 0.333333 0.25 0.5 0.25 0.333333 0.333333 0.333333 0.190476 0.47619 0.333333 0.225806 0.387097 0.387097 0.25 0.25 0.5 0.142857 0.214286 0.642857 0.333333 0.5 0.166667 0.25 0.25 0.5 0.5 0.333333 0.166667 0.4 0.4 0.2 0.5 0.25 0.25 0.117647 0.376471 0.505882 0.213296 0.34072 0.445983 0.333333 0.166667 0.5 0.333333 0.208333 0.458333 0.125 0.625 0.25 </TABLE>
</DEFINITION>
<DEFINITION>
	<FOR>Property</FOR><!--Property | -->
	<TABLE>0.232072 0.331673 0.281873 0.154382 </TABLE>
</DEFINITION>
<DEFINITION>
	<FOR>SavingsAccount</FOR><!--SavingsAccount | Income,-->
	<GIVEN>Income</GIVEN>
	<TABLE>0.0754717 0.0566038 0.0471698 0.650943 0.169811 0.106312 0.0830565 0.0498339 0.531561 0.229236 0.108553 0.0575658 0.0509868 0.620066 0.162829 </TABLE>
</DEFINITION>
<DEFINITION>
	<FOR>Job</FOR><!--Job | ForeignWorker,Age,-->
	<GIVEN>Age</GIVEN>
	<GIVEN>ForeignWorker</GIVEN>
	<TABLE>0.125 0.3125 0.0625 0.5 0.186567 0.559701 0.0223881 0.231343 0.2 0.2 0.4 0.2 0.225352 0.43662 0.0704225 0.267606 0.0714286 0.571429 0.0714286 0.285714 0.130503 0.680818 0.0188679 0.169811 </TABLE>
</DEFINITION>
<DEFINITION>
	<FOR>OtherInstallmentPlans</FOR><!--OtherInstallmentPlans | -->
	<TABLE>0.139581 0.812562 0.0478564 </TABLE>
</DEFINITION>
<DEFINITION>
	<FOR>CreditHistory</FOR><!--CreditHistory | OtherInstallmentPlans,ExistingCredits,-->
	<GIVEN>ExistingCredits</GIVEN>
	<GIVEN>OtherInstallmentPlans</GIVEN>
	<TABLE>0.238636 0.113636 0.0454545 0.545455 0.0568182 0.0265655 0.11575 0.0493359 0.789374 0.0189753 0.272727 0.0606061 0.121212 0.515152 0.030303 0.0943396 0.396226 0.188679 0.207547 0.113208 0.018315 0.630037 0.150183 0.131868 0.0695971 0.0454545 0.363636 0.363636 0.0909091 0.136364 0.0833333 0.416667 0.0833333 0.25 0.166667 0.04 0.76 0.04 0.08 0.08 0.166667 0.166667 0.166667 0.333333 0.166667 0.166667 0.166667 0.166667 0.333333 0.166667 0.111111 0.333333 0.222222 0.222222 0.111111 0.166667 0.333333 0.166667 0.166667 0.166667 </TABLE>
</DEFINITION>
<DEFINITION>
	<FOR>EmploymentSince</FOR><!--EmploymentSince | Age,-->
	<GIVEN>Age</GIVEN>
	<TABLE>0.252669 0.13879 0.44484 0.0960854 0.0676157 0.191781 0.0958904 0.520548 0.0273973 0.164384 0.388805 0.198185 0.140696 0.220877 0.0514372 </TABLE>
</DEFINITION>
<DEFINITION>
	<FOR>Income</FOR><!--Income | EmploymentSince,Job,-->
	<GIVEN>Job</GIVEN>
	<GIVEN>EmploymentSince</GIVEN>
	<TABLE>0.129032 0.290323 0.580645 0.166667 0.25 0.583333 0.0754717 0.245283 0.679245 0.157895 0.421053 0.421053 0.222222 0.222222 0.555556 0.128755 0.270386 0.600858 0.0901639 0.303279 0.606557 0.0848485 0.339394 0.575758 0.118182 0.327273 0.554545 0.2 0.466667 0.333333 0.25 0.25 0.5 0.333333 0.333333 0.333333 0.333333 0.333333 0.333333 0.125 0.25 0.625 0.157895 0.315789 0.526316 0.0963855 0.289157 0.614458 0.0810811 0.297297 0.621622 0.0909091 0.25 0.659091 0.0851064 0.319149 0.595745 0.25 0.25 0.5 </TABLE>
</DEFINITION>
<DEFINITION>
	<FOR>CreditAmount</FOR><!--CreditAmount | -->
	<TABLE>0.0199402 0.86341 0.11665 </TABLE>
</DEFINITION>
<DEFINITION>
	<FOR>Duration</FOR><!--Duration | -->
	<TABLE>0.0169492 0.21336 0.769691 </TABLE>
</DEFINITION>
<DEFINITION>
	<FOR>Capital</FOR><!--Capital | CheckingAccount,Housing,SavingsAccount,-->
	<GIVEN>Housing</GIVEN>
	<GIVEN>SavingsAccount</GIVEN>
	<GIVEN>CheckingAccount</GIVEN>
	<TABLE>0.25 0.5 0.25 0.6 0.3 0.1 0.6 0.2 0.2 0.333333 0.333333 0.333333 0.571429 0.285714 0.142857 0.333333 0.333333 0.333333 0.25 0.5 0.25 0.5 0.25 0.25 0.25 0.25 0.5 0.5 0.25 0.25 0.333333 0.333333 0.333333 0.333333 0.333333 0.333333 0.588235 0.294118 0.117647 0.647059 0.176471 0.176471 0.428571 0.428571 0.142857 0.710526 0.236842 0.0526316 0.466667 0.266667 0.266667 0.4 0.3 0.3 0.5 0.25 0.25 0.333333 0.5 0.166667 0.69697 0.212121 0.0909091 0.7 0.233333 0.0666667 0.5 0.333333 0.166667 0.5 0.285714 0.214286 0.65625 0.28125 0.0625 0.636364 0.181818 0.181818 0.333333 0.333333 0.333333 0.75 0.125 0.125 0.458333 0.333333 0.208333 0.692308 0.230769 0.0769231 0.4 0.4 0.2 0.428571 0.428571 0.142857 0.694268 0.165605 0.140127 0.775862 0.163793 0.0603448 0.588235 0.294118 0.117647 0.725926 0.222222 0.0518519 0.657534 0.246575 0.0958904 0.621622 0.243243 0.135135 0.545455 0.0909091 0.363636 0.666667 0.142857 0.190476 0.636364 0.181818 0.181818 0.6875 0.1875 0.125 0.333333 0.333333 0.333333 0.5 0.25 0.25 0.5 0.2 0.3 0.5 0.333333 0.166667 0.333333 0.333333 0.333333 0.6 0.2 0.2 0.666667 0.166667 0.166667 0.666667 0.166667 0.166667 0.25 0.5 0.25 0.4 0.2 0.4 0.5 0.384615 0.115385 0.571429 0.25 0.178571 0.666667 0.111111 0.222222 0.672727 0.181818 0.145455 0.55 0.25 0.2 0.571429 0.142857 0.285714 0.5 0.25 0.25 0.636364 0.272727 0.0909091 </TABLE>
</DEFINITION>
<DEFINITION>
	<FOR>LiablePeople</FOR><!--LiablePeople | PersonalStatusSex,-->
	<GIVEN>PersonalStatusSex</GIVEN>
	<TABLE>0.951923 0.0480769 0.923077 0.0769231 0.968085 0.0319149 0.750909 0.249091 </TABLE>
</DEFINITION>
<DEFINITION>
	<FOR>CheckingAccount</FOR><!--CheckingAccount | Income,-->
	<GIVEN>Income</GIVEN>
	<TABLE>0.409524 0.27619 0.0666667 0.247619 0.396667 0.29 0.0433333 0.27 0.38715 0.257002 0.0757825 0.280066 </TABLE>
</DEFINITION>
<DEFINITION>
	<FOR>PersonalStatusSex</FOR><!--PersonalStatusSex | Age,-->
	<GIVEN>Age</GIVEN>
	<TABLE>0.2 0.0678571 0.0642857 0.667857 0.319444 0.0694444 0.0277778 0.583333 0.354545 0.0439394 0.113636 0.487879 </TABLE>
</DEFINITION>
<DEFINITION>
	<FOR>Age</FOR><!--Age | -->
	<TABLE>0.276171 0.0687936 0.655035 </TABLE>
</DEFINITION>
<DEFINITION>
	<FOR>Collateral</FOR><!--Collateral | Property,Housing,-->
	<GIVEN>Housing</GIVEN>
	<GIVEN>Property</GIVEN>
	<TABLE>0.4 0.2 0.4 0.5 0.25 0.25 0.5 0.25 0.25 0.719626 0.214953 0.0654206 0.743316 0.176471 0.0802139 0.678832 0.20438 0.116788 0.720524 0.183406 0.0960699 0.571429 0.285714 0.142857 0.714286 0.163265 0.122449 0.619048 0.206349 0.174603 0.758621 0.137931 0.103448 0.619048 0.190476 0.190476 </TABLE>
</DEFINITION>
<DEFINITION>
	<FOR>ForeignWorker</FOR><!--ForeignWorker | -->
	<TABLE>0.0379242 0.962076 </TABLE>
</DEFINITION>
<DEFINITION>
	<FOR>Housing</FOR><!--Housing | -->
	<TABLE>0.108674 0.711864 0.179462 </TABLE>
</DEFINITION>
<DEFINITION>
	<FOR>OtherDebtors</FOR><!--OtherDebtors | Age,-->
	<GIVEN>Age</GIVEN>
	<TABLE>0.046595 0.0501792 0.903226 0.0422535 0.056338 0.901408 0.0424886 0.0561457 0.901366 </TABLE>
</DEFINITION>
<DEFINITION>
	<FOR>ResidenceSince</FOR><!--ResidenceSince | Age,Housing,-->
	<GIVEN>Housing</GIVEN>
	<GIVEN>Age</GIVEN>
	<TABLE>0.0377358 0.113208 0.0566038 0.792453 0.0454545 0.0909091 0.0909091 0.772727 0.111111 0.177778 0.0888889 0.622222 0.1133 0.226601 0.172414 0.487685 0.0434783 0.0652174 0.195652 0.695652 0.193277 0.439076 0.165966 0.201681 0.09375 0.3125 0.125 0.46875 0.0833333 0.166667 0.166667 0.583333 0.0680272 0.210884 0.136054 0.585034 </TABLE>
</DEFINITION>
<DEFINITION>
	<FOR>ExistingCredits</FOR><!--ExistingCredits | -->
	<TABLE>0.631474 0.332669 0.0288845 0.00697211 </TABLE>
</DEFINITION>
<DEFINITION>
	<FOR>Character</FOR><!--Character | CreditHistory,EmploymentSince,Purpose,ResidenceSince,OtherInstallmentPlans,-->
	<GIVEN>ResidenceSince</GIVEN>
	<GIVEN>Purpose</GIVEN>
	<GIVEN>CreditHistory</GIVEN>
	<GIVEN>EmploymentSince</GIVEN>
	<GIVEN>OtherInstallmentPlans</GIVEN>
	<TABLE>0.5 0.5 0.5 0.5 0.333333 0.666667 0.5 0.5 0.5 0.5 0.5 0.5 0.5 0.5 0.5 0.5 0.5 0.5 0.5 0.5 0.333333 0.666667 0.5 0.5 0.5 0.5 0.5 0.5 0.5 0.5 0.5 0.5 0.5 0.5 0.5 0.5 0.333333 0.666667 0.666667 0.333333 0.5 0.5 0.5 0.5 0.5 0.5 0.5 0.5 0.666667 0.333333 0.5 0.5 0.5 0.5 0.5 0.5 0.5 0.5 0.5 0.5 0.5 0.5 0.5 0.5 0.5 0.5 0.5 0.5 0.666667 0.333333 0.5 0.5 0.5 0.5 0.5 0.5 0.5 0.5 0.5 0.5 0.333333 0.666667 0.5 0.5 0.5 0.5 0.5 0.5 0.5 0.5 0.333333 0.666667 0.5 0.5 0.5 0.5 0.5 0.5 0.333333 0.666667 0.333333 0.666667 0.333333 0.666667 0.5 0.5 0.5 0.5 0.5 0.5 0.333333 0.666667 0.5 0.5 0.5 0.5 0.5 0.5 0.5 0.5 0.5 0.5 0.666667 0.333333 0.5 0.5 0.666667 0.333333 0.5 0.5 0.5 0.5 0.5 0.5 0.5 0.5 0.5 0.5 0.5 0.5 0.333333 0.666667 0.5 0.5 0.5 0.5 0.5 0.5 0.5 0.5 0.5 0.5 0.5 0.5 0.5 0.5 0.5 0.5 0.5 0.5 0.5 0.5 0.5 0.5 0.5 0.5 0.5 0.5 0.5 0.5 0.5 0.5 0.333333 0.666667 0.5 0.5 0.5 0.5 0.5 0.5 0.5 0.5 0.5 0.5 0.5 0.5 0.5 0.5 0.25 0.75 0.5 0.5 0.5 0.5 0.666667 0.333333 0.5 0.5 0.5 0.5 0.5 0.5 0.5 0.5 0.5 0.5 0.5 0.5 0.5 0.5 0.5 0.5 0.5 0.5 0.5 0.5 0.5 0.5 0.5 0.5 0.5 0.5 0.5 0.5 0.5 0.5 0.5 0.5 0.5 0.5 0.5 0.5 0.5 0.5 0.5 0.5 0.5 0.5 0.5 0.5 0.333333 0.666667 0.333333 0.666667 0.5 0.5 0.5 0.5 0.333333 0.666667 0.5 0.5 0.5 0.5 0.5 0.5 0.5 0.5 0.5 0.5 0.272727 0.727273 0.5 0.5 0.5 0.5 0.5 0.5 0.5 0.5 0.666667 0.333333 0.5 0.5 0.5 0.5 0.5 0.5 0.5 0.5 0.5 0.5 0.5 0.5 0.5 0.5 0.5 0.5 0.5 0.5 0.25 0.75 0.5 0.5 0.5 0.5 0.5 0.5 0.5 0.5 0.5 0.5 0.5 0.5 0.5 0.5 0.5 0.5 0.5 0.5 0.5 0.5 0.5 0.5 0.5 0.5 0.5 0.5 0.5 0.5 0.5 0.5 0.5 0.5 0.333333 0.666667 0.5 0.5 0.5 0.5 0.5 0.5 0.5 0.5 0.5 0.5 0.5 0.5 0.5 0.5 0.5 0.5 0.5 0.5 0.5 0.5 0.5 0.5 0.5 0.5 0.5 0.5 0.5 0.5 0.5 0.5 0.5 0.5 0.5 0.5 0.5 0.5 0.5 0.5 0.5 0.5 0.5 0.5 0.5 0.5 0.5 0.5 0.5 0.5 0.5 0.5 0.5 0.5 0.5 0.5 0.5 0.5 0.5 0.5 0.5 0.5 0.5 0.5 0.5 0.5 0.5 0.5 0.333333 0.666667 0.5 0.5 0.5 0.5 0.333333 0.666667 0.5 0.5 0.5 0.5 0.5 0.5 0.5 0.5 0.5 0.5 0.666667 0.333333 0.5 0.5 0.5 0.5 0.5 0.5 0.5 0.5 0.5 0.5 0.5 0.5 0.5 0.5 0.5 0.5 0.5 0.5 0.5 0.5 0.5 0.5 0.5 0.5 0.5 0.5 0.5 0.5 0.5 0.5 0.5 0.5 0.5 0.5 0.5 0.5 0.5 0.5 0.5 0.5 0.5 0.5 0.5 0.5 0.5 0.5 0.5 0.5 0.5 0.5 0.5 0.5 0.5 0.5 0.5 0.5 0.5 0.5 0.5 0.5 0.5 0.5 0.5 0.5 0.5 0.5 0.5 0.5 0.5 0.5 0.5 0.5 0.5 0.5 0.5 0.5 0.5 0.5 0.5 0.5 0.5 0.5 0.5 0.5 0.5 0.5 0.5 0.5 0.5 0.5 0.5 0.5 0.5 0.5 0.5 0.5 0.5 0.5 0.5 0.5 0.5 0.5 0.5 0.5 0.5 0.5 0.5 0.5 0.5 0.5 0.5 0.5 0.5 0.5 0.5 0.5 0.5 0.5 0.5 0.5 0.5 0.5 0.5 0.5 0.5 0.5 0.5 0.5 0.5 0.5 0.5 0.5 0.5 0.5 0.5 0.5 0.5 0.5 0.5 0.5 0.5 0.5 0.5 0.5 0.5 0.5 0.5 0.5 0.25 0.75 0.5 0.5 0.5 0.5 0.5 0.5 0.5 0.5 0.5 0.5 0.5 0.5 0.5 0.5 0.5 0.5 0.5 0.5 0.5 0.5 0.5 0.5 0.5 0.5 0.5 0.5 0.5 0.5 0.5 0.5 0.5 0.5 0.5 0.5 0.5 0.5 0.5 0.5 0.5 0.5 0.5 0.5 0.5 0.5 0.5 0.5 0.5 0.5 0.5 0.5 0.5 0.5 0.5 0.5 0.5 0.5 0.5 0.5 0.5 0.5 0.5 0.5 0.5 0.5 0.5 0.5 0.5 0.5 0.5 0.5 0.5 0.5 0.5 0.5 0.5 0.5 0.5 0.5 0.5 0.5 0.5 0.5 0.5 0.5 0.5 0.5 0.5 0.5 0.25 0.75 0.5 0.5 0.5 0.5 0.5 0.5 0.5 0.5 0.5 0.5 0.5 0.5 0.5 0.5 0.5 0.5 0.5 0.5 0.5 0.5 0.5 0.5 0.5 0.5 0.5 0.5 0.5 0.5 0.333333 0.666667 0.5 0.5 0.5 0.5 0.5 0.5 0.5 0.5 0.5 0.5 0.5 0.5 0.5 0.5 0.5 0.5 0.5 0.5 0.5 0.5 0.5 0.5 0.5 0.5 0.5 0.5 0.5 0.5 0.5 0.5 0.5 0.5 0.5 0.5 0.333333 0.666667 0.5 0.5 0.5 0.5 0.5 0.5 0.5 0.5 0.5 0.5 0.5 0.5 0.5 0.5 0.5 0.5 0.5 0.5 0.5 0.5 0.5 0.5 0.5 0.5 0.5 0.5 0.5 0.5 0.5 0.5 0.5 0.5 0.5 0.5 0.5 0.5 0.5 0.5 0.5 0.5 0.5 0.5 0.5 0.5 0.5 0.5 0.5 0.5 0.5 0.5 0.666667 0.333333 0.5 0.5 0.5 0.5 0.5 0.5 0.5 0.5 0.5 0.5 0.5 0.5 0.333333 0.666667 0.5 0.5 0.5 0.5 0.5 0.5 0.5 0.5 0.5 0.5 0.333333 0.666667 0.5 0.5 0.5 0.5 0.666667 0.333333 0.5 0.5 0.5 0.5 0.5 0.5 0.5 0.5 0.5 0.5 0.5 0.5 0.5 0.5 0.5 0.5 0.333333 0.666667 0.5 0.5 0.5 0.5 0.5 0.5 0.5 0.5 0.5 0.5 0.5 0.5 0.5 0.5 0.5 0.5 0.5 0.5 0.333333 0.666667 0.5 0.5 0.285714 0.714286 0.333333 0.666667 0.5 0.5 0.666667 0.333333 0.5 0.5 0.333333 0.666667 0.5 0.5 0.5 0.5 0.75 0.25 0.2 0.8 0.666667 0.333333 0.5 0.5 0.25 0.75 0.5 0.5 0.5 0.5 0.5 0.5 0.5 0.5 0.5 0.5 0.5 0.5 0.5 0.5 0.5 0.5 0.5 0.5 0.5 0.5 0.5 0.5 0.5 0.5 0.5 0.5 0.5 0.5 0.5 0.5 0.5 0.5 0.5 0.5 0.5 0.5 0.5 0.5 0.5 0.5 0.5 0.5 0.5 0.5 0.5 0.5 0.5 0.5 0.5 0.5 0.5 0.5 0.5 0.5 0.5 0.5 0.5 0.5 0.5 0.5 0.5 0.5 0.5 0.5 0.5 0.5 0.5 0.5 0.5 0.5 0.5 0.5 0.5 0.5 0.5 0.5 0.5 0.5 0.5 0.5 0.5 0.5 0.5 0.5 0.5 0.5 0.5 0.5 0.5 0.5 0.5 0.5 0.5 0.5 0.5 0.5 0.5 0.5 0.5 0.5 0.5 0.5 0.5 0.5 0.5 0.5 0.5 0.5 0.5 0.5 0.5 0.5 0.5 0.5 0.5 0.5 0.5 0.5 0.5 0.5 0.5 0.5 0.5 0.5 0.5 0.5 0.5 0.5 0.5 0.5 0.5 0.5 0.5 0.5 0.5 0.5 0.5 0.5 0.5 0.5 0.5 0.5 0.5 0.5 0.5 0.5 0.5 0.5 0.5 0.5 0.5 0.5 0.5 0.5 0.5 0.5 0.5 0.5 0.5 0.5 0.5 0.5 0.5 0.5 0.5 0.5 0.5 0.5 0.5 0.5 0.5 0.5 0.5 0.5 0.5 0.5 0.5 0.5 0.5 0.5 0.5 0.5 0.5 0.5 0.333333 0.666667 0.5 0.5 0.5 0.5 0.5 0.5 0.5 0.5 0.5 0.5 0.5 0.5 0.5 0.5 0.5 0.5 0.5 0.5 0.5 0.5 0.5 0.5 0.5 0.5 0.5 0.5 0.5 0.5 0.571429 0.428571 0.5 0.5 0.5 0.5 0.4 0.6 0.5 0.5 0.5 0.5 0.333333 0.666667 0.5 0.5 0.5 0.5 0.5 0.5 0.5 0.5 0.5 0.5 0.5 0.5 0.5 0.5 0.5 0.5 0.333333 0.666667 0.5 0.5 0.5 0.5 0.333333 0.666667 0.5 0.5 0.5 0.5 0.5 0.5 0.5 0.5 0.333333 0.666667 0.5 0.5 0.5 0.5 0.5 0.5 0.5 0.5 0.5 0.5 0.333333 0.666667 0.222222 0.777778 0.5 0.5 0.333333 0.666667 0.333333 0.666667 0.5 0.5 0.5 0.5 0.25 0.75 0.5 0.5 0.333333 0.666667 0.363636 0.636364 0.25 0.75 0.5 0.5 0.333333 0.666667 0.5 0.5 0.5 0.5 0.333333 0.666667 0.5 0.5 0.5 0.5 0.5 0.5 0.5 0.5 0.5 0.5 0.5 0.5 0.5 0.5 0.5 0.5 0.5 0.5 0.5 0.5 0.5 0.5 0.5 0.5 0.5 0.5 0.5 0.5 0.5 0.5 0.5 0.5 0.5 0.5 0.5 0.5 0.5 0.5 0.5 0.5 0.5 0.5 0.5 0.5 0.5 0.5 0.5 0.5 0.5 0.5 0.5 0.5 0.5 0.5 0.5 0.5 0.5 0.5 0.5 0.5 0.5 0.5 0.5 0.5 0.5 0.5 0.5 0.5 0.5 0.5 0.5 0.5 0.5 0.5 0.5 0.5 0.5 0.5 0.5 0.5 0.5 0.5 0.5 0.5 0.5 0.5 0.5 0.5 0.5 0.5 0.5 0.5 0.5 0.5 0.5 0.5 0.5 0.5 0.5 0.5 0.5 0.5 0.5 0.5 0.5 0.5 0.5 0.5 0.5 0.5 0.5 0.5 0.5 0.5 0.5 0.5 0.5 0.5 0.5 0.5 0.5 0.5 0.5 0.5 0.5 0.5 0.5 0.5 0.5 0.5 0.5 0.5 0.5 0.5 0.5 0.5 0.2 0.8 0.5 0.5 0.5 0.5 0.5 0.5 0.5 0.5 0.5 0.5 0.5 0.5 0.5 0.5 0.5 0.5 0.5 0.5 0.5 0.5 0.5 0.5 0.5 0.5 0.5 0.5 0.5 0.5 0.5 0.5 0.5 0.5 0.5 0.5 0.5 0.5 0.5 0.5 0.5 0.5 0.5 0.5 0.5 0.5 0.5 0.5 0.5 0.5 0.5 0.5 0.333333 0.666667 0.5 0.5 0.5 0.5 0.5 0.5 0.5 0.5 0.5 0.5 0.5 0.5 0.5 0.5 0.5 0.5 0.5 0.5 0.5 0.5 0.5 0.5 0.5 0.5 0.5 0.5 0.5 0.5 0.5 0.5 0.5 0.5 0.5 0.5 0.5 0.5 0.5 0.5 0.5 0.5 0.5 0.5 0.5 0.5 0.5 0.5 0.5 0.5 0.5 0.5 0.5 0.5 0.5 0.5 0.5 0.5 0.5 0.5 0.5 0.5 0.5 0.5 0.5 0.5 0.5 0.5 0.5 0.5 0.5 0.5 0.5 0.5 0.5 0.5 0.5 0.5 0.5 0.5 0.5 0.5 0.5 0.5 0.5 0.5 0.5 0.5 0.5 0.5 0.5 0.5 0.5 0.5 0.5 0.5 0.5 0.5 0.5 0.5 0.5 0.5 0.5 0.5 0.5 0.5 0.5 0.5 0.5 0.5 0.5 0.5 0.5 0.5 0.5 0.5 0.5 0.5 0.5 0.5 0.5 0.5 0.5 0.5 0.5 0.5 0.5 0.5 0.5 0.5 0.5 0.5 0.5 0.5 0.5 0.5 0.5 0.5 0.5 0.5 0.666667 0.333333 0.5 0.5 0.5 0.5 0.333333 0.666667 0.5 0.5 0.5 0.5 0.5 0.5 0.5 0.5 0.5 0.5 0.5 0.5 0.5 0.5 0.5 0.5 0.5 0.5 0.5 0.5 0.5 0.5 0.4 0.6 0.5 0.5 0.5 0.5 0.5 0.5 0.5 0.5 0.333333 0.666667 0.5 0.5 0.5 0.5 0.5 0.5 0.5 0.5 0.5 0.5 0.5 0.5 0.5 0.5 0.333333 0.666667 0.333333 0.666667 0.125 0.875 0.333333 0.666667 0.5 0.5 0.5 0.5 0.5 0.5 0.333333 0.666667 0.666667 0.333333 0.333333 0.666667 0.25 0.75 0.5 0.5 0.5 0.5 0.5 0.5 0.5 0.5 0.5 0.5 0.666667 0.333333 0.166667 0.833333 0.666667 0.333333 0.5 0.5 0.5 0.5 0.5 0.5 0.333333 0.666667 0.4 0.6 0.5 0.5 0.5 0.5 0.666667 0.333333 0.5 0.5 0.333333 0.666667 0.5 0.5 0.5 0.5 0.333333 0.666667 0.333333 0.666667 0.666667 0.333333 0.5 0.5 0.5 0.5 0.5 0.5 0.5 0.5 0.5 0.5 0.5 0.5 0.5 0.5 0.5 0.5 0.5 0.5 0.5 0.5 0.5 0.5 0.5 0.5 0.5 0.5 0.5 0.5 0.666667 0.333333 0.5 0.5 0.5 0.5 0.5 0.5 0.5 0.5 0.5 0.5 0.5 0.5 0.333333 0.666667 0.5 0.5 0.5 0.5 0.5 0.5 0.666667 0.333333 0.5 0.5 0.333333 0.666667 0.333333 0.666667 0.666667 0.333333 0.25 0.75 0.333333 0.666667 0.5 0.5 0.5 0.5 0.5 0.5 0.5 0.5 0.5 0.5 0.333333 0.666667 0.5 0.5 0.5 0.5 0.4 0.6 0.5 0.5 0.5 0.5 0.2 0.8 0.333333 0.666667 0.5 0.5 0.5 0.5 0.5 0.5 0.5 0.5 0.333333 0.666667 0.5 0.5 0.5 0.5 0.5 0.5 0.5 0.5 0.5 0.5 0.333333 0.666667 0.5 0.5 0.333333 0.666667 0.3 0.7 0.5 0.5 0.333333 0.666667 0.375 0.625 0.5 0.5 0.333333 0.666667 0.666667 0.333333 0.5 0.5 0.333333 0.666667 0.222222 0.777778 0.333333 0.666667 0.5 0.5 0.5 0.5 0.5 0.5 0.5 0.5 0.5 0.5 0.5 0.5 0.5 0.5 0.5 0.5 0.5 0.5 0.5 0.5 0.5 0.5 0.5 0.5 0.5 0.5 0.5 0.5 0.5 0.5 0.5 0.5 0.5 0.5 0.5 0.5 0.5 0.5 0.5 0.5 0.5 0.5 0.5 0.5 0.5 0.5 0.5 0.5 0.5 0.5 0.5 0.5 0.5 0.5 0.5 0.5 0.5 0.5 0.5 0.5 0.333333 0.666667 0.5 0.5 0.5 0.5 0.5 0.5 0.2 0.8 0.5 0.5 0.5 0.5 0.666667 0.333333 0.5 0.5 0.5 0.5 0.2 0.8 0.5 0.5 0.5 0.5 0.5 0.5 0.5 0.5 0.5 0.5 0.333333 0.666667 0.5 0.5 0.5 0.5 0.333333 0.666667 0.333333 0.666667 0.5 0.5 0.5 0.5 0.666667 0.333333 0.5 0.5 0.333333 0.666667 0.5 0.5 0.5 0.5 0.333333 0.666667 0.5 0.5 0.5 0.5 0.5 0.5 0.5 0.5 0.333333 0.666667 0.125 0.875 0.5 0.5 0.5 0.5 0.5 0.5 0.5 0.5 0.5 0.5 0.25 0.75 0.5 0.5 0.5 0.5 0.5 0.5 0.5 0.5 0.5 0.5 0.25 0.75 0.5 0.5 0.5 0.5 0.333333 0.666667 0.5 0.5 0.5 0.5 0.5 0.5 0.5 0.5 0.5 0.5 0.5 0.5 0.5 0.5 0.5 0.5 0.5 0.5 0.5 0.5 0.5 0.5 0.5 0.5 0.5 0.5 0.5 0.5 0.5 0.5 0.5 0.5 0.5 0.5 0.5 0.5 0.5 0.5 0.5 0.5 0.5 0.5 0.5 0.5 0.666667 0.333333 0.5 0.5 0.5 0.5 0.5 0.5 0.5 0.5 0.5 0.5 0.5 0.5 0.5 0.5 0.5 0.5 0.5 0.5 0.5 0.5 0.5 0.5 0.5 0.5 0.5 0.5 0.5 0.5 0.5 0.5 0.5 0.5 0.5 0.5 0.5 0.5 0.5 0.5 0.5 0.5 0.5 0.5 0.5 0.5 0.5 0.5 0.5 0.5 0.5 0.5 0.5 0.5 0.5 0.5 0.5 0.5 0.5 0.5 0.5 0.5 0.5 0.5 0.5 0.5 0.5 0.5 0.5 0.5 0.5 0.5 0.5 0.5 0.25 0.75 0.5 0.5 0.5 0.5 0.5 0.5 0.5 0.5 0.5 0.5 0.5 0.5 0.5 0.5 0.5 0.5 0.5 0.5 0.5 0.5 0.5 0.5 0.5 0.5 0.5 0.5 0.5 0.5 0.5 0.5 0.5 0.5 0.5 0.5 0.5 0.5 0.5 0.5 0.5 0.5 0.5 0.5 0.5 0.5 0.5 0.5 0.5 0.5 0.5 0.5 0.5 0.5 0.5 0.5 0.5 0.5 0.5 0.5 0.5 0.5 0.5 0.5 0.5 0.5 0.5 0.5 0.5 0.5 0.5 0.5 0.5 0.5 0.5 0.5 0.666667 0.333333 0.5 0.5 0.5 0.5 0.5 0.5 0.5 0.5 0.5 0.5 0.5 0.5 0.5 0.5 0.5 0.5 0.5 0.5 0.666667 0.333333 0.5 0.5 0.5 0.5 0.333333 0.666667 0.5 0.5 0.5 0.5 0.5 0.5 0.5 0.5 0.5 0.5 0.5 0.5 0.5 0.5 0.5 0.5 0.666667 0.333333 0.5 0.5 0.5 0.5 0.5 0.5 0.5 0.5 0.5 0.5 0.5 0.5 0.5 0.5 0.5 0.5 0.5 0.5 0.5 0.5 0.5 0.5 0.5 0.5 0.5 0.5 0.5 0.5 0.5 0.5 0.5 0.5 0.5 0.5 0.5 0.5 0.5 0.5 0.5 0.5 0.5 0.5 0.5 0.5 0.5 0.5 0.333333 0.666667 0.5 0.5 0.5 0.5 0.5 0.5 0.5 0.5 0.5 0.5 0.5 0.5 0.5 0.5 0.5 0.5 0.5 0.5 0.5 0.5 0.5 0.5 0.5 0.5 0.5 0.5 0.5 0.5 0.5 0.5 0.5 0.5 0.5 0.5 0.5 0.5 0.5 0.5 0.5 0.5 0.5 0.5 0.666667 0.333333 0.5 0.5 0.5 0.5 0.5 0.5 0.5 0.5 0.5 0.5 0.5 0.5 0.5 0.5 0.5 0.5 0.5 0.5 0.5 0.5 0.5 0.5 0.5 0.5 0.5 0.5 0.428571 0.571429 0.5 0.5 0.5 0.5 0.166667 0.833333 0.5 0.5 0.5 0.5 0.5 0.5 0.5 0.5 0.5 0.5 0.25 0.75 0.333333 0.666667 0.5 0.5 0.5 0.5 0.5 0.5 0.5 0.5 0.5 0.5 0.5 0.5 0.5 0.5 0.333333 0.666667 0.5 0.5 0.5 0.5 0.5 0.5 0.5 0.5 0.333333 0.666667 0.5 0.5 0.5 0.5 0.5 0.5 0.333333 0.666667 0.5 0.5 0.25 0.75 0.272727 0.727273 0.333333 0.666667 0.5 0.5 0.333333 0.666667 0.333333 0.666667 0.25 0.75 0.4 0.6 0.5 0.5 0.5 0.5 0.166667 0.833333 0.5 0.5 0.5 0.5 0.25 0.75 0.5 0.5 0.5 0.5 0.333333 0.666667 0.5 0.5 0.5 0.5 0.5 0.5 0.5 0.5 0.5 0.5 0.5 0.5 0.5 0.5 0.5 0.5 0.5 0.5 0.5 0.5 0.5 0.5 0.5 0.5 0.5 0.5 0.5 0.5 0.5 0.5 0.5 0.5 0.5 0.5 0.5 0.5 0.5 0.5 0.5 0.5 0.5 0.5 0.5 0.5 0.5 0.5 0.5 0.5 0.5 0.5 0.5 0.5 0.5 0.5 0.5 0.5 0.5 0.5 0.5 0.5 0.5 0.5 0.5 0.5 0.5 0.5 0.5 0.5 0.5 0.5 0.5 0.5 0.5 0.5 0.5 0.5 0.5 0.5 0.5 0.5 0.333333 0.666667 0.5 0.5 0.5 0.5 0.5 0.5 0.5 0.5 0.5 0.5 0.5 0.5 0.5 0.5 0.5 0.5 0.5 0.5 0.5 0.5 0.5 0.5 0.5 0.5 0.5 0.5 0.5 0.5 0.5 0.5 0.5 0.5 0.5 0.5 0.5 0.5 0.5 0.5 0.5 0.5 0.5 0.5 0.5 0.5 0.5 0.5 0.5 0.5 0.5 0.5 0.5 0.5 0.5 0.5 0.5 0.5 0.5 0.5 0.5 0.5 0.5 0.5 0.5 0.5 0.333333 0.666667 0.5 0.5 0.5 0.5 0.5 0.5 0.5 0.5 0.5 0.5 0.5 0.5 0.5 0.5 0.5 0.5 0.5 0.5 0.5 0.5 0.5 0.5 0.5 0.5 0.5 0.5 0.5 0.5 0.5 0.5 0.5 0.5 0.5 0.5 0.5 0.5 0.5 0.5 0.5 0.5 0.5 0.5 0.5 0.5 0.5 0.5 0.5 0.5 0.5 0.5 0.5 0.5 0.5 0.5 0.5 0.5 0.5 0.5 0.5 0.5 0.2 0.8 0.666667 0.333333 0.333333 0.666667 0.5 0.5 0.5 0.5 0.5 0.5 0.181818 0.818182 0.5 0.5 0.5 0.5 0.333333 0.666667 0.5 0.5 0.5 0.5 0.5 0.5 0.5 0.5 0.5 0.5 0.2 0.8 0.5 0.5 0.333333 0.666667 0.333333 0.666667 0.5 0.5 0.5 0.5 0.5 0.5 0.5 0.5 0.5 0.5 0.75 0.25 0.5 0.5 0.5 0.5 0.5 0.5 0.5 0.5 0.333333 0.666667 0.142857 0.857143 0.333333 0.666667 0.25 0.75 0.125 0.875 0.5 0.5 0.2 0.8 0.2 0.8 0.5 0.5 0.5 0.5 0.25 0.75 0.5 0.5 0.5 0.5 0.5 0.5 0.333333 0.666667 0.5 0.5 0.333333 0.666667 0.5 0.5 0.5 0.5 0.5 0.5 0.5 0.5 0.5 0.5 0.5 0.5 0.5 0.5 0.5 0.5 0.333333 0.666667 0.5 0.5 0.5 0.5 0.5 0.5 0.5 0.5 0.5 0.5 0.5 0.5 0.5 0.5 0.5 0.5 0.5 0.5 0.5 0.5 0.5 0.5 0.5 0.5 0.5 0.5 0.5 0.5 0.5 0.5 0.5 0.5 0.5 0.5 0.5 0.5 0.5 0.5 0.5 0.5 0.333333 0.666667 0.5 0.5 0.5 0.5 0.5 0.5 0.5 0.5 0.5 0.5 0.5 0.5 0.5 0.5 0.5 0.5 0.5 0.5 0.5 0.5 0.5 0.5 0.5 0.5 0.5 0.5 0.5 0.5 0.5 0.5 0.5 0.5 0.5 0.5 0.5 0.5 0.5 0.5 0.5 0.5 0.5 0.5 0.5 0.5 0.5 0.5 0.5 0.5 0.5 0.5 0.5 0.5 0.5 0.5 0.5 0.5 0.5 0.5 0.2 0.8 0.5 0.5 0.5 0.5 0.5 0.5 0.5 0.5 0.5 0.5 0.5 0.5 0.5 0.5 0.5 0.5 0.5 0.5 0.5 0.5 0.5 0.5 0.5 0.5 0.5 0.5 0.5 0.5 0.333333 0.666667 0.5 0.5 0.5 0.5 0.5 0.5 0.5 0.5 0.5 0.5 0.5 0.5 0.5 0.5 0.5 0.5 0.5 0.5 0.5 0.5 0.5 0.5 0.5 0.5 0.5 0.5 0.5 0.5 0.5 0.5 0.5 0.5 0.5 0.5 0.5 0.5 0.5 0.5 0.5 0.5 0.5 0.5 0.5 0.5 0.5 0.5 0.5 0.5 0.5 0.5 0.5 0.5 0.5 0.5 0.5 0.5 0.5 0.5 0.5 0.5 0.5 0.5 0.5 0.5 0.5 0.5 0.5 0.5 0.5 0.5 0.5 0.5 0.5 0.5 0.5 0.5 0.5 0.5 0.5 0.5 0.5 0.5 0.5 0.5 0.5 0.5 0.5 0.5 0.5 0.5 0.5 0.5 0.5 0.5 0.5 0.5 0.5 0.5 0.5 0.5 0.5 0.5 0.5 0.5 0.5 0.5 0.5 0.5 0.5 0.5 0.5 0.5 0.5 0.5 0.5 0.5 0.5 0.5 0.5 0.5 0.5 0.5 0.5 0.5 0.5 0.5 0.5 0.5 0.5 0.5 0.5 0.5 0.5 0.5 0.5 0.5 0.5 0.5 0.5 0.5 0.5 0.5 0.5 0.5 0.5 0.5 0.5 0.5 0.333333 0.666667 0.5 0.5 0.5 0.5 0.5 0.5 0.5 0.5 0.5 0.5 0.5 0.5 0.5 0.5 0.5 0.5 0.5 0.5 0.5 0.5 0.5 0.5 0.5 0.5 0.5 0.5 0.5 0.5 0.5 0.5 0.5 0.5 0.5 0.5 0.5 0.5 0.5 0.5 0.5 0.5 0.333333 0.666667 0.5 0.5 0.5 0.5 0.5 0.5 0.5 0.5 0.5 0.5 0.5 0.5 0.5 0.5 0.5 0.5 0.333333 0.666667 0.5 0.5 0.5 0.5 0.25 0.75 0.5 0.5 0.5 0.5 0.5 0.5 0.5 0.5 0.5 0.5 0.5 0.5 0.5 0.5 0.5 0.5 0.333333 0.666667 0.5 0.5 0.5 0.5 0.5 0.5 0.5 0.5 0.5 0.5 0.333333 0.666667 0.5 0.5 0.5 0.5 0.5 0.5 0.5 0.5 0.5 0.5 0.5 0.5 0.5 0.5 0.5 0.5 0.5 0.5 0.5 0.5 0.5 0.5 0.333333 0.666667 0.5 0.5 0.5 0.5 0.5 0.5 0.5 0.5 0.5 0.5 0.5 0.5 0.5 0.5 0.333333 0.666667 0.5 0.5 0.5 0.5 0.5 0.5 0.5 0.5 0.5 0.5 0.5 0.5 0.5 0.5 0.5 0.5 0.5 0.5 0.5 0.5 0.5 0.5 0.5 0.5 0.5 0.5 0.5 0.5 0.333333 0.666667 0.5 0.5 0.5 0.5 0.5 0.5 0.5 0.5 0.5 0.5 0.5 0.5 0.5 0.5 0.5 0.5 0.333333 0.666667 0.333333 0.666667 0.5 0.5 0.5 0.5 0.5 0.5 0.5 0.5 0.5 0.5 0.5 0.5 0.5 0.5 0.5 0.5 0.5 0.5 0.5 0.5 0.5 0.5 0.25 0.75 0.5 0.5 0.5 0.5 0.111111 0.888889 0.5 0.5 0.333333 0.666667 0.5 0.5 0.5 0.5 0.333333 0.666667 0.25 0.75 0.5 0.5 0.5 0.5 0.333333 0.666667 0.5 0.5 0.5 0.5 0.5 0.5 0.5 0.5 0.5 0.5 0.5 0.5 0.5 0.5 0.5 0.5 0.666667 0.333333 0.5 0.5 0.5 0.5 0.5 0.5 0.5 0.5 0.5 0.5 0.5 0.5 0.5 0.5 0.5 0.5 0.571429 0.428571 0.5 0.5 0.2 0.8 0.333333 0.666667 0.5 0.5 0.5 0.5 0.666667 0.333333 0.5 0.5 0.5 0.5 0.333333 0.666667 0.5 0.5 0.5 0.5 0.333333 0.666667 0.5 0.5 0.5 0.5 0.5 0.5 0.5 0.5 0.5 0.5 0.5 0.5 0.5 0.5 0.5 0.5 0.666667 0.333333 0.5 0.5 0.5 0.5 0.333333 0.666667 0.5 0.5 0.5 0.5 0.5 0.5 0.5 0.5 0.5 0.5 0.5 0.5 0.5 0.5 0.5 0.5 0.5 0.5 0.5 0.5 0.5 0.5 0.5 0.5 0.5 0.5 0.5 0.5 0.5 0.5 0.5 0.5 0.5 0.5 0.5 0.5 0.5 0.5 0.5 0.5 0.5 0.5 0.5 0.5 0.5 0.5 0.333333 0.666667 0.5 0.5 0.5 0.5 0.25 0.75 0.5 0.5 0.5 0.5 0.5 0.5 0.5 0.5 0.5 0.5 0.5 0.5 0.5 0.5 0.5 0.5 0.5 0.5 0.5 0.5 0.5 0.5 0.333333 0.666667 0.5 0.5 0.5 0.5 0.5 0.5 0.5 0.5 0.5 0.5 0.5 0.5 0.5 0.5 0.5 0.5 0.5 0.5 0.5 0.5 0.5 0.5 0.25 0.75 0.5 0.5 0.5 0.5 0.5 0.5 0.5 0.5 0.5 0.5 0.5 0.5 0.5 0.5 0.5 0.5 0.333333 0.666667 0.5 0.5 0.5 0.5 0.5 0.5 0.5 0.5 0.5 0.5 0.5 0.5 0.5 0.5 0.5 0.5 0.5 0.5 0.5 0.5 0.5 0.5 0.5 0.5 0.5 0.5 0.5 0.5 0.5 0.5 0.5 0.5 0.5 0.5 0.5 0.5 0.5 0.5 0.5 0.5 0.5 0.5 0.5 0.5 0.5 0.5 0.5 0.5 0.5 0.5 0.5 0.5 0.5 0.5 0.5 0.5 0.5 0.5 0.5 0.5 0.5 0.5 0.5 0.5 0.5 0.5 0.5 0.5 0.5 0.5 0.5 0.5 0.5 0.5 0.5 0.5 0.333333 0.666667 0.5 0.5 0.5 0.5 0.5 0.5 0.5 0.5 0.5 0.5 0.5 0.5 0.5 0.5 0.5 0.5 0.5 0.5 0.5 0.5 0.5 0.5 0.5 0.5 0.5 0.5 0.5 0.5 0.5 0.5 0.5 0.5 0.5 0.5 0.5 0.5 0.5 0.5 0.5 0.5 0.5 0.5 0.5 0.5 0.5 0.5 0.5 0.5 0.5 0.5 0.5 0.5 0.333333 0.666667 0.5 0.5 0.5 0.5 0.333333 0.666667 0.5 0.5 0.5 0.5 0.5 0.5 0.5 0.5 0.5 0.5 0.5 0.5 0.5 0.5 0.5 0.5 0.333333 0.666667 0.5 0.5 0.5 0.5 0.5 0.5 0.5 0.5 0.5 0.5 0.5 0.5 0.5 0.5 0.5 0.5 0.5 0.5 0.5 0.5 0.5 0.5 0.5 0.5 0.5 0.5 0.5 0.5 0.5 0.5 0.5 0.5 0.5 0.5 0.5 0.5 0.5 0.5 0.5 0.5 0.5 0.5 0.5 0.5 0.5 0.5 0.5 0.5 0.5 0.5 0.5 0.5 0.5 0.5 0.5 0.5 0.5 0.5 0.5 0.5 0.5 0.5 0.25 0.75 0.333333 0.666667 0.5 0.5 0.5 0.5 0.333333 0.666667 0.5 0.5 0.5 0.5 0.5 0.5 0.5 0.5 0.5 0.5 0.5 0.5 0.5 0.5 0.5 0.5 0.5 0.5 0.5 0.5 0.5 0.5 0.5 0.5 0.666667 0.333333 0.5 0.5 0.333333 0.666667 0.5 0.5 0.5 0.5 0.5 0.5 0.5 0.5 0.5 0.5 0.5 0.5 0.5 0.5 0.5 0.5 0.5 0.5 0.5 0.5 0.5 0.5 0.5 0.5 0.5 0.5 0.5 0.5 0.5 0.5 0.5 0.5 0.5 0.5 0.5 0.5 0.5 0.5 0.5 0.5 0.5 0.5 0.5 0.5 0.5 0.5 0.5 0.5 0.5 0.5 0.5 0.5 0.5 0.5 0.5 0.5 0.5 0.5 0.5 0.5 0.5 0.5 0.5 0.5 0.5 0.5 0.5 0.5 0.5 0.5 0.5 0.5 0.5 0.5 0.5 0.5 0.5 0.5 0.5 0.5 0.333333 0.666667 0.5 0.5 0.5 0.5 0.5 0.5 0.5 0.5 0.5 0.5 0.5 0.5 0.5 0.5 0.5 0.5 0.5 0.5 0.5 0.5 0.5 0.5 0.5 0.5 0.5 0.5 0.5 0.5 0.5 0.5 0.4 0.6 0.5 0.5 0.333333 0.666667 0.75 0.25 0.5 0.5 0.5 0.5 0.333333 0.666667 0.5 0.5 0.5 0.5 0.5 0.5 0.5 0.5 0.5 0.5 0.333333 0.666667 0.5 0.5 0.5 0.5 0.333333 0.666667 0.5 0.5 0.5 0.5 0.333333 0.666667 0.5 0.5 0.5 0.5 0.333333 0.666667 0.5 0.5 0.5 0.5 0.5 0.5 0.5 0.5 0.5 0.5 0.5 0.5 0.5 0.5 0.5 0.5 0.2 0.8 0.5 0.5 0.5 0.5 0.5 0.5 0.5 0.5 0.5 0.5 0.333333 0.666667 0.5 0.5 0.333333 0.666667 0.25 0.75 0.5 0.5 0.5 0.5 0.333333 0.666667 0.5 0.5 0.5 0.5 0.5 0.5 0.5 0.5 0.5 0.5 0.5 0.5 0.5 0.5 0.5 0.5 0.5 0.5 0.5 0.5 0.5 0.5 0.666667 0.333333 0.5 0.5 0.5 0.5 0.5 0.5 0.5 0.5 0.5 0.5 0.5 0.5 0.5 0.5 0.5 0.5 0.5 0.5 0.5 0.5 0.5 0.5 0.5 0.5 0.333333 0.666667 0.5 0.5 0.5 0.5 0.5 0.5 0.5 0.5 0.5 0.5 0.5 0.5 0.5 0.5 0.333333 0.666667 0.5 0.5 0.5 0.5 0.5 0.5 0.5 0.5 0.5 0.5 0.5 0.5 0.5 0.5 0.5 0.5 0.5 0.5 0.5 0.5 0.5 0.5 0.5 0.5 0.5 0.5 0.333333 0.666667 0.5 0.5 0.5 0.5 0.5 0.5 0.5 0.5 0.5 0.5 0.5 0.5 0.5 0.5 0.5 0.5 0.5 0.5 0.5 0.5 0.5 0.5 0.5 0.5 0.5 0.5 0.5 0.5 0.333333 0.666667 0.5 0.5 0.5 0.5 0.5 0.5 0.5 0.5 0.5 0.5 0.5 0.5 0.5 0.5 0.5 0.5 0.5 0.5 0.5 0.5 0.5 0.5 0.5 0.5 0.333333 0.666667 0.5 0.5 0.5 0.5 0.5 0.5 0.5 0.5 0.5 0.5 0.5 0.5 0.5 0.5 0.5 0.5 0.5 0.5 0.5 0.5 0.5 0.5 0.5 0.5 0.5 0.5 0.5 0.5 0.5 0.5 0.5 0.5 0.5 0.5 0.666667 0.333333 0.5 0.5 0.5 0.5 0.5 0.5 0.5 0.5 0.5 0.5 0.5 0.5 0.5 0.5 0.5 0.5 0.5 0.5 0.5 0.5 0.5 0.5 0.5 0.5 0.5 0.5 0.5 0.5 0.5 0.5 0.5 0.5 0.5 0.5 0.25 0.75 0.5 0.5 0.25 0.75 0.333333 0.666667 0.5 0.5 0.5 0.5 0.333333 0.666667 0.5 0.5 0.5 0.5 0.5 0.5 0.5 0.5 0.333333 0.666667 0.5 0.5 0.5 0.5 0.5 0.5 0.5 0.5 0.5 0.5 0.666667 0.333333 0.5 0.5 0.5 0.5 0.5 0.5 0.5 0.5 0.333333 0.666667 0.5 0.5 0.333333 0.666667 0.5 0.5 0.666667 0.333333 0.222222 0.777778 0.5 0.5 0.333333 0.666667 0.2 0.8 0.333333 0.666667 0.333333 0.666667 0.333333 0.666667 0.333333 0.666667 0.5 0.5 0.2 0.8 0.666667 0.333333 0.5 0.5 0.5 0.5 0.5 0.5 0.5 0.5 0.5 0.5 0.5 0.5 0.5 0.5 0.5 0.5 0.5 0.5 0.5 0.5 0.5 0.5 0.5 0.5 0.5 0.5 0.5 0.5 0.5 0.5 0.5 0.5 0.5 0.5 0.5 0.5 0.5 0.5 0.5 0.5 0.5 0.5 0.5 0.5 0.5 0.5 0.5 0.5 0.5 0.5 0.5 0.5 0.5 0.5 0.5 0.5 0.5 0.5 0.5 0.5 0.5 0.5 0.5 0.5 0.5 0.5 0.5 0.5 0.5 0.5 0.5 0.5 0.5 0.5 0.5 0.5 0.5 0.5 0.5 0.5 0.5 0.5 0.5 0.5 0.5 0.5 0.5 0.5 0.5 0.5 0.5 0.5 0.5 0.5 0.5 0.5 0.5 0.5 0.5 0.5 0.333333 0.666667 0.5 0.5 0.5 0.5 0.5 0.5 0.5 0.5 0.5 0.5 0.5 0.5 0.5 0.5 0.5 0.5 0.5 0.5 0.5 0.5 0.5 0.5 0.5 0.5 0.5 0.5 0.5 0.5 0.5 0.5 0.5 0.5 0.5 0.5 0.5 0.5 0.5 0.5 0.5 0.5 0.5 0.5 0.5 0.5 0.5 0.5 0.5 0.5 0.5 0.5 0.5 0.5 0.5 0.5 0.5 0.5 0.5 0.5 0.5 0.5 0.5 0.5 0.666667 0.333333 0.5 0.5 0.5 0.5 0.5 0.5 0.5 0.5 0.5 0.5 0.5 0.5 0.5 0.5 0.5 0.5 0.5 0.5 0.5 0.5 0.5 0.5 0.333333 0.666667 0.5 0.5 0.5 0.5 0.5 0.5 0.5 0.5 0.5 0.5 0.5 0.5 0.5 0.5 0.5 0.5 0.5 0.5 0.5 0.5 0.5 0.5 0.5 0.5 0.5 0.5 0.5 0.5 0.5 0.5 0.5 0.5 0.5 0.5 0.333333 0.666667 0.5 0.5 0.5 0.5 0.5 0.5 0.5 0.5 0.5 0.5 0.5 0.5 0.5 0.5 0.5 0.5 0.5 0.5 0.5 0.5 0.5 0.5 0.5 0.5 0.5 0.5 0.5 0.5 0.5 0.5 0.5 0.5 0.5 0.5 0.5 0.5 0.5 0.5 0.5 0.5 0.5 0.5 0.5 0.5 0.5 0.5 0.5 0.5 0.5 0.5 0.5 0.5 0.5 0.5 0.5 0.5 0.5 0.5 0.666667 0.333333 0.5 0.5 0.5 0.5 0.5 0.5 0.5 0.5 0.5 0.5 0.333333 0.666667 0.5 0.5 0.5 0.5 0.5 0.5 0.5 0.5 0.5 0.5 0.5 0.5 0.5 0.5 0.5 0.5 0.5 0.5 0.5 0.5 0.5 0.5 0.5 0.5 0.5 0.5 0.5 0.5 0.5 0.5 0.5 0.5 0.5 0.5 0.5 0.5 0.5 0.5 0.5 0.5 0.5 0.5 0.5 0.5 0.666667 0.333333 0.333333 0.666667 0.5 0.5 0.5 0.5 0.5 0.5 0.5 0.5 0.5 0.5 0.5 0.5 0.5 0.5 0.5 0.5 0.5 0.5 0.5 0.5 0.5 0.5 0.666667 0.333333 0.5 0.5 0.5 0.5 0.5 0.5 0.5 0.5 0.5 0.5 0.4 0.6 0.333333 0.666667 0.5 0.5 0.5 0.5 0.5 0.5 0.5 0.5 0.5 0.5 0.5 0.5 0.5 0.5 0.25 0.75 0.5 0.5 0.5 0.5 0.5 0.5 0.5 0.5 0.5 0.5 0.25 0.75 0.5 0.5 0.5 0.5 0.333333 0.666667 0.5 0.5 0.5 0.5 0.5 0.5 0.5 0.5 0.5 0.5 0.4 0.6 0.5 0.5 0.5 0.5 0.285714 0.714286 0.5 0.5 0.333333 0.666667 0.5 0.5 0.5 0.5 0.5 0.5 0.333333 0.666667 0.5 0.5 0.5 0.5 0.5 0.5 0.5 0.5 0.5 0.5 0.25 0.75 0.5 0.5 0.5 0.5 0.333333 0.666667 0.5 0.5 0.5 0.5 0.2 0.8 0.5 0.5 0.5 0.5 0.333333 0.666667 0.5 0.5 0.5 0.5 0.5 0.5 0.333333 0.666667 0.5 0.5 0.5 0.5 0.5 0.5 0.5 0.5 0.333333 0.666667 0.5 0.5 0.333333 0.666667 0.5 0.5 0.5 0.5 0.5 0.5 0.5 0.5 0.5 0.5 0.5 0.5 0.5 0.5 0.5 0.5 0.333333 0.666667 0.375 0.625 0.5 0.5 0.5 0.5 0.4 0.6 0.5 0.5 0.5 0.5 0.315789 0.684211 0.5 0.5 0.5 0.5 0.166667 0.833333 0.5 0.5 0.333333 0.666667 0.5 0.5 0.5 0.5 0.5 0.5 0.8 0.2 0.5 0.5 0.5 0.5 0.5 0.5 0.5 0.5 0.333333 0.666667 0.428571 0.571429 0.5 0.5 0.5 0.5 0.5 0.5 0.5 0.5 0.5 0.5 0.333333 0.666667 0.5 0.5 0.5 0.5 0.25 0.75 0.5 0.5 0.333333 0.666667 0.142857 0.857143 0.5 0.5 0.4 0.6 0.153846 0.846154 0.5 0.5 0.5 0.5 0.666667 0.333333 0.5 0.5 0.333333 0.666667 0.666667 0.333333 0.5 0.5 0.5 0.5 0.5 0.5 0.5 0.5 0.5 0.5 0.5 0.5 0.5 0.5 0.5 0.5 0.5 0.5 0.5 0.5 0.5 0.5 0.5 0.5 0.5 0.5 0.5 0.5 0.5 0.5 0.5 0.5 0.666667 0.333333 0.5 0.5 0.5 0.5 0.5 0.5 0.5 0.5 0.5 0.5 0.666667 0.333333 0.5 0.5 0.5 0.5 0.333333 0.666667 0.5 0.5 0.5 0.5 0.5 0.5 0.5 0.5 0.5 0.5 0.333333 0.666667 0.25 0.75 0.5 0.5 0.5 0.5 0.333333 0.666667 0.5 0.5 0.5 0.5 0.384615 0.615385 0.333333 0.666667 0.5 0.5 0.333333 0.666667 0.5 0.5 0.5 0.5 0.2 0.8 0.5 0.5 0.5 0.5 0.333333 0.666667 0.5 0.5 0.666667 0.333333 0.5 0.5 0.5 0.5 0.5 0.5 0.5 0.5 0.5 0.5 0.5 0.5 0.5 0.5 0.5 0.5 0.5 0.5 0.5 0.5 0.5 0.5 0.333333 0.666667 0.25 0.75 0.5 0.5 0.5 0.5 0.333333 0.666667 0.25 0.75 0.2 0.8 0.4 0.6 0.5 0.5 0.5 0.5 0.5 0.5 0.5 0.5 0.5 0.5 0.4 0.6 0.5 0.5 0.5 0.5 0.5 0.5 0.5 0.5 0.5 0.5 0.5 0.5 0.5 0.5 0.333333 0.666667 0.333333 0.666667 0.5 0.5 0.5 0.5 0.5 0.5 0.5 0.5 0.5 0.5 0.5 0.5 0.5 0.5 0.5 0.5 0.5 0.5 0.5 0.5 0.5 0.5 0.5 0.5 0.5 0.5 0.5 0.5 0.5 0.5 0.5 0.5 0.5 0.5 0.5 0.5 0.5 0.5 0.5 0.5 0.5 0.5 0.5 0.5 0.5 0.5 0.5 0.5 0.5 0.5 0.5 0.5 0.5 0.5 0.5 0.5 0.5 0.5 0.5 0.5 0.5 0.5 0.5 0.5 0.5 0.5 0.5 0.5 0.5 0.5 0.5 0.5 0.5 0.5 0.5 0.5 0.5 0.5 0.5 0.5 0.5 0.5 0.5 0.5 0.5 0.5 0.5 0.5 0.5 0.5 0.5 0.5 0.5 0.5 0.5 0.5 0.5 0.5 0.5 0.5 0.5 0.5 0.5 0.5 0.5 0.5 0.25 0.75 0.5 0.5 0.5 0.5 0.5 0.5 0.5 0.5 0.5 0.5 0.5 0.5 0.5 0.5 0.5 0.5 0.333333 0.666667 0.5 0.5 0.5 0.5 0.5 0.5 0.5 0.5 0.5 0.5 0.5 0.5 0.5 0.5 0.5 0.5 0.5 0.5 0.5 0.5 0.5 0.5 0.5 0.5 0.5 0.5 0.5 0.5 0.5 0.5 0.5 0.5 0.5 0.5 0.5 0.5 0.5 0.5 0.5 0.5 0.5 0.5 0.5 0.5 0.333333 0.666667 0.5 0.5 0.5 0.5 0.5 0.5 0.333333 0.666667 0.5 0.5 0.5 0.5 0.5 0.5 0.5 0.5 0.5 0.5 0.5 0.5 0.5 0.5 0.5 0.5 0.333333 0.666667 0.5 0.5 0.5 0.5 0.5 0.5 0.5 0.5 0.333333 0.666667 0.5 0.5 0.5 0.5 0.5 0.5 0.333333 0.666667 0.5 0.5 0.5 0.5 0.5 0.5 0.5 0.5 0.5 0.5 0.5 0.5 0.5 0.5 0.5 0.5 0.5 0.5 0.5 0.5 0.5 0.5 0.333333 0.666667 0.5 0.5 0.5 0.5 0.5 0.5 0.5 0.5 0.5 0.5 0.5 0.5 0.5 0.5 0.333333 0.666667 0.428571 0.571429 0.333333 0.666667 0.5 0.5 0.333333 0.666667 0.5 0.5 0.25 0.75 0.166667 0.833333 0.5 0.5 0.5 0.5 0.2 0.8 0.5 0.5 0.5 0.5 0.5 0.5 0.5 0.5 0.5 0.5 0.5 0.5 0.5 0.5 0.5 0.5 0.5 0.5 0.5 0.5 0.5 0.5 0.5 0.5 0.5 0.5 0.5 0.5 0.5 0.5 0.5 0.5 0.5 0.5 0.5 0.5 0.5 0.5 0.5 0.5 0.5 0.5 0.25 0.75 0.333333 0.666667 0.5 0.5 0.5 0.5 0.666667 0.333333 0.5 0.5 0.5 0.5 0.5 0.5 0.333333 0.666667 0.5 0.5 0.5 0.5 0.5 0.5 0.5 0.5 0.5 0.5 0.428571 0.571429 0.5 0.5 0.5 0.5 0.25 0.75 0.5 0.5 0.5 0.5 0.363636 0.636364 0.666667 0.333333 0.333333 0.666667 0.142857 0.857143 0.5 0.5 0.5 0.5 0.333333 0.666667 0.666667 0.333333 0.5 0.5 0.5 0.5 0.5 0.5 0.5 0.5 0.333333 0.666667 0.5 0.5 0.5 0.5 0.333333 0.666667 0.5 0.5 0.5 0.5 0.5 0.5 0.5 0.5 0.5 0.5 0.5 0.5 0.5 0.5 0.25 0.75 0.272727 0.727273 0.5 0.5 0.666667 0.333333 0.666667 0.333333 0.5 0.5 0.666667 0.333333 0.25 0.75 0.5 0.5 0.333333 0.666667 0.333333 0.666667 0.5 0.5 0.5 0.5 0.333333 0.666667 0.5 0.5 0.333333 0.666667 0.333333 0.666667 0.5 0.5 0.5 0.5 0.5 0.5 0.5 0.5 0.333333 0.666667 0.333333 0.666667 0.5 0.5 0.5 0.5 0.333333 0.666667 0.5 0.5 0.5 0.5 0.5 0.5 0.5 0.5 0.5 0.5 0.5 0.5 0.5 0.5 0.5 0.5 0.5 0.5 0.5 0.5 0.333333 0.666667 0.5 0.5 0.5 0.5 0.5 0.5 0.5 0.5 0.5 0.5 0.5 0.5 0.5 0.5 0.5 0.5 0.5 0.5 0.5 0.5 0.5 0.5 0.5 0.5 0.5 0.5 0.5 0.5 0.333333 0.666667 0.5 0.5 0.5 0.5 0.5 0.5 0.5 0.5 0.5 0.5 0.5 0.5 0.5 0.5 0.5 0.5 0.5 0.5 0.5 0.5 0.5 0.5 0.5 0.5 0.5 0.5 0.5 0.5 0.5 0.5 0.5 0.5 0.5 0.5 0.5 0.5 0.5 0.5 0.5 0.5 0.5 0.5 0.333333 0.666667 0.5 0.5 0.5 0.5 0.5 0.5 0.5 0.5 0.5 0.5 0.5 0.5 0.5 0.5 0.5 0.5 0.333333 0.666667 0.5 0.5 0.5 0.5 0.5 0.5 0.5 0.5 0.333333 0.666667 0.5 0.5 0.5 0.5 0.5 0.5 0.5 0.5 0.5 0.5 0.5 0.5 0.5 0.5 0.5 0.5 0.5 0.5 0.5 0.5 0.5 0.5 0.5 0.5 0.5 0.5 0.5 0.5 0.5 0.5 0.5 0.5 0.5 0.5 0.333333 0.666667 0.5 0.5 0.666667 0.333333 0.5 0.5 0.5 0.5 0.5 0.5 0.5 0.5 0.5 0.5 0.5 0.5 0.333333 0.666667 0.5 0.5 0.5 0.5 0.5 0.5 0.5 0.5 0.5 0.5 0.5 0.5 0.2 0.8 0.5 0.5 0.5 0.5 0.5 0.5 0.5 0.5 0.5 0.5 0.227273 0.772727 0.333333 0.666667 0.666667 0.333333 0.333333 0.666667 0.5 0.5 0.5 0.5 0.5 0.5 0.5 0.5 0.5 0.5 0.25 0.75 0.5 0.5 0.5 0.5 0.25 0.75 0.5 0.5 0.5 0.5 0.333333 0.666667 0.5 0.5 0.5 0.5 0.5 0.5 0.333333 0.666667 0.5 0.5 0.5 0.5 0.5 0.5 0.333333 0.666667 0.352941 0.647059 0.5 0.5 0.5 0.5 0.111111 0.888889 0.5 0.5 0.5 0.5 0.210526 0.789474 0.666667 0.333333 0.5 0.5 0.5 0.5 0.5 0.5 0.5 0.5 0.2 0.8 0.5 0.5 0.5 0.5 0.5 0.5 0.5 0.5 0.5 0.5 0.5 0.5 0.5 0.5 0.5 0.5 0.333333 0.666667 0.5 0.5 0.5 0.5 0.5 0.5 0.5 0.5 0.5 0.5 0.5 0.5 0.5 0.5 0.5 0.5 0.5 0.5 0.5 0.5 0.5 0.5 0.5 0.5 0.5 0.5 0.5 0.5 0.5 0.5 0.5 0.5 0.5 0.5 0.5 0.5 0.5 0.5 0.5 0.5 0.5 0.5 0.5 0.5 0.5 0.5 0.5 0.5 0.5 0.5 0.5 0.5 0.333333 0.666667 0.5 0.5 0.5 0.5 0.25 0.75 0.5 0.5 0.5 0.5 0.5 0.5 0.5 0.5 0.5 0.5 0.25 0.75 0.5 0.5 0.5 0.5 0.333333 0.666667 0.5 0.5 0.5 0.5 0.5 0.5 0.5 0.5 0.5 0.5 0.333333 0.666667 0.5 0.5 0.5 0.5 0.5 0.5 0.5 0.5 0.5 0.5 0.5 0.5 0.5 0.5 0.5 0.5 0.5 0.5 0.5 0.5 0.5 0.5 0.333333 0.666667 0.5 0.5 0.5 0.5 0.5 0.5 0.5 0.5 0.5 0.5 0.333333 0.666667 0.5 0.5 0.5 0.5 0.333333 0.666667 0.5 0.5 0.5 0.5 0.5 0.5 0.5 0.5 0.5 0.5 0.5 0.5 0.5 0.5 0.5 0.5 0.5 0.5 0.5 0.5 0.5 0.5 0.5 0.5 0.5 0.5 0.5 0.5 0.5 0.5 0.5 0.5 0.5 0.5 0.5 0.5 0.5 0.5 0.5 0.5 0.5 0.5 0.5 0.5 0.5 0.5 0.5 0.5 0.5 0.5 0.5 0.5 0.5 0.5 0.5 0.5 0.5 0.5 0.5 0.5 0.5 0.5 0.5 0.5 0.5 0.5 0.5 0.5 0.5 0.5 0.5 0.5 0.5 0.5 0.5 0.5 0.5 0.5 0.5 0.5 0.5 0.5 0.5 0.5 0.5 0.5 0.5 0.5 0.5 0.5 0.5 0.5 0.5 0.5 0.5 0.5 0.5 0.5 0.5 0.5 0.5 0.5 0.5 0.5 0.5 0.5 0.5 0.5 0.5 0.5 0.5 0.5 0.5 0.5 0.5 0.5 0.5 0.5 0.5 0.5 0.5 0.5 0.5 0.5 0.5 0.5 0.5 0.5 0.5 0.5 0.333333 0.666667 0.5 0.5 0.5 0.5 0.666667 0.333333 0.5 0.5 0.5 0.5 0.5 0.5 0.5 0.5 0.5 0.5 0.333333 0.666667 0.5 0.5 0.5 0.5 0.5 0.5 0.5 0.5 0.5 0.5 0.5 0.5 0.5 0.5 0.5 0.5 0.5 0.5 0.5 0.5 0.5 0.5 0.5 0.5 0.5 0.5 0.5 0.5 0.5 0.5 0.5 0.5 </TABLE>
</DEFINITION>
<DEFINITION>
	<FOR>InstallmentRate</FOR><!--InstallmentRate | -->
	<TABLE>0.136454 0.231076 0.157371 0.4751 </TABLE>
</DEFINITION>
<DEFINITION>
	<FOR>Utility</FOR><!--Utility | ApproveLoan,CreditRisk,-->
	<GIVEN>CreditRisk</GIVEN>
	<GIVEN>ApproveLoan</GIVEN>
	<TABLE>-5 0 0 -1 </TABLE>
</DEFINITION>

</NETWORK>
</BIF>
