<?xml version="1.0" ?>

<BIF VERSION="0.3">
<NETWORK>

<!-- Variables -->
<VARIABLE TYPE="nature">
	<NAME>Property</NAME>
	<PROPERTY>description = </PROPERTY>
	<PROPERTY>fast = Property{building_society_savings_life_insurance|car_or_other|real_estate|unknown_no_property}</PROPERTY>
<!- OUTCOME are not used in pyAgrum BIFXML (see fast property) but are kept for compatibility->
	<OUTCOME>building_society_savings_life_insurance</OUTCOME>
	<OUTCOME>car_or_other</OUTCOME>
	<OUTCOME>real_estate</OUTCOME>
	<OUTCOME>unknown_no_property</OUTCOME>
</VARIABLE>

<VARIABLE TYPE="nature">
	<NAME>EmploymentSince</NAME>
	<PROPERTY>description = </PROPERTY>
	<PROPERTY>fast = EmploymentSince{_1to4_years|_4to7_years|ge7_years|lt1_year|unemployed}</PROPERTY>
<!- OUTCOME are not used in pyAgrum BIFXML (see fast property) but are kept for compatibility->
	<OUTCOME>_1to4_years</OUTCOME>
	<OUTCOME>_4to7_years</OUTCOME>
	<OUTCOME>ge7_years</OUTCOME>
	<OUTCOME>lt1_year</OUTCOME>
	<OUTCOME>unemployed</OUTCOME>
</VARIABLE>

<VARIABLE TYPE="nature">
	<NAME>Purpose</NAME>
	<PROPERTY>description = </PROPERTY>
	<PROPERTY>fast = Purpose{business|car_new_|car_used_|domestic_appliances|education|furniture_equipment|others|radio_television|repairs|retraining}</PROPERTY>
<!- OUTCOME are not used in pyAgrum BIFXML (see fast property) but are kept for compatibility->
	<OUTCOME>business</OUTCOME>
	<OUTCOME>car_new_</OUTCOME>
	<OUTCOME>car_used_</OUTCOME>
	<OUTCOME>domestic_appliances</OUTCOME>
	<OUTCOME>education</OUTCOME>
	<OUTCOME>furniture_equipment</OUTCOME>
	<OUTCOME>others</OUTCOME>
	<OUTCOME>radio_television</OUTCOME>
	<OUTCOME>repairs</OUTCOME>
	<OUTCOME>retraining</OUTCOME>
</VARIABLE>

<VARIABLE TYPE="nature">
	<NAME>InstallmentRate</NAME>
	<PROPERTY>description = </PROPERTY>
	<PROPERTY>fast = InstallmentRate{1|2|3|4}</PROPERTY>
<!- OUTCOME are not used in pyAgrum BIFXML (see fast property) but are kept for compatibility->
	<OUTCOME>1</OUTCOME>
	<OUTCOME>2</OUTCOME>
	<OUTCOME>3</OUTCOME>
	<OUTCOME>4</OUTCOME>
</VARIABLE>

<VARIABLE TYPE="nature">
	<NAME>ExistingCredits</NAME>
	<PROPERTY>description = </PROPERTY>
	<PROPERTY>fast = ExistingCredits{1|2|3|4}</PROPERTY>
<!- OUTCOME are not used in pyAgrum BIFXML (see fast property) but are kept for compatibility->
	<OUTCOME>1</OUTCOME>
	<OUTCOME>2</OUTCOME>
	<OUTCOME>3</OUTCOME>
	<OUTCOME>4</OUTCOME>
</VARIABLE>

<VARIABLE TYPE="nature">
	<NAME>CreditAmount</NAME>
	<PROPERTY>description = </PROPERTY>
	<PROPERTY>fast = CreditAmount{High|Low|Medium}</PROPERTY>
<!- OUTCOME are not used in pyAgrum BIFXML (see fast property) but are kept for compatibility->
	<OUTCOME>High</OUTCOME>
	<OUTCOME>Low</OUTCOME>
	<OUTCOME>Medium</OUTCOME>
</VARIABLE>

<VARIABLE TYPE="nature">
	<NAME>CheckingAccount</NAME>
	<PROPERTY>description = </PROPERTY>
	<PROPERTY>fast = CheckingAccount{_0to200|No_Checking|ge200|lt0}</PROPERTY>
<!- OUTCOME are not used in pyAgrum BIFXML (see fast property) but are kept for compatibility->
	<OUTCOME>_0to200</OUTCOME>
	<OUTCOME>No_Checking</OUTCOME>
	<OUTCOME>ge200</OUTCOME>
	<OUTCOME>lt0</OUTCOME>
</VARIABLE>

<VARIABLE TYPE="nature">
	<NAME>CreditHistory</NAME>
	<PROPERTY>description = </PROPERTY>
	<PROPERTY>fast = CreditHistory{All_credits_at_this_bank_paid_duly|Critical_account_other_credits_elsewhere|Delay_in_paying_off_in_the_past|Existing_credits_paid_duly_till_now|No_credits_taken_all_paid_duly}</PROPERTY>
<!- OUTCOME are not used in pyAgrum BIFXML (see fast property) but are kept for compatibility->
	<OUTCOME>All_credits_at_this_bank_paid_duly</OUTCOME>
	<OUTCOME>Critical_account_other_credits_elsewhere</OUTCOME>
	<OUTCOME>Delay_in_paying_off_in_the_past</OUTCOME>
	<OUTCOME>Existing_credits_paid_duly_till_now</OUTCOME>
	<OUTCOME>No_credits_taken_all_paid_duly</OUTCOME>
</VARIABLE>

<VARIABLE TYPE="nature">
	<NAME>Job</NAME>
	<PROPERTY>description = </PROPERTY>
	<PROPERTY>fast = Job{management_self_employed_highly_qualified_officer|skilled_employee_official|unemployed_unskilled_non_resident|unskilled_resident}</PROPERTY>
<!- OUTCOME are not used in pyAgrum BIFXML (see fast property) but are kept for compatibility->
	<OUTCOME>management_self_employed_highly_qualified_officer</OUTCOME>
	<OUTCOME>skilled_employee_official</OUTCOME>
	<OUTCOME>unemployed_unskilled_non_resident</OUTCOME>
	<OUTCOME>unskilled_resident</OUTCOME>
</VARIABLE>

<VARIABLE TYPE="nature">
	<NAME>SavingsAccount</NAME>
	<PROPERTY>description = </PROPERTY>
	<PROPERTY>fast = SavingsAccount{_100to500_DM|_500to1000_DM|ge1000_DM|lt100_DM|unknown_no_savings}</PROPERTY>
<!- OUTCOME are not used in pyAgrum BIFXML (see fast property) but are kept for compatibility->
	<OUTCOME>_100to500_DM</OUTCOME>
	<OUTCOME>_500to1000_DM</OUTCOME>
	<OUTCOME>ge1000_DM</OUTCOME>
	<OUTCOME>lt100_DM</OUTCOME>
	<OUTCOME>unknown_no_savings</OUTCOME>
</VARIABLE>

<VARIABLE TYPE="nature">
	<NAME>CreditRisk</NAME>
	<PROPERTY>description = </PROPERTY>
	<PROPERTY>fast = CreditRisk{Bad|Good}</PROPERTY>
<!- OUTCOME are not used in pyAgrum BIFXML (see fast property) but are kept for compatibility->
	<OUTCOME>Bad</OUTCOME>
	<OUTCOME>Good</OUTCOME>
</VARIABLE>

<VARIABLE TYPE="nature">
	<NAME>Telephone</NAME>
	<PROPERTY>description = </PROPERTY>
	<PROPERTY>fast = Telephone{none|yes_registered_}</PROPERTY>
<!- OUTCOME are not used in pyAgrum BIFXML (see fast property) but are kept for compatibility->
	<OUTCOME>none</OUTCOME>
	<OUTCOME>yes_registered_</OUTCOME>
</VARIABLE>

<VARIABLE TYPE="nature">
	<NAME>ForeignWorker</NAME>
	<PROPERTY>description = </PROPERTY>
	<PROPERTY>fast = ForeignWorker{no|yes}</PROPERTY>
<!- OUTCOME are not used in pyAgrum BIFXML (see fast property) but are kept for compatibility->
	<OUTCOME>no</OUTCOME>
	<OUTCOME>yes</OUTCOME>
</VARIABLE>

<VARIABLE TYPE="nature">
	<NAME>LiablePeople</NAME>
	<PROPERTY>description = </PROPERTY>
	<PROPERTY>fast = LiablePeople{1|2}</PROPERTY>
<!- OUTCOME are not used in pyAgrum BIFXML (see fast property) but are kept for compatibility->
	<OUTCOME>1</OUTCOME>
	<OUTCOME>2</OUTCOME>
</VARIABLE>

<VARIABLE TYPE="nature">
	<NAME>OtherInstallmentPlans</NAME>
	<PROPERTY>description = </PROPERTY>
	<PROPERTY>fast = OtherInstallmentPlans{bank|none|stores}</PROPERTY>
<!- OUTCOME are not used in pyAgrum BIFXML (see fast property) but are kept for compatibility->
	<OUTCOME>bank</OUTCOME>
	<OUTCOME>none</OUTCOME>
	<OUTCOME>stores</OUTCOME>
</VARIABLE>

<VARIABLE TYPE="nature">
	<NAME>Age</NAME>
	<PROPERTY>description = </PROPERTY>
	<PROPERTY>fast = Age{Middle|Old|Young}</PROPERTY>
<!- OUTCOME are not used in pyAgrum BIFXML (see fast property) but are kept for compatibility->
	<OUTCOME>Middle</OUTCOME>
	<OUTCOME>Old</OUTCOME>
	<OUTCOME>Young</OUTCOME>
</VARIABLE>

<VARIABLE TYPE="nature">
	<NAME>OtherDebtors</NAME>
	<PROPERTY>description = </PROPERTY>
	<PROPERTY>fast = OtherDebtors{co_applicant|guarantor|none}</PROPERTY>
<!- OUTCOME are not used in pyAgrum BIFXML (see fast property) but are kept for compatibility->
	<OUTCOME>co_applicant</OUTCOME>
	<OUTCOME>guarantor</OUTCOME>
	<OUTCOME>none</OUTCOME>
</VARIABLE>

<VARIABLE TYPE="nature">
	<NAME>PersonalStatusSex</NAME>
	<PROPERTY>description = </PROPERTY>
	<PROPERTY>fast = PersonalStatusSex{female_divorced_separated_married|male_divorced_separated|male_married_widowed|male_single}</PROPERTY>
<!- OUTCOME are not used in pyAgrum BIFXML (see fast property) but are kept for compatibility->
	<OUTCOME>female_divorced_separated_married</OUTCOME>
	<OUTCOME>male_divorced_separated</OUTCOME>
	<OUTCOME>male_married_widowed</OUTCOME>
	<OUTCOME>male_single</OUTCOME>
</VARIABLE>

<VARIABLE TYPE="nature">
	<NAME>ResidenceSince</NAME>
	<PROPERTY>description = </PROPERTY>
	<PROPERTY>fast = ResidenceSince{1|2|3|4}</PROPERTY>
<!- OUTCOME are not used in pyAgrum BIFXML (see fast property) but are kept for compatibility->
	<OUTCOME>1</OUTCOME>
	<OUTCOME>2</OUTCOME>
	<OUTCOME>3</OUTCOME>
	<OUTCOME>4</OUTCOME>
</VARIABLE>

<VARIABLE TYPE="nature">
	<NAME>Duration</NAME>
	<PROPERTY>description = </PROPERTY>
	<PROPERTY>fast = Duration{Long|Medium|Short}</PROPERTY>
<!- OUTCOME are not used in pyAgrum BIFXML (see fast property) but are kept for compatibility->
	<OUTCOME>Long</OUTCOME>
	<OUTCOME>Medium</OUTCOME>
	<OUTCOME>Short</OUTCOME>
</VARIABLE>

<VARIABLE TYPE="nature">
	<NAME>Housing</NAME>
	<PROPERTY>description = </PROPERTY>
	<PROPERTY>fast = Housing{for_free|own|rent}</PROPERTY>
<!- OUTCOME are not used in pyAgrum BIFXML (see fast property) but are kept for compatibility->
	<OUTCOME>for_free</OUTCOME>
	<OUTCOME>own</OUTCOME>
	<OUTCOME>rent</OUTCOME>
</VARIABLE>

<VARIABLE TYPE="decision">
	<NAME>ApproveLoan</NAME>
	<PROPERTY>description = Approve or reject the loan</PROPERTY>
	<PROPERTY>fast = ApproveLoan{Approve|Reject}</PROPERTY>
<!- OUTCOME are not used in pyAgrum BIFXML (see fast property) but are kept for compatibility->
	<OUTCOME>Approve</OUTCOME>
	<OUTCOME>Reject</OUTCOME>
</VARIABLE>

<VARIABLE TYPE="utility">
	<NAME>Utility</NAME>
	<PROPERTY>description = Financial outcome of decision</PROPERTY>
	<PROPERTY>fast = Utility{0}</PROPERTY>
<!- OUTCOME are not used in pyAgrum BIFXML (see fast property) but are kept for compatibility->
	<OUTCOME>0</OUTCOME>
</VARIABLE>

<!-- Probability distributions -->
<DEFINITION>
	<FOR>Property</FOR><!--Property | Job,-->
	<GIVEN>Job</GIVEN>
	<TABLE>0.197368 0.381579 0.0986842 0.322368 0.23817 0.369085 0.255521 0.137224 0.153846 0.230769 0.346154 0.269231 0.25 0.186275 0.490196 0.0735294 </TABLE>
</DEFINITION>
<DEFINITION>
	<FOR>EmploymentSince</FOR><!--EmploymentSince | Job,PersonalStatusSex,-->
	<GIVEN>Job</GIVEN>
	<GIVEN>PersonalStatusSex</GIVEN>
	<TABLE>0.190476 0.119048 0.309524 0.190476 0.190476 0.25 0.125 0.3125 0.125 0.1875 0.181818 0.181818 0.0909091 0.272727 0.272727 0.181818 0.161616 0.353535 0.0707071 0.232323 0.376238 0.163366 0.128713 0.29703 0.0346535 0.388889 0.0833333 0.222222 0.25 0.0555556 0.462687 0.164179 0.119403 0.223881 0.0298507 0.327536 0.22029 0.35942 0.0782609 0.0144928 0.0588235 0.0588235 0.0588235 0.235294 0.588235 0.2 0.2 0.2 0.2 0.2 0.142857 0.142857 0.142857 0.285714 0.285714 0.153846 0.0769231 0.0769231 0.153846 0.538462 0.376812 0.173913 0.15942 0.26087 0.0289855 0.307692 0.153846 0.230769 0.230769 0.0769231 0.296296 0.185185 0.222222 0.259259 0.037037 0.414414 0.171171 0.225225 0.18018 0.00900901 </TABLE>
</DEFINITION>
<DEFINITION>
	<FOR>Purpose</FOR><!--Purpose | -->
	<TABLE>0.0970297 0.232673 0.10297 0.0128713 0.050495 0.180198 0.0128713 0.278218 0.0227723 0.00990099 </TABLE>
</DEFINITION>
<DEFINITION>
	<FOR>InstallmentRate</FOR><!--InstallmentRate | -->
	<TABLE>0.136454 0.231076 0.157371 0.4751 </TABLE>
</DEFINITION>
<DEFINITION>
	<FOR>ExistingCredits</FOR><!--ExistingCredits | CreditHistory,-->
	<GIVEN>CreditHistory</GIVEN>
	<TABLE>0.792453 0.169811 0.0188679 0.0188679 0.239057 0.670034 0.0774411 0.013468 0.347826 0.619565 0.0108696 0.0217391 0.897004 0.088015 0.0093633 0.00561798 0.318182 0.590909 0.0681818 0.0227273 </TABLE>
</DEFINITION>
<DEFINITION>
	<FOR>CreditAmount</FOR><!--CreditAmount | -->
	<TABLE>0.0199402 0.86341 0.11665 </TABLE>
</DEFINITION>
<DEFINITION>
	<FOR>CheckingAccount</FOR><!--CheckingAccount | CreditRisk,-->
	<GIVEN>CreditRisk</GIVEN>
	<TABLE>0.348684 0.154605 0.0493421 0.447368 0.234375 0.495739 0.0710227 0.198864 </TABLE>
</DEFINITION>
<DEFINITION>
	<FOR>CreditHistory</FOR><!--CreditHistory | CreditRisk,-->
	<GIVEN>CreditRisk</GIVEN>
	<TABLE>0.095082 0.167213 0.095082 0.557377 0.0852459 0.0312057 0.346099 0.0865248 0.513475 0.022695 </TABLE>
</DEFINITION>
<DEFINITION>
	<FOR>Job</FOR><!--Job | CreditAmount,-->
	<GIVEN>CreditAmount</GIVEN>
	<TABLE>0.565217 0.304348 0.0869565 0.0434783 0.104718 0.651323 0.0241657 0.219793 0.391667 0.5 0.0166667 0.0916667 </TABLE>
</DEFINITION>
<DEFINITION>
	<FOR>SavingsAccount</FOR><!--SavingsAccount | CreditRisk,-->
	<GIVEN>CreditRisk</GIVEN>
	<TABLE>0.114754 0.0393443 0.0229508 0.714754 0.108197 0.0992908 0.0751773 0.0609929 0.548936 0.215603 </TABLE>
</DEFINITION>
<DEFINITION>
	<FOR>CreditRisk</FOR><!--CreditRisk | ForeignWorker,-->
	<GIVEN>ForeignWorker</GIVEN>
	<TABLE>0.128205 0.871795 0.307772 0.692228 </TABLE>
</DEFINITION>
<DEFINITION>
	<FOR>Telephone</FOR><!--Telephone | Job,-->
	<GIVEN>Job</GIVEN>
	<TABLE>0.146667 0.853333 0.618671 0.381329 0.708333 0.291667 0.841584 0.158416 </TABLE>
</DEFINITION>
<DEFINITION>
	<FOR>ForeignWorker</FOR><!--ForeignWorker | Telephone,-->
	<GIVEN>Telephone</GIVEN>
	<TABLE>0.0551839 0.944816 0.0147783 0.985222 </TABLE>
</DEFINITION>
<DEFINITION>
	<FOR>LiablePeople</FOR><!--LiablePeople | PersonalStatusSex,Age,-->
	<GIVEN>Age</GIVEN>
	<GIVEN>PersonalStatusSex</GIVEN>
	<TABLE>0.912281 0.0877193 0.9 0.1 0.842105 0.157895 0.606383 0.393617 0.916667 0.0833333 0.833333 0.166667 0.666667 0.333333 0.930233 0.0697674 0.957447 0.0425532 0.9 0.1 0.986842 0.0131579 0.80805 0.19195 </TABLE>
</DEFINITION>
<DEFINITION>
	<FOR>OtherInstallmentPlans</FOR><!--OtherInstallmentPlans | CreditHistory,-->
	<GIVEN>CreditHistory</GIVEN>
	<TABLE>0.480769 0.346154 0.173077 0.114865 0.851351 0.0337838 0.142857 0.736264 0.120879 0.114447 0.849906 0.0356473 0.255814 0.674419 0.0697674 </TABLE>
</DEFINITION>
<DEFINITION>
	<FOR>Age</FOR><!--Age | EmploymentSince,-->
	<GIVEN>EmploymentSince</GIVEN>
	<TABLE>0.207602 0.0409357 0.751462 0.220339 0.039548 0.740113 0.488281 0.148438 0.363281 0.154286 0.0114286 0.834286 0.292308 0.184615 0.523077 </TABLE>
</DEFINITION>
<DEFINITION>
	<FOR>OtherDebtors</FOR><!--OtherDebtors | Property,-->
	<GIVEN>Property</GIVEN>
	<TABLE>0.0382979 0.0680851 0.893617 0.0328358 0.0149254 0.952239 0.045614 0.112281 0.842105 0.0764331 0.0191083 0.904459 </TABLE>
</DEFINITION>
<DEFINITION>
	<FOR>PersonalStatusSex</FOR><!--PersonalStatusSex | Housing,-->
	<GIVEN>Housing</GIVEN>
	<TABLE>0.178571 0.0357143 0.0178571 0.767857 0.274756 0.0585774 0.0962343 0.570432 0.52459 0.0382514 0.131148 0.306011 </TABLE>
</DEFINITION>
<DEFINITION>
	<FOR>ResidenceSince</FOR><!--ResidenceSince | EmploymentSince,Housing,-->
	<GIVEN>EmploymentSince</GIVEN>
	<GIVEN>Housing</GIVEN>
	<TABLE>0.0666667 0.233333 0.0666667 0.633333 0.121094 0.535156 0.132812 0.210938 0.0307692 0.353846 0.123077 0.492308 0.266667 0.0666667 0.133333 0.533333 0.192593 0.288889 0.311111 0.207407 0.0277778 0.138889 0.138889 0.694444 0.0185185 0.0740741 0.0555556 0.851852 0.0568182 0.215909 0.119318 0.607955 0.0571429 0.2 0.114286 0.628571 0.2 0.2 0.2 0.4 0.365854 0.268293 0.162602 0.203252 0.196078 0.117647 0.196078 0.490196 0.0526316 0.210526 0.105263 0.631579 0.162791 0.302326 0.186047 0.348837 0.0833333 0.333333 0.0833333 0.5 </TABLE>
</DEFINITION>
<DEFINITION>
	<FOR>Duration</FOR><!--Duration | CreditRisk,CreditAmount,-->
	<GIVEN>CreditAmount</GIVEN>
	<GIVEN>CreditRisk</GIVEN>
	<TABLE>0.235294 0.411765 0.352941 0.375 0.5 0.125 0.0125 0.229167 0.758333 0.00158479 0.126783 0.871632 0.0769231 0.673077 0.25 0.1 0.542857 0.357143 </TABLE>
</DEFINITION>
<DEFINITION>
	<FOR>Housing</FOR><!--Housing | Property,-->
	<GIVEN>Property</GIVEN>
	<TABLE>0.012766 0.787234 0.2 0.00597015 0.81194 0.18209 0.00701754 0.796491 0.196491 0.66879 0.210191 0.121019 </TABLE>
</DEFINITION>
<DEFINITION>
	<FOR>ApproveLoan</FOR><!--ApproveLoan | CheckingAccount,Duration,SavingsAccount,ForeignWorker,CreditHistory,CreditAmount,-->
	<GIVEN>CreditAmount</GIVEN>
	<GIVEN>CreditHistory</GIVEN>
	<GIVEN>ForeignWorker</GIVEN>
	<GIVEN>SavingsAccount</GIVEN>
	<GIVEN>Duration</GIVEN>
	<GIVEN>CheckingAccount</GIVEN>
</DEFINITION>
<DEFINITION>
	<FOR>Utility</FOR><!--Utility | ApproveLoan,CreditRisk,-->
	<GIVEN>CreditRisk</GIVEN>
	<GIVEN>ApproveLoan</GIVEN>
	<TABLE>-5 0 0 -1 </TABLE>
</DEFINITION>

</NETWORK>
</BIF>
