<?xml version="1.0" ?>

<BIF VERSION="0.3">
<NETWORK>

<!-- Variables -->
<VARIABLE TYPE="nature">
	<NAME>Property</NAME>
	<PROPERTY>description = </PROPERTY>
	<PROPERTY>fast = Property{building_society_savings_life_insurance|car_or_other|real_estate|unknown_no_property}</PROPERTY>
<!- OUTCOME are not used in pyAgrum BIFXML (see fast property) but are kept for compatibility->
	<OUTCOME>building_society_savings_life_insurance</OUTCOME>
	<OUTCOME>car_or_other</OUTCOME>
	<OUTCOME>real_estate</OUTCOME>
	<OUTCOME>unknown_no_property</OUTCOME>
</VARIABLE>

<VARIABLE TYPE="nature">
	<NAME>ResidenceSince</NAME>
	<PROPERTY>description = </PROPERTY>
	<PROPERTY>fast = ResidenceSince{1|2|3|4}</PROPERTY>
<!- OUTCOME are not used in pyAgrum BIFXML (see fast property) but are kept for compatibility->
	<OUTCOME>1</OUTCOME>
	<OUTCOME>2</OUTCOME>
	<OUTCOME>3</OUTCOME>
	<OUTCOME>4</OUTCOME>
</VARIABLE>

<VARIABLE TYPE="nature">
	<NAME>PersonalStatusSex</NAME>
	<PROPERTY>description = </PROPERTY>
	<PROPERTY>fast = PersonalStatusSex{female_divorced_separated_married|male_divorced_separated|male_married_widowed|male_single}</PROPERTY>
<!- OUTCOME are not used in pyAgrum BIFXML (see fast property) but are kept for compatibility->
	<OUTCOME>female_divorced_separated_married</OUTCOME>
	<OUTCOME>male_divorced_separated</OUTCOME>
	<OUTCOME>male_married_widowed</OUTCOME>
	<OUTCOME>male_single</OUTCOME>
</VARIABLE>

<VARIABLE TYPE="nature">
	<NAME>ExistingCredits</NAME>
	<PROPERTY>description = </PROPERTY>
	<PROPERTY>fast = ExistingCredits{1|2|3|4}</PROPERTY>
<!- OUTCOME are not used in pyAgrum BIFXML (see fast property) but are kept for compatibility->
	<OUTCOME>1</OUTCOME>
	<OUTCOME>2</OUTCOME>
	<OUTCOME>3</OUTCOME>
	<OUTCOME>4</OUTCOME>
</VARIABLE>

<VARIABLE TYPE="nature">
	<NAME>OtherInstallmentPlans</NAME>
	<PROPERTY>description = </PROPERTY>
	<PROPERTY>fast = OtherInstallmentPlans{bank|none|stores}</PROPERTY>
<!- OUTCOME are not used in pyAgrum BIFXML (see fast property) but are kept for compatibility->
	<OUTCOME>bank</OUTCOME>
	<OUTCOME>none</OUTCOME>
	<OUTCOME>stores</OUTCOME>
</VARIABLE>

<VARIABLE TYPE="nature">
	<NAME>Purpose</NAME>
	<PROPERTY>description = </PROPERTY>
	<PROPERTY>fast = Purpose{business|car_new_|car_used_|domestic_appliances|education|furniture_equipment|others|radio_television|repairs|retraining}</PROPERTY>
<!- OUTCOME are not used in pyAgrum BIFXML (see fast property) but are kept for compatibility->
	<OUTCOME>business</OUTCOME>
	<OUTCOME>car_new_</OUTCOME>
	<OUTCOME>car_used_</OUTCOME>
	<OUTCOME>domestic_appliances</OUTCOME>
	<OUTCOME>education</OUTCOME>
	<OUTCOME>furniture_equipment</OUTCOME>
	<OUTCOME>others</OUTCOME>
	<OUTCOME>radio_television</OUTCOME>
	<OUTCOME>repairs</OUTCOME>
	<OUTCOME>retraining</OUTCOME>
</VARIABLE>

<VARIABLE TYPE="nature">
	<NAME>CreditAmount</NAME>
	<PROPERTY>description = </PROPERTY>
	<PROPERTY>fast = CreditAmount{High|Low|Medium}</PROPERTY>
<!- OUTCOME are not used in pyAgrum BIFXML (see fast property) but are kept for compatibility->
	<OUTCOME>High</OUTCOME>
	<OUTCOME>Low</OUTCOME>
	<OUTCOME>Medium</OUTCOME>
</VARIABLE>

<VARIABLE TYPE="nature">
	<NAME>CreditHistory</NAME>
	<PROPERTY>description = </PROPERTY>
	<PROPERTY>fast = CreditHistory{All_credits_at_this_bank_paid_duly|Critical_account_other_credits_elsewhere|Delay_in_paying_off_in_the_past|Existing_credits_paid_duly_till_now|No_credits_taken_all_paid_duly}</PROPERTY>
<!- OUTCOME are not used in pyAgrum BIFXML (see fast property) but are kept for compatibility->
	<OUTCOME>All_credits_at_this_bank_paid_duly</OUTCOME>
	<OUTCOME>Critical_account_other_credits_elsewhere</OUTCOME>
	<OUTCOME>Delay_in_paying_off_in_the_past</OUTCOME>
	<OUTCOME>Existing_credits_paid_duly_till_now</OUTCOME>
	<OUTCOME>No_credits_taken_all_paid_duly</OUTCOME>
</VARIABLE>

<VARIABLE TYPE="nature">
	<NAME>OtherDebtors</NAME>
	<PROPERTY>description = </PROPERTY>
	<PROPERTY>fast = OtherDebtors{co_applicant|guarantor|none}</PROPERTY>
<!- OUTCOME are not used in pyAgrum BIFXML (see fast property) but are kept for compatibility->
	<OUTCOME>co_applicant</OUTCOME>
	<OUTCOME>guarantor</OUTCOME>
	<OUTCOME>none</OUTCOME>
</VARIABLE>

<VARIABLE TYPE="nature">
	<NAME>Housing</NAME>
	<PROPERTY>description = </PROPERTY>
	<PROPERTY>fast = Housing{for_free|own|rent}</PROPERTY>
<!- OUTCOME are not used in pyAgrum BIFXML (see fast property) but are kept for compatibility->
	<OUTCOME>for_free</OUTCOME>
	<OUTCOME>own</OUTCOME>
	<OUTCOME>rent</OUTCOME>
</VARIABLE>

<VARIABLE TYPE="nature">
	<NAME>ForeignWorker</NAME>
	<PROPERTY>description = </PROPERTY>
	<PROPERTY>fast = ForeignWorker{no|yes}</PROPERTY>
<!- OUTCOME are not used in pyAgrum BIFXML (see fast property) but are kept for compatibility->
	<OUTCOME>no</OUTCOME>
	<OUTCOME>yes</OUTCOME>
</VARIABLE>

<VARIABLE TYPE="nature">
	<NAME>Age</NAME>
	<PROPERTY>description = </PROPERTY>
	<PROPERTY>fast = Age{Middle|Old|Young}</PROPERTY>
<!- OUTCOME are not used in pyAgrum BIFXML (see fast property) but are kept for compatibility->
	<OUTCOME>Middle</OUTCOME>
	<OUTCOME>Old</OUTCOME>
	<OUTCOME>Young</OUTCOME>
</VARIABLE>

<VARIABLE TYPE="nature">
	<NAME>Duration</NAME>
	<PROPERTY>description = </PROPERTY>
	<PROPERTY>fast = Duration{Long|Medium|Short}</PROPERTY>
<!- OUTCOME are not used in pyAgrum BIFXML (see fast property) but are kept for compatibility->
	<OUTCOME>Long</OUTCOME>
	<OUTCOME>Medium</OUTCOME>
	<OUTCOME>Short</OUTCOME>
</VARIABLE>

<VARIABLE TYPE="nature">
	<NAME>SavingsAccount</NAME>
	<PROPERTY>description = </PROPERTY>
	<PROPERTY>fast = SavingsAccount{_100to500_DM|_500to1000_DM|ge1000_DM|lt100_DM|unknown_no_savings}</PROPERTY>
<!- OUTCOME are not used in pyAgrum BIFXML (see fast property) but are kept for compatibility->
	<OUTCOME>_100to500_DM</OUTCOME>
	<OUTCOME>_500to1000_DM</OUTCOME>
	<OUTCOME>ge1000_DM</OUTCOME>
	<OUTCOME>lt100_DM</OUTCOME>
	<OUTCOME>unknown_no_savings</OUTCOME>
</VARIABLE>

<VARIABLE TYPE="nature">
	<NAME>CreditRisk</NAME>
	<PROPERTY>description = </PROPERTY>
	<PROPERTY>fast = CreditRisk{Bad|Good}</PROPERTY>
<!- OUTCOME are not used in pyAgrum BIFXML (see fast property) but are kept for compatibility->
	<OUTCOME>Bad</OUTCOME>
	<OUTCOME>Good</OUTCOME>
</VARIABLE>

<VARIABLE TYPE="nature">
	<NAME>InstallmentRate</NAME>
	<PROPERTY>description = </PROPERTY>
	<PROPERTY>fast = InstallmentRate{1|2|3|4}</PROPERTY>
<!- OUTCOME are not used in pyAgrum BIFXML (see fast property) but are kept for compatibility->
	<OUTCOME>1</OUTCOME>
	<OUTCOME>2</OUTCOME>
	<OUTCOME>3</OUTCOME>
	<OUTCOME>4</OUTCOME>
</VARIABLE>

<VARIABLE TYPE="nature">
	<NAME>Job</NAME>
	<PROPERTY>description = </PROPERTY>
	<PROPERTY>fast = Job{management_self_employed_highly_qualified_officer|skilled_employee_official|unemployed_unskilled_non_resident|unskilled_resident}</PROPERTY>
<!- OUTCOME are not used in pyAgrum BIFXML (see fast property) but are kept for compatibility->
	<OUTCOME>management_self_employed_highly_qualified_officer</OUTCOME>
	<OUTCOME>skilled_employee_official</OUTCOME>
	<OUTCOME>unemployed_unskilled_non_resident</OUTCOME>
	<OUTCOME>unskilled_resident</OUTCOME>
</VARIABLE>

<VARIABLE TYPE="nature">
	<NAME>EmploymentSince</NAME>
	<PROPERTY>description = </PROPERTY>
	<PROPERTY>fast = EmploymentSince{_1to4_years|_4to7_years|ge7_years|lt1_year|unemployed}</PROPERTY>
<!- OUTCOME are not used in pyAgrum BIFXML (see fast property) but are kept for compatibility->
	<OUTCOME>_1to4_years</OUTCOME>
	<OUTCOME>_4to7_years</OUTCOME>
	<OUTCOME>ge7_years</OUTCOME>
	<OUTCOME>lt1_year</OUTCOME>
	<OUTCOME>unemployed</OUTCOME>
</VARIABLE>

<VARIABLE TYPE="nature">
	<NAME>CheckingAccount</NAME>
	<PROPERTY>description = </PROPERTY>
	<PROPERTY>fast = CheckingAccount{_0to200|No_Checking|ge200|lt0}</PROPERTY>
<!- OUTCOME are not used in pyAgrum BIFXML (see fast property) but are kept for compatibility->
	<OUTCOME>_0to200</OUTCOME>
	<OUTCOME>No_Checking</OUTCOME>
	<OUTCOME>ge200</OUTCOME>
	<OUTCOME>lt0</OUTCOME>
</VARIABLE>

<VARIABLE TYPE="nature">
	<NAME>Telephone</NAME>
	<PROPERTY>description = </PROPERTY>
	<PROPERTY>fast = Telephone{none|yes_registered_}</PROPERTY>
<!- OUTCOME are not used in pyAgrum BIFXML (see fast property) but are kept for compatibility->
	<OUTCOME>none</OUTCOME>
	<OUTCOME>yes_registered_</OUTCOME>
</VARIABLE>

<VARIABLE TYPE="nature">
	<NAME>LiablePeople</NAME>
	<PROPERTY>description = </PROPERTY>
	<PROPERTY>fast = LiablePeople{1|2}</PROPERTY>
<!- OUTCOME are not used in pyAgrum BIFXML (see fast property) but are kept for compatibility->
	<OUTCOME>1</OUTCOME>
	<OUTCOME>2</OUTCOME>
</VARIABLE>

<VARIABLE TYPE="decision">
	<NAME>ApproveLoan</NAME>
	<PROPERTY>description = Approve or reject the loan</PROPERTY>
	<PROPERTY>fast = ApproveLoan{Approve|Reject}</PROPERTY>
<!- OUTCOME are not used in pyAgrum BIFXML (see fast property) but are kept for compatibility->
	<OUTCOME>Approve</OUTCOME>
	<OUTCOME>Reject</OUTCOME>
</VARIABLE>

<VARIABLE TYPE="utility">
	<NAME>Utility</NAME>
	<PROPERTY>description = Financial outcome of decision</PROPERTY>
	<PROPERTY>fast = Utility{0}</PROPERTY>
<!- OUTCOME are not used in pyAgrum BIFXML (see fast property) but are kept for compatibility->
	<OUTCOME>0</OUTCOME>
</VARIABLE>

<!-- Probability distributions -->
<DEFINITION>
	<FOR>Property</FOR><!--Property | Purpose,-->
	<GIVEN>Purpose</GIVEN>
	<TABLE>0.216509 0.360779 0.309254 0.113458 0.2265 0.286319 0.316228 0.170954 0.184491 0.417411 0.106852 0.291246 0.25 0.25 0.416113 0.083887 0.259992 0.259992 0.0801359 0.39988 0.381186 0.287285 0.232048 0.0994808 0.083887 0.416113 0.083887 0.416113 0.160727 0.382124 0.371411 0.0857378 0.13657 0.227314 0.408802 0.227314 0.554204 0.222345 0.222345 0.00110619 </TABLE>
</DEFINITION>
<DEFINITION>
	<FOR>ResidenceSince</FOR><!--ResidenceSince | Housing,-->
	<GIVEN>Housing</GIVEN>
	<TABLE>0.0463717 0.120418 0.0556275 0.777582 0.159893 0.357638 0.168308 0.314162 0.0614946 0.22347 0.128519 0.586517 </TABLE>
</DEFINITION>
<DEFINITION>
	<FOR>PersonalStatusSex</FOR><!--PersonalStatusSex | EmploymentSince,-->
	<GIVEN>EmploymentSince</GIVEN>
	<TABLE>0.315626 0.0560701 0.112111 0.516193 0.27011 0.0230407 0.0862445 0.620604 0.185781 0.0514148 0.0474629 0.715341 0.499942 0.0639967 0.133748 0.302313 0.37089 0.0485171 0.0646357 0.515957 </TABLE>
</DEFINITION>
<DEFINITION>
	<FOR>ExistingCredits</FOR><!--ExistingCredits | CreditHistory,-->
	<GIVEN>CreditHistory</GIVEN>
	<TABLE>0.836256 0.163336 0.000203915 0.000203915 0.238909 0.67571 0.0751092 0.0102716 0.352226 0.636188 0.000113585 0.0114721 0.901838 0.0868048 0.00756547 0.00379217 0.324925 0.624625 0.0501998 0.00024975 </TABLE>
</DEFINITION>
<DEFINITION>
	<FOR>OtherInstallmentPlans</FOR><!--OtherInstallmentPlans | CreditHistory,-->
	<GIVEN>CreditHistory</GIVEN>
	<TABLE>0.4897 0.34693 0.163369 0.112651 0.856602 0.0307477 0.136431 0.749858 0.113711 0.11322 0.852801 0.0339792 0.250062 0.699725 0.0502123 </TABLE>
</DEFINITION>
<DEFINITION>
	<FOR>Purpose</FOR><!--Purpose | CheckingAccount,-->
	<GIVEN>CheckingAccount</GIVEN>
	<TABLE>0.148681 0.223003 0.0780751 0.00746934 0.0483463 0.144965 0.0260498 0.278744 0.033482 0.0111854 0.0939102 0.20302 0.137046 0.0101751 0.0507739 0.149734 0.0025628 0.322279 0.0203248 0.0101751 0.0793978 0.253724 0.0318542 0.0160063 0.0635499 0.174485 0.000158479 0.380507 0.000158479 0.000158479 0.054761 0.284604 0.0948924 0.018278 0.0474644 0.262714 0.0146297 0.197045 0.018278 0.00733309 </TABLE>
</DEFINITION>
<DEFINITION>
	<FOR>CreditAmount</FOR><!--CreditAmount | Job,-->
	<GIVEN>Job</GIVEN>
	<TABLE>0.0811322 0.608052 0.310815 0.00953923 0.896799 0.0936622 0.0458466 0.908307 0.0458466 4.99925e-05 0.949908 0.0500425 </TABLE>
</DEFINITION>
<DEFINITION>
	<FOR>CreditHistory</FOR><!--CreditHistory | Purpose,-->
	<GIVEN>Purpose</GIVEN>
	<TABLE>0.0722308 0.195878 0.237094 0.340134 0.154663 0.0513138 0.333305 0.0726768 0.512754 0.0299509 0.0486172 0.349442 0.0777293 0.495002 0.0292091 0.0838174 0.0838174 0.000829876 0.830705 0.000829876 0.0601399 0.37982 0.1001 0.45974 0.0001998 0.0442419 0.276222 0.0552886 0.585529 0.0387186 0.166805 0.249793 0.166805 0.33278 0.0838174 0.0321728 0.285699 0.0714515 0.596358 0.0143189 0.000453515 0.272562 0.136508 0.49932 0.0911565 0.222099 0.111602 0.00110497 0.553591 0.111602 </TABLE>
</DEFINITION>
<DEFINITION>
	<FOR>OtherDebtors</FOR><!--OtherDebtors | Purpose,-->
	<GIVEN>Purpose</GIVEN>
	<TABLE>0.0207152 0.0207152 0.95857 0.0427723 0.0470453 0.910182 0.00980297 0.0292148 0.960982 0.000831255 0.000831255 0.998337 0.00019988 0.00019988 0.9996 0.0663426 0.0387229 0.894935 0.333333 0.0839568 0.58271 0.0393172 0.0928829 0.8678 0.0458466 0.0912392 0.862914 0.00110742 0.00110742 0.997785 </TABLE>
</DEFINITION>
<DEFINITION>
	<FOR>Housing</FOR><!--Housing | Property,-->
	<GIVEN>Property</GIVEN>
	<TABLE>0.00866267 0.793044 0.198293 0.00304189 0.816221 0.180737 0.00358118 0.801369 0.19505 0.675258 0.207817 0.116925 </TABLE>
</DEFINITION>
<DEFINITION>
	<FOR>ForeignWorker</FOR><!--ForeignWorker | Purpose,-->
	<GIVEN>Purpose</GIVEN>
	<TABLE>0.0104102 0.98959 0.0897787 0.910221 0.0195108 0.980489 0.000831947 0.999168 0.00019992 0.9998 0.0332008 0.966799 0.0840266 0.915973 0.0178916 0.982108 0.0458674 0.954133 0.00110865 0.998891 </TABLE>
</DEFINITION>
<DEFINITION>
	<FOR>Age</FOR><!--Age | EmploymentSince,-->
	<GIVEN>EmploymentSince</GIVEN>
	<TABLE>0.206501 0.0383742 0.755125 0.218411 0.0345343 0.747055 0.4901 0.146267 0.363633 0.151195 0.00587107 0.842934 0.290343 0.177495 0.532162 </TABLE>
</DEFINITION>
<DEFINITION>
	<FOR>Duration</FOR><!--Duration | CreditAmount,-->
	<GIVEN>CreditAmount</GIVEN>
	<TABLE>0.263269 0.473463 0.263269 0.00232362 0.153763 0.843913 0.0776523 0.611997 0.310351 </TABLE>
</DEFINITION>
<DEFINITION>
	<FOR>SavingsAccount</FOR><!--SavingsAccount | CheckingAccount,-->
	<GIVEN>CheckingAccount</GIVEN>
	<TABLE>0.174726 0.0409218 0.0520721 0.564988 0.167292 0.0989976 0.101535 0.0634691 0.484735 0.251263 0.0794607 0.0636003 0.0477399 0.650436 0.158763 0.0438241 0.0292282 0.0219303 0.799161 0.105857 </TABLE>
</DEFINITION>
<DEFINITION>
	<FOR>CreditRisk</FOR><!--CreditRisk | -->
	<TABLE>0.300004 0.699996 </TABLE>
</DEFINITION>
<DEFINITION>
	<FOR>InstallmentRate</FOR><!--InstallmentRate | Purpose,-->
	<GIVEN>Purpose</GIVEN>
	<TABLE>0.113458 0.298949 0.175289 0.412304 0.192318 0.205136 0.132499 0.470048 0.184491 0.271836 0.242721 0.300951 0.166944 0.083887 0.166944 0.582226 0.10012 0.220024 0.0801359 0.59972 0.160241 0.281761 0.132623 0.425376 0.083887 0.416113 0.25 0.25 0.0785959 0.189294 0.164298 0.567812 0.0458258 0.181942 0.227314 0.544918 0.111726 0.111726 0.00110619 0.775442 </TABLE>
</DEFINITION>
<DEFINITION>
	<FOR>Job</FOR><!--Job | EmploymentSince,-->
	<GIVEN>EmploymentSince</GIVEN>
	<TABLE>0.0826156 0.678416 0.002979 0.23599 0.120719 0.683808 5.74581e-05 0.195415 0.197637 0.640255 3.95194e-05 0.162069 0.0930598 0.622007 0.0291211 0.255813 0.532076 0.193585 0.258059 0.0162798 </TABLE>
</DEFINITION>
<DEFINITION>
	<FOR>EmploymentSince</FOR><!--EmploymentSince | ResidenceSince,-->
	<GIVEN>ResidenceSince</GIVEN>
	<TABLE>0.246136 0.215379 0.0769704 0.415302 0.046213 0.532414 0.136374 0.149359 0.123389 0.0584645 0.275143 0.308688 0.167796 0.194633 0.0537404 0.246968 0.140443 0.416439 0.123496 0.0726546 </TABLE>
</DEFINITION>
<DEFINITION>
	<FOR>CheckingAccount</FOR><!--CheckingAccount | CreditRisk,-->
	<GIVEN>CreditRisk</GIVEN>
	<TABLE>0.349987 0.153346 0.0466938 0.449973 0.234287 0.497129 0.0700103 0.198574 </TABLE>
</DEFINITION>
<DEFINITION>
	<FOR>Telephone</FOR><!--Telephone | Job,-->
	<GIVEN>Job</GIVEN>
	<TABLE>0.14194 0.85806 0.619044 0.380956 0.727066 0.272934 0.844966 0.155034 </TABLE>
</DEFINITION>
<DEFINITION>
	<FOR>LiablePeople</FOR><!--LiablePeople | PersonalStatusSex,-->
	<GIVEN>PersonalStatusSex</GIVEN>
	<TABLE>0.954809 0.0451906 0.939824 0.0601759 0.978157 0.0218431 0.751816 0.248184 </TABLE>
</DEFINITION>
<DEFINITION>
	<FOR>ApproveLoan</FOR><!--ApproveLoan | CheckingAccount,-->
	<GIVEN>CheckingAccount</GIVEN>
</DEFINITION>
<DEFINITION>
	<FOR>Utility</FOR><!--Utility | ApproveLoan,CreditRisk,-->
	<GIVEN>CreditRisk</GIVEN>
	<GIVEN>ApproveLoan</GIVEN>
	<TABLE>-5 0 0 -1 </TABLE>
</DEFINITION>

</NETWORK>
</BIF>
