network ""GermanCreditManualBN"" {
// written by aGrUM 2.2.1
}

variable LiablePeople {
   type discrete[2] {_1, _2};
}

variable Character {
   type discrete[2] {bad, good};
}

variable SavingsAccount {
   type discrete[5] {_100to500_DM, _500to1000_DM, ge1000_DM, lt100_DM, unknown__no_savings};
}

variable Purpose {
   type discrete[10] {business, car_new, car_used, domestic_appliances, education, furniture_equipment, others, radio_television, repairs, retraining};
}

variable Property {
   type discrete[4] {building_society_savings__life_insurance, car_or_other, real_estate, unknown__no_property};
}

variable ForeignWorker {
   type discrete[2] {no, yes};
}

variable OtherDebtors {
   type discrete[3] {co_applicant, guarantor, none};
}

variable CheckingAccount {
   type discrete[4] {_0to200, No_Checking, ge200, lt0};
}

variable Income {
   type discrete[3] {low, medium, high};
}

variable InstallmentRate {
   type discrete[4] {_1, _2, _3, _4};
}

variable Duration {
   type discrete[3] {Long, Medium, Short};
}

variable Collateral {
   type discrete[3] {none, some, good};
}

variable CreditAmount {
   type discrete[3] {High, Low, Medium};
}

variable ExistingCredits {
   type discrete[4] {_1, _2, _3, _4};
}

variable Capital {
   type discrete[3] {low, medium, high};
}

variable CreditRisk {
   type discrete[2] {Bad, Good};
}

variable EmploymentSince {
   type discrete[5] {_1to4_years, _4to7_years, ge7_years, lt1_year, unemployed};
}

variable OtherInstallmentPlans {
   type discrete[3] {bank, none, stores};
}

variable Capacity {
   type discrete[3] {low, medium, high};
}

variable Age {
   type discrete[3] {Middle, Old, Young};
}

variable Housing {
   type discrete[3] {for_free, own, rent};
}

variable ResidenceSince {
   type discrete[4] {_1, _2, _3, _4};
}

variable PersonalStatusSex {
   type discrete[4] {female__divorced_separated_married, male__divorced_separated, male__married_widowed, male__single};
}

variable CreditHistory {
   type discrete[5] {All_credits_at_this_bank_paid_duly, Critical_account__other_credits_elsewhere, Delay_in_paying_off_in_the_past, Existing_credits_paid_duly_till_now, No_credits_taken__all_paid_duly};
}

variable Job {
   type discrete[4] {management_self_employed_highly_qualified_officer, skilled_employee_official, unemployed_unskilled__non_resident, unskilled__resident};
}

variable Terms {
   type discrete[3] {short, medium, long};
}

probability (LiablePeople | PersonalStatusSex) {
   (female__divorced_separated_married) 0.951923 0.0480769;
   (male__divorced_separated) 0.923077 0.0769231;
   (male__married_widowed) 0.968085 0.0319149;
   (male__single) 0.750909 0.249091;
}
probability (Character | CreditHistory, EmploymentSince, ResidenceSince, OtherInstallmentPlans, Purpose) {
   (All_credits_at_this_bank_paid_duly, _1to4_years, _1, bank, business) 0.5 0.5;
   (Critical_account__other_credits_elsewhere, _1to4_years, _1, bank, business) 0.5 0.5;
   (Delay_in_paying_off_in_the_past, _1to4_years, _1, bank, business) 0.5 0.5;
   (Existing_credits_paid_duly_till_now, _1to4_years, _1, bank, business) 0.333333 0.666667;
   (No_credits_taken__all_paid_duly, _1to4_years, _1, bank, business) 0.5 0.5;
   (All_credits_at_this_bank_paid_duly, _4to7_years, _1, bank, business) 0.5 0.5;
   (Critical_account__other_credits_elsewhere, _4to7_years, _1, bank, business) 0.333333 0.666667;
   (Delay_in_paying_off_in_the_past, _4to7_years, _1, bank, business) 0.5 0.5;
   (Existing_credits_paid_duly_till_now, _4to7_years, _1, bank, business) 0.5 0.5;
   (No_credits_taken__all_paid_duly, _4to7_years, _1, bank, business) 0.666667 0.333333;
   (All_credits_at_this_bank_paid_duly, ge7_years, _1, bank, business) 0.5 0.5;
   (Critical_account__other_credits_elsewhere, ge7_years, _1, bank, business) 0.5 0.5;
   (Delay_in_paying_off_in_the_past, ge7_years, _1, bank, business) 0.5 0.5;
   (Existing_credits_paid_duly_till_now, ge7_years, _1, bank, business) 0.333333 0.666667;
   (No_credits_taken__all_paid_duly, ge7_years, _1, bank, business) 0.5 0.5;
   (All_credits_at_this_bank_paid_duly, lt1_year, _1, bank, business) 0.5 0.5;
   (Critical_account__other_credits_elsewhere, lt1_year, _1, bank, business) 0.666667 0.333333;
   (Delay_in_paying_off_in_the_past, lt1_year, _1, bank, business) 0.5 0.5;
   (Existing_credits_paid_duly_till_now, lt1_year, _1, bank, business) 0.5 0.5;
   (No_credits_taken__all_paid_duly, lt1_year, _1, bank, business) 0.5 0.5;
   (All_credits_at_this_bank_paid_duly, unemployed, _1, bank, business) 0.5 0.5;
   (Critical_account__other_credits_elsewhere, unemployed, _1, bank, business) 0.5 0.5;
   (Delay_in_paying_off_in_the_past, unemployed, _1, bank, business) 0.5 0.5;
   (Existing_credits_paid_duly_till_now, unemployed, _1, bank, business) 0.5 0.5;
   (No_credits_taken__all_paid_duly, unemployed, _1, bank, business) 0.5 0.5;
   (All_credits_at_this_bank_paid_duly, _1to4_years, _2, bank, business) 0.5 0.5;
   (Critical_account__other_credits_elsewhere, _1to4_years, _2, bank, business) 0.5 0.5;
   (Delay_in_paying_off_in_the_past, _1to4_years, _2, bank, business) 0.333333 0.666667;
   (Existing_credits_paid_duly_till_now, _1to4_years, _2, bank, business) 0.666667 0.333333;
   (No_credits_taken__all_paid_duly, _1to4_years, _2, bank, business) 0.333333 0.666667;
   (All_credits_at_this_bank_paid_duly, _4to7_years, _2, bank, business) 0.5 0.5;
   (Critical_account__other_credits_elsewhere, _4to7_years, _2, bank, business) 0.5 0.5;
   (Delay_in_paying_off_in_the_past, _4to7_years, _2, bank, business) 0.5 0.5;
   (Existing_credits_paid_duly_till_now, _4to7_years, _2, bank, business) 0.5 0.5;
   (No_credits_taken__all_paid_duly, _4to7_years, _2, bank, business) 0.5 0.5;
   (All_credits_at_this_bank_paid_duly, ge7_years, _2, bank, business) 0.5 0.5;
   (Critical_account__other_credits_elsewhere, ge7_years, _2, bank, business) 0.333333 0.666667;
   (Delay_in_paying_off_in_the_past, ge7_years, _2, bank, business) 0.333333 0.666667;
   (Existing_credits_paid_duly_till_now, ge7_years, _2, bank, business) 0.333333 0.666667;
   (No_credits_taken__all_paid_duly, ge7_years, _2, bank, business) 0.5 0.5;
   (All_credits_at_this_bank_paid_duly, lt1_year, _2, bank, business) 0.5 0.5;
   (Critical_account__other_credits_elsewhere, lt1_year, _2, bank, business) 0.5 0.5;
   (Delay_in_paying_off_in_the_past, lt1_year, _2, bank, business) 0.25 0.75;
   (Existing_credits_paid_duly_till_now, lt1_year, _2, bank, business) 0.5 0.5;
   (No_credits_taken__all_paid_duly, lt1_year, _2, bank, business) 0.5 0.5;
   (All_credits_at_this_bank_paid_duly, unemployed, _2, bank, business) 0.5 0.5;
   (Critical_account__other_credits_elsewhere, unemployed, _2, bank, business) 0.5 0.5;
   (Delay_in_paying_off_in_the_past, unemployed, _2, bank, business) 0.5 0.5;
   (Existing_credits_paid_duly_till_now, unemployed, _2, bank, business) 0.333333 0.666667;
   (No_credits_taken__all_paid_duly, unemployed, _2, bank, business) 0.5 0.5;
   (All_credits_at_this_bank_paid_duly, _1to4_years, _3, bank, business) 0.5 0.5;
   (Critical_account__other_credits_elsewhere, _1to4_years, _3, bank, business) 0.5 0.5;
   (Delay_in_paying_off_in_the_past, _1to4_years, _3, bank, business) 0.5 0.5;
   (Existing_credits_paid_duly_till_now, _1to4_years, _3, bank, business) 0.5 0.5;
   (No_credits_taken__all_paid_duly, _1to4_years, _3, bank, business) 0.5 0.5;
   (All_credits_at_this_bank_paid_duly, _4to7_years, _3, bank, business) 0.5 0.5;
   (Critical_account__other_credits_elsewhere, _4to7_years, _3, bank, business) 0.5 0.5;
   (Delay_in_paying_off_in_the_past, _4to7_years, _3, bank, business) 0.5 0.5;
   (Existing_credits_paid_duly_till_now, _4to7_years, _3, bank, business) 0.5 0.5;
   (No_credits_taken__all_paid_duly, _4to7_years, _3, bank, business) 0.5 0.5;
   (All_credits_at_this_bank_paid_duly, ge7_years, _3, bank, business) 0.5 0.5;
   (Critical_account__other_credits_elsewhere, ge7_years, _3, bank, business) 0.5 0.5;
   (Delay_in_paying_off_in_the_past, ge7_years, _3, bank, business) 0.5 0.5;
   (Existing_credits_paid_duly_till_now, ge7_years, _3, bank, business) 0.5 0.5;
   (No_credits_taken__all_paid_duly, ge7_years, _3, bank, business) 0.5 0.5;
   (All_credits_at_this_bank_paid_duly, lt1_year, _3, bank, business) 0.5 0.5;
   (Critical_account__other_credits_elsewhere, lt1_year, _3, bank, business) 0.5 0.5;
   (Delay_in_paying_off_in_the_past, lt1_year, _3, bank, business) 0.5 0.5;
   (Existing_credits_paid_duly_till_now, lt1_year, _3, bank, business) 0.333333 0.666667;
   (No_credits_taken__all_paid_duly, lt1_year, _3, bank, business) 0.333333 0.666667;
   (All_credits_at_this_bank_paid_duly, unemployed, _3, bank, business) 0.5 0.5;
   (Critical_account__other_credits_elsewhere, unemployed, _3, bank, business) 0.5 0.5;
   (Delay_in_paying_off_in_the_past, unemployed, _3, bank, business) 0.5 0.5;
   (Existing_credits_paid_duly_till_now, unemployed, _3, bank, business) 0.5 0.5;
   (No_credits_taken__all_paid_duly, unemployed, _3, bank, business) 0.5 0.5;
   (All_credits_at_this_bank_paid_duly, _1to4_years, _4, bank, business) 0.5 0.5;
   (Critical_account__other_credits_elsewhere, _1to4_years, _4, bank, business) 0.5 0.5;
   (Delay_in_paying_off_in_the_past, _1to4_years, _4, bank, business) 0.5 0.5;
   (Existing_credits_paid_duly_till_now, _1to4_years, _4, bank, business) 0.5 0.5;
   (No_credits_taken__all_paid_duly, _1to4_years, _4, bank, business) 0.5 0.5;
   (All_credits_at_this_bank_paid_duly, _4to7_years, _4, bank, business) 0.666667 0.333333;
   (Critical_account__other_credits_elsewhere, _4to7_years, _4, bank, business) 0.5 0.5;
   (Delay_in_paying_off_in_the_past, _4to7_years, _4, bank, business) 0.5 0.5;
   (Existing_credits_paid_duly_till_now, _4to7_years, _4, bank, business) 0.5 0.5;
   (No_credits_taken__all_paid_duly, _4to7_years, _4, bank, business) 0.5 0.5;
   (All_credits_at_this_bank_paid_duly, ge7_years, _4, bank, business) 0.5 0.5;
   (Critical_account__other_credits_elsewhere, ge7_years, _4, bank, business) 0.5 0.5;
   (Delay_in_paying_off_in_the_past, ge7_years, _4, bank, business) 0.5 0.5;
   (Existing_credits_paid_duly_till_now, ge7_years, _4, bank, business) 0.333333 0.666667;
   (No_credits_taken__all_paid_duly, ge7_years, _4, bank, business) 0.5 0.5;
   (All_credits_at_this_bank_paid_duly, lt1_year, _4, bank, business) 0.5 0.5;
   (Critical_account__other_credits_elsewhere, lt1_year, _4, bank, business) 0.5 0.5;
   (Delay_in_paying_off_in_the_past, lt1_year, _4, bank, business) 0.5 0.5;
   (Existing_credits_paid_duly_till_now, lt1_year, _4, bank, business) 0.5 0.5;
   (No_credits_taken__all_paid_duly, lt1_year, _4, bank, business) 0.5 0.5;
   (All_credits_at_this_bank_paid_duly, unemployed, _4, bank, business) 0.5 0.5;
   (Critical_account__other_credits_elsewhere, unemployed, _4, bank, business) 0.5 0.5;
   (Delay_in_paying_off_in_the_past, unemployed, _4, bank, business) 0.5 0.5;
   (Existing_credits_paid_duly_till_now, unemployed, _4, bank, business) 0.5 0.5;
   (No_credits_taken__all_paid_duly, unemployed, _4, bank, business) 0.5 0.5;
   (All_credits_at_this_bank_paid_duly, _1to4_years, _1, none, business) 0.5 0.5;
   (Critical_account__other_credits_elsewhere, _1to4_years, _1, none, business) 0.5 0.5;
   (Delay_in_paying_off_in_the_past, _1to4_years, _1, none, business) 0.5 0.5;
   (Existing_credits_paid_duly_till_now, _1to4_years, _1, none, business) 0.5 0.5;
   (No_credits_taken__all_paid_duly, _1to4_years, _1, none, business) 0.666667 0.333333;
   (All_credits_at_this_bank_paid_duly, _4to7_years, _1, none, business) 0.5 0.5;
   (Critical_account__other_credits_elsewhere, _4to7_years, _1, none, business) 0.666667 0.333333;
   (Delay_in_paying_off_in_the_past, _4to7_years, _1, none, business) 0.666667 0.333333;
   (Existing_credits_paid_duly_till_now, _4to7_years, _1, none, business) 0.333333 0.666667;
   (No_credits_taken__all_paid_duly, _4to7_years, _1, none, business) 0.5 0.5;
   (All_credits_at_this_bank_paid_duly, ge7_years, _1, none, business) 0.5 0.5;
   (Critical_account__other_credits_elsewhere, ge7_years, _1, none, business) 0.5 0.5;
   (Delay_in_paying_off_in_the_past, ge7_years, _1, none, business) 0.5 0.5;
   (Existing_credits_paid_duly_till_now, ge7_years, _1, none, business) 0.5 0.5;
   (No_credits_taken__all_paid_duly, ge7_years, _1, none, business) 0.5 0.5;
   (All_credits_at_this_bank_paid_duly, lt1_year, _1, none, business) 0.333333 0.666667;
   (Critical_account__other_credits_elsewhere, lt1_year, _1, none, business) 0.5 0.5;
   (Delay_in_paying_off_in_the_past, lt1_year, _1, none, business) 0.333333 0.666667;
   (Existing_credits_paid_duly_till_now, lt1_year, _1, none, business) 0.333333 0.666667;
   (No_credits_taken__all_paid_duly, lt1_year, _1, none, business) 0.333333 0.666667;
   (All_credits_at_this_bank_paid_duly, unemployed, _1, none, business) 0.5 0.5;
   (Critical_account__other_credits_elsewhere, unemployed, _1, none, business) 0.5 0.5;
   (Delay_in_paying_off_in_the_past, unemployed, _1, none, business) 0.5 0.5;
   (Existing_credits_paid_duly_till_now, unemployed, _1, none, business) 0.5 0.5;
   (No_credits_taken__all_paid_duly, unemployed, _1, none, business) 0.5 0.5;
   (All_credits_at_this_bank_paid_duly, _1to4_years, _2, none, business) 0.666667 0.333333;
   (Critical_account__other_credits_elsewhere, _1to4_years, _2, none, business) 0.4 0.6;
   (Delay_in_paying_off_in_the_past, _1to4_years, _2, none, business) 0.125 0.875;
   (Existing_credits_paid_duly_till_now, _1to4_years, _2, none, business) 0.166667 0.833333;
   (No_credits_taken__all_paid_duly, _1to4_years, _2, none, business) 0.333333 0.666667;
   (All_credits_at_this_bank_paid_duly, _4to7_years, _2, none, business) 0.333333 0.666667;
   (Critical_account__other_credits_elsewhere, _4to7_years, _2, none, business) 0.5 0.5;
   (Delay_in_paying_off_in_the_past, _4to7_years, _2, none, business) 0.5 0.5;
   (Existing_credits_paid_duly_till_now, _4to7_years, _2, none, business) 0.5 0.5;
   (No_credits_taken__all_paid_duly, _4to7_years, _2, none, business) 0.5 0.5;
   (All_credits_at_this_bank_paid_duly, ge7_years, _2, none, business) 0.5 0.5;
   (Critical_account__other_credits_elsewhere, ge7_years, _2, none, business) 0.5 0.5;
   (Delay_in_paying_off_in_the_past, ge7_years, _2, none, business) 0.666667 0.333333;
   (Existing_credits_paid_duly_till_now, ge7_years, _2, none, business) 0.4 0.6;
   (No_credits_taken__all_paid_duly, ge7_years, _2, none, business) 0.5 0.5;
   (All_credits_at_this_bank_paid_duly, lt1_year, _2, none, business) 0.5 0.5;
   (Critical_account__other_credits_elsewhere, lt1_year, _2, none, business) 0.5 0.5;
   (Delay_in_paying_off_in_the_past, lt1_year, _2, none, business) 0.5 0.5;
   (Existing_credits_paid_duly_till_now, lt1_year, _2, none, business) 0.666667 0.333333;
   (No_credits_taken__all_paid_duly, lt1_year, _2, none, business) 0.5 0.5;
   (All_credits_at_this_bank_paid_duly, unemployed, _2, none, business) 0.5 0.5;
   (Critical_account__other_credits_elsewhere, unemployed, _2, none, business) 0.5 0.5;
   (Delay_in_paying_off_in_the_past, unemployed, _2, none, business) 0.5 0.5;
   (Existing_credits_paid_duly_till_now, unemployed, _2, none, business) 0.5 0.5;
   (No_credits_taken__all_paid_duly, unemployed, _2, none, business) 0.5 0.5;
   (All_credits_at_this_bank_paid_duly, _1to4_years, _3, none, business) 0.5 0.5;
   (Critical_account__other_credits_elsewhere, _1to4_years, _3, none, business) 0.333333 0.666667;
   (Delay_in_paying_off_in_the_past, _1to4_years, _3, none, business) 0.5 0.5;
   (Existing_credits_paid_duly_till_now, _1to4_years, _3, none, business) 0.333333 0.666667;
   (No_credits_taken__all_paid_duly, _1to4_years, _3, none, business) 0.5 0.5;
   (All_credits_at_this_bank_paid_duly, _4to7_years, _3, none, business) 0.5 0.5;
   (Critical_account__other_credits_elsewhere, _4to7_years, _3, none, business) 0.25 0.75;
   (Delay_in_paying_off_in_the_past, _4to7_years, _3, none, business) 0.333333 0.666667;
   (Existing_credits_paid_duly_till_now, _4to7_years, _3, none, business) 0.5 0.5;
   (No_credits_taken__all_paid_duly, _4to7_years, _3, none, business) 0.5 0.5;
   (All_credits_at_this_bank_paid_duly, ge7_years, _3, none, business) 0.333333 0.666667;
   (Critical_account__other_credits_elsewhere, ge7_years, _3, none, business) 0.5 0.5;
   (Delay_in_paying_off_in_the_past, ge7_years, _3, none, business) 0.5 0.5;
   (Existing_credits_paid_duly_till_now, ge7_years, _3, none, business) 0.5 0.5;
   (No_credits_taken__all_paid_duly, ge7_years, _3, none, business) 0.5 0.5;
   (All_credits_at_this_bank_paid_duly, lt1_year, _3, none, business) 0.5 0.5;
   (Critical_account__other_credits_elsewhere, lt1_year, _3, none, business) 0.5 0.5;
   (Delay_in_paying_off_in_the_past, lt1_year, _3, none, business) 0.5 0.5;
   (Existing_credits_paid_duly_till_now, lt1_year, _3, none, business) 0.5 0.5;
   (No_credits_taken__all_paid_duly, lt1_year, _3, none, business) 0.5 0.5;
   (All_credits_at_this_bank_paid_duly, unemployed, _3, none, business) 0.5 0.5;
   (Critical_account__other_credits_elsewhere, unemployed, _3, none, business) 0.333333 0.666667;
   (Delay_in_paying_off_in_the_past, unemployed, _3, none, business) 0.5 0.5;
   (Existing_credits_paid_duly_till_now, unemployed, _3, none, business) 0.5 0.5;
   (No_credits_taken__all_paid_duly, unemployed, _3, none, business) 0.5 0.5;
   (All_credits_at_this_bank_paid_duly, _1to4_years, _4, none, business) 0.5 0.5;
   (Critical_account__other_credits_elsewhere, _1to4_years, _4, none, business) 0.666667 0.333333;
   (Delay_in_paying_off_in_the_past, _1to4_years, _4, none, business) 0.25 0.75;
   (Existing_credits_paid_duly_till_now, _1to4_years, _4, none, business) 0.4 0.6;
   (No_credits_taken__all_paid_duly, _1to4_years, _4, none, business) 0.25 0.75;
   (All_credits_at_this_bank_paid_duly, _4to7_years, _4, none, business) 0.333333 0.666667;
   (Critical_account__other_credits_elsewhere, _4to7_years, _4, none, business) 0.5 0.5;
   (Delay_in_paying_off_in_the_past, _4to7_years, _4, none, business) 0.5 0.5;
   (Existing_credits_paid_duly_till_now, _4to7_years, _4, none, business) 0.285714 0.714286;
   (No_credits_taken__all_paid_duly, _4to7_years, _4, none, business) 0.333333 0.666667;
   (All_credits_at_this_bank_paid_duly, ge7_years, _4, none, business) 0.5 0.5;
   (Critical_account__other_credits_elsewhere, ge7_years, _4, none, business) 0.4 0.6;
   (Delay_in_paying_off_in_the_past, ge7_years, _4, none, business) 0.25 0.75;
   (Existing_credits_paid_duly_till_now, ge7_years, _4, none, business) 0.5 0.5;
   (No_credits_taken__all_paid_duly, ge7_years, _4, none, business) 0.2 0.8;
   (All_credits_at_this_bank_paid_duly, lt1_year, _4, none, business) 0.5 0.5;
   (Critical_account__other_credits_elsewhere, lt1_year, _4, none, business) 0.5 0.5;
   (Delay_in_paying_off_in_the_past, lt1_year, _4, none, business) 0.333333 0.666667;
   (Existing_credits_paid_duly_till_now, lt1_year, _4, none, business) 0.333333 0.666667;
   (No_credits_taken__all_paid_duly, lt1_year, _4, none, business) 0.333333 0.666667;
   (All_credits_at_this_bank_paid_duly, unemployed, _4, none, business) 0.5 0.5;
   (Critical_account__other_credits_elsewhere, unemployed, _4, none, business) 0.5 0.5;
   (Delay_in_paying_off_in_the_past, unemployed, _4, none, business) 0.5 0.5;
   (Existing_credits_paid_duly_till_now, unemployed, _4, none, business) 0.5 0.5;
   (No_credits_taken__all_paid_duly, unemployed, _4, none, business) 0.5 0.5;
   (All_credits_at_this_bank_paid_duly, _1to4_years, _1, stores, business) 0.333333 0.666667;
   (Critical_account__other_credits_elsewhere, _1to4_years, _1, stores, business) 0.5 0.5;
   (Delay_in_paying_off_in_the_past, _1to4_years, _1, stores, business) 0.5 0.5;
   (Existing_credits_paid_duly_till_now, _1to4_years, _1, stores, business) 0.5 0.5;
   (No_credits_taken__all_paid_duly, _1to4_years, _1, stores, business) 0.5 0.5;
   (All_credits_at_this_bank_paid_duly, _4to7_years, _1, stores, business) 0.5 0.5;
   (Critical_account__other_credits_elsewhere, _4to7_years, _1, stores, business) 0.5 0.5;
   (Delay_in_paying_off_in_the_past, _4to7_years, _1, stores, business) 0.5 0.5;
   (Existing_credits_paid_duly_till_now, _4to7_years, _1, stores, business) 0.333333 0.666667;
   (No_credits_taken__all_paid_duly, _4to7_years, _1, stores, business) 0.5 0.5;
   (All_credits_at_this_bank_paid_duly, ge7_years, _1, stores, business) 0.5 0.5;
   (Critical_account__other_credits_elsewhere, ge7_years, _1, stores, business) 0.5 0.5;
   (Delay_in_paying_off_in_the_past, ge7_years, _1, stores, business) 0.5 0.5;
   (Existing_credits_paid_duly_till_now, ge7_years, _1, stores, business) 0.5 0.5;
   (No_credits_taken__all_paid_duly, ge7_years, _1, stores, business) 0.5 0.5;
   (All_credits_at_this_bank_paid_duly, lt1_year, _1, stores, business) 0.5 0.5;
   (Critical_account__other_credits_elsewhere, lt1_year, _1, stores, business) 0.5 0.5;
   (Delay_in_paying_off_in_the_past, lt1_year, _1, stores, business) 0.5 0.5;
   (Existing_credits_paid_duly_till_now, lt1_year, _1, stores, business) 0.5 0.5;
   (No_credits_taken__all_paid_duly, lt1_year, _1, stores, business) 0.5 0.5;
   (All_credits_at_this_bank_paid_duly, unemployed, _1, stores, business) 0.5 0.5;
   (Critical_account__other_credits_elsewhere, unemployed, _1, stores, business) 0.5 0.5;
   (Delay_in_paying_off_in_the_past, unemployed, _1, stores, business) 0.5 0.5;
   (Existing_credits_paid_duly_till_now, unemployed, _1, stores, business) 0.5 0.5;
   (No_credits_taken__all_paid_duly, unemployed, _1, stores, business) 0.5 0.5;
   (All_credits_at_this_bank_paid_duly, _1to4_years, _2, stores, business) 0.5 0.5;
   (Critical_account__other_credits_elsewhere, _1to4_years, _2, stores, business) 0.5 0.5;
   (Delay_in_paying_off_in_the_past, _1to4_years, _2, stores, business) 0.333333 0.666667;
   (Existing_credits_paid_duly_till_now, _1to4_years, _2, stores, business) 0.666667 0.333333;
   (No_credits_taken__all_paid_duly, _1to4_years, _2, stores, business) 0.666667 0.333333;
   (All_credits_at_this_bank_paid_duly, _4to7_years, _2, stores, business) 0.5 0.5;
   (Critical_account__other_credits_elsewhere, _4to7_years, _2, stores, business) 0.5 0.5;
   (Delay_in_paying_off_in_the_past, _4to7_years, _2, stores, business) 0.5 0.5;
   (Existing_credits_paid_duly_till_now, _4to7_years, _2, stores, business) 0.5 0.5;
   (No_credits_taken__all_paid_duly, _4to7_years, _2, stores, business) 0.5 0.5;
   (All_credits_at_this_bank_paid_duly, ge7_years, _2, stores, business) 0.5 0.5;
   (Critical_account__other_credits_elsewhere, ge7_years, _2, stores, business) 0.5 0.5;
   (Delay_in_paying_off_in_the_past, ge7_years, _2, stores, business) 0.333333 0.666667;
   (Existing_credits_paid_duly_till_now, ge7_years, _2, stores, business) 0.5 0.5;
   (No_credits_taken__all_paid_duly, ge7_years, _2, stores, business) 0.5 0.5;
   (All_credits_at_this_bank_paid_duly, lt1_year, _2, stores, business) 0.5 0.5;
   (Critical_account__other_credits_elsewhere, lt1_year, _2, stores, business) 0.5 0.5;
   (Delay_in_paying_off_in_the_past, lt1_year, _2, stores, business) 0.5 0.5;
   (Existing_credits_paid_duly_till_now, lt1_year, _2, stores, business) 0.5 0.5;
   (No_credits_taken__all_paid_duly, lt1_year, _2, stores, business) 0.5 0.5;
   (All_credits_at_this_bank_paid_duly, unemployed, _2, stores, business) 0.5 0.5;
   (Critical_account__other_credits_elsewhere, unemployed, _2, stores, business) 0.333333 0.666667;
   (Delay_in_paying_off_in_the_past, unemployed, _2, stores, business) 0.5 0.5;
   (Existing_credits_paid_duly_till_now, unemployed, _2, stores, business) 0.5 0.5;
   (No_credits_taken__all_paid_duly, unemployed, _2, stores, business) 0.5 0.5;
   (All_credits_at_this_bank_paid_duly, _1to4_years, _3, stores, business) 0.5 0.5;
   (Critical_account__other_credits_elsewhere, _1to4_years, _3, stores, business) 0.5 0.5;
   (Delay_in_paying_off_in_the_past, _1to4_years, _3, stores, business) 0.5 0.5;
   (Existing_credits_paid_duly_till_now, _1to4_years, _3, stores, business) 0.5 0.5;
   (No_credits_taken__all_paid_duly, _1to4_years, _3, stores, business) 0.5 0.5;
   (All_credits_at_this_bank_paid_duly, _4to7_years, _3, stores, business) 0.5 0.5;
   (Critical_account__other_credits_elsewhere, _4to7_years, _3, stores, business) 0.5 0.5;
   (Delay_in_paying_off_in_the_past, _4to7_years, _3, stores, business) 0.5 0.5;
   (Existing_credits_paid_duly_till_now, _4to7_years, _3, stores, business) 0.5 0.5;
   (No_credits_taken__all_paid_duly, _4to7_years, _3, stores, business) 0.5 0.5;
   (All_credits_at_this_bank_paid_duly, ge7_years, _3, stores, business) 0.5 0.5;
   (Critical_account__other_credits_elsewhere, ge7_years, _3, stores, business) 0.5 0.5;
   (Delay_in_paying_off_in_the_past, ge7_years, _3, stores, business) 0.5 0.5;
   (Existing_credits_paid_duly_till_now, ge7_years, _3, stores, business) 0.5 0.5;
   (No_credits_taken__all_paid_duly, ge7_years, _3, stores, business) 0.5 0.5;
   (All_credits_at_this_bank_paid_duly, lt1_year, _3, stores, business) 0.5 0.5;
   (Critical_account__other_credits_elsewhere, lt1_year, _3, stores, business) 0.5 0.5;
   (Delay_in_paying_off_in_the_past, lt1_year, _3, stores, business) 0.5 0.5;
   (Existing_credits_paid_duly_till_now, lt1_year, _3, stores, business) 0.5 0.5;
   (No_credits_taken__all_paid_duly, lt1_year, _3, stores, business) 0.5 0.5;
   (All_credits_at_this_bank_paid_duly, unemployed, _3, stores, business) 0.5 0.5;
   (Critical_account__other_credits_elsewhere, unemployed, _3, stores, business) 0.5 0.5;
   (Delay_in_paying_off_in_the_past, unemployed, _3, stores, business) 0.5 0.5;
   (Existing_credits_paid_duly_till_now, unemployed, _3, stores, business) 0.5 0.5;
   (No_credits_taken__all_paid_duly, unemployed, _3, stores, business) 0.5 0.5;
   (All_credits_at_this_bank_paid_duly, _1to4_years, _4, stores, business) 0.5 0.5;
   (Critical_account__other_credits_elsewhere, _1to4_years, _4, stores, business) 0.5 0.5;
   (Delay_in_paying_off_in_the_past, _1to4_years, _4, stores, business) 0.5 0.5;
   (Existing_credits_paid_duly_till_now, _1to4_years, _4, stores, business) 0.5 0.5;
   (No_credits_taken__all_paid_duly, _1to4_years, _4, stores, business) 0.5 0.5;
   (All_credits_at_this_bank_paid_duly, _4to7_years, _4, stores, business) 0.5 0.5;
   (Critical_account__other_credits_elsewhere, _4to7_years, _4, stores, business) 0.5 0.5;
   (Delay_in_paying_off_in_the_past, _4to7_years, _4, stores, business) 0.5 0.5;
   (Existing_credits_paid_duly_till_now, _4to7_years, _4, stores, business) 0.5 0.5;
   (No_credits_taken__all_paid_duly, _4to7_years, _4, stores, business) 0.5 0.5;
   (All_credits_at_this_bank_paid_duly, ge7_years, _4, stores, business) 0.5 0.5;
   (Critical_account__other_credits_elsewhere, ge7_years, _4, stores, business) 0.333333 0.666667;
   (Delay_in_paying_off_in_the_past, ge7_years, _4, stores, business) 0.5 0.5;
   (Existing_credits_paid_duly_till_now, ge7_years, _4, stores, business) 0.5 0.5;
   (No_credits_taken__all_paid_duly, ge7_years, _4, stores, business) 0.5 0.5;
   (All_credits_at_this_bank_paid_duly, lt1_year, _4, stores, business) 0.5 0.5;
   (Critical_account__other_credits_elsewhere, lt1_year, _4, stores, business) 0.5 0.5;
   (Delay_in_paying_off_in_the_past, lt1_year, _4, stores, business) 0.5 0.5;
   (Existing_credits_paid_duly_till_now, lt1_year, _4, stores, business) 0.5 0.5;
   (No_credits_taken__all_paid_duly, lt1_year, _4, stores, business) 0.5 0.5;
   (All_credits_at_this_bank_paid_duly, unemployed, _4, stores, business) 0.5 0.5;
   (Critical_account__other_credits_elsewhere, unemployed, _4, stores, business) 0.5 0.5;
   (Delay_in_paying_off_in_the_past, unemployed, _4, stores, business) 0.5 0.5;
   (Existing_credits_paid_duly_till_now, unemployed, _4, stores, business) 0.5 0.5;
   (No_credits_taken__all_paid_duly, unemployed, _4, stores, business) 0.333333 0.666667;
   (All_credits_at_this_bank_paid_duly, _1to4_years, _1, bank, car_new) 0.5 0.5;
   (Critical_account__other_credits_elsewhere, _1to4_years, _1, bank, car_new) 0.5 0.5;
   (Delay_in_paying_off_in_the_past, _1to4_years, _1, bank, car_new) 0.5 0.5;
   (Existing_credits_paid_duly_till_now, _1to4_years, _1, bank, car_new) 0.333333 0.666667;
   (No_credits_taken__all_paid_duly, _1to4_years, _1, bank, car_new) 0.666667 0.333333;
   (All_credits_at_this_bank_paid_duly, _4to7_years, _1, bank, car_new) 0.5 0.5;
   (Critical_account__other_credits_elsewhere, _4to7_years, _1, bank, car_new) 0.5 0.5;
   (Delay_in_paying_off_in_the_past, _4to7_years, _1, bank, car_new) 0.5 0.5;
   (Existing_credits_paid_duly_till_now, _4to7_years, _1, bank, car_new) 0.5 0.5;
   (No_credits_taken__all_paid_duly, _4to7_years, _1, bank, car_new) 0.5 0.5;
   (All_credits_at_this_bank_paid_duly, ge7_years, _1, bank, car_new) 0.5 0.5;
   (Critical_account__other_credits_elsewhere, ge7_years, _1, bank, car_new) 0.5 0.5;
   (Delay_in_paying_off_in_the_past, ge7_years, _1, bank, car_new) 0.5 0.5;
   (Existing_credits_paid_duly_till_now, ge7_years, _1, bank, car_new) 0.5 0.5;
   (No_credits_taken__all_paid_duly, ge7_years, _1, bank, car_new) 0.5 0.5;
   (All_credits_at_this_bank_paid_duly, lt1_year, _1, bank, car_new) 0.5 0.5;
   (Critical_account__other_credits_elsewhere, lt1_year, _1, bank, car_new) 0.5 0.5;
   (Delay_in_paying_off_in_the_past, lt1_year, _1, bank, car_new) 0.5 0.5;
   (Existing_credits_paid_duly_till_now, lt1_year, _1, bank, car_new) 0.5 0.5;
   (No_credits_taken__all_paid_duly, lt1_year, _1, bank, car_new) 0.5 0.5;
   (All_credits_at_this_bank_paid_duly, unemployed, _1, bank, car_new) 0.5 0.5;
   (Critical_account__other_credits_elsewhere, unemployed, _1, bank, car_new) 0.5 0.5;
   (Delay_in_paying_off_in_the_past, unemployed, _1, bank, car_new) 0.5 0.5;
   (Existing_credits_paid_duly_till_now, unemployed, _1, bank, car_new) 0.5 0.5;
   (No_credits_taken__all_paid_duly, unemployed, _1, bank, car_new) 0.5 0.5;
   (All_credits_at_this_bank_paid_duly, _1to4_years, _2, bank, car_new) 0.5 0.5;
   (Critical_account__other_credits_elsewhere, _1to4_years, _2, bank, car_new) 0.333333 0.666667;
   (Delay_in_paying_off_in_the_past, _1to4_years, _2, bank, car_new) 0.5 0.5;
   (Existing_credits_paid_duly_till_now, _1to4_years, _2, bank, car_new) 0.333333 0.666667;
   (No_credits_taken__all_paid_duly, _1to4_years, _2, bank, car_new) 0.5 0.5;
   (All_credits_at_this_bank_paid_duly, _4to7_years, _2, bank, car_new) 0.5 0.5;
   (Critical_account__other_credits_elsewhere, _4to7_years, _2, bank, car_new) 0.25 0.75;
   (Delay_in_paying_off_in_the_past, _4to7_years, _2, bank, car_new) 0.5 0.5;
   (Existing_credits_paid_duly_till_now, _4to7_years, _2, bank, car_new) 0.333333 0.666667;
   (No_credits_taken__all_paid_duly, _4to7_years, _2, bank, car_new) 0.5 0.5;
   (All_credits_at_this_bank_paid_duly, ge7_years, _2, bank, car_new) 0.5 0.5;
   (Critical_account__other_credits_elsewhere, ge7_years, _2, bank, car_new) 0.5 0.5;
   (Delay_in_paying_off_in_the_past, ge7_years, _2, bank, car_new) 0.5 0.5;
   (Existing_credits_paid_duly_till_now, ge7_years, _2, bank, car_new) 0.333333 0.666667;
   (No_credits_taken__all_paid_duly, ge7_years, _2, bank, car_new) 0.5 0.5;
   (All_credits_at_this_bank_paid_duly, lt1_year, _2, bank, car_new) 0.333333 0.666667;
   (Critical_account__other_credits_elsewhere, lt1_year, _2, bank, car_new) 0.5 0.5;
   (Delay_in_paying_off_in_the_past, lt1_year, _2, bank, car_new) 0.5 0.5;
   (Existing_credits_paid_duly_till_now, lt1_year, _2, bank, car_new) 0.333333 0.666667;
   (No_credits_taken__all_paid_duly, lt1_year, _2, bank, car_new) 0.5 0.5;
   (All_credits_at_this_bank_paid_duly, unemployed, _2, bank, car_new) 0.5 0.5;
   (Critical_account__other_credits_elsewhere, unemployed, _2, bank, car_new) 0.5 0.5;
   (Delay_in_paying_off_in_the_past, unemployed, _2, bank, car_new) 0.5 0.5;
   (Existing_credits_paid_duly_till_now, unemployed, _2, bank, car_new) 0.5 0.5;
   (No_credits_taken__all_paid_duly, unemployed, _2, bank, car_new) 0.5 0.5;
   (All_credits_at_this_bank_paid_duly, _1to4_years, _3, bank, car_new) 0.5 0.5;
   (Critical_account__other_credits_elsewhere, _1to4_years, _3, bank, car_new) 0.5 0.5;
   (Delay_in_paying_off_in_the_past, _1to4_years, _3, bank, car_new) 0.5 0.5;
   (Existing_credits_paid_duly_till_now, _1to4_years, _3, bank, car_new) 0.5 0.5;
   (No_credits_taken__all_paid_duly, _1to4_years, _3, bank, car_new) 0.5 0.5;
   (All_credits_at_this_bank_paid_duly, _4to7_years, _3, bank, car_new) 0.333333 0.666667;
   (Critical_account__other_credits_elsewhere, _4to7_years, _3, bank, car_new) 0.5 0.5;
   (Delay_in_paying_off_in_the_past, _4to7_years, _3, bank, car_new) 0.5 0.5;
   (Existing_credits_paid_duly_till_now, _4to7_years, _3, bank, car_new) 0.2 0.8;
   (No_credits_taken__all_paid_duly, _4to7_years, _3, bank, car_new) 0.5 0.5;
   (All_credits_at_this_bank_paid_duly, ge7_years, _3, bank, car_new) 0.5 0.5;
   (Critical_account__other_credits_elsewhere, ge7_years, _3, bank, car_new) 0.333333 0.666667;
   (Delay_in_paying_off_in_the_past, ge7_years, _3, bank, car_new) 0.5 0.5;
   (Existing_credits_paid_duly_till_now, ge7_years, _3, bank, car_new) 0.5 0.5;
   (No_credits_taken__all_paid_duly, ge7_years, _3, bank, car_new) 0.5 0.5;
   (All_credits_at_this_bank_paid_duly, lt1_year, _3, bank, car_new) 0.5 0.5;
   (Critical_account__other_credits_elsewhere, lt1_year, _3, bank, car_new) 0.333333 0.666667;
   (Delay_in_paying_off_in_the_past, lt1_year, _3, bank, car_new) 0.5 0.5;
   (Existing_credits_paid_duly_till_now, lt1_year, _3, bank, car_new) 0.5 0.5;
   (No_credits_taken__all_paid_duly, lt1_year, _3, bank, car_new) 0.5 0.5;
   (All_credits_at_this_bank_paid_duly, unemployed, _3, bank, car_new) 0.5 0.5;
   (Critical_account__other_credits_elsewhere, unemployed, _3, bank, car_new) 0.5 0.5;
   (Delay_in_paying_off_in_the_past, unemployed, _3, bank, car_new) 0.5 0.5;
   (Existing_credits_paid_duly_till_now, unemployed, _3, bank, car_new) 0.5 0.5;
   (No_credits_taken__all_paid_duly, unemployed, _3, bank, car_new) 0.5 0.5;
   (All_credits_at_this_bank_paid_duly, _1to4_years, _4, bank, car_new) 0.5 0.5;
   (Critical_account__other_credits_elsewhere, _1to4_years, _4, bank, car_new) 0.333333 0.666667;
   (Delay_in_paying_off_in_the_past, _1to4_years, _4, bank, car_new) 0.5 0.5;
   (Existing_credits_paid_duly_till_now, _1to4_years, _4, bank, car_new) 0.5 0.5;
   (No_credits_taken__all_paid_duly, _1to4_years, _4, bank, car_new) 0.5 0.5;
   (All_credits_at_this_bank_paid_duly, _4to7_years, _4, bank, car_new) 0.5 0.5;
   (Critical_account__other_credits_elsewhere, _4to7_years, _4, bank, car_new) 0.5 0.5;
   (Delay_in_paying_off_in_the_past, _4to7_years, _4, bank, car_new) 0.5 0.5;
   (Existing_credits_paid_duly_till_now, _4to7_years, _4, bank, car_new) 0.333333 0.666667;
   (No_credits_taken__all_paid_duly, _4to7_years, _4, bank, car_new) 0.5 0.5;
   (All_credits_at_this_bank_paid_duly, ge7_years, _4, bank, car_new) 0.333333 0.666667;
   (Critical_account__other_credits_elsewhere, ge7_years, _4, bank, car_new) 0.5 0.5;
   (Delay_in_paying_off_in_the_past, ge7_years, _4, bank, car_new) 0.333333 0.666667;
   (Existing_credits_paid_duly_till_now, ge7_years, _4, bank, car_new) 0.4 0.6;
   (No_credits_taken__all_paid_duly, ge7_years, _4, bank, car_new) 0.5 0.5;
   (All_credits_at_this_bank_paid_duly, lt1_year, _4, bank, car_new) 0.5 0.5;
   (Critical_account__other_credits_elsewhere, lt1_year, _4, bank, car_new) 0.5 0.5;
   (Delay_in_paying_off_in_the_past, lt1_year, _4, bank, car_new) 0.5 0.5;
   (Existing_credits_paid_duly_till_now, lt1_year, _4, bank, car_new) 0.5 0.5;
   (No_credits_taken__all_paid_duly, lt1_year, _4, bank, car_new) 0.5 0.5;
   (All_credits_at_this_bank_paid_duly, unemployed, _4, bank, car_new) 0.5 0.5;
   (Critical_account__other_credits_elsewhere, unemployed, _4, bank, car_new) 0.333333 0.666667;
   (Delay_in_paying_off_in_the_past, unemployed, _4, bank, car_new) 0.5 0.5;
   (Existing_credits_paid_duly_till_now, unemployed, _4, bank, car_new) 0.333333 0.666667;
   (No_credits_taken__all_paid_duly, unemployed, _4, bank, car_new) 0.5 0.5;
   (All_credits_at_this_bank_paid_duly, _1to4_years, _1, none, car_new) 0.5 0.5;
   (Critical_account__other_credits_elsewhere, _1to4_years, _1, none, car_new) 0.5 0.5;
   (Delay_in_paying_off_in_the_past, _1to4_years, _1, none, car_new) 0.5 0.5;
   (Existing_credits_paid_duly_till_now, _1to4_years, _1, none, car_new) 0.333333 0.666667;
   (No_credits_taken__all_paid_duly, _1to4_years, _1, none, car_new) 0.5 0.5;
   (All_credits_at_this_bank_paid_duly, _4to7_years, _1, none, car_new) 0.5 0.5;
   (Critical_account__other_credits_elsewhere, _4to7_years, _1, none, car_new) 0.25 0.75;
   (Delay_in_paying_off_in_the_past, _4to7_years, _1, none, car_new) 0.5 0.5;
   (Existing_credits_paid_duly_till_now, _4to7_years, _1, none, car_new) 0.333333 0.666667;
   (No_credits_taken__all_paid_duly, _4to7_years, _1, none, car_new) 0.5 0.5;
   (All_credits_at_this_bank_paid_duly, ge7_years, _1, none, car_new) 0.5 0.5;
   (Critical_account__other_credits_elsewhere, ge7_years, _1, none, car_new) 0.666667 0.333333;
   (Delay_in_paying_off_in_the_past, ge7_years, _1, none, car_new) 0.5 0.5;
   (Existing_credits_paid_duly_till_now, ge7_years, _1, none, car_new) 0.5 0.5;
   (No_credits_taken__all_paid_duly, ge7_years, _1, none, car_new) 0.5 0.5;
   (All_credits_at_this_bank_paid_duly, lt1_year, _1, none, car_new) 0.5 0.5;
   (Critical_account__other_credits_elsewhere, lt1_year, _1, none, car_new) 0.5 0.5;
   (Delay_in_paying_off_in_the_past, lt1_year, _1, none, car_new) 0.5 0.5;
   (Existing_credits_paid_duly_till_now, lt1_year, _1, none, car_new) 0.272727 0.727273;
   (No_credits_taken__all_paid_duly, lt1_year, _1, none, car_new) 0.25 0.75;
   (All_credits_at_this_bank_paid_duly, unemployed, _1, none, car_new) 0.5 0.5;
   (Critical_account__other_credits_elsewhere, unemployed, _1, none, car_new) 0.5 0.5;
   (Delay_in_paying_off_in_the_past, unemployed, _1, none, car_new) 0.5 0.5;
   (Existing_credits_paid_duly_till_now, unemployed, _1, none, car_new) 0.5 0.5;
   (No_credits_taken__all_paid_duly, unemployed, _1, none, car_new) 0.5 0.5;
   (All_credits_at_this_bank_paid_duly, _1to4_years, _2, none, car_new) 0.5 0.5;
   (Critical_account__other_credits_elsewhere, _1to4_years, _2, none, car_new) 0.333333 0.666667;
   (Delay_in_paying_off_in_the_past, _1to4_years, _2, none, car_new) 0.2 0.8;
   (Existing_credits_paid_duly_till_now, _1to4_years, _2, none, car_new) 0.3 0.7;
   (No_credits_taken__all_paid_duly, _1to4_years, _2, none, car_new) 0.5 0.5;
   (All_credits_at_this_bank_paid_duly, _4to7_years, _2, none, car_new) 0.5 0.5;
   (Critical_account__other_credits_elsewhere, _4to7_years, _2, none, car_new) 0.333333 0.666667;
   (Delay_in_paying_off_in_the_past, _4to7_years, _2, none, car_new) 0.5 0.5;
   (Existing_credits_paid_duly_till_now, _4to7_years, _2, none, car_new) 0.375 0.625;
   (No_credits_taken__all_paid_duly, _4to7_years, _2, none, car_new) 0.5 0.5;
   (All_credits_at_this_bank_paid_duly, ge7_years, _2, none, car_new) 0.5 0.5;
   (Critical_account__other_credits_elsewhere, ge7_years, _2, none, car_new) 0.5 0.5;
   (Delay_in_paying_off_in_the_past, ge7_years, _2, none, car_new) 0.333333 0.666667;
   (Existing_credits_paid_duly_till_now, ge7_years, _2, none, car_new) 0.666667 0.333333;
   (No_credits_taken__all_paid_duly, ge7_years, _2, none, car_new) 0.5 0.5;
   (All_credits_at_this_bank_paid_duly, lt1_year, _2, none, car_new) 0.5 0.5;
   (Critical_account__other_credits_elsewhere, lt1_year, _2, none, car_new) 0.333333 0.666667;
   (Delay_in_paying_off_in_the_past, lt1_year, _2, none, car_new) 0.5 0.5;
   (Existing_credits_paid_duly_till_now, lt1_year, _2, none, car_new) 0.222222 0.777778;
   (No_credits_taken__all_paid_duly, lt1_year, _2, none, car_new) 0.5 0.5;
   (All_credits_at_this_bank_paid_duly, unemployed, _2, none, car_new) 0.666667 0.333333;
   (Critical_account__other_credits_elsewhere, unemployed, _2, none, car_new) 0.4 0.6;
   (Delay_in_paying_off_in_the_past, unemployed, _2, none, car_new) 0.333333 0.666667;
   (Existing_credits_paid_duly_till_now, unemployed, _2, none, car_new) 0.5 0.5;
   (No_credits_taken__all_paid_duly, unemployed, _2, none, car_new) 0.5 0.5;
   (All_credits_at_this_bank_paid_duly, _1to4_years, _3, none, car_new) 0.5 0.5;
   (Critical_account__other_credits_elsewhere, _1to4_years, _3, none, car_new) 0.25 0.75;
   (Delay_in_paying_off_in_the_past, _1to4_years, _3, none, car_new) 0.5 0.5;
   (Existing_credits_paid_duly_till_now, _1to4_years, _3, none, car_new) 0.571429 0.428571;
   (No_credits_taken__all_paid_duly, _1to4_years, _3, none, car_new) 0.5 0.5;
   (All_credits_at_this_bank_paid_duly, _4to7_years, _3, none, car_new) 0.333333 0.666667;
   (Critical_account__other_credits_elsewhere, _4to7_years, _3, none, car_new) 0.111111 0.888889;
   (Delay_in_paying_off_in_the_past, _4to7_years, _3, none, car_new) 0.5 0.5;
   (Existing_credits_paid_duly_till_now, _4to7_years, _3, none, car_new) 0.333333 0.666667;
   (No_credits_taken__all_paid_duly, _4to7_years, _3, none, car_new) 0.5 0.5;
   (All_credits_at_this_bank_paid_duly, ge7_years, _3, none, car_new) 0.5 0.5;
   (Critical_account__other_credits_elsewhere, ge7_years, _3, none, car_new) 0.5 0.5;
   (Delay_in_paying_off_in_the_past, ge7_years, _3, none, car_new) 0.666667 0.333333;
   (Existing_credits_paid_duly_till_now, ge7_years, _3, none, car_new) 0.666667 0.333333;
   (No_credits_taken__all_paid_duly, ge7_years, _3, none, car_new) 0.666667 0.333333;
   (All_credits_at_this_bank_paid_duly, lt1_year, _3, none, car_new) 0.5 0.5;
   (Critical_account__other_credits_elsewhere, lt1_year, _3, none, car_new) 0.25 0.75;
   (Delay_in_paying_off_in_the_past, lt1_year, _3, none, car_new) 0.5 0.5;
   (Existing_credits_paid_duly_till_now, lt1_year, _3, none, car_new) 0.333333 0.666667;
   (No_credits_taken__all_paid_duly, lt1_year, _3, none, car_new) 0.333333 0.666667;
   (All_credits_at_this_bank_paid_duly, unemployed, _3, none, car_new) 0.5 0.5;
   (Critical_account__other_credits_elsewhere, unemployed, _3, none, car_new) 0.333333 0.666667;
   (Delay_in_paying_off_in_the_past, unemployed, _3, none, car_new) 0.5 0.5;
   (Existing_credits_paid_duly_till_now, unemployed, _3, none, car_new) 0.333333 0.666667;
   (No_credits_taken__all_paid_duly, unemployed, _3, none, car_new) 0.5 0.5;
   (All_credits_at_this_bank_paid_duly, _1to4_years, _4, none, car_new) 0.5 0.5;
   (Critical_account__other_credits_elsewhere, _1to4_years, _4, none, car_new) 0.375 0.625;
   (Delay_in_paying_off_in_the_past, _1to4_years, _4, none, car_new) 0.8 0.2;
   (Existing_credits_paid_duly_till_now, _1to4_years, _4, none, car_new) 0.25 0.75;
   (No_credits_taken__all_paid_duly, _1to4_years, _4, none, car_new) 0.5 0.5;
   (All_credits_at_this_bank_paid_duly, _4to7_years, _4, none, car_new) 0.333333 0.666667;
   (Critical_account__other_credits_elsewhere, _4to7_years, _4, none, car_new) 0.4 0.6;
   (Delay_in_paying_off_in_the_past, _4to7_years, _4, none, car_new) 0.5 0.5;
   (Existing_credits_paid_duly_till_now, _4to7_years, _4, none, car_new) 0.142857 0.857143;
   (No_credits_taken__all_paid_duly, _4to7_years, _4, none, car_new) 0.5 0.5;
   (All_credits_at_this_bank_paid_duly, ge7_years, _4, none, car_new) 0.5 0.5;
   (Critical_account__other_credits_elsewhere, ge7_years, _4, none, car_new) 0.315789 0.684211;
   (Delay_in_paying_off_in_the_past, ge7_years, _4, none, car_new) 0.428571 0.571429;
   (Existing_credits_paid_duly_till_now, ge7_years, _4, none, car_new) 0.153846 0.846154;
   (No_credits_taken__all_paid_duly, ge7_years, _4, none, car_new) 0.5 0.5;
   (All_credits_at_this_bank_paid_duly, lt1_year, _4, none, car_new) 0.5 0.5;
   (Critical_account__other_credits_elsewhere, lt1_year, _4, none, car_new) 0.166667 0.833333;
   (Delay_in_paying_off_in_the_past, lt1_year, _4, none, car_new) 0.5 0.5;
   (Existing_credits_paid_duly_till_now, lt1_year, _4, none, car_new) 0.666667 0.333333;
   (No_credits_taken__all_paid_duly, lt1_year, _4, none, car_new) 0.5 0.5;
   (All_credits_at_this_bank_paid_duly, unemployed, _4, none, car_new) 0.5 0.5;
   (Critical_account__other_credits_elsewhere, unemployed, _4, none, car_new) 0.5 0.5;
   (Delay_in_paying_off_in_the_past, unemployed, _4, none, car_new) 0.333333 0.666667;
   (Existing_credits_paid_duly_till_now, unemployed, _4, none, car_new) 0.666667 0.333333;
   (No_credits_taken__all_paid_duly, unemployed, _4, none, car_new) 0.5 0.5;
   (All_credits_at_this_bank_paid_duly, _1to4_years, _1, stores, car_new) 0.5 0.5;
   (Critical_account__other_credits_elsewhere, _1to4_years, _1, stores, car_new) 0.5 0.5;
   (Delay_in_paying_off_in_the_past, _1to4_years, _1, stores, car_new) 0.5 0.5;
   (Existing_credits_paid_duly_till_now, _1to4_years, _1, stores, car_new) 0.5 0.5;
   (No_credits_taken__all_paid_duly, _1to4_years, _1, stores, car_new) 0.5 0.5;
   (All_credits_at_this_bank_paid_duly, _4to7_years, _1, stores, car_new) 0.5 0.5;
   (Critical_account__other_credits_elsewhere, _4to7_years, _1, stores, car_new) 0.5 0.5;
   (Delay_in_paying_off_in_the_past, _4to7_years, _1, stores, car_new) 0.5 0.5;
   (Existing_credits_paid_duly_till_now, _4to7_years, _1, stores, car_new) 0.5 0.5;
   (No_credits_taken__all_paid_duly, _4to7_years, _1, stores, car_new) 0.5 0.5;
   (All_credits_at_this_bank_paid_duly, ge7_years, _1, stores, car_new) 0.5 0.5;
   (Critical_account__other_credits_elsewhere, ge7_years, _1, stores, car_new) 0.5 0.5;
   (Delay_in_paying_off_in_the_past, ge7_years, _1, stores, car_new) 0.5 0.5;
   (Existing_credits_paid_duly_till_now, ge7_years, _1, stores, car_new) 0.5 0.5;
   (No_credits_taken__all_paid_duly, ge7_years, _1, stores, car_new) 0.5 0.5;
   (All_credits_at_this_bank_paid_duly, lt1_year, _1, stores, car_new) 0.333333 0.666667;
   (Critical_account__other_credits_elsewhere, lt1_year, _1, stores, car_new) 0.5 0.5;
   (Delay_in_paying_off_in_the_past, lt1_year, _1, stores, car_new) 0.5 0.5;
   (Existing_credits_paid_duly_till_now, lt1_year, _1, stores, car_new) 0.5 0.5;
   (No_credits_taken__all_paid_duly, lt1_year, _1, stores, car_new) 0.5 0.5;
   (All_credits_at_this_bank_paid_duly, unemployed, _1, stores, car_new) 0.5 0.5;
   (Critical_account__other_credits_elsewhere, unemployed, _1, stores, car_new) 0.5 0.5;
   (Delay_in_paying_off_in_the_past, unemployed, _1, stores, car_new) 0.5 0.5;
   (Existing_credits_paid_duly_till_now, unemployed, _1, stores, car_new) 0.5 0.5;
   (No_credits_taken__all_paid_duly, unemployed, _1, stores, car_new) 0.5 0.5;
   (All_credits_at_this_bank_paid_duly, _1to4_years, _2, stores, car_new) 0.666667 0.333333;
   (Critical_account__other_credits_elsewhere, _1to4_years, _2, stores, car_new) 0.666667 0.333333;
   (Delay_in_paying_off_in_the_past, _1to4_years, _2, stores, car_new) 0.333333 0.666667;
   (Existing_credits_paid_duly_till_now, _1to4_years, _2, stores, car_new) 0.5 0.5;
   (No_credits_taken__all_paid_duly, _1to4_years, _2, stores, car_new) 0.5 0.5;
   (All_credits_at_this_bank_paid_duly, _4to7_years, _2, stores, car_new) 0.5 0.5;
   (Critical_account__other_credits_elsewhere, _4to7_years, _2, stores, car_new) 0.5 0.5;
   (Delay_in_paying_off_in_the_past, _4to7_years, _2, stores, car_new) 0.5 0.5;
   (Existing_credits_paid_duly_till_now, _4to7_years, _2, stores, car_new) 0.5 0.5;
   (No_credits_taken__all_paid_duly, _4to7_years, _2, stores, car_new) 0.5 0.5;
   (All_credits_at_this_bank_paid_duly, ge7_years, _2, stores, car_new) 0.5 0.5;
   (Critical_account__other_credits_elsewhere, ge7_years, _2, stores, car_new) 0.5 0.5;
   (Delay_in_paying_off_in_the_past, ge7_years, _2, stores, car_new) 0.5 0.5;
   (Existing_credits_paid_duly_till_now, ge7_years, _2, stores, car_new) 0.5 0.5;
   (No_credits_taken__all_paid_duly, ge7_years, _2, stores, car_new) 0.5 0.5;
   (All_credits_at_this_bank_paid_duly, lt1_year, _2, stores, car_new) 0.5 0.5;
   (Critical_account__other_credits_elsewhere, lt1_year, _2, stores, car_new) 0.5 0.5;
   (Delay_in_paying_off_in_the_past, lt1_year, _2, stores, car_new) 0.5 0.5;
   (Existing_credits_paid_duly_till_now, lt1_year, _2, stores, car_new) 0.333333 0.666667;
   (No_credits_taken__all_paid_duly, lt1_year, _2, stores, car_new) 0.5 0.5;
   (All_credits_at_this_bank_paid_duly, unemployed, _2, stores, car_new) 0.5 0.5;
   (Critical_account__other_credits_elsewhere, unemployed, _2, stores, car_new) 0.5 0.5;
   (Delay_in_paying_off_in_the_past, unemployed, _2, stores, car_new) 0.5 0.5;
   (Existing_credits_paid_duly_till_now, unemployed, _2, stores, car_new) 0.5 0.5;
   (No_credits_taken__all_paid_duly, unemployed, _2, stores, car_new) 0.5 0.5;
   (All_credits_at_this_bank_paid_duly, _1to4_years, _3, stores, car_new) 0.5 0.5;
   (Critical_account__other_credits_elsewhere, _1to4_years, _3, stores, car_new) 0.5 0.5;
   (Delay_in_paying_off_in_the_past, _1to4_years, _3, stores, car_new) 0.5 0.5;
   (Existing_credits_paid_duly_till_now, _1to4_years, _3, stores, car_new) 0.5 0.5;
   (No_credits_taken__all_paid_duly, _1to4_years, _3, stores, car_new) 0.5 0.5;
   (All_credits_at_this_bank_paid_duly, _4to7_years, _3, stores, car_new) 0.5 0.5;
   (Critical_account__other_credits_elsewhere, _4to7_years, _3, stores, car_new) 0.5 0.5;
   (Delay_in_paying_off_in_the_past, _4to7_years, _3, stores, car_new) 0.5 0.5;
   (Existing_credits_paid_duly_till_now, _4to7_years, _3, stores, car_new) 0.5 0.5;
   (No_credits_taken__all_paid_duly, _4to7_years, _3, stores, car_new) 0.5 0.5;
   (All_credits_at_this_bank_paid_duly, ge7_years, _3, stores, car_new) 0.5 0.5;
   (Critical_account__other_credits_elsewhere, ge7_years, _3, stores, car_new) 0.5 0.5;
   (Delay_in_paying_off_in_the_past, ge7_years, _3, stores, car_new) 0.5 0.5;
   (Existing_credits_paid_duly_till_now, ge7_years, _3, stores, car_new) 0.5 0.5;
   (No_credits_taken__all_paid_duly, ge7_years, _3, stores, car_new) 0.5 0.5;
   (All_credits_at_this_bank_paid_duly, lt1_year, _3, stores, car_new) 0.5 0.5;
   (Critical_account__other_credits_elsewhere, lt1_year, _3, stores, car_new) 0.5 0.5;
   (Delay_in_paying_off_in_the_past, lt1_year, _3, stores, car_new) 0.5 0.5;
   (Existing_credits_paid_duly_till_now, lt1_year, _3, stores, car_new) 0.5 0.5;
   (No_credits_taken__all_paid_duly, lt1_year, _3, stores, car_new) 0.5 0.5;
   (All_credits_at_this_bank_paid_duly, unemployed, _3, stores, car_new) 0.5 0.5;
   (Critical_account__other_credits_elsewhere, unemployed, _3, stores, car_new) 0.5 0.5;
   (Delay_in_paying_off_in_the_past, unemployed, _3, stores, car_new) 0.5 0.5;
   (Existing_credits_paid_duly_till_now, unemployed, _3, stores, car_new) 0.5 0.5;
   (No_credits_taken__all_paid_duly, unemployed, _3, stores, car_new) 0.5 0.5;
   (All_credits_at_this_bank_paid_duly, _1to4_years, _4, stores, car_new) 0.5 0.5;
   (Critical_account__other_credits_elsewhere, _1to4_years, _4, stores, car_new) 0.5 0.5;
   (Delay_in_paying_off_in_the_past, _1to4_years, _4, stores, car_new) 0.5 0.5;
   (Existing_credits_paid_duly_till_now, _1to4_years, _4, stores, car_new) 0.5 0.5;
   (No_credits_taken__all_paid_duly, _1to4_years, _4, stores, car_new) 0.5 0.5;
   (All_credits_at_this_bank_paid_duly, _4to7_years, _4, stores, car_new) 0.5 0.5;
   (Critical_account__other_credits_elsewhere, _4to7_years, _4, stores, car_new) 0.5 0.5;
   (Delay_in_paying_off_in_the_past, _4to7_years, _4, stores, car_new) 0.5 0.5;
   (Existing_credits_paid_duly_till_now, _4to7_years, _4, stores, car_new) 0.5 0.5;
   (No_credits_taken__all_paid_duly, _4to7_years, _4, stores, car_new) 0.5 0.5;
   (All_credits_at_this_bank_paid_duly, ge7_years, _4, stores, car_new) 0.5 0.5;
   (Critical_account__other_credits_elsewhere, ge7_years, _4, stores, car_new) 0.5 0.5;
   (Delay_in_paying_off_in_the_past, ge7_years, _4, stores, car_new) 0.5 0.5;
   (Existing_credits_paid_duly_till_now, ge7_years, _4, stores, car_new) 0.5 0.5;
   (No_credits_taken__all_paid_duly, ge7_years, _4, stores, car_new) 0.5 0.5;
   (All_credits_at_this_bank_paid_duly, lt1_year, _4, stores, car_new) 0.5 0.5;
   (Critical_account__other_credits_elsewhere, lt1_year, _4, stores, car_new) 0.5 0.5;
   (Delay_in_paying_off_in_the_past, lt1_year, _4, stores, car_new) 0.5 0.5;
   (Existing_credits_paid_duly_till_now, lt1_year, _4, stores, car_new) 0.5 0.5;
   (No_credits_taken__all_paid_duly, lt1_year, _4, stores, car_new) 0.5 0.5;
   (All_credits_at_this_bank_paid_duly, unemployed, _4, stores, car_new) 0.5 0.5;
   (Critical_account__other_credits_elsewhere, unemployed, _4, stores, car_new) 0.5 0.5;
   (Delay_in_paying_off_in_the_past, unemployed, _4, stores, car_new) 0.5 0.5;
   (Existing_credits_paid_duly_till_now, unemployed, _4, stores, car_new) 0.5 0.5;
   (No_credits_taken__all_paid_duly, unemployed, _4, stores, car_new) 0.5 0.5;
   (All_credits_at_this_bank_paid_duly, _1to4_years, _1, bank, car_used) 0.5 0.5;
   (Critical_account__other_credits_elsewhere, _1to4_years, _1, bank, car_used) 0.5 0.5;
   (Delay_in_paying_off_in_the_past, _1to4_years, _1, bank, car_used) 0.5 0.5;
   (Existing_credits_paid_duly_till_now, _1to4_years, _1, bank, car_used) 0.5 0.5;
   (No_credits_taken__all_paid_duly, _1to4_years, _1, bank, car_used) 0.5 0.5;
   (All_credits_at_this_bank_paid_duly, _4to7_years, _1, bank, car_used) 0.5 0.5;
   (Critical_account__other_credits_elsewhere, _4to7_years, _1, bank, car_used) 0.5 0.5;
   (Delay_in_paying_off_in_the_past, _4to7_years, _1, bank, car_used) 0.5 0.5;
   (Existing_credits_paid_duly_till_now, _4to7_years, _1, bank, car_used) 0.5 0.5;
   (No_credits_taken__all_paid_duly, _4to7_years, _1, bank, car_used) 0.5 0.5;
   (All_credits_at_this_bank_paid_duly, ge7_years, _1, bank, car_used) 0.5 0.5;
   (Critical_account__other_credits_elsewhere, ge7_years, _1, bank, car_used) 0.5 0.5;
   (Delay_in_paying_off_in_the_past, ge7_years, _1, bank, car_used) 0.5 0.5;
   (Existing_credits_paid_duly_till_now, ge7_years, _1, bank, car_used) 0.5 0.5;
   (No_credits_taken__all_paid_duly, ge7_years, _1, bank, car_used) 0.5 0.5;
   (All_credits_at_this_bank_paid_duly, lt1_year, _1, bank, car_used) 0.5 0.5;
   (Critical_account__other_credits_elsewhere, lt1_year, _1, bank, car_used) 0.5 0.5;
   (Delay_in_paying_off_in_the_past, lt1_year, _1, bank, car_used) 0.5 0.5;
   (Existing_credits_paid_duly_till_now, lt1_year, _1, bank, car_used) 0.5 0.5;
   (No_credits_taken__all_paid_duly, lt1_year, _1, bank, car_used) 0.5 0.5;
   (All_credits_at_this_bank_paid_duly, unemployed, _1, bank, car_used) 0.333333 0.666667;
   (Critical_account__other_credits_elsewhere, unemployed, _1, bank, car_used) 0.5 0.5;
   (Delay_in_paying_off_in_the_past, unemployed, _1, bank, car_used) 0.5 0.5;
   (Existing_credits_paid_duly_till_now, unemployed, _1, bank, car_used) 0.5 0.5;
   (No_credits_taken__all_paid_duly, unemployed, _1, bank, car_used) 0.5 0.5;
   (All_credits_at_this_bank_paid_duly, _1to4_years, _2, bank, car_used) 0.5 0.5;
   (Critical_account__other_credits_elsewhere, _1to4_years, _2, bank, car_used) 0.5 0.5;
   (Delay_in_paying_off_in_the_past, _1to4_years, _2, bank, car_used) 0.5 0.5;
   (Existing_credits_paid_duly_till_now, _1to4_years, _2, bank, car_used) 0.333333 0.666667;
   (No_credits_taken__all_paid_duly, _1to4_years, _2, bank, car_used) 0.5 0.5;
   (All_credits_at_this_bank_paid_duly, _4to7_years, _2, bank, car_used) 0.5 0.5;
   (Critical_account__other_credits_elsewhere, _4to7_years, _2, bank, car_used) 0.5 0.5;
   (Delay_in_paying_off_in_the_past, _4to7_years, _2, bank, car_used) 0.5 0.5;
   (Existing_credits_paid_duly_till_now, _4to7_years, _2, bank, car_used) 0.5 0.5;
   (No_credits_taken__all_paid_duly, _4to7_years, _2, bank, car_used) 0.5 0.5;
   (All_credits_at_this_bank_paid_duly, ge7_years, _2, bank, car_used) 0.5 0.5;
   (Critical_account__other_credits_elsewhere, ge7_years, _2, bank, car_used) 0.5 0.5;
   (Delay_in_paying_off_in_the_past, ge7_years, _2, bank, car_used) 0.5 0.5;
   (Existing_credits_paid_duly_till_now, ge7_years, _2, bank, car_used) 0.5 0.5;
   (No_credits_taken__all_paid_duly, ge7_years, _2, bank, car_used) 0.5 0.5;
   (All_credits_at_this_bank_paid_duly, lt1_year, _2, bank, car_used) 0.5 0.5;
   (Critical_account__other_credits_elsewhere, lt1_year, _2, bank, car_used) 0.5 0.5;
   (Delay_in_paying_off_in_the_past, lt1_year, _2, bank, car_used) 0.5 0.5;
   (Existing_credits_paid_duly_till_now, lt1_year, _2, bank, car_used) 0.5 0.5;
   (No_credits_taken__all_paid_duly, lt1_year, _2, bank, car_used) 0.5 0.5;
   (All_credits_at_this_bank_paid_duly, unemployed, _2, bank, car_used) 0.333333 0.666667;
   (Critical_account__other_credits_elsewhere, unemployed, _2, bank, car_used) 0.5 0.5;
   (Delay_in_paying_off_in_the_past, unemployed, _2, bank, car_used) 0.5 0.5;
   (Existing_credits_paid_duly_till_now, unemployed, _2, bank, car_used) 0.5 0.5;
   (No_credits_taken__all_paid_duly, unemployed, _2, bank, car_used) 0.5 0.5;
   (All_credits_at_this_bank_paid_duly, _1to4_years, _3, bank, car_used) 0.5 0.5;
   (Critical_account__other_credits_elsewhere, _1to4_years, _3, bank, car_used) 0.5 0.5;
   (Delay_in_paying_off_in_the_past, _1to4_years, _3, bank, car_used) 0.5 0.5;
   (Existing_credits_paid_duly_till_now, _1to4_years, _3, bank, car_used) 0.5 0.5;
   (No_credits_taken__all_paid_duly, _1to4_years, _3, bank, car_used) 0.5 0.5;
   (All_credits_at_this_bank_paid_duly, _4to7_years, _3, bank, car_used) 0.5 0.5;
   (Critical_account__other_credits_elsewhere, _4to7_years, _3, bank, car_used) 0.5 0.5;
   (Delay_in_paying_off_in_the_past, _4to7_years, _3, bank, car_used) 0.5 0.5;
   (Existing_credits_paid_duly_till_now, _4to7_years, _3, bank, car_used) 0.5 0.5;
   (No_credits_taken__all_paid_duly, _4to7_years, _3, bank, car_used) 0.5 0.5;
   (All_credits_at_this_bank_paid_duly, ge7_years, _3, bank, car_used) 0.5 0.5;
   (Critical_account__other_credits_elsewhere, ge7_years, _3, bank, car_used) 0.5 0.5;
   (Delay_in_paying_off_in_the_past, ge7_years, _3, bank, car_used) 0.5 0.5;
   (Existing_credits_paid_duly_till_now, ge7_years, _3, bank, car_used) 0.5 0.5;
   (No_credits_taken__all_paid_duly, ge7_years, _3, bank, car_used) 0.5 0.5;
   (All_credits_at_this_bank_paid_duly, lt1_year, _3, bank, car_used) 0.5 0.5;
   (Critical_account__other_credits_elsewhere, lt1_year, _3, bank, car_used) 0.5 0.5;
   (Delay_in_paying_off_in_the_past, lt1_year, _3, bank, car_used) 0.5 0.5;
   (Existing_credits_paid_duly_till_now, lt1_year, _3, bank, car_used) 0.5 0.5;
   (No_credits_taken__all_paid_duly, lt1_year, _3, bank, car_used) 0.5 0.5;
   (All_credits_at_this_bank_paid_duly, unemployed, _3, bank, car_used) 0.5 0.5;
   (Critical_account__other_credits_elsewhere, unemployed, _3, bank, car_used) 0.5 0.5;
   (Delay_in_paying_off_in_the_past, unemployed, _3, bank, car_used) 0.5 0.5;
   (Existing_credits_paid_duly_till_now, unemployed, _3, bank, car_used) 0.5 0.5;
   (No_credits_taken__all_paid_duly, unemployed, _3, bank, car_used) 0.5 0.5;
   (All_credits_at_this_bank_paid_duly, _1to4_years, _4, bank, car_used) 0.666667 0.333333;
   (Critical_account__other_credits_elsewhere, _1to4_years, _4, bank, car_used) 0.333333 0.666667;
   (Delay_in_paying_off_in_the_past, _1to4_years, _4, bank, car_used) 0.5 0.5;
   (Existing_credits_paid_duly_till_now, _1to4_years, _4, bank, car_used) 0.333333 0.666667;
   (No_credits_taken__all_paid_duly, _1to4_years, _4, bank, car_used) 0.5 0.5;
   (All_credits_at_this_bank_paid_duly, _4to7_years, _4, bank, car_used) 0.5 0.5;
   (Critical_account__other_credits_elsewhere, _4to7_years, _4, bank, car_used) 0.5 0.5;
   (Delay_in_paying_off_in_the_past, _4to7_years, _4, bank, car_used) 0.666667 0.333333;
   (Existing_credits_paid_duly_till_now, _4to7_years, _4, bank, car_used) 0.5 0.5;
   (No_credits_taken__all_paid_duly, _4to7_years, _4, bank, car_used) 0.5 0.5;
   (All_credits_at_this_bank_paid_duly, ge7_years, _4, bank, car_used) 0.666667 0.333333;
   (Critical_account__other_credits_elsewhere, ge7_years, _4, bank, car_used) 0.5 0.5;
   (Delay_in_paying_off_in_the_past, ge7_years, _4, bank, car_used) 0.5 0.5;
   (Existing_credits_paid_duly_till_now, ge7_years, _4, bank, car_used) 0.2 0.8;
   (No_credits_taken__all_paid_duly, ge7_years, _4, bank, car_used) 0.333333 0.666667;
   (All_credits_at_this_bank_paid_duly, lt1_year, _4, bank, car_used) 0.333333 0.666667;
   (Critical_account__other_credits_elsewhere, lt1_year, _4, bank, car_used) 0.5 0.5;
   (Delay_in_paying_off_in_the_past, lt1_year, _4, bank, car_used) 0.5 0.5;
   (Existing_credits_paid_duly_till_now, lt1_year, _4, bank, car_used) 0.5 0.5;
   (No_credits_taken__all_paid_duly, lt1_year, _4, bank, car_used) 0.5 0.5;
   (All_credits_at_this_bank_paid_duly, unemployed, _4, bank, car_used) 0.5 0.5;
   (Critical_account__other_credits_elsewhere, unemployed, _4, bank, car_used) 0.5 0.5;
   (Delay_in_paying_off_in_the_past, unemployed, _4, bank, car_used) 0.5 0.5;
   (Existing_credits_paid_duly_till_now, unemployed, _4, bank, car_used) 0.5 0.5;
   (No_credits_taken__all_paid_duly, unemployed, _4, bank, car_used) 0.5 0.5;
   (All_credits_at_this_bank_paid_duly, _1to4_years, _1, none, car_used) 0.5 0.5;
   (Critical_account__other_credits_elsewhere, _1to4_years, _1, none, car_used) 0.5 0.5;
   (Delay_in_paying_off_in_the_past, _1to4_years, _1, none, car_used) 0.5 0.5;
   (Existing_credits_paid_duly_till_now, _1to4_years, _1, none, car_used) 0.333333 0.666667;
   (No_credits_taken__all_paid_duly, _1to4_years, _1, none, car_used) 0.5 0.5;
   (All_credits_at_this_bank_paid_duly, _4to7_years, _1, none, car_used) 0.5 0.5;
   (Critical_account__other_credits_elsewhere, _4to7_years, _1, none, car_used) 0.5 0.5;
   (Delay_in_paying_off_in_the_past, _4to7_years, _1, none, car_used) 0.5 0.5;
   (Existing_credits_paid_duly_till_now, _4to7_years, _1, none, car_used) 0.333333 0.666667;
   (No_credits_taken__all_paid_duly, _4to7_years, _1, none, car_used) 0.5 0.5;
   (All_credits_at_this_bank_paid_duly, ge7_years, _1, none, car_used) 0.5 0.5;
   (Critical_account__other_credits_elsewhere, ge7_years, _1, none, car_used) 0.5 0.5;
   (Delay_in_paying_off_in_the_past, ge7_years, _1, none, car_used) 0.5 0.5;
   (Existing_credits_paid_duly_till_now, ge7_years, _1, none, car_used) 0.5 0.5;
   (No_credits_taken__all_paid_duly, ge7_years, _1, none, car_used) 0.5 0.5;
   (All_credits_at_this_bank_paid_duly, lt1_year, _1, none, car_used) 0.5 0.5;
   (Critical_account__other_credits_elsewhere, lt1_year, _1, none, car_used) 0.5 0.5;
   (Delay_in_paying_off_in_the_past, lt1_year, _1, none, car_used) 0.5 0.5;
   (Existing_credits_paid_duly_till_now, lt1_year, _1, none, car_used) 0.666667 0.333333;
   (No_credits_taken__all_paid_duly, lt1_year, _1, none, car_used) 0.5 0.5;
   (All_credits_at_this_bank_paid_duly, unemployed, _1, none, car_used) 0.5 0.5;
   (Critical_account__other_credits_elsewhere, unemployed, _1, none, car_used) 0.5 0.5;
   (Delay_in_paying_off_in_the_past, unemployed, _1, none, car_used) 0.5 0.5;
   (Existing_credits_paid_duly_till_now, unemployed, _1, none, car_used) 0.5 0.5;
   (No_credits_taken__all_paid_duly, unemployed, _1, none, car_used) 0.5 0.5;
   (All_credits_at_this_bank_paid_duly, _1to4_years, _2, none, car_used) 0.5 0.5;
   (Critical_account__other_credits_elsewhere, _1to4_years, _2, none, car_used) 0.2 0.8;
   (Delay_in_paying_off_in_the_past, _1to4_years, _2, none, car_used) 0.333333 0.666667;
   (Existing_credits_paid_duly_till_now, _1to4_years, _2, none, car_used) 0.125 0.875;
   (No_credits_taken__all_paid_duly, _1to4_years, _2, none, car_used) 0.333333 0.666667;
   (All_credits_at_this_bank_paid_duly, _4to7_years, _2, none, car_used) 0.5 0.5;
   (Critical_account__other_credits_elsewhere, _4to7_years, _2, none, car_used) 0.666667 0.333333;
   (Delay_in_paying_off_in_the_past, _4to7_years, _2, none, car_used) 0.5 0.5;
   (Existing_credits_paid_duly_till_now, _4to7_years, _2, none, car_used) 0.5 0.5;
   (No_credits_taken__all_paid_duly, _4to7_years, _2, none, car_used) 0.5 0.5;
   (All_credits_at_this_bank_paid_duly, ge7_years, _2, none, car_used) 0.5 0.5;
   (Critical_account__other_credits_elsewhere, ge7_years, _2, none, car_used) 0.2 0.8;
   (Delay_in_paying_off_in_the_past, ge7_years, _2, none, car_used) 0.333333 0.666667;
   (Existing_credits_paid_duly_till_now, ge7_years, _2, none, car_used) 0.25 0.75;
   (No_credits_taken__all_paid_duly, ge7_years, _2, none, car_used) 0.5 0.5;
   (All_credits_at_this_bank_paid_duly, lt1_year, _2, none, car_used) 0.5 0.5;
   (Critical_account__other_credits_elsewhere, lt1_year, _2, none, car_used) 0.5 0.5;
   (Delay_in_paying_off_in_the_past, lt1_year, _2, none, car_used) 0.333333 0.666667;
   (Existing_credits_paid_duly_till_now, lt1_year, _2, none, car_used) 0.5 0.5;
   (No_credits_taken__all_paid_duly, lt1_year, _2, none, car_used) 0.5 0.5;
   (All_credits_at_this_bank_paid_duly, unemployed, _2, none, car_used) 0.5 0.5;
   (Critical_account__other_credits_elsewhere, unemployed, _2, none, car_used) 0.333333 0.666667;
   (Delay_in_paying_off_in_the_past, unemployed, _2, none, car_used) 0.5 0.5;
   (Existing_credits_paid_duly_till_now, unemployed, _2, none, car_used) 0.25 0.75;
   (No_credits_taken__all_paid_duly, unemployed, _2, none, car_used) 0.5 0.5;
   (All_credits_at_this_bank_paid_duly, _1to4_years, _3, none, car_used) 0.5 0.5;
   (Critical_account__other_credits_elsewhere, _1to4_years, _3, none, car_used) 0.5 0.5;
   (Delay_in_paying_off_in_the_past, _1to4_years, _3, none, car_used) 0.5 0.5;
   (Existing_credits_paid_duly_till_now, _1to4_years, _3, none, car_used) 0.25 0.75;
   (No_credits_taken__all_paid_duly, _1to4_years, _3, none, car_used) 0.5 0.5;
   (All_credits_at_this_bank_paid_duly, _4to7_years, _3, none, car_used) 0.5 0.5;
   (Critical_account__other_credits_elsewhere, _4to7_years, _3, none, car_used) 0.333333 0.666667;
   (Delay_in_paying_off_in_the_past, _4to7_years, _3, none, car_used) 0.333333 0.666667;
   (Existing_credits_paid_duly_till_now, _4to7_years, _3, none, car_used) 0.5 0.5;
   (No_credits_taken__all_paid_duly, _4to7_years, _3, none, car_used) 0.5 0.5;
   (All_credits_at_this_bank_paid_duly, ge7_years, _3, none, car_used) 0.5 0.5;
   (Critical_account__other_credits_elsewhere, ge7_years, _3, none, car_used) 0.25 0.75;
   (Delay_in_paying_off_in_the_past, ge7_years, _3, none, car_used) 0.5 0.5;
   (Existing_credits_paid_duly_till_now, ge7_years, _3, none, car_used) 0.5 0.5;
   (No_credits_taken__all_paid_duly, ge7_years, _3, none, car_used) 0.5 0.5;
   (All_credits_at_this_bank_paid_duly, lt1_year, _3, none, car_used) 0.5 0.5;
   (Critical_account__other_credits_elsewhere, lt1_year, _3, none, car_used) 0.5 0.5;
   (Delay_in_paying_off_in_the_past, lt1_year, _3, none, car_used) 0.5 0.5;
   (Existing_credits_paid_duly_till_now, lt1_year, _3, none, car_used) 0.333333 0.666667;
   (No_credits_taken__all_paid_duly, lt1_year, _3, none, car_used) 0.5 0.5;
   (All_credits_at_this_bank_paid_duly, unemployed, _3, none, car_used) 0.5 0.5;
   (Critical_account__other_credits_elsewhere, unemployed, _3, none, car_used) 0.5 0.5;
   (Delay_in_paying_off_in_the_past, unemployed, _3, none, car_used) 0.5 0.5;
   (Existing_credits_paid_duly_till_now, unemployed, _3, none, car_used) 0.5 0.5;
   (No_credits_taken__all_paid_duly, unemployed, _3, none, car_used) 0.5 0.5;
   (All_credits_at_this_bank_paid_duly, _1to4_years, _4, none, car_used) 0.5 0.5;
   (Critical_account__other_credits_elsewhere, _1to4_years, _4, none, car_used) 0.25 0.75;
   (Delay_in_paying_off_in_the_past, _1to4_years, _4, none, car_used) 0.333333 0.666667;
   (Existing_credits_paid_duly_till_now, _1to4_years, _4, none, car_used) 0.25 0.75;
   (No_credits_taken__all_paid_duly, _1to4_years, _4, none, car_used) 0.5 0.5;
   (All_credits_at_this_bank_paid_duly, _4to7_years, _4, none, car_used) 0.5 0.5;
   (Critical_account__other_credits_elsewhere, _4to7_years, _4, none, car_used) 0.333333 0.666667;
   (Delay_in_paying_off_in_the_past, _4to7_years, _4, none, car_used) 0.5 0.5;
   (Existing_credits_paid_duly_till_now, _4to7_years, _4, none, car_used) 0.333333 0.666667;
   (No_credits_taken__all_paid_duly, _4to7_years, _4, none, car_used) 0.5 0.5;
   (All_credits_at_this_bank_paid_duly, ge7_years, _4, none, car_used) 0.5 0.5;
   (Critical_account__other_credits_elsewhere, ge7_years, _4, none, car_used) 0.384615 0.615385;
   (Delay_in_paying_off_in_the_past, ge7_years, _4, none, car_used) 0.5 0.5;
   (Existing_credits_paid_duly_till_now, ge7_years, _4, none, car_used) 0.4 0.6;
   (No_credits_taken__all_paid_duly, ge7_years, _4, none, car_used) 0.333333 0.666667;
   (All_credits_at_this_bank_paid_duly, lt1_year, _4, none, car_used) 0.5 0.5;
   (Critical_account__other_credits_elsewhere, lt1_year, _4, none, car_used) 0.333333 0.666667;
   (Delay_in_paying_off_in_the_past, lt1_year, _4, none, car_used) 0.5 0.5;
   (Existing_credits_paid_duly_till_now, lt1_year, _4, none, car_used) 0.5 0.5;
   (No_credits_taken__all_paid_duly, lt1_year, _4, none, car_used) 0.5 0.5;
   (All_credits_at_this_bank_paid_duly, unemployed, _4, none, car_used) 0.5 0.5;
   (Critical_account__other_credits_elsewhere, unemployed, _4, none, car_used) 0.2 0.8;
   (Delay_in_paying_off_in_the_past, unemployed, _4, none, car_used) 0.5 0.5;
   (Existing_credits_paid_duly_till_now, unemployed, _4, none, car_used) 0.4 0.6;
   (No_credits_taken__all_paid_duly, unemployed, _4, none, car_used) 0.5 0.5;
   (All_credits_at_this_bank_paid_duly, _1to4_years, _1, stores, car_used) 0.5 0.5;
   (Critical_account__other_credits_elsewhere, _1to4_years, _1, stores, car_used) 0.5 0.5;
   (Delay_in_paying_off_in_the_past, _1to4_years, _1, stores, car_used) 0.5 0.5;
   (Existing_credits_paid_duly_till_now, _1to4_years, _1, stores, car_used) 0.5 0.5;
   (No_credits_taken__all_paid_duly, _1to4_years, _1, stores, car_used) 0.5 0.5;
   (All_credits_at_this_bank_paid_duly, _4to7_years, _1, stores, car_used) 0.5 0.5;
   (Critical_account__other_credits_elsewhere, _4to7_years, _1, stores, car_used) 0.5 0.5;
   (Delay_in_paying_off_in_the_past, _4to7_years, _1, stores, car_used) 0.5 0.5;
   (Existing_credits_paid_duly_till_now, _4to7_years, _1, stores, car_used) 0.5 0.5;
   (No_credits_taken__all_paid_duly, _4to7_years, _1, stores, car_used) 0.5 0.5;
   (All_credits_at_this_bank_paid_duly, ge7_years, _1, stores, car_used) 0.5 0.5;
   (Critical_account__other_credits_elsewhere, ge7_years, _1, stores, car_used) 0.5 0.5;
   (Delay_in_paying_off_in_the_past, ge7_years, _1, stores, car_used) 0.5 0.5;
   (Existing_credits_paid_duly_till_now, ge7_years, _1, stores, car_used) 0.5 0.5;
   (No_credits_taken__all_paid_duly, ge7_years, _1, stores, car_used) 0.5 0.5;
   (All_credits_at_this_bank_paid_duly, lt1_year, _1, stores, car_used) 0.5 0.5;
   (Critical_account__other_credits_elsewhere, lt1_year, _1, stores, car_used) 0.5 0.5;
   (Delay_in_paying_off_in_the_past, lt1_year, _1, stores, car_used) 0.5 0.5;
   (Existing_credits_paid_duly_till_now, lt1_year, _1, stores, car_used) 0.5 0.5;
   (No_credits_taken__all_paid_duly, lt1_year, _1, stores, car_used) 0.5 0.5;
   (All_credits_at_this_bank_paid_duly, unemployed, _1, stores, car_used) 0.5 0.5;
   (Critical_account__other_credits_elsewhere, unemployed, _1, stores, car_used) 0.5 0.5;
   (Delay_in_paying_off_in_the_past, unemployed, _1, stores, car_used) 0.5 0.5;
   (Existing_credits_paid_duly_till_now, unemployed, _1, stores, car_used) 0.5 0.5;
   (No_credits_taken__all_paid_duly, unemployed, _1, stores, car_used) 0.5 0.5;
   (All_credits_at_this_bank_paid_duly, _1to4_years, _2, stores, car_used) 0.5 0.5;
   (Critical_account__other_credits_elsewhere, _1to4_years, _2, stores, car_used) 0.5 0.5;
   (Delay_in_paying_off_in_the_past, _1to4_years, _2, stores, car_used) 0.333333 0.666667;
   (Existing_credits_paid_duly_till_now, _1to4_years, _2, stores, car_used) 0.5 0.5;
   (No_credits_taken__all_paid_duly, _1to4_years, _2, stores, car_used) 0.5 0.5;
   (All_credits_at_this_bank_paid_duly, _4to7_years, _2, stores, car_used) 0.5 0.5;
   (Critical_account__other_credits_elsewhere, _4to7_years, _2, stores, car_used) 0.5 0.5;
   (Delay_in_paying_off_in_the_past, _4to7_years, _2, stores, car_used) 0.666667 0.333333;
   (Existing_credits_paid_duly_till_now, _4to7_years, _2, stores, car_used) 0.5 0.5;
   (No_credits_taken__all_paid_duly, _4to7_years, _2, stores, car_used) 0.5 0.5;
   (All_credits_at_this_bank_paid_duly, ge7_years, _2, stores, car_used) 0.5 0.5;
   (Critical_account__other_credits_elsewhere, ge7_years, _2, stores, car_used) 0.5 0.5;
   (Delay_in_paying_off_in_the_past, ge7_years, _2, stores, car_used) 0.5 0.5;
   (Existing_credits_paid_duly_till_now, ge7_years, _2, stores, car_used) 0.5 0.5;
   (No_credits_taken__all_paid_duly, ge7_years, _2, stores, car_used) 0.5 0.5;
   (All_credits_at_this_bank_paid_duly, lt1_year, _2, stores, car_used) 0.5 0.5;
   (Critical_account__other_credits_elsewhere, lt1_year, _2, stores, car_used) 0.5 0.5;
   (Delay_in_paying_off_in_the_past, lt1_year, _2, stores, car_used) 0.5 0.5;
   (Existing_credits_paid_duly_till_now, lt1_year, _2, stores, car_used) 0.5 0.5;
   (No_credits_taken__all_paid_duly, lt1_year, _2, stores, car_used) 0.5 0.5;
   (All_credits_at_this_bank_paid_duly, unemployed, _2, stores, car_used) 0.5 0.5;
   (Critical_account__other_credits_elsewhere, unemployed, _2, stores, car_used) 0.5 0.5;
   (Delay_in_paying_off_in_the_past, unemployed, _2, stores, car_used) 0.5 0.5;
   (Existing_credits_paid_duly_till_now, unemployed, _2, stores, car_used) 0.5 0.5;
   (No_credits_taken__all_paid_duly, unemployed, _2, stores, car_used) 0.5 0.5;
   (All_credits_at_this_bank_paid_duly, _1to4_years, _3, stores, car_used) 0.5 0.5;
   (Critical_account__other_credits_elsewhere, _1to4_years, _3, stores, car_used) 0.5 0.5;
   (Delay_in_paying_off_in_the_past, _1to4_years, _3, stores, car_used) 0.5 0.5;
   (Existing_credits_paid_duly_till_now, _1to4_years, _3, stores, car_used) 0.5 0.5;
   (No_credits_taken__all_paid_duly, _1to4_years, _3, stores, car_used) 0.5 0.5;
   (All_credits_at_this_bank_paid_duly, _4to7_years, _3, stores, car_used) 0.5 0.5;
   (Critical_account__other_credits_elsewhere, _4to7_years, _3, stores, car_used) 0.5 0.5;
   (Delay_in_paying_off_in_the_past, _4to7_years, _3, stores, car_used) 0.5 0.5;
   (Existing_credits_paid_duly_till_now, _4to7_years, _3, stores, car_used) 0.5 0.5;
   (No_credits_taken__all_paid_duly, _4to7_years, _3, stores, car_used) 0.5 0.5;
   (All_credits_at_this_bank_paid_duly, ge7_years, _3, stores, car_used) 0.5 0.5;
   (Critical_account__other_credits_elsewhere, ge7_years, _3, stores, car_used) 0.5 0.5;
   (Delay_in_paying_off_in_the_past, ge7_years, _3, stores, car_used) 0.5 0.5;
   (Existing_credits_paid_duly_till_now, ge7_years, _3, stores, car_used) 0.5 0.5;
   (No_credits_taken__all_paid_duly, ge7_years, _3, stores, car_used) 0.5 0.5;
   (All_credits_at_this_bank_paid_duly, lt1_year, _3, stores, car_used) 0.5 0.5;
   (Critical_account__other_credits_elsewhere, lt1_year, _3, stores, car_used) 0.5 0.5;
   (Delay_in_paying_off_in_the_past, lt1_year, _3, stores, car_used) 0.5 0.5;
   (Existing_credits_paid_duly_till_now, lt1_year, _3, stores, car_used) 0.5 0.5;
   (No_credits_taken__all_paid_duly, lt1_year, _3, stores, car_used) 0.5 0.5;
   (All_credits_at_this_bank_paid_duly, unemployed, _3, stores, car_used) 0.5 0.5;
   (Critical_account__other_credits_elsewhere, unemployed, _3, stores, car_used) 0.5 0.5;
   (Delay_in_paying_off_in_the_past, unemployed, _3, stores, car_used) 0.5 0.5;
   (Existing_credits_paid_duly_till_now, unemployed, _3, stores, car_used) 0.5 0.5;
   (No_credits_taken__all_paid_duly, unemployed, _3, stores, car_used) 0.5 0.5;
   (All_credits_at_this_bank_paid_duly, _1to4_years, _4, stores, car_used) 0.5 0.5;
   (Critical_account__other_credits_elsewhere, _1to4_years, _4, stores, car_used) 0.5 0.5;
   (Delay_in_paying_off_in_the_past, _1to4_years, _4, stores, car_used) 0.5 0.5;
   (Existing_credits_paid_duly_till_now, _1to4_years, _4, stores, car_used) 0.5 0.5;
   (No_credits_taken__all_paid_duly, _1to4_years, _4, stores, car_used) 0.5 0.5;
   (All_credits_at_this_bank_paid_duly, _4to7_years, _4, stores, car_used) 0.5 0.5;
   (Critical_account__other_credits_elsewhere, _4to7_years, _4, stores, car_used) 0.5 0.5;
   (Delay_in_paying_off_in_the_past, _4to7_years, _4, stores, car_used) 0.5 0.5;
   (Existing_credits_paid_duly_till_now, _4to7_years, _4, stores, car_used) 0.25 0.75;
   (No_credits_taken__all_paid_duly, _4to7_years, _4, stores, car_used) 0.5 0.5;
   (All_credits_at_this_bank_paid_duly, ge7_years, _4, stores, car_used) 0.5 0.5;
   (Critical_account__other_credits_elsewhere, ge7_years, _4, stores, car_used) 0.333333 0.666667;
   (Delay_in_paying_off_in_the_past, ge7_years, _4, stores, car_used) 0.5 0.5;
   (Existing_credits_paid_duly_till_now, ge7_years, _4, stores, car_used) 0.5 0.5;
   (No_credits_taken__all_paid_duly, ge7_years, _4, stores, car_used) 0.5 0.5;
   (All_credits_at_this_bank_paid_duly, lt1_year, _4, stores, car_used) 0.5 0.5;
   (Critical_account__other_credits_elsewhere, lt1_year, _4, stores, car_used) 0.5 0.5;
   (Delay_in_paying_off_in_the_past, lt1_year, _4, stores, car_used) 0.5 0.5;
   (Existing_credits_paid_duly_till_now, lt1_year, _4, stores, car_used) 0.5 0.5;
   (No_credits_taken__all_paid_duly, lt1_year, _4, stores, car_used) 0.5 0.5;
   (All_credits_at_this_bank_paid_duly, unemployed, _4, stores, car_used) 0.5 0.5;
   (Critical_account__other_credits_elsewhere, unemployed, _4, stores, car_used) 0.5 0.5;
   (Delay_in_paying_off_in_the_past, unemployed, _4, stores, car_used) 0.5 0.5;
   (Existing_credits_paid_duly_till_now, unemployed, _4, stores, car_used) 0.5 0.5;
   (No_credits_taken__all_paid_duly, unemployed, _4, stores, car_used) 0.5 0.5;
   (All_credits_at_this_bank_paid_duly, _1to4_years, _1, bank, domestic_appliances) 0.5 0.5;
   (Critical_account__other_credits_elsewhere, _1to4_years, _1, bank, domestic_appliances) 0.5 0.5;
   (Delay_in_paying_off_in_the_past, _1to4_years, _1, bank, domestic_appliances) 0.5 0.5;
   (Existing_credits_paid_duly_till_now, _1to4_years, _1, bank, domestic_appliances) 0.5 0.5;
   (No_credits_taken__all_paid_duly, _1to4_years, _1, bank, domestic_appliances) 0.5 0.5;
   (All_credits_at_this_bank_paid_duly, _4to7_years, _1, bank, domestic_appliances) 0.5 0.5;
   (Critical_account__other_credits_elsewhere, _4to7_years, _1, bank, domestic_appliances) 0.5 0.5;
   (Delay_in_paying_off_in_the_past, _4to7_years, _1, bank, domestic_appliances) 0.5 0.5;
   (Existing_credits_paid_duly_till_now, _4to7_years, _1, bank, domestic_appliances) 0.5 0.5;
   (No_credits_taken__all_paid_duly, _4to7_years, _1, bank, domestic_appliances) 0.5 0.5;
   (All_credits_at_this_bank_paid_duly, ge7_years, _1, bank, domestic_appliances) 0.5 0.5;
   (Critical_account__other_credits_elsewhere, ge7_years, _1, bank, domestic_appliances) 0.5 0.5;
   (Delay_in_paying_off_in_the_past, ge7_years, _1, bank, domestic_appliances) 0.5 0.5;
   (Existing_credits_paid_duly_till_now, ge7_years, _1, bank, domestic_appliances) 0.5 0.5;
   (No_credits_taken__all_paid_duly, ge7_years, _1, bank, domestic_appliances) 0.5 0.5;
   (All_credits_at_this_bank_paid_duly, lt1_year, _1, bank, domestic_appliances) 0.5 0.5;
   (Critical_account__other_credits_elsewhere, lt1_year, _1, bank, domestic_appliances) 0.5 0.5;
   (Delay_in_paying_off_in_the_past, lt1_year, _1, bank, domestic_appliances) 0.5 0.5;
   (Existing_credits_paid_duly_till_now, lt1_year, _1, bank, domestic_appliances) 0.5 0.5;
   (No_credits_taken__all_paid_duly, lt1_year, _1, bank, domestic_appliances) 0.5 0.5;
   (All_credits_at_this_bank_paid_duly, unemployed, _1, bank, domestic_appliances) 0.5 0.5;
   (Critical_account__other_credits_elsewhere, unemployed, _1, bank, domestic_appliances) 0.5 0.5;
   (Delay_in_paying_off_in_the_past, unemployed, _1, bank, domestic_appliances) 0.5 0.5;
   (Existing_credits_paid_duly_till_now, unemployed, _1, bank, domestic_appliances) 0.5 0.5;
   (No_credits_taken__all_paid_duly, unemployed, _1, bank, domestic_appliances) 0.5 0.5;
   (All_credits_at_this_bank_paid_duly, _1to4_years, _2, bank, domestic_appliances) 0.5 0.5;
   (Critical_account__other_credits_elsewhere, _1to4_years, _2, bank, domestic_appliances) 0.5 0.5;
   (Delay_in_paying_off_in_the_past, _1to4_years, _2, bank, domestic_appliances) 0.5 0.5;
   (Existing_credits_paid_duly_till_now, _1to4_years, _2, bank, domestic_appliances) 0.5 0.5;
   (No_credits_taken__all_paid_duly, _1to4_years, _2, bank, domestic_appliances) 0.5 0.5;
   (All_credits_at_this_bank_paid_duly, _4to7_years, _2, bank, domestic_appliances) 0.5 0.5;
   (Critical_account__other_credits_elsewhere, _4to7_years, _2, bank, domestic_appliances) 0.5 0.5;
   (Delay_in_paying_off_in_the_past, _4to7_years, _2, bank, domestic_appliances) 0.5 0.5;
   (Existing_credits_paid_duly_till_now, _4to7_years, _2, bank, domestic_appliances) 0.5 0.5;
   (No_credits_taken__all_paid_duly, _4to7_years, _2, bank, domestic_appliances) 0.5 0.5;
   (All_credits_at_this_bank_paid_duly, ge7_years, _2, bank, domestic_appliances) 0.5 0.5;
   (Critical_account__other_credits_elsewhere, ge7_years, _2, bank, domestic_appliances) 0.5 0.5;
   (Delay_in_paying_off_in_the_past, ge7_years, _2, bank, domestic_appliances) 0.5 0.5;
   (Existing_credits_paid_duly_till_now, ge7_years, _2, bank, domestic_appliances) 0.5 0.5;
   (No_credits_taken__all_paid_duly, ge7_years, _2, bank, domestic_appliances) 0.5 0.5;
   (All_credits_at_this_bank_paid_duly, lt1_year, _2, bank, domestic_appliances) 0.666667 0.333333;
   (Critical_account__other_credits_elsewhere, lt1_year, _2, bank, domestic_appliances) 0.5 0.5;
   (Delay_in_paying_off_in_the_past, lt1_year, _2, bank, domestic_appliances) 0.5 0.5;
   (Existing_credits_paid_duly_till_now, lt1_year, _2, bank, domestic_appliances) 0.5 0.5;
   (No_credits_taken__all_paid_duly, lt1_year, _2, bank, domestic_appliances) 0.5 0.5;
   (All_credits_at_this_bank_paid_duly, unemployed, _2, bank, domestic_appliances) 0.5 0.5;
   (Critical_account__other_credits_elsewhere, unemployed, _2, bank, domestic_appliances) 0.5 0.5;
   (Delay_in_paying_off_in_the_past, unemployed, _2, bank, domestic_appliances) 0.5 0.5;
   (Existing_credits_paid_duly_till_now, unemployed, _2, bank, domestic_appliances) 0.5 0.5;
   (No_credits_taken__all_paid_duly, unemployed, _2, bank, domestic_appliances) 0.5 0.5;
   (All_credits_at_this_bank_paid_duly, _1to4_years, _3, bank, domestic_appliances) 0.5 0.5;
   (Critical_account__other_credits_elsewhere, _1to4_years, _3, bank, domestic_appliances) 0.5 0.5;
   (Delay_in_paying_off_in_the_past, _1to4_years, _3, bank, domestic_appliances) 0.5 0.5;
   (Existing_credits_paid_duly_till_now, _1to4_years, _3, bank, domestic_appliances) 0.5 0.5;
   (No_credits_taken__all_paid_duly, _1to4_years, _3, bank, domestic_appliances) 0.5 0.5;
   (All_credits_at_this_bank_paid_duly, _4to7_years, _3, bank, domestic_appliances) 0.5 0.5;
   (Critical_account__other_credits_elsewhere, _4to7_years, _3, bank, domestic_appliances) 0.5 0.5;
   (Delay_in_paying_off_in_the_past, _4to7_years, _3, bank, domestic_appliances) 0.5 0.5;
   (Existing_credits_paid_duly_till_now, _4to7_years, _3, bank, domestic_appliances) 0.5 0.5;
   (No_credits_taken__all_paid_duly, _4to7_years, _3, bank, domestic_appliances) 0.5 0.5;
   (All_credits_at_this_bank_paid_duly, ge7_years, _3, bank, domestic_appliances) 0.5 0.5;
   (Critical_account__other_credits_elsewhere, ge7_years, _3, bank, domestic_appliances) 0.5 0.5;
   (Delay_in_paying_off_in_the_past, ge7_years, _3, bank, domestic_appliances) 0.5 0.5;
   (Existing_credits_paid_duly_till_now, ge7_years, _3, bank, domestic_appliances) 0.5 0.5;
   (No_credits_taken__all_paid_duly, ge7_years, _3, bank, domestic_appliances) 0.5 0.5;
   (All_credits_at_this_bank_paid_duly, lt1_year, _3, bank, domestic_appliances) 0.5 0.5;
   (Critical_account__other_credits_elsewhere, lt1_year, _3, bank, domestic_appliances) 0.5 0.5;
   (Delay_in_paying_off_in_the_past, lt1_year, _3, bank, domestic_appliances) 0.5 0.5;
   (Existing_credits_paid_duly_till_now, lt1_year, _3, bank, domestic_appliances) 0.5 0.5;
   (No_credits_taken__all_paid_duly, lt1_year, _3, bank, domestic_appliances) 0.5 0.5;
   (All_credits_at_this_bank_paid_duly, unemployed, _3, bank, domestic_appliances) 0.5 0.5;
   (Critical_account__other_credits_elsewhere, unemployed, _3, bank, domestic_appliances) 0.5 0.5;
   (Delay_in_paying_off_in_the_past, unemployed, _3, bank, domestic_appliances) 0.5 0.5;
   (Existing_credits_paid_duly_till_now, unemployed, _3, bank, domestic_appliances) 0.5 0.5;
   (No_credits_taken__all_paid_duly, unemployed, _3, bank, domestic_appliances) 0.5 0.5;
   (All_credits_at_this_bank_paid_duly, _1to4_years, _4, bank, domestic_appliances) 0.5 0.5;
   (Critical_account__other_credits_elsewhere, _1to4_years, _4, bank, domestic_appliances) 0.5 0.5;
   (Delay_in_paying_off_in_the_past, _1to4_years, _4, bank, domestic_appliances) 0.5 0.5;
   (Existing_credits_paid_duly_till_now, _1to4_years, _4, bank, domestic_appliances) 0.5 0.5;
   (No_credits_taken__all_paid_duly, _1to4_years, _4, bank, domestic_appliances) 0.5 0.5;
   (All_credits_at_this_bank_paid_duly, _4to7_years, _4, bank, domestic_appliances) 0.5 0.5;
   (Critical_account__other_credits_elsewhere, _4to7_years, _4, bank, domestic_appliances) 0.5 0.5;
   (Delay_in_paying_off_in_the_past, _4to7_years, _4, bank, domestic_appliances) 0.5 0.5;
   (Existing_credits_paid_duly_till_now, _4to7_years, _4, bank, domestic_appliances) 0.5 0.5;
   (No_credits_taken__all_paid_duly, _4to7_years, _4, bank, domestic_appliances) 0.5 0.5;
   (All_credits_at_this_bank_paid_duly, ge7_years, _4, bank, domestic_appliances) 0.5 0.5;
   (Critical_account__other_credits_elsewhere, ge7_years, _4, bank, domestic_appliances) 0.5 0.5;
   (Delay_in_paying_off_in_the_past, ge7_years, _4, bank, domestic_appliances) 0.5 0.5;
   (Existing_credits_paid_duly_till_now, ge7_years, _4, bank, domestic_appliances) 0.5 0.5;
   (No_credits_taken__all_paid_duly, ge7_years, _4, bank, domestic_appliances) 0.5 0.5;
   (All_credits_at_this_bank_paid_duly, lt1_year, _4, bank, domestic_appliances) 0.5 0.5;
   (Critical_account__other_credits_elsewhere, lt1_year, _4, bank, domestic_appliances) 0.5 0.5;
   (Delay_in_paying_off_in_the_past, lt1_year, _4, bank, domestic_appliances) 0.5 0.5;
   (Existing_credits_paid_duly_till_now, lt1_year, _4, bank, domestic_appliances) 0.5 0.5;
   (No_credits_taken__all_paid_duly, lt1_year, _4, bank, domestic_appliances) 0.5 0.5;
   (All_credits_at_this_bank_paid_duly, unemployed, _4, bank, domestic_appliances) 0.5 0.5;
   (Critical_account__other_credits_elsewhere, unemployed, _4, bank, domestic_appliances) 0.5 0.5;
   (Delay_in_paying_off_in_the_past, unemployed, _4, bank, domestic_appliances) 0.5 0.5;
   (Existing_credits_paid_duly_till_now, unemployed, _4, bank, domestic_appliances) 0.5 0.5;
   (No_credits_taken__all_paid_duly, unemployed, _4, bank, domestic_appliances) 0.5 0.5;
   (All_credits_at_this_bank_paid_duly, _1to4_years, _1, none, domestic_appliances) 0.5 0.5;
   (Critical_account__other_credits_elsewhere, _1to4_years, _1, none, domestic_appliances) 0.5 0.5;
   (Delay_in_paying_off_in_the_past, _1to4_years, _1, none, domestic_appliances) 0.5 0.5;
   (Existing_credits_paid_duly_till_now, _1to4_years, _1, none, domestic_appliances) 0.5 0.5;
   (No_credits_taken__all_paid_duly, _1to4_years, _1, none, domestic_appliances) 0.5 0.5;
   (All_credits_at_this_bank_paid_duly, _4to7_years, _1, none, domestic_appliances) 0.5 0.5;
   (Critical_account__other_credits_elsewhere, _4to7_years, _1, none, domestic_appliances) 0.5 0.5;
   (Delay_in_paying_off_in_the_past, _4to7_years, _1, none, domestic_appliances) 0.5 0.5;
   (Existing_credits_paid_duly_till_now, _4to7_years, _1, none, domestic_appliances) 0.5 0.5;
   (No_credits_taken__all_paid_duly, _4to7_years, _1, none, domestic_appliances) 0.5 0.5;
   (All_credits_at_this_bank_paid_duly, ge7_years, _1, none, domestic_appliances) 0.5 0.5;
   (Critical_account__other_credits_elsewhere, ge7_years, _1, none, domestic_appliances) 0.5 0.5;
   (Delay_in_paying_off_in_the_past, ge7_years, _1, none, domestic_appliances) 0.5 0.5;
   (Existing_credits_paid_duly_till_now, ge7_years, _1, none, domestic_appliances) 0.5 0.5;
   (No_credits_taken__all_paid_duly, ge7_years, _1, none, domestic_appliances) 0.5 0.5;
   (All_credits_at_this_bank_paid_duly, lt1_year, _1, none, domestic_appliances) 0.5 0.5;
   (Critical_account__other_credits_elsewhere, lt1_year, _1, none, domestic_appliances) 0.5 0.5;
   (Delay_in_paying_off_in_the_past, lt1_year, _1, none, domestic_appliances) 0.5 0.5;
   (Existing_credits_paid_duly_till_now, lt1_year, _1, none, domestic_appliances) 0.25 0.75;
   (No_credits_taken__all_paid_duly, lt1_year, _1, none, domestic_appliances) 0.5 0.5;
   (All_credits_at_this_bank_paid_duly, unemployed, _1, none, domestic_appliances) 0.5 0.5;
   (Critical_account__other_credits_elsewhere, unemployed, _1, none, domestic_appliances) 0.5 0.5;
   (Delay_in_paying_off_in_the_past, unemployed, _1, none, domestic_appliances) 0.5 0.5;
   (Existing_credits_paid_duly_till_now, unemployed, _1, none, domestic_appliances) 0.5 0.5;
   (No_credits_taken__all_paid_duly, unemployed, _1, none, domestic_appliances) 0.5 0.5;
   (All_credits_at_this_bank_paid_duly, _1to4_years, _2, none, domestic_appliances) 0.5 0.5;
   (Critical_account__other_credits_elsewhere, _1to4_years, _2, none, domestic_appliances) 0.5 0.5;
   (Delay_in_paying_off_in_the_past, _1to4_years, _2, none, domestic_appliances) 0.5 0.5;
   (Existing_credits_paid_duly_till_now, _1to4_years, _2, none, domestic_appliances) 0.25 0.75;
   (No_credits_taken__all_paid_duly, _1to4_years, _2, none, domestic_appliances) 0.5 0.5;
   (All_credits_at_this_bank_paid_duly, _4to7_years, _2, none, domestic_appliances) 0.5 0.5;
   (Critical_account__other_credits_elsewhere, _4to7_years, _2, none, domestic_appliances) 0.5 0.5;
   (Delay_in_paying_off_in_the_past, _4to7_years, _2, none, domestic_appliances) 0.5 0.5;
   (Existing_credits_paid_duly_till_now, _4to7_years, _2, none, domestic_appliances) 0.5 0.5;
   (No_credits_taken__all_paid_duly, _4to7_years, _2, none, domestic_appliances) 0.5 0.5;
   (All_credits_at_this_bank_paid_duly, ge7_years, _2, none, domestic_appliances) 0.5 0.5;
   (Critical_account__other_credits_elsewhere, ge7_years, _2, none, domestic_appliances) 0.5 0.5;
   (Delay_in_paying_off_in_the_past, ge7_years, _2, none, domestic_appliances) 0.5 0.5;
   (Existing_credits_paid_duly_till_now, ge7_years, _2, none, domestic_appliances) 0.5 0.5;
   (No_credits_taken__all_paid_duly, ge7_years, _2, none, domestic_appliances) 0.5 0.5;
   (All_credits_at_this_bank_paid_duly, lt1_year, _2, none, domestic_appliances) 0.5 0.5;
   (Critical_account__other_credits_elsewhere, lt1_year, _2, none, domestic_appliances) 0.5 0.5;
   (Delay_in_paying_off_in_the_past, lt1_year, _2, none, domestic_appliances) 0.5 0.5;
   (Existing_credits_paid_duly_till_now, lt1_year, _2, none, domestic_appliances) 0.5 0.5;
   (No_credits_taken__all_paid_duly, lt1_year, _2, none, domestic_appliances) 0.5 0.5;
   (All_credits_at_this_bank_paid_duly, unemployed, _2, none, domestic_appliances) 0.5 0.5;
   (Critical_account__other_credits_elsewhere, unemployed, _2, none, domestic_appliances) 0.5 0.5;
   (Delay_in_paying_off_in_the_past, unemployed, _2, none, domestic_appliances) 0.5 0.5;
   (Existing_credits_paid_duly_till_now, unemployed, _2, none, domestic_appliances) 0.5 0.5;
   (No_credits_taken__all_paid_duly, unemployed, _2, none, domestic_appliances) 0.5 0.5;
   (All_credits_at_this_bank_paid_duly, _1to4_years, _3, none, domestic_appliances) 0.5 0.5;
   (Critical_account__other_credits_elsewhere, _1to4_years, _3, none, domestic_appliances) 0.5 0.5;
   (Delay_in_paying_off_in_the_past, _1to4_years, _3, none, domestic_appliances) 0.5 0.5;
   (Existing_credits_paid_duly_till_now, _1to4_years, _3, none, domestic_appliances) 0.333333 0.666667;
   (No_credits_taken__all_paid_duly, _1to4_years, _3, none, domestic_appliances) 0.5 0.5;
   (All_credits_at_this_bank_paid_duly, _4to7_years, _3, none, domestic_appliances) 0.5 0.5;
   (Critical_account__other_credits_elsewhere, _4to7_years, _3, none, domestic_appliances) 0.333333 0.666667;
   (Delay_in_paying_off_in_the_past, _4to7_years, _3, none, domestic_appliances) 0.5 0.5;
   (Existing_credits_paid_duly_till_now, _4to7_years, _3, none, domestic_appliances) 0.333333 0.666667;
   (No_credits_taken__all_paid_duly, _4to7_years, _3, none, domestic_appliances) 0.5 0.5;
   (All_credits_at_this_bank_paid_duly, ge7_years, _3, none, domestic_appliances) 0.5 0.5;
   (Critical_account__other_credits_elsewhere, ge7_years, _3, none, domestic_appliances) 0.5 0.5;
   (Delay_in_paying_off_in_the_past, ge7_years, _3, none, domestic_appliances) 0.5 0.5;
   (Existing_credits_paid_duly_till_now, ge7_years, _3, none, domestic_appliances) 0.5 0.5;
   (No_credits_taken__all_paid_duly, ge7_years, _3, none, domestic_appliances) 0.5 0.5;
   (All_credits_at_this_bank_paid_duly, lt1_year, _3, none, domestic_appliances) 0.5 0.5;
   (Critical_account__other_credits_elsewhere, lt1_year, _3, none, domestic_appliances) 0.5 0.5;
   (Delay_in_paying_off_in_the_past, lt1_year, _3, none, domestic_appliances) 0.5 0.5;
   (Existing_credits_paid_duly_till_now, lt1_year, _3, none, domestic_appliances) 0.5 0.5;
   (No_credits_taken__all_paid_duly, lt1_year, _3, none, domestic_appliances) 0.5 0.5;
   (All_credits_at_this_bank_paid_duly, unemployed, _3, none, domestic_appliances) 0.5 0.5;
   (Critical_account__other_credits_elsewhere, unemployed, _3, none, domestic_appliances) 0.5 0.5;
   (Delay_in_paying_off_in_the_past, unemployed, _3, none, domestic_appliances) 0.5 0.5;
   (Existing_credits_paid_duly_till_now, unemployed, _3, none, domestic_appliances) 0.333333 0.666667;
   (No_credits_taken__all_paid_duly, unemployed, _3, none, domestic_appliances) 0.5 0.5;
   (All_credits_at_this_bank_paid_duly, _1to4_years, _4, none, domestic_appliances) 0.5 0.5;
   (Critical_account__other_credits_elsewhere, _1to4_years, _4, none, domestic_appliances) 0.5 0.5;
   (Delay_in_paying_off_in_the_past, _1to4_years, _4, none, domestic_appliances) 0.5 0.5;
   (Existing_credits_paid_duly_till_now, _1to4_years, _4, none, domestic_appliances) 0.25 0.75;
   (No_credits_taken__all_paid_duly, _1to4_years, _4, none, domestic_appliances) 0.5 0.5;
   (All_credits_at_this_bank_paid_duly, _4to7_years, _4, none, domestic_appliances) 0.5 0.5;
   (Critical_account__other_credits_elsewhere, _4to7_years, _4, none, domestic_appliances) 0.5 0.5;
   (Delay_in_paying_off_in_the_past, _4to7_years, _4, none, domestic_appliances) 0.5 0.5;
   (Existing_credits_paid_duly_till_now, _4to7_years, _4, none, domestic_appliances) 0.5 0.5;
   (No_credits_taken__all_paid_duly, _4to7_years, _4, none, domestic_appliances) 0.5 0.5;
   (All_credits_at_this_bank_paid_duly, ge7_years, _4, none, domestic_appliances) 0.5 0.5;
   (Critical_account__other_credits_elsewhere, ge7_years, _4, none, domestic_appliances) 0.5 0.5;
   (Delay_in_paying_off_in_the_past, ge7_years, _4, none, domestic_appliances) 0.5 0.5;
   (Existing_credits_paid_duly_till_now, ge7_years, _4, none, domestic_appliances) 0.5 0.5;
   (No_credits_taken__all_paid_duly, ge7_years, _4, none, domestic_appliances) 0.5 0.5;
   (All_credits_at_this_bank_paid_duly, lt1_year, _4, none, domestic_appliances) 0.5 0.5;
   (Critical_account__other_credits_elsewhere, lt1_year, _4, none, domestic_appliances) 0.5 0.5;
   (Delay_in_paying_off_in_the_past, lt1_year, _4, none, domestic_appliances) 0.5 0.5;
   (Existing_credits_paid_duly_till_now, lt1_year, _4, none, domestic_appliances) 0.333333 0.666667;
   (No_credits_taken__all_paid_duly, lt1_year, _4, none, domestic_appliances) 0.5 0.5;
   (All_credits_at_this_bank_paid_duly, unemployed, _4, none, domestic_appliances) 0.5 0.5;
   (Critical_account__other_credits_elsewhere, unemployed, _4, none, domestic_appliances) 0.5 0.5;
   (Delay_in_paying_off_in_the_past, unemployed, _4, none, domestic_appliances) 0.5 0.5;
   (Existing_credits_paid_duly_till_now, unemployed, _4, none, domestic_appliances) 0.5 0.5;
   (No_credits_taken__all_paid_duly, unemployed, _4, none, domestic_appliances) 0.5 0.5;
   (All_credits_at_this_bank_paid_duly, _1to4_years, _1, stores, domestic_appliances) 0.5 0.5;
   (Critical_account__other_credits_elsewhere, _1to4_years, _1, stores, domestic_appliances) 0.5 0.5;
   (Delay_in_paying_off_in_the_past, _1to4_years, _1, stores, domestic_appliances) 0.5 0.5;
   (Existing_credits_paid_duly_till_now, _1to4_years, _1, stores, domestic_appliances) 0.5 0.5;
   (No_credits_taken__all_paid_duly, _1to4_years, _1, stores, domestic_appliances) 0.5 0.5;
   (All_credits_at_this_bank_paid_duly, _4to7_years, _1, stores, domestic_appliances) 0.5 0.5;
   (Critical_account__other_credits_elsewhere, _4to7_years, _1, stores, domestic_appliances) 0.5 0.5;
   (Delay_in_paying_off_in_the_past, _4to7_years, _1, stores, domestic_appliances) 0.5 0.5;
   (Existing_credits_paid_duly_till_now, _4to7_years, _1, stores, domestic_appliances) 0.5 0.5;
   (No_credits_taken__all_paid_duly, _4to7_years, _1, stores, domestic_appliances) 0.5 0.5;
   (All_credits_at_this_bank_paid_duly, ge7_years, _1, stores, domestic_appliances) 0.5 0.5;
   (Critical_account__other_credits_elsewhere, ge7_years, _1, stores, domestic_appliances) 0.5 0.5;
   (Delay_in_paying_off_in_the_past, ge7_years, _1, stores, domestic_appliances) 0.5 0.5;
   (Existing_credits_paid_duly_till_now, ge7_years, _1, stores, domestic_appliances) 0.5 0.5;
   (No_credits_taken__all_paid_duly, ge7_years, _1, stores, domestic_appliances) 0.5 0.5;
   (All_credits_at_this_bank_paid_duly, lt1_year, _1, stores, domestic_appliances) 0.5 0.5;
   (Critical_account__other_credits_elsewhere, lt1_year, _1, stores, domestic_appliances) 0.5 0.5;
   (Delay_in_paying_off_in_the_past, lt1_year, _1, stores, domestic_appliances) 0.5 0.5;
   (Existing_credits_paid_duly_till_now, lt1_year, _1, stores, domestic_appliances) 0.5 0.5;
   (No_credits_taken__all_paid_duly, lt1_year, _1, stores, domestic_appliances) 0.5 0.5;
   (All_credits_at_this_bank_paid_duly, unemployed, _1, stores, domestic_appliances) 0.5 0.5;
   (Critical_account__other_credits_elsewhere, unemployed, _1, stores, domestic_appliances) 0.5 0.5;
   (Delay_in_paying_off_in_the_past, unemployed, _1, stores, domestic_appliances) 0.5 0.5;
   (Existing_credits_paid_duly_till_now, unemployed, _1, stores, domestic_appliances) 0.5 0.5;
   (No_credits_taken__all_paid_duly, unemployed, _1, stores, domestic_appliances) 0.5 0.5;
   (All_credits_at_this_bank_paid_duly, _1to4_years, _2, stores, domestic_appliances) 0.5 0.5;
   (Critical_account__other_credits_elsewhere, _1to4_years, _2, stores, domestic_appliances) 0.5 0.5;
   (Delay_in_paying_off_in_the_past, _1to4_years, _2, stores, domestic_appliances) 0.5 0.5;
   (Existing_credits_paid_duly_till_now, _1to4_years, _2, stores, domestic_appliances) 0.5 0.5;
   (No_credits_taken__all_paid_duly, _1to4_years, _2, stores, domestic_appliances) 0.5 0.5;
   (All_credits_at_this_bank_paid_duly, _4to7_years, _2, stores, domestic_appliances) 0.5 0.5;
   (Critical_account__other_credits_elsewhere, _4to7_years, _2, stores, domestic_appliances) 0.5 0.5;
   (Delay_in_paying_off_in_the_past, _4to7_years, _2, stores, domestic_appliances) 0.5 0.5;
   (Existing_credits_paid_duly_till_now, _4to7_years, _2, stores, domestic_appliances) 0.5 0.5;
   (No_credits_taken__all_paid_duly, _4to7_years, _2, stores, domestic_appliances) 0.5 0.5;
   (All_credits_at_this_bank_paid_duly, ge7_years, _2, stores, domestic_appliances) 0.5 0.5;
   (Critical_account__other_credits_elsewhere, ge7_years, _2, stores, domestic_appliances) 0.5 0.5;
   (Delay_in_paying_off_in_the_past, ge7_years, _2, stores, domestic_appliances) 0.5 0.5;
   (Existing_credits_paid_duly_till_now, ge7_years, _2, stores, domestic_appliances) 0.5 0.5;
   (No_credits_taken__all_paid_duly, ge7_years, _2, stores, domestic_appliances) 0.5 0.5;
   (All_credits_at_this_bank_paid_duly, lt1_year, _2, stores, domestic_appliances) 0.5 0.5;
