network ""GermanCreditManualBN"" {
// written by aGrUM 2.2.1
}

variable PersonalStatusSex {
   type discrete[4] {female_divorced_separated_married, male_divorced_separated, male_married_widowed, male_single};
}

variable LiablePeople {
   type discrete[2] {1, 2};
}

variable SavingsAccount {
   type discrete[5] {_100to500_DM, _500to1000_DM, ge1000_DM, lt100_DM, unknown__no_savings};
}

variable ExistingCredits {
   type discrete[4] {1, 2, 3, 4};
}

variable Housing {
   type discrete[3] {for_free, own, rent};
}

variable Collateral {
   type discrete[3] {none, some, good};
}

variable Property {
   type discrete[4] {building_society_savings__life_insurance, car_or_other, real_estate, unknown__no_property};
}

variable InstallmentRate {
   type discrete[4] {1, 2, 3, 4};
}

variable OtherDebtors {
   type discrete[3] {co_applicant, guarantor, none};
}

variable Terms {
   type discrete[3] {short, medium, long};
}

variable Income {
   type discrete[3] {low, medium, high};
}

variable CreditHistory {
   type discrete[5] {All_credits_at_this_bank_paid_duly, Critical_account__other_credits_elsewhere, Delay_in_paying_off_in_the_past, Existing_credits_paid_duly_till_now, No_credits_taken__all_paid_duly};
}

variable ResidenceSince {
   type discrete[4] {1, 2, 3, 4};
}

variable Character {
   type discrete[2] {bad, good};
}

variable Capital {
   type discrete[3] {low, medium, high};
}

variable OtherInstallmentPlans {
   type discrete[3] {bank, none, stores};
}

variable ForeignWorker {
   type discrete[2] {no, yes};
}

variable Purpose {
   type discrete[10] {business, car_new, car_used, domestic_appliances, education, furniture_equipment, others, radio_television, repairs, retraining};
}

variable CheckingAccount {
   type discrete[4] {_0to200, No_Checking, ge200, lt0};
}

variable CreditRisk {
   type discrete[2] {Bad, Good};
}

variable Capacity {
   type discrete[3] {low, medium, high};
}

variable Duration {
   type discrete[3] {Long, Medium, Short};
}

variable Job {
   type discrete[4] {management_self_employed_highly_qualified_officer, skilled_employee_official, unemployed_unskilled__non_resident, unskilled__resident};
}

variable EmploymentSince {
   type discrete[5] {_1to4_years, _4to7_years, ge7_years, lt1_year, unemployed};
}

variable Age {
   type discrete[3] {Middle, Old, Young};
}

variable CreditAmount {
   type discrete[3] {High, Low, Medium};
}

probability (PersonalStatusSex | Age) {
   (Middle) 0.2 0.0678571 0.0642857 0.667857;
   (Old) 0.319444 0.0694444 0.0277778 0.583333;
   (Young) 0.354545 0.0439394 0.113636 0.487879;
}
probability (LiablePeople | PersonalStatusSex) {
   (female_divorced_separated_married) 0.951923 0.0480769;
   (male_divorced_separated) 0.923077 0.0769231;
   (male_married_widowed) 0.968085 0.0319149;
   (male_single) 0.750909 0.249091;
}
probability (SavingsAccount | Income) {
   (low) 0.135135 0.0990991 0.027027 0.585586 0.153153;
   (medium) 0.101587 0.0761905 0.0507937 0.587302 0.184127;
   (high) 0.10017 0.0526316 0.0543294 0.604414 0.188455;
}
probability (ExistingCredits) {
   table 0.631474 0.332669 0.0288845 0.00697211;
}
probability (Housing) {
   table 0.108674 0.711864 0.179462;
}
probability (Collateral | Property, Housing) {
   (building_society_savings__life_insurance, for_free) 0.6 0.2 0.2;
   (car_or_other, for_free) 0.5 0.25 0.25;
   (real_estate, for_free) 0.25 0.5 0.25;
   (unknown__no_property, for_free) 0.719626 0.205607 0.0747664;
   (building_society_savings__life_insurance, own) 0.631016 0.278075 0.0909091;
   (car_or_other, own) 0.751825 0.164234 0.0839416;
   (real_estate, own) 0.733624 0.148472 0.117904;
   (unknown__no_property, own) 0.771429 0.142857 0.0857143;
   (building_society_savings__life_insurance, rent) 0.673469 0.183673 0.142857;
   (car_or_other, rent) 0.714286 0.174603 0.111111;
   (real_estate, rent) 0.655172 0.241379 0.103448;
   (unknown__no_property, rent) 0.52381 0.285714 0.190476;
}
probability (Property) {
   table 0.232072 0.331673 0.281873 0.154382;
}
probability (InstallmentRate) {
   table 0.136454 0.231076 0.157371 0.4751;
}
probability (OtherDebtors | Age) {
   (Middle) 0.046595 0.0501792 0.903226;
   (Old) 0.0422535 0.056338 0.901408;
   (Young) 0.0424886 0.0561457 0.901366;
}
probability (Terms | CreditAmount, Duration, InstallmentRate) {
   (High, Long, 1) 0.333333 0.333333 0.333333;
   (Low, Long, 1) 0.333333 0.333333 0.333333;
   (Medium, Long, 1) 0.25 0.25 0.5;
   (High, Medium, 1) 0.333333 0.333333 0.333333;
   (Low, Medium, 1) 0.4 0.2 0.4;
   (Medium, Medium, 1) 0.25 0.375 0.375;
   (High, Short, 1) 0.2 0.4 0.4;
   (Low, Short, 1) 0.237624 0.39604 0.366337;
   (Medium, Short, 1) 0.2 0.533333 0.266667;
   (High, Long, 2) 0.2 0.4 0.4;
   (Low, Long, 2) 0.25 0.5 0.25;
   (Medium, Long, 2) 0.428571 0.285714 0.285714;
   (High, Medium, 2) 0.333333 0.5 0.166667;
   (Low, Medium, 2) 0.103448 0.310345 0.586207;
   (Medium, Medium, 2) 0.241379 0.344828 0.413793;
   (High, Short, 2) 0.333333 0.333333 0.333333;
   (Low, Short, 2) 0.275641 0.275641 0.448718;
   (Medium, Short, 2) 0.210526 0.473684 0.315789;
   (High, Long, 3) 0.4 0.4 0.2;
   (Low, Long, 3) 0.333333 0.333333 0.333333;
   (Medium, Long, 3) 0.5 0.25 0.25;
   (High, Medium, 3) 0.333333 0.333333 0.333333;
   (Low, Medium, 3) 0.190476 0.333333 0.47619;
   (Medium, Medium, 3) 0.142857 0.357143 0.5;
   (High, Short, 3) 0.25 0.25 0.5;
   (Low, Short, 3) 0.225806 0.298387 0.475806;
   (Medium, Short, 3) 0.333333 0.333333 0.333333;
   (High, Long, 4) 0.25 0.5 0.25;
   (Low, Long, 4) 0.5 0.25 0.25;
   (Medium, Long, 4) 0.333333 0.333333 0.333333;
   (High, Medium, 4) 0.166667 0.5 0.333333;
   (Low, Medium, 4) 0.211765 0.376471 0.411765;
   (Medium, Medium, 4) 0.291667 0.333333 0.375;
   (High, Short, 4) 0.2 0.4 0.4;
   (Low, Short, 4) 0.213296 0.32133 0.465374;
   (Medium, Short, 4) 0.375 0.375 0.25;
}
probability (Income | EmploymentSince, Job) {
   (_1to4_years, management_self_employed_highly_qualified_officer) 0.16129 0.290323 0.548387;
   (_4to7_years, management_self_employed_highly_qualified_officer) 0.125 0.25 0.625;
   (ge7_years, management_self_employed_highly_qualified_officer) 0.150943 0.339623 0.509434;
   (lt1_year, management_self_employed_highly_qualified_officer) 0.0526316 0.473684 0.473684;
   (unemployed, management_self_employed_highly_qualified_officer) 0.166667 0.194444 0.638889;
   (_1to4_years, skilled_employee_official) 0.0987124 0.287554 0.613734;
   (_4to7_years, skilled_employee_official) 0.0819672 0.352459 0.565574;
   (ge7_years, skilled_employee_official) 0.0969697 0.260606 0.642424;
   (lt1_year, skilled_employee_official) 0.136364 0.372727 0.490909;
   (unemployed, skilled_employee_official) 0.0666667 0.333333 0.6;
   (_1to4_years, unemployed_unskilled__non_resident) 0.25 0.5 0.25;
   (_4to7_years, unemployed_unskilled__non_resident) 0.333333 0.333333 0.333333;
   (ge7_years, unemployed_unskilled__non_resident) 0.333333 0.333333 0.333333;
   (lt1_year, unemployed_unskilled__non_resident) 0.25 0.25 0.5;
   (unemployed, unemployed_unskilled__non_resident) 0.105263 0.473684 0.421053;
   (_1to4_years, unskilled__resident) 0.144578 0.361446 0.493976;
   (_4to7_years, unskilled__resident) 0.0540541 0.297297 0.648649;
   (ge7_years, unskilled__resident) 0.159091 0.272727 0.568182;
   (lt1_year, unskilled__resident) 0.191489 0.276596 0.531915;
   (unemployed, unskilled__resident) 0.25 0.25 0.5;
}
probability (CreditHistory | ExistingCredits, OtherInstallmentPlans) {
   (1, bank) 0.238636 0.113636 0.0454545 0.545455 0.0568182;
   (2, bank) 0.0943396 0.396226 0.188679 0.207547 0.113208;
   (3, bank) 0.0833333 0.416667 0.0833333 0.25 0.166667;
   (4, bank) 0.166667 0.166667 0.166667 0.333333 0.166667;
   (1, none) 0.0265655 0.11575 0.0493359 0.789374 0.0189753;
   (2, none) 0.018315 0.630037 0.150183 0.131868 0.0695971;
   (3, none) 0.04 0.76 0.04 0.08 0.08;
   (4, none) 0.111111 0.333333 0.222222 0.222222 0.111111;
   (1, stores) 0.272727 0.0606061 0.121212 0.515152 0.030303;
   (2, stores) 0.0454545 0.363636 0.363636 0.0909091 0.136364;
   (3, stores) 0.166667 0.166667 0.166667 0.333333 0.166667;
   (4, stores) 0.166667 0.333333 0.166667 0.166667 0.166667;
}
probability (ResidenceSince | Housing, Age) {
   (for_free, Middle) 0.0377358 0.113208 0.0566038 0.792453;
   (own, Middle) 0.1133 0.226601 0.172414 0.487685;
   (rent, Middle) 0.09375 0.3125 0.125 0.46875;
   (for_free, Old) 0.0454545 0.0909091 0.0909091 0.772727;
   (own, Old) 0.0434783 0.0652174 0.195652 0.695652;
   (rent, Old) 0.0833333 0.166667 0.166667 0.583333;
   (for_free, Young) 0.111111 0.177778 0.0888889 0.622222;
   (own, Young) 0.193277 0.439076 0.165966 0.201681;
   (rent, Young) 0.0680272 0.210884 0.136054 0.585034;
}
probability (Character | CreditHistory, EmploymentSince, ResidenceSince, OtherInstallmentPlans, Purpose) {
   (All_credits_at_this_bank_paid_duly, _1to4_years, 1, bank, business) 0.5 0.5;
   (Critical_account__other_credits_elsewhere, _1to4_years, 1, bank, business) 0.5 0.5;
   (Delay_in_paying_off_in_the_past, _1to4_years, 1, bank, business) 0.5 0.5;
   (Existing_credits_paid_duly_till_now, _1to4_years, 1, bank, business) 0.666667 0.333333;
   (No_credits_taken__all_paid_duly, _1to4_years, 1, bank, business) 0.5 0.5;
   (All_credits_at_this_bank_paid_duly, _4to7_years, 1, bank, business) 0.5 0.5;
   (Critical_account__other_credits_elsewhere, _4to7_years, 1, bank, business) 0.333333 0.666667;
   (Delay_in_paying_off_in_the_past, _4to7_years, 1, bank, business) 0.5 0.5;
   (Existing_credits_paid_duly_till_now, _4to7_years, 1, bank, business) 0.5 0.5;
   (No_credits_taken__all_paid_duly, _4to7_years, 1, bank, business) 0.333333 0.666667;
   (All_credits_at_this_bank_paid_duly, ge7_years, 1, bank, business) 0.5 0.5;
   (Critical_account__other_credits_elsewhere, ge7_years, 1, bank, business) 0.5 0.5;
   (Delay_in_paying_off_in_the_past, ge7_years, 1, bank, business) 0.5 0.5;
   (Existing_credits_paid_duly_till_now, ge7_years, 1, bank, business) 0.333333 0.666667;
   (No_credits_taken__all_paid_duly, ge7_years, 1, bank, business) 0.5 0.5;
   (All_credits_at_this_bank_paid_duly, lt1_year, 1, bank, business) 0.5 0.5;
   (Critical_account__other_credits_elsewhere, lt1_year, 1, bank, business) 0.333333 0.666667;
   (Delay_in_paying_off_in_the_past, lt1_year, 1, bank, business) 0.5 0.5;
   (Existing_credits_paid_duly_till_now, lt1_year, 1, bank, business) 0.5 0.5;
   (No_credits_taken__all_paid_duly, lt1_year, 1, bank, business) 0.5 0.5;
   (All_credits_at_this_bank_paid_duly, unemployed, 1, bank, business) 0.5 0.5;
   (Critical_account__other_credits_elsewhere, unemployed, 1, bank, business) 0.5 0.5;
   (Delay_in_paying_off_in_the_past, unemployed, 1, bank, business) 0.5 0.5;
   (Existing_credits_paid_duly_till_now, unemployed, 1, bank, business) 0.5 0.5;
   (No_credits_taken__all_paid_duly, unemployed, 1, bank, business) 0.5 0.5;
   (All_credits_at_this_bank_paid_duly, _1to4_years, 2, bank, business) 0.5 0.5;
   (Critical_account__other_credits_elsewhere, _1to4_years, 2, bank, business) 0.5 0.5;
   (Delay_in_paying_off_in_the_past, _1to4_years, 2, bank, business) 0.333333 0.666667;
   (Existing_credits_paid_duly_till_now, _1to4_years, 2, bank, business) 0.333333 0.666667;
   (No_credits_taken__all_paid_duly, _1to4_years, 2, bank, business) 0.666667 0.333333;
   (All_credits_at_this_bank_paid_duly, _4to7_years, 2, bank, business) 0.5 0.5;
   (Critical_account__other_credits_elsewhere, _4to7_years, 2, bank, business) 0.5 0.5;
   (Delay_in_paying_off_in_the_past, _4to7_years, 2, bank, business) 0.5 0.5;
   (Existing_credits_paid_duly_till_now, _4to7_years, 2, bank, business) 0.5 0.5;
   (No_credits_taken__all_paid_duly, _4to7_years, 2, bank, business) 0.5 0.5;
   (All_credits_at_this_bank_paid_duly, ge7_years, 2, bank, business) 0.5 0.5;
   (Critical_account__other_credits_elsewhere, ge7_years, 2, bank, business) 0.666667 0.333333;
   (Delay_in_paying_off_in_the_past, ge7_years, 2, bank, business) 0.666667 0.333333;
   (Existing_credits_paid_duly_till_now, ge7_years, 2, bank, business) 0.666667 0.333333;
   (No_credits_taken__all_paid_duly, ge7_years, 2, bank, business) 0.5 0.5;
   (All_credits_at_this_bank_paid_duly, lt1_year, 2, bank, business) 0.5 0.5;
   (Critical_account__other_credits_elsewhere, lt1_year, 2, bank, business) 0.5 0.5;
   (Delay_in_paying_off_in_the_past, lt1_year, 2, bank, business) 0.25 0.75;
   (Existing_credits_paid_duly_till_now, lt1_year, 2, bank, business) 0.5 0.5;
   (No_credits_taken__all_paid_duly, lt1_year, 2, bank, business) 0.5 0.5;
   (All_credits_at_this_bank_paid_duly, unemployed, 2, bank, business) 0.5 0.5;
   (Critical_account__other_credits_elsewhere, unemployed, 2, bank, business) 0.5 0.5;
   (Delay_in_paying_off_in_the_past, unemployed, 2, bank, business) 0.5 0.5;
   (Existing_credits_paid_duly_till_now, unemployed, 2, bank, business) 0.333333 0.666667;
   (No_credits_taken__all_paid_duly, unemployed, 2, bank, business) 0.5 0.5;
   (All_credits_at_this_bank_paid_duly, _1to4_years, 3, bank, business) 0.5 0.5;
   (Critical_account__other_credits_elsewhere, _1to4_years, 3, bank, business) 0.5 0.5;
   (Delay_in_paying_off_in_the_past, _1to4_years, 3, bank, business) 0.5 0.5;
   (Existing_credits_paid_duly_till_now, _1to4_years, 3, bank, business) 0.5 0.5;
   (No_credits_taken__all_paid_duly, _1to4_years, 3, bank, business) 0.5 0.5;
   (All_credits_at_this_bank_paid_duly, _4to7_years, 3, bank, business) 0.5 0.5;
   (Critical_account__other_credits_elsewhere, _4to7_years, 3, bank, business) 0.5 0.5;
   (Delay_in_paying_off_in_the_past, _4to7_years, 3, bank, business) 0.5 0.5;
   (Existing_credits_paid_duly_till_now, _4to7_years, 3, bank, business) 0.5 0.5;
   (No_credits_taken__all_paid_duly, _4to7_years, 3, bank, business) 0.5 0.5;
   (All_credits_at_this_bank_paid_duly, ge7_years, 3, bank, business) 0.5 0.5;
   (Critical_account__other_credits_elsewhere, ge7_years, 3, bank, business) 0.5 0.5;
   (Delay_in_paying_off_in_the_past, ge7_years, 3, bank, business) 0.5 0.5;
   (Existing_credits_paid_duly_till_now, ge7_years, 3, bank, business) 0.5 0.5;
   (No_credits_taken__all_paid_duly, ge7_years, 3, bank, business) 0.5 0.5;
   (All_credits_at_this_bank_paid_duly, lt1_year, 3, bank, business) 0.5 0.5;
   (Critical_account__other_credits_elsewhere, lt1_year, 3, bank, business) 0.5 0.5;
   (Delay_in_paying_off_in_the_past, lt1_year, 3, bank, business) 0.5 0.5;
   (Existing_credits_paid_duly_till_now, lt1_year, 3, bank, business) 0.666667 0.333333;
   (No_credits_taken__all_paid_duly, lt1_year, 3, bank, business) 0.333333 0.666667;
   (All_credits_at_this_bank_paid_duly, unemployed, 3, bank, business) 0.5 0.5;
   (Critical_account__other_credits_elsewhere, unemployed, 3, bank, business) 0.5 0.5;
   (Delay_in_paying_off_in_the_past, unemployed, 3, bank, business) 0.5 0.5;
   (Existing_credits_paid_duly_till_now, unemployed, 3, bank, business) 0.5 0.5;
   (No_credits_taken__all_paid_duly, unemployed, 3, bank, business) 0.5 0.5;
   (All_credits_at_this_bank_paid_duly, _1to4_years, 4, bank, business) 0.5 0.5;
   (Critical_account__other_credits_elsewhere, _1to4_years, 4, bank, business) 0.5 0.5;
   (Delay_in_paying_off_in_the_past, _1to4_years, 4, bank, business) 0.5 0.5;
   (Existing_credits_paid_duly_till_now, _1to4_years, 4, bank, business) 0.5 0.5;
   (No_credits_taken__all_paid_duly, _1to4_years, 4, bank, business) 0.5 0.5;
   (All_credits_at_this_bank_paid_duly, _4to7_years, 4, bank, business) 0.333333 0.666667;
   (Critical_account__other_credits_elsewhere, _4to7_years, 4, bank, business) 0.5 0.5;
   (Delay_in_paying_off_in_the_past, _4to7_years, 4, bank, business) 0.5 0.5;
   (Existing_credits_paid_duly_till_now, _4to7_years, 4, bank, business) 0.5 0.5;
   (No_credits_taken__all_paid_duly, _4to7_years, 4, bank, business) 0.5 0.5;
   (All_credits_at_this_bank_paid_duly, ge7_years, 4, bank, business) 0.5 0.5;
   (Critical_account__other_credits_elsewhere, ge7_years, 4, bank, business) 0.5 0.5;
   (Delay_in_paying_off_in_the_past, ge7_years, 4, bank, business) 0.5 0.5;
   (Existing_credits_paid_duly_till_now, ge7_years, 4, bank, business) 0.333333 0.666667;
   (No_credits_taken__all_paid_duly, ge7_years, 4, bank, business) 0.5 0.5;
   (All_credits_at_this_bank_paid_duly, lt1_year, 4, bank, business) 0.5 0.5;
   (Critical_account__other_credits_elsewhere, lt1_year, 4, bank, business) 0.5 0.5;
   (Delay_in_paying_off_in_the_past, lt1_year, 4, bank, business) 0.5 0.5;
   (Existing_credits_paid_duly_till_now, lt1_year, 4, bank, business) 0.5 0.5;
   (No_credits_taken__all_paid_duly, lt1_year, 4, bank, business) 0.5 0.5;
   (All_credits_at_this_bank_paid_duly, unemployed, 4, bank, business) 0.5 0.5;
   (Critical_account__other_credits_elsewhere, unemployed, 4, bank, business) 0.5 0.5;
   (Delay_in_paying_off_in_the_past, unemployed, 4, bank, business) 0.5 0.5;
   (Existing_credits_paid_duly_till_now, unemployed, 4, bank, business) 0.5 0.5;
   (No_credits_taken__all_paid_duly, unemployed, 4, bank, business) 0.5 0.5;
   (All_credits_at_this_bank_paid_duly, _1to4_years, 1, none, business) 0.5 0.5;
   (Critical_account__other_credits_elsewhere, _1to4_years, 1, none, business) 0.5 0.5;
   (Delay_in_paying_off_in_the_past, _1to4_years, 1, none, business) 0.5 0.5;
   (Existing_credits_paid_duly_till_now, _1to4_years, 1, none, business) 0.5 0.5;
   (No_credits_taken__all_paid_duly, _1to4_years, 1, none, business) 0.666667 0.333333;
   (All_credits_at_this_bank_paid_duly, _4to7_years, 1, none, business) 0.5 0.5;
   (Critical_account__other_credits_elsewhere, _4to7_years, 1, none, business) 0.333333 0.666667;
   (Delay_in_paying_off_in_the_past, _4to7_years, 1, none, business) 0.333333 0.666667;
   (Existing_credits_paid_duly_till_now, _4to7_years, 1, none, business) 0.333333 0.666667;
   (No_credits_taken__all_paid_duly, _4to7_years, 1, none, business) 0.5 0.5;
   (All_credits_at_this_bank_paid_duly, ge7_years, 1, none, business) 0.5 0.5;
   (Critical_account__other_credits_elsewhere, ge7_years, 1, none, business) 0.5 0.5;
   (Delay_in_paying_off_in_the_past, ge7_years, 1, none, business) 0.5 0.5;
   (Existing_credits_paid_duly_till_now, ge7_years, 1, none, business) 0.5 0.5;
   (No_credits_taken__all_paid_duly, ge7_years, 1, none, business) 0.5 0.5;
   (All_credits_at_this_bank_paid_duly, lt1_year, 1, none, business) 0.666667 0.333333;
   (Critical_account__other_credits_elsewhere, lt1_year, 1, none, business) 0.5 0.5;
   (Delay_in_paying_off_in_the_past, lt1_year, 1, none, business) 0.333333 0.666667;
   (Existing_credits_paid_duly_till_now, lt1_year, 1, none, business) 0.333333 0.666667;
   (No_credits_taken__all_paid_duly, lt1_year, 1, none, business) 0.666667 0.333333;
   (All_credits_at_this_bank_paid_duly, unemployed, 1, none, business) 0.5 0.5;
   (Critical_account__other_credits_elsewhere, unemployed, 1, none, business) 0.5 0.5;
   (Delay_in_paying_off_in_the_past, unemployed, 1, none, business) 0.5 0.5;
   (Existing_credits_paid_duly_till_now, unemployed, 1, none, business) 0.5 0.5;
   (No_credits_taken__all_paid_duly, unemployed, 1, none, business) 0.5 0.5;
   (All_credits_at_this_bank_paid_duly, _1to4_years, 2, none, business) 0.333333 0.666667;
   (Critical_account__other_credits_elsewhere, _1to4_years, 2, none, business) 0.4 0.6;
   (Delay_in_paying_off_in_the_past, _1to4_years, 2, none, business) 0.25 0.75;
   (Existing_credits_paid_duly_till_now, _1to4_years, 2, none, business) 0.166667 0.833333;
   (No_credits_taken__all_paid_duly, _1to4_years, 2, none, business) 0.333333 0.666667;
   (All_credits_at_this_bank_paid_duly, _4to7_years, 2, none, business) 0.333333 0.666667;
   (Critical_account__other_credits_elsewhere, _4to7_years, 2, none, business) 0.5 0.5;
   (Delay_in_paying_off_in_the_past, _4to7_years, 2, none, business) 0.5 0.5;
   (Existing_credits_paid_duly_till_now, _4to7_years, 2, none, business) 0.25 0.75;
   (No_credits_taken__all_paid_duly, _4to7_years, 2, none, business) 0.5 0.5;
   (All_credits_at_this_bank_paid_duly, ge7_years, 2, none, business) 0.5 0.5;
   (Critical_account__other_credits_elsewhere, ge7_years, 2, none, business) 0.5 0.5;
   (Delay_in_paying_off_in_the_past, ge7_years, 2, none, business) 0.666667 0.333333;
   (Existing_credits_paid_duly_till_now, ge7_years, 2, none, business) 0.2 0.8;
   (No_credits_taken__all_paid_duly, ge7_years, 2, none, business) 0.5 0.5;
   (All_credits_at_this_bank_paid_duly, lt1_year, 2, none, business) 0.5 0.5;
   (Critical_account__other_credits_elsewhere, lt1_year, 2, none, business) 0.5 0.5;
   (Delay_in_paying_off_in_the_past, lt1_year, 2, none, business) 0.5 0.5;
   (Existing_credits_paid_duly_till_now, lt1_year, 2, none, business) 0.333333 0.666667;
   (No_credits_taken__all_paid_duly, lt1_year, 2, none, business) 0.5 0.5;
   (All_credits_at_this_bank_paid_duly, unemployed, 2, none, business) 0.5 0.5;
   (Critical_account__other_credits_elsewhere, unemployed, 2, none, business) 0.5 0.5;
   (Delay_in_paying_off_in_the_past, unemployed, 2, none, business) 0.5 0.5;
   (Existing_credits_paid_duly_till_now, unemployed, 2, none, business) 0.5 0.5;
   (No_credits_taken__all_paid_duly, unemployed, 2, none, business) 0.5 0.5;
   (All_credits_at_this_bank_paid_duly, _1to4_years, 3, none, business) 0.5 0.5;
   (Critical_account__other_credits_elsewhere, _1to4_years, 3, none, business) 0.333333 0.666667;
   (Delay_in_paying_off_in_the_past, _1to4_years, 3, none, business) 0.5 0.5;
   (Existing_credits_paid_duly_till_now, _1to4_years, 3, none, business) 0.333333 0.666667;
   (No_credits_taken__all_paid_duly, _1to4_years, 3, none, business) 0.5 0.5;
   (All_credits_at_this_bank_paid_duly, _4to7_years, 3, none, business) 0.5 0.5;
   (Critical_account__other_credits_elsewhere, _4to7_years, 3, none, business) 0.25 0.75;
   (Delay_in_paying_off_in_the_past, _4to7_years, 3, none, business) 0.333333 0.666667;
   (Existing_credits_paid_duly_till_now, _4to7_years, 3, none, business) 0.5 0.5;
   (No_credits_taken__all_paid_duly, _4to7_years, 3, none, business) 0.5 0.5;
   (All_credits_at_this_bank_paid_duly, ge7_years, 3, none, business) 0.333333 0.666667;
   (Critical_account__other_credits_elsewhere, ge7_years, 3, none, business) 0.5 0.5;
   (Delay_in_paying_off_in_the_past, ge7_years, 3, none, business) 0.5 0.5;
   (Existing_credits_paid_duly_till_now, ge7_years, 3, none, business) 0.5 0.5;
   (No_credits_taken__all_paid_duly, ge7_years, 3, none, business) 0.5 0.5;
   (All_credits_at_this_bank_paid_duly, lt1_year, 3, none, business) 0.5 0.5;
   (Critical_account__other_credits_elsewhere, lt1_year, 3, none, business) 0.5 0.5;
   (Delay_in_paying_off_in_the_past, lt1_year, 3, none, business) 0.5 0.5;
   (Existing_credits_paid_duly_till_now, lt1_year, 3, none, business) 0.5 0.5;
   (No_credits_taken__all_paid_duly, lt1_year, 3, none, business) 0.5 0.5;
   (All_credits_at_this_bank_paid_duly, unemployed, 3, none, business) 0.5 0.5;
   (Critical_account__other_credits_elsewhere, unemployed, 3, none, business) 0.333333 0.666667;
   (Delay_in_paying_off_in_the_past, unemployed, 3, none, business) 0.5 0.5;
   (Existing_credits_paid_duly_till_now, unemployed, 3, none, business) 0.5 0.5;
   (No_credits_taken__all_paid_duly, unemployed, 3, none, business) 0.5 0.5;
   (All_credits_at_this_bank_paid_duly, _1to4_years, 4, none, business) 0.5 0.5;
   (Critical_account__other_credits_elsewhere, _1to4_years, 4, none, business) 0.333333 0.666667;
   (Delay_in_paying_off_in_the_past, _1to4_years, 4, none, business) 0.5 0.5;
   (Existing_credits_paid_duly_till_now, _1to4_years, 4, none, business) 0.2 0.8;
   (No_credits_taken__all_paid_duly, _1to4_years, 4, none, business) 0.5 0.5;
   (All_credits_at_this_bank_paid_duly, _4to7_years, 4, none, business) 0.333333 0.666667;
   (Critical_account__other_credits_elsewhere, _4to7_years, 4, none, business) 0.5 0.5;
   (Delay_in_paying_off_in_the_past, _4to7_years, 4, none, business) 0.5 0.5;
   (Existing_credits_paid_duly_till_now, _4to7_years, 4, none, business) 0.428571 0.571429;
   (No_credits_taken__all_paid_duly, _4to7_years, 4, none, business) 0.333333 0.666667;
   (All_credits_at_this_bank_paid_duly, ge7_years, 4, none, business) 0.5 0.5;
   (Critical_account__other_credits_elsewhere, ge7_years, 4, none, business) 0.2 0.8;
   (Delay_in_paying_off_in_the_past, ge7_years, 4, none, business) 0.25 0.75;
   (Existing_credits_paid_duly_till_now, ge7_years, 4, none, business) 0.25 0.75;
   (No_credits_taken__all_paid_duly, ge7_years, 4, none, business) 0.6 0.4;
   (All_credits_at_this_bank_paid_duly, lt1_year, 4, none, business) 0.5 0.5;
   (Critical_account__other_credits_elsewhere, lt1_year, 4, none, business) 0.5 0.5;
   (Delay_in_paying_off_in_the_past, lt1_year, 4, none, business) 0.333333 0.666667;
   (Existing_credits_paid_duly_till_now, lt1_year, 4, none, business) 0.666667 0.333333;
   (No_credits_taken__all_paid_duly, lt1_year, 4, none, business) 0.333333 0.666667;
   (All_credits_at_this_bank_paid_duly, unemployed, 4, none, business) 0.5 0.5;
   (Critical_account__other_credits_elsewhere, unemployed, 4, none, business) 0.5 0.5;
   (Delay_in_paying_off_in_the_past, unemployed, 4, none, business) 0.5 0.5;
   (Existing_credits_paid_duly_till_now, unemployed, 4, none, business) 0.5 0.5;
   (No_credits_taken__all_paid_duly, unemployed, 4, none, business) 0.5 0.5;
   (All_credits_at_this_bank_paid_duly, _1to4_years, 1, stores, business) 0.333333 0.666667;
   (Critical_account__other_credits_elsewhere, _1to4_years, 1, stores, business) 0.5 0.5;
   (Delay_in_paying_off_in_the_past, _1to4_years, 1, stores, business) 0.5 0.5;
   (Existing_credits_paid_duly_till_now, _1to4_years, 1, stores, business) 0.5 0.5;
   (No_credits_taken__all_paid_duly, _1to4_years, 1, stores, business) 0.5 0.5;
   (All_credits_at_this_bank_paid_duly, _4to7_years, 1, stores, business) 0.5 0.5;
   (Critical_account__other_credits_elsewhere, _4to7_years, 1, stores, business) 0.5 0.5;
   (Delay_in_paying_off_in_the_past, _4to7_years, 1, stores, business) 0.5 0.5;
   (Existing_credits_paid_duly_till_now, _4to7_years, 1, stores, business) 0.333333 0.666667;
   (No_credits_taken__all_paid_duly, _4to7_years, 1, stores, business) 0.5 0.5;
   (All_credits_at_this_bank_paid_duly, ge7_years, 1, stores, business) 0.5 0.5;
   (Critical_account__other_credits_elsewhere, ge7_years, 1, stores, business) 0.5 0.5;
   (Delay_in_paying_off_in_the_past, ge7_years, 1, stores, business) 0.5 0.5;
   (Existing_credits_paid_duly_till_now, ge7_years, 1, stores, business) 0.5 0.5;
   (No_credits_taken__all_paid_duly, ge7_years, 1, stores, business) 0.5 0.5;
   (All_credits_at_this_bank_paid_duly, lt1_year, 1, stores, business) 0.5 0.5;
   (Critical_account__other_credits_elsewhere, lt1_year, 1, stores, business) 0.5 0.5;
   (Delay_in_paying_off_in_the_past, lt1_year, 1, stores, business) 0.5 0.5;
   (Existing_credits_paid_duly_till_now, lt1_year, 1, stores, business) 0.5 0.5;
   (No_credits_taken__all_paid_duly, lt1_year, 1, stores, business) 0.5 0.5;
   (All_credits_at_this_bank_paid_duly, unemployed, 1, stores, business) 0.5 0.5;
   (Critical_account__other_credits_elsewhere, unemployed, 1, stores, business) 0.5 0.5;
   (Delay_in_paying_off_in_the_past, unemployed, 1, stores, business) 0.5 0.5;
   (Existing_credits_paid_duly_till_now, unemployed, 1, stores, business) 0.5 0.5;
   (No_credits_taken__all_paid_duly, unemployed, 1, stores, business) 0.5 0.5;
   (All_credits_at_this_bank_paid_duly, _1to4_years, 2, stores, business) 0.5 0.5;
   (Critical_account__other_credits_elsewhere, _1to4_years, 2, stores, business) 0.5 0.5;
   (Delay_in_paying_off_in_the_past, _1to4_years, 2, stores, business) 0.666667 0.333333;
   (Existing_credits_paid_duly_till_now, _1to4_years, 2, stores, business) 0.333333 0.666667;
   (No_credits_taken__all_paid_duly, _1to4_years, 2, stores, business) 0.666667 0.333333;
   (All_credits_at_this_bank_paid_duly, _4to7_years, 2, stores, business) 0.5 0.5;
   (Critical_account__other_credits_elsewhere, _4to7_years, 2, stores, business) 0.5 0.5;
   (Delay_in_paying_off_in_the_past, _4to7_years, 2, stores, business) 0.5 0.5;
   (Existing_credits_paid_duly_till_now, _4to7_years, 2, stores, business) 0.5 0.5;
   (No_credits_taken__all_paid_duly, _4to7_years, 2, stores, business) 0.5 0.5;
   (All_credits_at_this_bank_paid_duly, ge7_years, 2, stores, business) 0.5 0.5;
   (Critical_account__other_credits_elsewhere, ge7_years, 2, stores, business) 0.5 0.5;
   (Delay_in_paying_off_in_the_past, ge7_years, 2, stores, business) 0.666667 0.333333;
   (Existing_credits_paid_duly_till_now, ge7_years, 2, stores, business) 0.5 0.5;
   (No_credits_taken__all_paid_duly, ge7_years, 2, stores, business) 0.5 0.5;
   (All_credits_at_this_bank_paid_duly, lt1_year, 2, stores, business) 0.5 0.5;
   (Critical_account__other_credits_elsewhere, lt1_year, 2, stores, business) 0.5 0.5;
   (Delay_in_paying_off_in_the_past, lt1_year, 2, stores, business) 0.5 0.5;
   (Existing_credits_paid_duly_till_now, lt1_year, 2, stores, business) 0.5 0.5;
   (No_credits_taken__all_paid_duly, lt1_year, 2, stores, business) 0.5 0.5;
   (All_credits_at_this_bank_paid_duly, unemployed, 2, stores, business) 0.5 0.5;
   (Critical_account__other_credits_elsewhere, unemployed, 2, stores, business) 0.333333 0.666667;
   (Delay_in_paying_off_in_the_past, unemployed, 2, stores, business) 0.5 0.5;
   (Existing_credits_paid_duly_till_now, unemployed, 2, stores, business) 0.5 0.5;
   (No_credits_taken__all_paid_duly, unemployed, 2, stores, business) 0.5 0.5;
   (All_credits_at_this_bank_paid_duly, _1to4_years, 3, stores, business) 0.5 0.5;
   (Critical_account__other_credits_elsewhere, _1to4_years, 3, stores, business) 0.5 0.5;
   (Delay_in_paying_off_in_the_past, _1to4_years, 3, stores, business) 0.5 0.5;
   (Existing_credits_paid_duly_till_now, _1to4_years, 3, stores, business) 0.5 0.5;
   (No_credits_taken__all_paid_duly, _1to4_years, 3, stores, business) 0.5 0.5;
   (All_credits_at_this_bank_paid_duly, _4to7_years, 3, stores, business) 0.5 0.5;
   (Critical_account__other_credits_elsewhere, _4to7_years, 3, stores, business) 0.5 0.5;
   (Delay_in_paying_off_in_the_past, _4to7_years, 3, stores, business) 0.5 0.5;
   (Existing_credits_paid_duly_till_now, _4to7_years, 3, stores, business) 0.5 0.5;
   (No_credits_taken__all_paid_duly, _4to7_years, 3, stores, business) 0.5 0.5;
   (All_credits_at_this_bank_paid_duly, ge7_years, 3, stores, business) 0.5 0.5;
   (Critical_account__other_credits_elsewhere, ge7_years, 3, stores, business) 0.5 0.5;
   (Delay_in_paying_off_in_the_past, ge7_years, 3, stores, business) 0.5 0.5;
   (Existing_credits_paid_duly_till_now, ge7_years, 3, stores, business) 0.5 0.5;
   (No_credits_taken__all_paid_duly, ge7_years, 3, stores, business) 0.5 0.5;
   (All_credits_at_this_bank_paid_duly, lt1_year, 3, stores, business) 0.5 0.5;
   (Critical_account__other_credits_elsewhere, lt1_year, 3, stores, business) 0.5 0.5;
   (Delay_in_paying_off_in_the_past, lt1_year, 3, stores, business) 0.5 0.5;
   (Existing_credits_paid_duly_till_now, lt1_year, 3, stores, business) 0.5 0.5;
   (No_credits_taken__all_paid_duly, lt1_year, 3, stores, business) 0.5 0.5;
   (All_credits_at_this_bank_paid_duly, unemployed, 3, stores, business) 0.5 0.5;
   (Critical_account__other_credits_elsewhere, unemployed, 3, stores, business) 0.5 0.5;
   (Delay_in_paying_off_in_the_past, unemployed, 3, stores, business) 0.5 0.5;
   (Existing_credits_paid_duly_till_now, unemployed, 3, stores, business) 0.5 0.5;
   (No_credits_taken__all_paid_duly, unemployed, 3, stores, business) 0.5 0.5;
   (All_credits_at_this_bank_paid_duly, _1to4_years, 4, stores, business) 0.5 0.5;
   (Critical_account__other_credits_elsewhere, _1to4_years, 4, stores, business) 0.5 0.5;
   (Delay_in_paying_off_in_the_past, _1to4_years, 4, stores, business) 0.5 0.5;
   (Existing_credits_paid_duly_till_now, _1to4_years, 4, stores, business) 0.5 0.5;
   (No_credits_taken__all_paid_duly, _1to4_years, 4, stores, business) 0.5 0.5;
   (All_credits_at_this_bank_paid_duly, _4to7_years, 4, stores, business) 0.5 0.5;
   (Critical_account__other_credits_elsewhere, _4to7_years, 4, stores, business) 0.5 0.5;
   (Delay_in_paying_off_in_the_past, _4to7_years, 4, stores, business) 0.5 0.5;
   (Existing_credits_paid_duly_till_now, _4to7_years, 4, stores, business) 0.5 0.5;
   (No_credits_taken__all_paid_duly, _4to7_years, 4, stores, business) 0.5 0.5;
   (All_credits_at_this_bank_paid_duly, ge7_years, 4, stores, business) 0.5 0.5;
   (Critical_account__other_credits_elsewhere, ge7_years, 4, stores, business) 0.333333 0.666667;
   (Delay_in_paying_off_in_the_past, ge7_years, 4, stores, business) 0.5 0.5;
   (Existing_credits_paid_duly_till_now, ge7_years, 4, stores, business) 0.5 0.5;
   (No_credits_taken__all_paid_duly, ge7_years, 4, stores, business) 0.5 0.5;
   (All_credits_at_this_bank_paid_duly, lt1_year, 4, stores, business) 0.5 0.5;
   (Critical_account__other_credits_elsewhere, lt1_year, 4, stores, business) 0.5 0.5;
   (Delay_in_paying_off_in_the_past, lt1_year, 4, stores, business) 0.5 0.5;
   (Existing_credits_paid_duly_till_now, lt1_year, 4, stores, business) 0.5 0.5;
   (No_credits_taken__all_paid_duly, lt1_year, 4, stores, business) 0.5 0.5;
   (All_credits_at_this_bank_paid_duly, unemployed, 4, stores, business) 0.5 0.5;
   (Critical_account__other_credits_elsewhere, unemployed, 4, stores, business) 0.5 0.5;
   (Delay_in_paying_off_in_the_past, unemployed, 4, stores, business) 0.5 0.5;
   (Existing_credits_paid_duly_till_now, unemployed, 4, stores, business) 0.5 0.5;
   (No_credits_taken__all_paid_duly, unemployed, 4, stores, business) 0.666667 0.333333;
   (All_credits_at_this_bank_paid_duly, _1to4_years, 1, bank, car_new) 0.5 0.5;
   (Critical_account__other_credits_elsewhere, _1to4_years, 1, bank, car_new) 0.5 0.5;
   (Delay_in_paying_off_in_the_past, _1to4_years, 1, bank, car_new) 0.5 0.5;
   (Existing_credits_paid_duly_till_now, _1to4_years, 1, bank, car_new) 0.333333 0.666667;
   (No_credits_taken__all_paid_duly, _1to4_years, 1, bank, car_new) 0.333333 0.666667;
   (All_credits_at_this_bank_paid_duly, _4to7_years, 1, bank, car_new) 0.5 0.5;
   (Critical_account__other_credits_elsewhere, _4to7_years, 1, bank, car_new) 0.5 0.5;
   (Delay_in_paying_off_in_the_past, _4to7_years, 1, bank, car_new) 0.5 0.5;
   (Existing_credits_paid_duly_till_now, _4to7_years, 1, bank, car_new) 0.5 0.5;
   (No_credits_taken__all_paid_duly, _4to7_years, 1, bank, car_new) 0.5 0.5;
   (All_credits_at_this_bank_paid_duly, ge7_years, 1, bank, car_new) 0.5 0.5;
   (Critical_account__other_credits_elsewhere, ge7_years, 1, bank, car_new) 0.5 0.5;
   (Delay_in_paying_off_in_the_past, ge7_years, 1, bank, car_new) 0.5 0.5;
   (Existing_credits_paid_duly_till_now, ge7_years, 1, bank, car_new) 0.5 0.5;
   (No_credits_taken__all_paid_duly, ge7_years, 1, bank, car_new) 0.5 0.5;
   (All_credits_at_this_bank_paid_duly, lt1_year, 1, bank, car_new) 0.5 0.5;
   (Critical_account__other_credits_elsewhere, lt1_year, 1, bank, car_new) 0.5 0.5;
   (Delay_in_paying_off_in_the_past, lt1_year, 1, bank, car_new) 0.5 0.5;
   (Existing_credits_paid_duly_till_now, lt1_year, 1, bank, car_new) 0.5 0.5;
   (No_credits_taken__all_paid_duly, lt1_year, 1, bank, car_new) 0.5 0.5;
   (All_credits_at_this_bank_paid_duly, unemployed, 1, bank, car_new) 0.5 0.5;
   (Critical_account__other_credits_elsewhere, unemployed, 1, bank, car_new) 0.5 0.5;
   (Delay_in_paying_off_in_the_past, unemployed, 1, bank, car_new) 0.5 0.5;
   (Existing_credits_paid_duly_till_now, unemployed, 1, bank, car_new) 0.5 0.5;
   (No_credits_taken__all_paid_duly, unemployed, 1, bank, car_new) 0.5 0.5;
   (All_credits_at_this_bank_paid_duly, _1to4_years, 2, bank, car_new) 0.5 0.5;
   (Critical_account__other_credits_elsewhere, _1to4_years, 2, bank, car_new) 0.166667 0.833333;
   (Delay_in_paying_off_in_the_past, _1to4_years, 2, bank, car_new) 0.5 0.5;
   (Existing_credits_paid_duly_till_now, _1to4_years, 2, bank, car_new) 0.333333 0.666667;
   (No_credits_taken__all_paid_duly, _1to4_years, 2, bank, car_new) 0.5 0.5;
   (All_credits_at_this_bank_paid_duly, _4to7_years, 2, bank, car_new) 0.5 0.5;
   (Critical_account__other_credits_elsewhere, _4to7_years, 2, bank, car_new) 0.25 0.75;
   (Delay_in_paying_off_in_the_past, _4to7_years, 2, bank, car_new) 0.5 0.5;
   (Existing_credits_paid_duly_till_now, _4to7_years, 2, bank, car_new) 0.666667 0.333333;
   (No_credits_taken__all_paid_duly, _4to7_years, 2, bank, car_new) 0.5 0.5;
   (All_credits_at_this_bank_paid_duly, ge7_years, 2, bank, car_new) 0.5 0.5;
   (Critical_account__other_credits_elsewhere, ge7_years, 2, bank, car_new) 0.5 0.5;
   (Delay_in_paying_off_in_the_past, ge7_years, 2, bank, car_new) 0.5 0.5;
   (Existing_credits_paid_duly_till_now, ge7_years, 2, bank, car_new) 0.333333 0.666667;
   (No_credits_taken__all_paid_duly, ge7_years, 2, bank, car_new) 0.5 0.5;
   (All_credits_at_this_bank_paid_duly, lt1_year, 2, bank, car_new) 0.333333 0.666667;
   (Critical_account__other_credits_elsewhere, lt1_year, 2, bank, car_new) 0.5 0.5;
   (Delay_in_paying_off_in_the_past, lt1_year, 2, bank, car_new) 0.5 0.5;
   (Existing_credits_paid_duly_till_now, lt1_year, 2, bank, car_new) 0.333333 0.666667;
   (No_credits_taken__all_paid_duly, lt1_year, 2, bank, car_new) 0.5 0.5;
   (All_credits_at_this_bank_paid_duly, unemployed, 2, bank, car_new) 0.5 0.5;
   (Critical_account__other_credits_elsewhere, unemployed, 2, bank, car_new) 0.5 0.5;
   (Delay_in_paying_off_in_the_past, unemployed, 2, bank, car_new) 0.5 0.5;
   (Existing_credits_paid_duly_till_now, unemployed, 2, bank, car_new) 0.5 0.5;
   (No_credits_taken__all_paid_duly, unemployed, 2, bank, car_new) 0.5 0.5;
   (All_credits_at_this_bank_paid_duly, _1to4_years, 3, bank, car_new) 0.5 0.5;
   (Critical_account__other_credits_elsewhere, _1to4_years, 3, bank, car_new) 0.5 0.5;
   (Delay_in_paying_off_in_the_past, _1to4_years, 3, bank, car_new) 0.5 0.5;
   (Existing_credits_paid_duly_till_now, _1to4_years, 3, bank, car_new) 0.5 0.5;
   (No_credits_taken__all_paid_duly, _1to4_years, 3, bank, car_new) 0.5 0.5;
   (All_credits_at_this_bank_paid_duly, _4to7_years, 3, bank, car_new) 0.333333 0.666667;
   (Critical_account__other_credits_elsewhere, _4to7_years, 3, bank, car_new) 0.5 0.5;
   (Delay_in_paying_off_in_the_past, _4to7_years, 3, bank, car_new) 0.5 0.5;
   (Existing_credits_paid_duly_till_now, _4to7_years, 3, bank, car_new) 0.2 0.8;
   (No_credits_taken__all_paid_duly, _4to7_years, 3, bank, car_new) 0.5 0.5;
   (All_credits_at_this_bank_paid_duly, ge7_years, 3, bank, car_new) 0.5 0.5;
   (Critical_account__other_credits_elsewhere, ge7_years, 3, bank, car_new) 0.666667 0.333333;
   (Delay_in_paying_off_in_the_past, ge7_years, 3, bank, car_new) 0.5 0.5;
   (Existing_credits_paid_duly_till_now, ge7_years, 3, bank, car_new) 0.5 0.5;
   (No_credits_taken__all_paid_duly, ge7_years, 3, bank, car_new) 0.5 0.5;
   (All_credits_at_this_bank_paid_duly, lt1_year, 3, bank, car_new) 0.5 0.5;
   (Critical_account__other_credits_elsewhere, lt1_year, 3, bank, car_new) 0.333333 0.666667;
   (Delay_in_paying_off_in_the_past, lt1_year, 3, bank, car_new) 0.5 0.5;
   (Existing_credits_paid_duly_till_now, lt1_year, 3, bank, car_new) 0.5 0.5;
   (No_credits_taken__all_paid_duly, lt1_year, 3, bank, car_new) 0.5 0.5;
   (All_credits_at_this_bank_paid_duly, unemployed, 3, bank, car_new) 0.5 0.5;
   (Critical_account__other_credits_elsewhere, unemployed, 3, bank, car_new) 0.5 0.5;
   (Delay_in_paying_off_in_the_past, unemployed, 3, bank, car_new) 0.5 0.5;
   (Existing_credits_paid_duly_till_now, unemployed, 3, bank, car_new) 0.5 0.5;
   (No_credits_taken__all_paid_duly, unemployed, 3, bank, car_new) 0.5 0.5;
   (All_credits_at_this_bank_paid_duly, _1to4_years, 4, bank, car_new) 0.5 0.5;
   (Critical_account__other_credits_elsewhere, _1to4_years, 4, bank, car_new) 0.333333 0.666667;
   (Delay_in_paying_off_in_the_past, _1to4_years, 4, bank, car_new) 0.5 0.5;
   (Existing_credits_paid_duly_till_now, _1to4_years, 4, bank, car_new) 0.5 0.5;
   (No_credits_taken__all_paid_duly, _1to4_years, 4, bank, car_new) 0.25 0.75;
   (All_credits_at_this_bank_paid_duly, _4to7_years, 4, bank, car_new) 0.5 0.5;
   (Critical_account__other_credits_elsewhere, _4to7_years, 4, bank, car_new) 0.5 0.5;
   (Delay_in_paying_off_in_the_past, _4to7_years, 4, bank, car_new) 0.5 0.5;
   (Existing_credits_paid_duly_till_now, _4to7_years, 4, bank, car_new) 0.333333 0.666667;
   (No_credits_taken__all_paid_duly, _4to7_years, 4, bank, car_new) 0.5 0.5;
   (All_credits_at_this_bank_paid_duly, ge7_years, 4, bank, car_new) 0.333333 0.666667;
   (Critical_account__other_credits_elsewhere, ge7_years, 4, bank, car_new) 0.333333 0.666667;
   (Delay_in_paying_off_in_the_past, ge7_years, 4, bank, car_new) 0.333333 0.666667;
   (Existing_credits_paid_duly_till_now, ge7_years, 4, bank, car_new) 0.2 0.8;
   (No_credits_taken__all_paid_duly, ge7_years, 4, bank, car_new) 0.5 0.5;
   (All_credits_at_this_bank_paid_duly, lt1_year, 4, bank, car_new) 0.5 0.5;
   (Critical_account__other_credits_elsewhere, lt1_year, 4, bank, car_new) 0.5 0.5;
   (Delay_in_paying_off_in_the_past, lt1_year, 4, bank, car_new) 0.5 0.5;
   (Existing_credits_paid_duly_till_now, lt1_year, 4, bank, car_new) 0.5 0.5;
   (No_credits_taken__all_paid_duly, lt1_year, 4, bank, car_new) 0.5 0.5;
   (All_credits_at_this_bank_paid_duly, unemployed, 4, bank, car_new) 0.5 0.5;
   (Critical_account__other_credits_elsewhere, unemployed, 4, bank, car_new) 0.333333 0.666667;
   (Delay_in_paying_off_in_the_past, unemployed, 4, bank, car_new) 0.5 0.5;
   (Existing_credits_paid_duly_till_now, unemployed, 4, bank, car_new) 0.333333 0.666667;
   (No_credits_taken__all_paid_duly, unemployed, 4, bank, car_new) 0.5 0.5;
   (All_credits_at_this_bank_paid_duly, _1to4_years, 1, none, car_new) 0.5 0.5;
   (Critical_account__other_credits_elsewhere, _1to4_years, 1, none, car_new) 0.5 0.5;
   (Delay_in_paying_off_in_the_past, _1to4_years, 1, none, car_new) 0.5 0.5;
   (Existing_credits_paid_duly_till_now, _1to4_years, 1, none, car_new) 0.333333 0.666667;
   (No_credits_taken__all_paid_duly, _1to4_years, 1, none, car_new) 0.5 0.5;
   (All_credits_at_this_bank_paid_duly, _4to7_years, 1, none, car_new) 0.5 0.5;
   (Critical_account__other_credits_elsewhere, _4to7_years, 1, none, car_new) 0.25 0.75;
   (Delay_in_paying_off_in_the_past, _4to7_years, 1, none, car_new) 0.5 0.5;
   (Existing_credits_paid_duly_till_now, _4to7_years, 1, none, car_new) 0.333333 0.666667;
   (No_credits_taken__all_paid_duly, _4to7_years, 1, none, car_new) 0.5 0.5;
   (All_credits_at_this_bank_paid_duly, ge7_years, 1, none, car_new) 0.5 0.5;
   (Critical_account__other_credits_elsewhere, ge7_years, 1, none, car_new) 0.333333 0.666667;
   (Delay_in_paying_off_in_the_past, ge7_years, 1, none, car_new) 0.5 0.5;
   (Existing_credits_paid_duly_till_now, ge7_years, 1, none, car_new) 0.25 0.75;
   (No_credits_taken__all_paid_duly, ge7_years, 1, none, car_new) 0.5 0.5;
   (All_credits_at_this_bank_paid_duly, lt1_year, 1, none, car_new) 0.5 0.5;
   (Critical_account__other_credits_elsewhere, lt1_year, 1, none, car_new) 0.25 0.75;
   (Delay_in_paying_off_in_the_past, lt1_year, 1, none, car_new) 0.5 0.5;
   (Existing_credits_paid_duly_till_now, lt1_year, 1, none, car_new) 0.272727 0.727273;
   (No_credits_taken__all_paid_duly, lt1_year, 1, none, car_new) 0.5 0.5;
   (All_credits_at_this_bank_paid_duly, unemployed, 1, none, car_new) 0.5 0.5;
   (Critical_account__other_credits_elsewhere, unemployed, 1, none, car_new) 0.5 0.5;
   (Delay_in_paying_off_in_the_past, unemployed, 1, none, car_new) 0.5 0.5;
   (Existing_credits_paid_duly_till_now, unemployed, 1, none, car_new) 0.5 0.5;
   (No_credits_taken__all_paid_duly, unemployed, 1, none, car_new) 0.5 0.5;
   (All_credits_at_this_bank_paid_duly, _1to4_years, 2, none, car_new) 0.5 0.5;
   (Critical_account__other_credits_elsewhere, _1to4_years, 2, none, car_new) 0.333333 0.666667;
   (Delay_in_paying_off_in_the_past, _1to4_years, 2, none, car_new) 0.2 0.8;
   (Existing_credits_paid_duly_till_now, _1to4_years, 2, none, car_new) 0.2 0.8;
   (No_credits_taken__all_paid_duly, _1to4_years, 2, none, car_new) 0.5 0.5;
   (All_credits_at_this_bank_paid_duly, _4to7_years, 2, none, car_new) 0.5 0.5;
   (Critical_account__other_credits_elsewhere, _4to7_years, 2, none, car_new) 0.333333 0.666667;
   (Delay_in_paying_off_in_the_past, _4to7_years, 2, none, car_new) 0.5 0.5;
   (Existing_credits_paid_duly_till_now, _4to7_years, 2, none, car_new) 0.625 0.375;
   (No_credits_taken__all_paid_duly, _4to7_years, 2, none, car_new) 0.5 0.5;
   (All_credits_at_this_bank_paid_duly, ge7_years, 2, none, car_new) 0.5 0.5;
   (Critical_account__other_credits_elsewhere, ge7_years, 2, none, car_new) 0.5 0.5;
   (Delay_in_paying_off_in_the_past, ge7_years, 2, none, car_new) 0.666667 0.333333;
   (Existing_credits_paid_duly_till_now, ge7_years, 2, none, car_new) 0.333333 0.666667;
   (No_credits_taken__all_paid_duly, ge7_years, 2, none, car_new) 0.5 0.5;
   (All_credits_at_this_bank_paid_duly, lt1_year, 2, none, car_new) 0.5 0.5;
   (Critical_account__other_credits_elsewhere, lt1_year, 2, none, car_new) 0.666667 0.333333;
   (Delay_in_paying_off_in_the_past, lt1_year, 2, none, car_new) 0.5 0.5;
   (Existing_credits_paid_duly_till_now, lt1_year, 2, none, car_new) 0.222222 0.777778;
   (No_credits_taken__all_paid_duly, lt1_year, 2, none, car_new) 0.5 0.5;
   (All_credits_at_this_bank_paid_duly, unemployed, 2, none, car_new) 0.333333 0.666667;
   (Critical_account__other_credits_elsewhere, unemployed, 2, none, car_new) 0.2 0.8;
   (Delay_in_paying_off_in_the_past, unemployed, 2, none, car_new) 0.333333 0.666667;
   (Existing_credits_paid_duly_till_now, unemployed, 2, none, car_new) 0.25 0.75;
   (No_credits_taken__all_paid_duly, unemployed, 2, none, car_new) 0.5 0.5;
   (All_credits_at_this_bank_paid_duly, _1to4_years, 3, none, car_new) 0.5 0.5;
   (Critical_account__other_credits_elsewhere, _1to4_years, 3, none, car_new) 0.25 0.75;
   (Delay_in_paying_off_in_the_past, _1to4_years, 3, none, car_new) 0.5 0.5;
   (Existing_credits_paid_duly_till_now, _1to4_years, 3, none, car_new) 0.285714 0.714286;
   (No_credits_taken__all_paid_duly, _1to4_years, 3, none, car_new) 0.5 0.5;
   (All_credits_at_this_bank_paid_duly, _4to7_years, 3, none, car_new) 0.333333 0.666667;
   (Critical_account__other_credits_elsewhere, _4to7_years, 3, none, car_new) 0.222222 0.777778;
   (Delay_in_paying_off_in_the_past, _4to7_years, 3, none, car_new) 0.5 0.5;
   (Existing_credits_paid_duly_till_now, _4to7_years, 3, none, car_new) 0.555556 0.444444;
   (No_credits_taken__all_paid_duly, _4to7_years, 3, none, car_new) 0.5 0.5;
   (All_credits_at_this_bank_paid_duly, ge7_years, 3, none, car_new) 0.5 0.5;
   (Critical_account__other_credits_elsewhere, ge7_years, 3, none, car_new) 0.5 0.5;
   (Delay_in_paying_off_in_the_past, ge7_years, 3, none, car_new) 0.333333 0.666667;
   (Existing_credits_paid_duly_till_now, ge7_years, 3, none, car_new) 0.666667 0.333333;
   (No_credits_taken__all_paid_duly, ge7_years, 3, none, car_new) 0.333333 0.666667;
   (All_credits_at_this_bank_paid_duly, lt1_year, 3, none, car_new) 0.5 0.5;
   (Critical_account__other_credits_elsewhere, lt1_year, 3, none, car_new) 0.25 0.75;
   (Delay_in_paying_off_in_the_past, lt1_year, 3, none, car_new) 0.5 0.5;
   (Existing_credits_paid_duly_till_now, lt1_year, 3, none, car_new) 0.166667 0.833333;
   (No_credits_taken__all_paid_duly, lt1_year, 3, none, car_new) 0.333333 0.666667;
   (All_credits_at_this_bank_paid_duly, unemployed, 3, none, car_new) 0.5 0.5;
   (Critical_account__other_credits_elsewhere, unemployed, 3, none, car_new) 0.333333 0.666667;
   (Delay_in_paying_off_in_the_past, unemployed, 3, none, car_new) 0.5 0.5;
   (Existing_credits_paid_duly_till_now, unemployed, 3, none, car_new) 0.333333 0.666667;
   (No_credits_taken__all_paid_duly, unemployed, 3, none, car_new) 0.5 0.5;
   (All_credits_at_this_bank_paid_duly, _1to4_years, 4, none, car_new) 0.5 0.5;
   (Critical_account__other_credits_elsewhere, _1to4_years, 4, none, car_new) 0.25 0.75;
   (Delay_in_paying_off_in_the_past, _1to4_years, 4, none, car_new) 0.2 0.8;
   (Existing_credits_paid_duly_till_now, _1to4_years, 4, none, car_new) 0.375 0.625;
   (No_credits_taken__all_paid_duly, _1to4_years, 4, none, car_new) 0.5 0.5;
   (All_credits_at_this_bank_paid_duly, _4to7_years, 4, none, car_new) 0.333333 0.666667;
   (Critical_account__other_credits_elsewhere, _4to7_years, 4, none, car_new) 0.6 0.4;
   (Delay_in_paying_off_in_the_past, _4to7_years, 4, none, car_new) 0.5 0.5;
   (Existing_credits_paid_duly_till_now, _4to7_years, 4, none, car_new) 0.285714 0.714286;
   (No_credits_taken__all_paid_duly, _4to7_years, 4, none, car_new) 0.5 0.5;
   (All_credits_at_this_bank_paid_duly, ge7_years, 4, none, car_new) 0.5 0.5;
   (Critical_account__other_credits_elsewhere, ge7_years, 4, none, car_new) 0.263158 0.736842;
   (Delay_in_paying_off_in_the_past, ge7_years, 4, none, car_new) 0.285714 0.714286;
   (Existing_credits_paid_duly_till_now, ge7_years, 4, none, car_new) 0.230769 0.769231;
   (No_credits_taken__all_paid_duly, ge7_years, 4, none, car_new) 0.5 0.5;
   (All_credits_at_this_bank_paid_duly, lt1_year, 4, none, car_new) 0.5 0.5;
   (Critical_account__other_credits_elsewhere, lt1_year, 4, none, car_new) 0.333333 0.666667;
   (Delay_in_paying_off_in_the_past, lt1_year, 4, none, car_new) 0.5 0.5;
   (Existing_credits_paid_duly_till_now, lt1_year, 4, none, car_new) 0.333333 0.666667;
   (No_credits_taken__all_paid_duly, lt1_year, 4, none, car_new) 0.5 0.5;
   (All_credits_at_this_bank_paid_duly, unemployed, 4, none, car_new) 0.25 0.75;
   (Critical_account__other_credits_elsewhere, unemployed, 4, none, car_new) 0.5 0.5;
   (Delay_in_paying_off_in_the_past, unemployed, 4, none, car_new) 0.333333 0.666667;
   (Existing_credits_paid_duly_till_now, unemployed, 4, none, car_new) 0.166667 0.833333;
   (No_credits_taken__all_paid_duly, unemployed, 4, none, car_new) 0.5 0.5;
   (All_credits_at_this_bank_paid_duly, _1to4_years, 1, stores, car_new) 0.5 0.5;
   (Critical_account__other_credits_elsewhere, _1to4_years, 1, stores, car_new) 0.5 0.5;
   (Delay_in_paying_off_in_the_past, _1to4_years, 1, stores, car_new) 0.5 0.5;
   (Existing_credits_paid_duly_till_now, _1to4_years, 1, stores, car_new) 0.5 0.5;
   (No_credits_taken__all_paid_duly, _1to4_years, 1, stores, car_new) 0.5 0.5;
   (All_credits_at_this_bank_paid_duly, _4to7_years, 1, stores, car_new) 0.5 0.5;
   (Critical_account__other_credits_elsewhere, _4to7_years, 1, stores, car_new) 0.5 0.5;
   (Delay_in_paying_off_in_the_past, _4to7_years, 1, stores, car_new) 0.5 0.5;
   (Existing_credits_paid_duly_till_now, _4to7_years, 1, stores, car_new) 0.5 0.5;
   (No_credits_taken__all_paid_duly, _4to7_years, 1, stores, car_new) 0.5 0.5;
   (All_credits_at_this_bank_paid_duly, ge7_years, 1, stores, car_new) 0.5 0.5;
   (Critical_account__other_credits_elsewhere, ge7_years, 1, stores, car_new) 0.5 0.5;
   (Delay_in_paying_off_in_the_past, ge7_years, 1, stores, car_new) 0.5 0.5;
   (Existing_credits_paid_duly_till_now, ge7_years, 1, stores, car_new) 0.5 0.5;
   (No_credits_taken__all_paid_duly, ge7_years, 1, stores, car_new) 0.5 0.5;
   (All_credits_at_this_bank_paid_duly, lt1_year, 1, stores, car_new) 0.333333 0.666667;
   (Critical_account__other_credits_elsewhere, lt1_year, 1, stores, car_new) 0.5 0.5;
   (Delay_in_paying_off_in_the_past, lt1_year, 1, stores, car_new) 0.5 0.5;
   (Existing_credits_paid_duly_till_now, lt1_year, 1, stores, car_new) 0.5 0.5;
   (No_credits_taken__all_paid_duly, lt1_year, 1, stores, car_new) 0.5 0.5;
   (All_credits_at_this_bank_paid_duly, unemployed, 1, stores, car_new) 0.5 0.5;
   (Critical_account__other_credits_elsewhere, unemployed, 1, stores, car_new) 0.5 0.5;
   (Delay_in_paying_off_in_the_past, unemployed, 1, stores, car_new) 0.5 0.5;
   (Existing_credits_paid_duly_till_now, unemployed, 1, stores, car_new) 0.5 0.5;
   (No_credits_taken__all_paid_duly, unemployed, 1, stores, car_new) 0.5 0.5;
   (All_credits_at_this_bank_paid_duly, _1to4_years, 2, stores, car_new) 0.333333 0.666667;
   (Critical_account__other_credits_elsewhere, _1to4_years, 2, stores, car_new) 0.333333 0.666667;
   (Delay_in_paying_off_in_the_past, _1to4_years, 2, stores, car_new) 0.333333 0.666667;
   (Existing_credits_paid_duly_till_now, _1to4_years, 2, stores, car_new) 0.5 0.5;
   (No_credits_taken__all_paid_duly, _1to4_years, 2, stores, car_new) 0.5 0.5;
   (All_credits_at_this_bank_paid_duly, _4to7_years, 2, stores, car_new) 0.5 0.5;
   (Critical_account__other_credits_elsewhere, _4to7_years, 2, stores, car_new) 0.5 0.5;
   (Delay_in_paying_off_in_the_past, _4to7_years, 2, stores, car_new) 0.5 0.5;
   (Existing_credits_paid_duly_till_now, _4to7_years, 2, stores, car_new) 0.5 0.5;
   (No_credits_taken__all_paid_duly, _4to7_years, 2, stores, car_new) 0.5 0.5;
   (All_credits_at_this_bank_paid_duly, ge7_years, 2, stores, car_new) 0.5 0.5;
   (Critical_account__other_credits_elsewhere, ge7_years, 2, stores, car_new) 0.5 0.5;
   (Delay_in_paying_off_in_the_past, ge7_years, 2, stores, car_new) 0.5 0.5;
   (Existing_credits_paid_duly_till_now, ge7_years, 2, stores, car_new) 0.5 0.5;
   (No_credits_taken__all_paid_duly, ge7_years, 2, stores, car_new) 0.5 0.5;
   (All_credits_at_this_bank_paid_duly, lt1_year, 2, stores, car_new) 0.5 0.5;
   (Critical_account__other_credits_elsewhere, lt1_year, 2, stores, car_new) 0.5 0.5;
   (Delay_in_paying_off_in_the_past, lt1_year, 2, stores, car_new) 0.5 0.5;
   (Existing_credits_paid_duly_till_now, lt1_year, 2, stores, car_new) 0.666667 0.333333;
   (No_credits_taken__all_paid_duly, lt1_year, 2, stores, car_new) 0.5 0.5;
   (All_credits_at_this_bank_paid_duly, unemployed, 2, stores, car_new) 0.5 0.5;
   (Critical_account__other_credits_elsewhere, unemployed, 2, stores, car_new) 0.5 0.5;
   (Delay_in_paying_off_in_the_past, unemployed, 2, stores, car_new) 0.5 0.5;
   (Existing_credits_paid_duly_till_now, unemployed, 2, stores, car_new) 0.5 0.5;
   (No_credits_taken__all_paid_duly, unemployed, 2, stores, car_new) 0.5 0.5;
   (All_credits_at_this_bank_paid_duly, _1to4_years, 3, stores, car_new) 0.5 0.5;
   (Critical_account__other_credits_elsewhere, _1to4_years, 3, stores, car_new) 0.5 0.5;
   (Delay_in_paying_off_in_the_past, _1to4_years, 3, stores, car_new) 0.5 0.5;
   (Existing_credits_paid_duly_till_now, _1to4_years, 3, stores, car_new) 0.5 0.5;
   (No_credits_taken__all_paid_duly, _1to4_years, 3, stores, car_new) 0.5 0.5;
   (All_credits_at_this_bank_paid_duly, _4to7_years, 3, stores, car_new) 0.5 0.5;
   (Critical_account__other_credits_elsewhere, _4to7_years, 3, stores, car_new) 0.5 0.5;
   (Delay_in_paying_off_in_the_past, _4to7_years, 3, stores, car_new) 0.5 0.5;
   (Existing_credits_paid_duly_till_now, _4to7_years, 3, stores, car_new) 0.5 0.5;
   (No_credits_taken__all_paid_duly, _4to7_years, 3, stores, car_new) 0.5 0.5;
   (All_credits_at_this_bank_paid_duly, ge7_years, 3, stores, car_new) 0.5 0.5;
   (Critical_account__other_credits_elsewhere, ge7_years, 3, stores, car_new) 0.5 0.5;
   (Delay_in_paying_off_in_the_past, ge7_years, 3, stores, car_new) 0.5 0.5;
   (Existing_credits_paid_duly_till_now, ge7_years, 3, stores, car_new) 0.5 0.5;
   (No_credits_taken__all_paid_duly, ge7_years, 3, stores, car_new) 0.5 0.5;
   (All_credits_at_this_bank_paid_duly, lt1_year, 3, stores, car_new) 0.5 0.5;
   (Critical_account__other_credits_elsewhere, lt1_year, 3, stores, car_new) 0.5 0.5;
   (Delay_in_paying_off_in_the_past, lt1_year, 3, stores, car_new) 0.5 0.5;
   (Existing_credits_paid_duly_till_now, lt1_year, 3, stores, car_new) 0.5 0.5;
   (No_credits_taken__all_paid_duly, lt1_year, 3, stores, car_new) 0.5 0.5;
   (All_credits_at_this_bank_paid_duly, unemployed, 3, stores, car_new) 0.5 0.5;
   (Critical_account__other_credits_elsewhere, unemployed, 3, stores, car_new) 0.5 0.5;
   (Delay_in_paying_off_in_the_past, unemployed, 3, stores, car_new) 0.5 0.5;
   (Existing_credits_paid_duly_till_now, unemployed, 3, stores, car_new) 0.5 0.5;
   (No_credits_taken__all_paid_duly, unemployed, 3, stores, car_new) 0.5 0.5;
   (All_credits_at_this_bank_paid_duly, _1to4_years, 4, stores, car_new) 0.5 0.5;
   (Critical_account__other_credits_elsewhere, _1to4_years, 4, stores, car_new) 0.5 0.5;
   (Delay_in_paying_off_in_the_past, _1to4_years, 4, stores, car_new) 0.5 0.5;
   (Existing_credits_paid_duly_till_now, _1to4_years, 4, stores, car_new) 0.5 0.5;
   (No_credits_taken__all_paid_duly, _1to4_years, 4, stores, car_new) 0.5 0.5;
   (All_credits_at_this_bank_paid_duly, _4to7_years, 4, stores, car_new) 0.5 0.5;
   (Critical_account__other_credits_elsewhere, _4to7_years, 4, stores, car_new) 0.5 0.5;
   (Delay_in_paying_off_in_the_past, _4to7_years, 4, stores, car_new) 0.5 0.5;
   (Existing_credits_paid_duly_till_now, _4to7_years, 4, stores, car_new) 0.5 0.5;
   (No_credits_taken__all_paid_duly, _4to7_years, 4, stores, car_new) 0.5 0.5;
   (All_credits_at_this_bank_paid_duly, ge7_years, 4, stores, car_new) 0.5 0.5;
   (Critical_account__other_credits_elsewhere, ge7_years, 4, stores, car_new) 0.5 0.5;
   (Delay_in_paying_off_in_the_past, ge7_years, 4, stores, car_new) 0.5 0.5;
   (Existing_credits_paid_duly_till_now, ge7_years, 4, stores, car_new) 0.5 0.5;
   (No_credits_taken__all_paid_duly, ge7_years, 4, stores, car_new) 0.5 0.5;
   (All_credits_at_this_bank_paid_duly, lt1_year, 4, stores, car_new) 0.5 0.5;
   (Critical_account__other_credits_elsewhere, lt1_year, 4, stores, car_new) 0.5 0.5;
   (Delay_in_paying_off_in_the_past, lt1_year, 4, stores, car_new) 0.5 0.5;
   (Existing_credits_paid_duly_till_now, lt1_year, 4, stores, car_new) 0.5 0.5;
   (No_credits_taken__all_paid_duly, lt1_year, 4, stores, car_new) 0.5 0.5;
   (All_credits_at_this_bank_paid_duly, unemployed, 4, stores, car_new) 0.5 0.5;
   (Critical_account__other_credits_elsewhere, unemployed, 4, stores, car_new) 0.5 0.5;
   (Delay_in_paying_off_in_the_past, unemployed, 4, stores, car_new) 0.5 0.5;
   (Existing_credits_paid_duly_till_now, unemployed, 4, stores, car_new) 0.5 0.5;
   (No_credits_taken__all_paid_duly, unemployed, 4, stores, car_new) 0.5 0.5;
   (All_credits_at_this_bank_paid_duly, _1to4_years, 1, bank, car_used) 0.5 0.5;
   (Critical_account__other_credits_elsewhere, _1to4_years, 1, bank, car_used) 0.5 0.5;
   (Delay_in_paying_off_in_the_past, _1to4_years, 1, bank, car_used) 0.5 0.5;
   (Existing_credits_paid_duly_till_now, _1to4_years, 1, bank, car_used) 0.5 0.5;
   (No_credits_taken__all_paid_duly, _1to4_years, 1, bank, car_used) 0.5 0.5;
   (All_credits_at_this_bank_paid_duly, _4to7_years, 1, bank, car_used) 0.5 0.5;
   (Critical_account__other_credits_elsewhere, _4to7_years, 1, bank, car_used) 0.5 0.5;
   (Delay_in_paying_off_in_the_past, _4to7_years, 1, bank, car_used) 0.5 0.5;
   (Existing_credits_paid_duly_till_now, _4to7_years, 1, bank, car_used) 0.5 0.5;
   (No_credits_taken__all_paid_duly, _4to7_years, 1, bank, car_used) 0.5 0.5;
   (All_credits_at_this_bank_paid_duly, ge7_years, 1, bank, car_used) 0.5 0.5;
   (Critical_account__other_credits_elsewhere, ge7_years, 1, bank, car_used) 0.5 0.5;
   (Delay_in_paying_off_in_the_past, ge7_years, 1, bank, car_used) 0.5 0.5;
   (Existing_credits_paid_duly_till_now, ge7_years, 1, bank, car_used) 0.5 0.5;
   (No_credits_taken__all_paid_duly, ge7_years, 1, bank, car_used) 0.5 0.5;
   (All_credits_at_this_bank_paid_duly, lt1_year, 1, bank, car_used) 0.5 0.5;
   (Critical_account__other_credits_elsewhere, lt1_year, 1, bank, car_used) 0.5 0.5;
   (Delay_in_paying_off_in_the_past, lt1_year, 1, bank, car_used) 0.5 0.5;
   (Existing_credits_paid_duly_till_now, lt1_year, 1, bank, car_used) 0.5 0.5;
   (No_credits_taken__all_paid_duly, lt1_year, 1, bank, car_used) 0.5 0.5;
   (All_credits_at_this_bank_paid_duly, unemployed, 1, bank, car_used) 0.333333 0.666667;
   (Critical_account__other_credits_elsewhere, unemployed, 1, bank, car_used) 0.5 0.5;
   (Delay_in_paying_off_in_the_past, unemployed, 1, bank, car_used) 0.5 0.5;
   (Existing_credits_paid_duly_till_now, unemployed, 1, bank, car_used) 0.5 0.5;
   (No_credits_taken__all_paid_duly, unemployed, 1, bank, car_used) 0.5 0.5;
   (All_credits_at_this_bank_paid_duly, _1to4_years, 2, bank, car_used) 0.5 0.5;
   (Critical_account__other_credits_elsewhere, _1to4_years, 2, bank, car_used) 0.5 0.5;
   (Delay_in_paying_off_in_the_past, _1to4_years, 2, bank, car_used) 0.5 0.5;
   (Existing_credits_paid_duly_till_now, _1to4_years, 2, bank, car_used) 0.333333 0.666667;
   (No_credits_taken__all_paid_duly, _1to4_years, 2, bank, car_used) 0.5 0.5;
   (All_credits_at_this_bank_paid_duly, _4to7_years, 2, bank, car_used) 0.5 0.5;
   (Critical_account__other_credits_elsewhere, _4to7_years, 2, bank, car_used) 0.5 0.5;
   (Delay_in_paying_off_in_the_past, _4to7_years, 2, bank, car_used) 0.5 0.5;
   (Existing_credits_paid_duly_till_now, _4to7_years, 2, bank, car_used) 0.5 0.5;
   (No_credits_taken__all_paid_duly, _4to7_years, 2, bank, car_used) 0.5 0.5;
   (All_credits_at_this_bank_paid_duly, ge7_years, 2, bank, car_used) 0.5 0.5;
   (Critical_account__other_credits_elsewhere, ge7_years, 2, bank, car_used) 0.5 0.5;
   (Delay_in_paying_off_in_the_past, ge7_years, 2, bank, car_used) 0.5 0.5;
   (Existing_credits_paid_duly_till_now, ge7_years, 2, bank, car_used) 0.5 0.5;
   (No_credits_taken__all_paid_duly, ge7_years, 2, bank, car_used) 0.5 0.5;
   (All_credits_at_this_bank_paid_duly, lt1_year, 2, bank, car_used) 0.5 0.5;
   (Critical_account__other_credits_elsewhere, lt1_year, 2, bank, car_used) 0.5 0.5;
   (Delay_in_paying_off_in_the_past, lt1_year, 2, bank, car_used) 0.5 0.5;
   (Existing_credits_paid_duly_till_now, lt1_year, 2, bank, car_used) 0.5 0.5;
   (No_credits_taken__all_paid_duly, lt1_year, 2, bank, car_used) 0.5 0.5;
   (All_credits_at_this_bank_paid_duly, unemployed, 2, bank, car_used) 0.333333 0.666667;
   (Critical_account__other_credits_elsewhere, unemployed, 2, bank, car_used) 0.5 0.5;
   (Delay_in_paying_off_in_the_past, unemployed, 2, bank, car_used) 0.5 0.5;
   (Existing_credits_paid_duly_till_now, unemployed, 2, bank, car_used) 0.5 0.5;
   (No_credits_taken__all_paid_duly, unemployed, 2, bank, car_used) 0.5 0.5;
   (All_credits_at_this_bank_paid_duly, _1to4_years, 3, bank, car_used) 0.5 0.5;
   (Critical_account__other_credits_elsewhere, _1to4_years, 3, bank, car_used) 0.5 0.5;
   (Delay_in_paying_off_in_the_past, _1to4_years, 3, bank, car_used) 0.5 0.5;
   (Existing_credits_paid_duly_till_now, _1to4_years, 3, bank, car_used) 0.5 0.5;
   (No_credits_taken__all_paid_duly, _1to4_years, 3, bank, car_used) 0.5 0.5;
   (All_credits_at_this_bank_paid_duly, _4to7_years, 3, bank, car_used) 0.5 0.5;
   (Critical_account__other_credits_elsewhere, _4to7_years, 3, bank, car_used) 0.5 0.5;
   (Delay_in_paying_off_in_the_past, _4to7_years, 3, bank, car_used) 0.5 0.5;
   (Existing_credits_paid_duly_till_now, _4to7_years, 3, bank, car_used) 0.5 0.5;
   (No_credits_taken__all_paid_duly, _4to7_years, 3, bank, car_used) 0.5 0.5;
   (All_credits_at_this_bank_paid_duly, ge7_years, 3, bank, car_used) 0.5 0.5;
   (Critical_account__other_credits_elsewhere, ge7_years, 3, bank, car_used) 0.5 0.5;
   (Delay_in_paying_off_in_the_past, ge7_years, 3, bank, car_used) 0.5 0.5;
   (Existing_credits_paid_duly_till_now, ge7_years, 3, bank, car_used) 0.5 0.5;
   (No_credits_taken__all_paid_duly, ge7_years, 3, bank, car_used) 0.5 0.5;
   (All_credits_at_this_bank_paid_duly, lt1_year, 3, bank, car_used) 0.5 0.5;
   (Critical_account__other_credits_elsewhere, lt1_year, 3, bank, car_used) 0.5 0.5;
   (Delay_in_paying_off_in_the_past, lt1_year, 3, bank, car_used) 0.5 0.5;
   (Existing_credits_paid_duly_till_now, lt1_year, 3, bank, car_used) 0.5 0.5;
   (No_credits_taken__all_paid_duly, lt1_year, 3, bank, car_used) 0.5 0.5;
   (All_credits_at_this_bank_paid_duly, unemployed, 3, bank, car_used) 0.5 0.5;
   (Critical_account__other_credits_elsewhere, unemployed, 3, bank, car_used) 0.5 0.5;
   (Delay_in_paying_off_in_the_past, unemployed, 3, bank, car_used) 0.5 0.5;
   (Existing_credits_paid_duly_till_now, unemployed, 3, bank, car_used) 0.5 0.5;
   (No_credits_taken__all_paid_duly, unemployed, 3, bank, car_used) 0.5 0.5;
   (All_credits_at_this_bank_paid_duly, _1to4_years, 4, bank, car_used) 0.333333 0.666667;
   (Critical_account__other_credits_elsewhere, _1to4_years, 4, bank, car_used) 0.333333 0.666667;
   (Delay_in_paying_off_in_the_past, _1to4_years, 4, bank, car_used) 0.5 0.5;
   (Existing_credits_paid_duly_till_now, _1to4_years, 4, bank, car_used) 0.666667 0.333333;
   (No_credits_taken__all_paid_duly, _1to4_years, 4, bank, car_used) 0.5 0.5;
   (All_credits_at_this_bank_paid_duly, _4to7_years, 4, bank, car_used) 0.5 0.5;
   (Critical_account__other_credits_elsewhere, _4to7_years, 4, bank, car_used) 0.5 0.5;
   (Delay_in_paying_off_in_the_past, _4to7_years, 4, bank, car_used) 0.333333 0.666667;
   (Existing_credits_paid_duly_till_now, _4to7_years, 4, bank, car_used) 0.5 0.5;
   (No_credits_taken__all_paid_duly, _4to7_years, 4, bank, car_used) 0.5 0.5;
   (All_credits_at_this_bank_paid_duly, ge7_years, 4, bank, car_used) 0.333333 0.666667;
   (Critical_account__other_credits_elsewhere, ge7_years, 4, bank, car_used) 0.5 0.5;
   (Delay_in_paying_off_in_the_past, ge7_years, 4, bank, car_used) 0.5 0.5;
   (Existing_credits_paid_duly_till_now, ge7_years, 4, bank, car_used) 0.4 0.6;
   (No_credits_taken__all_paid_duly, ge7_years, 4, bank, car_used) 0.666667 0.333333;
   (All_credits_at_this_bank_paid_duly, lt1_year, 4, bank, car_used) 0.333333 0.666667;
   (Critical_account__other_credits_elsewhere, lt1_year, 4, bank, car_used) 0.5 0.5;
   (Delay_in_paying_off_in_the_past, lt1_year, 4, bank, car_used) 0.5 0.5;
   (Existing_credits_paid_duly_till_now, lt1_year, 4, bank, car_used) 0.5 0.5;
   (No_credits_taken__all_paid_duly, lt1_year, 4, bank, car_used) 0.5 0.5;
   (All_credits_at_this_bank_paid_duly, unemployed, 4, bank, car_used) 0.5 0.5;
   (Critical_account__other_credits_elsewhere, unemployed, 4, bank, car_used) 0.5 0.5;
   (Delay_in_paying_off_in_the_past, unemployed, 4, bank, car_used) 0.5 0.5;
   (Existing_credits_paid_duly_till_now, unemployed, 4, bank, car_used) 0.5 0.5;
   (No_credits_taken__all_paid_duly, unemployed, 4, bank, car_used) 0.5 0.5;
   (All_credits_at_this_bank_paid_duly, _1to4_years, 1, none, car_used) 0.5 0.5;
   (Critical_account__other_credits_elsewhere, _1to4_years, 1, none, car_used) 0.5 0.5;
   (Delay_in_paying_off_in_the_past, _1to4_years, 1, none, car_used) 0.5 0.5;
   (Existing_credits_paid_duly_till_now, _1to4_years, 1, none, car_used) 0.333333 0.666667;
   (No_credits_taken__all_paid_duly, _1to4_years, 1, none, car_used) 0.5 0.5;
   (All_credits_at_this_bank_paid_duly, _4to7_years, 1, none, car_used) 0.5 0.5;
   (Critical_account__other_credits_elsewhere, _4to7_years, 1, none, car_used) 0.75 0.25;
   (Delay_in_paying_off_in_the_past, _4to7_years, 1, none, car_used) 0.5 0.5;
   (Existing_credits_paid_duly_till_now, _4to7_years, 1, none, car_used) 0.333333 0.666667;
   (No_credits_taken__all_paid_duly, _4to7_years, 1, none, car_used) 0.5 0.5;
   (All_credits_at_this_bank_paid_duly, ge7_years, 1, none, car_used) 0.5 0.5;
   (Critical_account__other_credits_elsewhere, ge7_years, 1, none, car_used) 0.5 0.5;
   (Delay_in_paying_off_in_the_past, ge7_years, 1, none, car_used) 0.5 0.5;
   (Existing_credits_paid_duly_till_now, ge7_years, 1, none, car_used) 0.5 0.5;
   (No_credits_taken__all_paid_duly, ge7_years, 1, none, car_used) 0.5 0.5;
   (All_credits_at_this_bank_paid_duly, lt1_year, 1, none, car_used) 0.5 0.5;
   (Critical_account__other_credits_elsewhere, lt1_year, 1, none, car_used) 0.5 0.5;
   (Delay_in_paying_off_in_the_past, lt1_year, 1, none, car_used) 0.5 0.5;
   (Existing_credits_paid_duly_till_now, lt1_year, 1, none, car_used) 0.666667 0.333333;
   (No_credits_taken__all_paid_duly, lt1_year, 1, none, car_used) 0.5 0.5;
   (All_credits_at_this_bank_paid_duly, unemployed, 1, none, car_used) 0.5 0.5;
   (Critical_account__other_credits_elsewhere, unemployed, 1, none, car_used) 0.5 0.5;
   (Delay_in_paying_off_in_the_past, unemployed, 1, none, car_used) 0.5 0.5;
   (Existing_credits_paid_duly_till_now, unemployed, 1, none, car_used) 0.5 0.5;
   (No_credits_taken__all_paid_duly, unemployed, 1, none, car_used) 0.5 0.5;
   (All_credits_at_this_bank_paid_duly, _1to4_years, 2, none, car_used) 0.5 0.5;
   (Critical_account__other_credits_elsewhere, _1to4_years, 2, none, car_used) 0.2 0.8;
   (Delay_in_paying_off_in_the_past, _1to4_years, 2, none, car_used) 0.666667 0.333333;
   (Existing_credits_paid_duly_till_now, _1to4_years, 2, none, car_used) 0.375 0.625;
   (No_credits_taken__all_paid_duly, _1to4_years, 2, none, car_used) 0.333333 0.666667;
   (All_credits_at_this_bank_paid_duly, _4to7_years, 2, none, car_used) 0.5 0.5;
   (Critical_account__other_credits_elsewhere, _4to7_years, 2, none, car_used) 0.666667 0.333333;
   (Delay_in_paying_off_in_the_past, _4to7_years, 2, none, car_used) 0.5 0.5;
   (Existing_credits_paid_duly_till_now, _4to7_years, 2, none, car_used) 0.25 0.75;
   (No_credits_taken__all_paid_duly, _4to7_years, 2, none, car_used) 0.5 0.5;
   (All_credits_at_this_bank_paid_duly, ge7_years, 2, none, car_used) 0.5 0.5;
   (Critical_account__other_credits_elsewhere, ge7_years, 2, none, car_used) 0.2 0.8;
   (Delay_in_paying_off_in_the_past, ge7_years, 2, none, car_used) 0.333333 0.666667;
   (Existing_credits_paid_duly_till_now, ge7_years, 2, none, car_used) 0.5 0.5;
   (No_credits_taken__all_paid_duly, ge7_years, 2, none, car_used) 0.5 0.5;
   (All_credits_at_this_bank_paid_duly, lt1_year, 2, none, car_used) 0.5 0.5;
   (Critical_account__other_credits_elsewhere, lt1_year, 2, none, car_used) 0.5 0.5;
   (Delay_in_paying_off_in_the_past, lt1_year, 2, none, car_used) 0.333333 0.666667;
   (Existing_credits_paid_duly_till_now, lt1_year, 2, none, car_used) 0.5 0.5;
   (No_credits_taken__all_paid_duly, lt1_year, 2, none, car_used) 0.5 0.5;
   (All_credits_at_this_bank_paid_duly, unemployed, 2, none, car_used) 0.5 0.5;
   (Critical_account__other_credits_elsewhere, unemployed, 2, none, car_used) 0.333333 0.666667;
   (Delay_in_paying_off_in_the_past, unemployed, 2, none, car_used) 0.5 0.5;
   (Existing_credits_paid_duly_till_now, unemployed, 2, none, car_used) 0.25 0.75;
   (No_credits_taken__all_paid_duly, unemployed, 2, none, car_used) 0.5 0.5;
   (All_credits_at_this_bank_paid_duly, _1to4_years, 3, none, car_used) 0.5 0.5;
   (Critical_account__other_credits_elsewhere, _1to4_years, 3, none, car_used) 0.5 0.5;
   (Delay_in_paying_off_in_the_past, _1to4_years, 3, none, car_used) 0.5 0.5;
   (Existing_credits_paid_duly_till_now, _1to4_years, 3, none, car_used) 0.25 0.75;
   (No_credits_taken__all_paid_duly, _1to4_years, 3, none, car_used) 0.5 0.5;
   (All_credits_at_this_bank_paid_duly, _4to7_years, 3, none, car_used) 0.5 0.5;
   (Critical_account__other_credits_elsewhere, _4to7_years, 3, none, car_used) 0.333333 0.666667;
   (Delay_in_paying_off_in_the_past, _4to7_years, 3, none, car_used) 0.333333 0.666667;
   (Existing_credits_paid_duly_till_now, _4to7_years, 3, none, car_used) 0.25 0.75;
   (No_credits_taken__all_paid_duly, _4to7_years, 3, none, car_used) 0.5 0.5;
   (All_credits_at_this_bank_paid_duly, ge7_years, 3, none, car_used) 0.5 0.5;
   (Critical_account__other_credits_elsewhere, ge7_years, 3, none, car_used) 0.5 0.5;
   (Delay_in_paying_off_in_the_past, ge7_years, 3, none, car_used) 0.5 0.5;
   (Existing_credits_paid_duly_till_now, ge7_years, 3, none, car_used) 0.5 0.5;
   (No_credits_taken__all_paid_duly, ge7_years, 3, none, car_used) 0.5 0.5;
   (All_credits_at_this_bank_paid_duly, lt1_year, 3, none, car_used) 0.5 0.5;
   (Critical_account__other_credits_elsewhere, lt1_year, 3, none, car_used) 0.5 0.5;
   (Delay_in_paying_off_in_the_past, lt1_year, 3, none, car_used) 0.5 0.5;
   (Existing_credits_paid_duly_till_now, lt1_year, 3, none, car_used) 0.333333 0.666667;
   (No_credits_taken__all_paid_duly, lt1_year, 3, none, car_used) 0.5 0.5;
   (All_credits_at_this_bank_paid_duly, unemployed, 3, none, car_used) 0.5 0.5;
   (Critical_account__other_credits_elsewhere, unemployed, 3, none, car_used) 0.5 0.5;
   (Delay_in_paying_off_in_the_past, unemployed, 3, none, car_used) 0.5 0.5;
   (Existing_credits_paid_duly_till_now, unemployed, 3, none, car_used) 0.5 0.5;
   (No_credits_taken__all_paid_duly, unemployed, 3, none, car_used) 0.5 0.5;
   (All_credits_at_this_bank_paid_duly, _1to4_years, 4, none, car_used) 0.5 0.5;
   (Critical_account__other_credits_elsewhere, _1to4_years, 4, none, car_used) 0.5 0.5;
   (Delay_in_paying_off_in_the_past, _1to4_years, 4, none, car_used) 0.333333 0.666667;
   (Existing_credits_paid_duly_till_now, _1to4_years, 4, none, car_used) 0.375 0.625;
   (No_credits_taken__all_paid_duly, _1to4_years, 4, none, car_used) 0.5 0.5;
   (All_credits_at_this_bank_paid_duly, _4to7_years, 4, none, car_used) 0.5 0.5;
   (Critical_account__other_credits_elsewhere, _4to7_years, 4, none, car_used) 0.333333 0.666667;
   (Delay_in_paying_off_in_the_past, _4to7_years, 4, none, car_used) 0.5 0.5;
   (Existing_credits_paid_duly_till_now, _4to7_years, 4, none, car_used) 0.333333 0.666667;
   (No_credits_taken__all_paid_duly, _4to7_years, 4, none, car_used) 0.5 0.5;
   (All_credits_at_this_bank_paid_duly, ge7_years, 4, none, car_used) 0.5 0.5;
   (Critical_account__other_credits_elsewhere, ge7_years, 4, none, car_used) 0.230769 0.769231;
   (Delay_in_paying_off_in_the_past, ge7_years, 4, none, car_used) 0.5 0.5;
   (Existing_credits_paid_duly_till_now, ge7_years, 4, none, car_used) 0.3 0.7;
   (No_credits_taken__all_paid_duly, ge7_years, 4, none, car_used) 0.333333 0.666667;
   (All_credits_at_this_bank_paid_duly, lt1_year, 4, none, car_used) 0.5 0.5;
   (Critical_account__other_credits_elsewhere, lt1_year, 4, none, car_used) 0.666667 0.333333;
   (Delay_in_paying_off_in_the_past, lt1_year, 4, none, car_used) 0.5 0.5;
   (Existing_credits_paid_duly_till_now, lt1_year, 4, none, car_used) 0.25 0.75;
   (No_credits_taken__all_paid_duly, lt1_year, 4, none, car_used) 0.5 0.5;
   (All_credits_at_this_bank_paid_duly, unemployed, 4, none, car_used) 0.5 0.5;
   (Critical_account__other_credits_elsewhere, unemployed, 4, none, car_used) 0.2 0.8;
   (Delay_in_paying_off_in_the_past, unemployed, 4, none, car_used) 0.5 0.5;
   (Existing_credits_paid_duly_till_now, unemployed, 4, none, car_used) 0.2 0.8;
   (No_credits_taken__all_paid_duly, unemployed, 4, none, car_used) 0.5 0.5;
   (All_credits_at_this_bank_paid_duly, _1to4_years, 1, stores, car_used) 0.5 0.5;
   (Critical_account__other_credits_elsewhere, _1to4_years, 1, stores, car_used) 0.5 0.5;
   (Delay_in_paying_off_in_the_past, _1to4_years, 1, stores, car_used) 0.5 0.5;
   (Existing_credits_paid_duly_till_now, _1to4_years, 1, stores, car_used) 0.5 0.5;
   (No_credits_taken__all_paid_duly, _1to4_years, 1, stores, car_used) 0.5 0.5;
   (All_credits_at_this_bank_paid_duly, _4to7_years, 1, stores, car_used) 0.5 0.5;
   (Critical_account__other_credits_elsewhere, _4to7_years, 1, stores, car_used) 0.5 0.5;
   (Delay_in_paying_off_in_the_past, _4to7_years, 1, stores, car_used) 0.5 0.5;
   (Existing_credits_paid_duly_till_now, _4to7_years, 1, stores, car_used) 0.5 0.5;
   (No_credits_taken__all_paid_duly, _4to7_years, 1, stores, car_used) 0.5 0.5;
   (All_credits_at_this_bank_paid_duly, ge7_years, 1, stores, car_used) 0.5 0.5;
   (Critical_account__other_credits_elsewhere, ge7_years, 1, stores, car_used) 0.5 0.5;
   (Delay_in_paying_off_in_the_past, ge7_years, 1, stores, car_used) 0.5 0.5;
   (Existing_credits_paid_duly_till_now, ge7_years, 1, stores, car_used) 0.5 0.5;
   (No_credits_taken__all_paid_duly, ge7_years, 1, stores, car_used) 0.5 0.5;
   (All_credits_at_this_bank_paid_duly, lt1_year, 1, stores, car_used) 0.5 0.5;
   (Critical_account__other_credits_elsewhere, lt1_year, 1, stores, car_used) 0.5 0.5;
   (Delay_in_paying_off_in_the_past, lt1_year, 1, stores, car_used) 0.5 0.5;
   (Existing_credits_paid_duly_till_now, lt1_year, 1, stores, car_used) 0.5 0.5;
   (No_credits_taken__all_paid_duly, lt1_year, 1, stores, car_used) 0.5 0.5;
   (All_credits_at_this_bank_paid_duly, unemployed, 1, stores, car_used) 0.5 0.5;
   (Critical_account__other_credits_elsewhere, unemployed, 1, stores, car_used) 0.5 0.5;
   (Delay_in_paying_off_in_the_past, unemployed, 1, stores, car_used) 0.5 0.5;
   (Existing_credits_paid_duly_till_now, unemployed, 1, stores, car_used) 0.5 0.5;
   (No_credits_taken__all_paid_duly, unemployed, 1, stores, car_used) 0.5 0.5;
   (All_credits_at_this_bank_paid_duly, _1to4_years, 2, stores, car_used) 0.5 0.5;
   (Critical_account__other_credits_elsewhere, _1to4_years, 2, stores, car_used) 0.5 0.5;
   (Delay_in_paying_off_in_the_past, _1to4_years, 2, stores, car_used) 0.333333 0.666667;
   (Existing_credits_paid_duly_till_now, _1to4_years, 2, stores, car_used) 0.5 0.5;
   (No_credits_taken__all_paid_duly, _1to4_years, 2, stores, car_used) 0.5 0.5;
   (All_credits_at_this_bank_paid_duly, _4to7_years, 2, stores, car_used) 0.5 0.5;
   (Critical_account__other_credits_elsewhere, _4to7_years, 2, stores, car_used) 0.5 0.5;
   (Delay_in_paying_off_in_the_past, _4to7_years, 2, stores, car_used) 0.333333 0.666667;
   (Existing_credits_paid_duly_till_now, _4to7_years, 2, stores, car_used) 0.5 0.5;
   (No_credits_taken__all_paid_duly, _4to7_years, 2, stores, car_used) 0.5 0.5;
   (All_credits_at_this_bank_paid_duly, ge7_years, 2, stores, car_used) 0.5 0.5;
   (Critical_account__other_credits_elsewhere, ge7_years, 2, stores, car_used) 0.5 0.5;
   (Delay_in_paying_off_in_the_past, ge7_years, 2, stores, car_used) 0.5 0.5;
   (Existing_credits_paid_duly_till_now, ge7_years, 2, stores, car_used) 0.5 0.5;
   (No_credits_taken__all_paid_duly, ge7_years, 2, stores, car_used) 0.5 0.5;
   (All_credits_at_this_bank_paid_duly, lt1_year, 2, stores, car_used) 0.5 0.5;
   (Critical_account__other_credits_elsewhere, lt1_year, 2, stores, car_used) 0.5 0.5;
   (Delay_in_paying_off_in_the_past, lt1_year, 2, stores, car_used) 0.5 0.5;
   (Existing_credits_paid_duly_till_now, lt1_year, 2, stores, car_used) 0.5 0.5;
   (No_credits_taken__all_paid_duly, lt1_year, 2, stores, car_used) 0.5 0.5;
   (All_credits_at_this_bank_paid_duly, unemployed, 2, stores, car_used) 0.5 0.5;
   (Critical_account__other_credits_elsewhere, unemployed, 2, stores, car_used) 0.5 0.5;
   (Delay_in_paying_off_in_the_past, unemployed, 2, stores, car_used) 0.5 0.5;
   (Existing_credits_paid_duly_till_now, unemployed, 2, stores, car_used) 0.5 0.5;
   (No_credits_taken__all_paid_duly, unemployed, 2, stores, car_used) 0.5 0.5;
   (All_credits_at_this_bank_paid_duly, _1to4_years, 3, stores, car_used) 0.5 0.5;
   (Critical_account__other_credits_elsewhere, _1to4_years, 3, stores, car_used) 0.5 0.5;
   (Delay_in_paying_off_in_the_past, _1to4_years, 3, stores, car_used) 0.5 0.5;
   (Existing_credits_paid_duly_till_now, _1to4_years, 3, stores, car_used) 0.5 0.5;
   (No_credits_taken__all_paid_duly, _1to4_years, 3, stores, car_used) 0.5 0.5;
   (All_credits_at_this_bank_paid_duly, _4to7_years, 3, stores, car_used) 0.5 0.5;
   (Critical_account__other_credits_elsewhere, _4to7_years, 3, stores, car_used) 0.5 0.5;
   (Delay_in_paying_off_in_the_past, _4to7_years, 3, stores, car_used) 0.5 0.5;
   (Existing_credits_paid_duly_till_now, _4to7_years, 3, stores, car_used) 0.5 0.5;
   (No_credits_taken__all_paid_duly, _4to7_years, 3, stores, car_used) 0.5 0.5;
   (All_credits_at_this_bank_paid_duly, ge7_years, 3, stores, car_used) 0.5 0.5;
   (Critical_account__other_credits_elsewhere, ge7_years, 3, stores, car_used) 0.5 0.5;
   (Delay_in_paying_off_in_the_past, ge7_years, 3, stores, car_used) 0.5 0.5;
   (Existing_credits_paid_duly_till_now, ge7_years, 3, stores, car_used) 0.5 0.5;
   (No_credits_taken__all_paid_duly, ge7_years, 3, stores, car_used) 0.5 0.5;
   (All_credits_at_this_bank_paid_duly, lt1_year, 3, stores, car_used) 0.5 0.5;
   (Critical_account__other_credits_elsewhere, lt1_year, 3, stores, car_used) 0.5 0.5;
   (Delay_in_paying_off_in_the_past, lt1_year, 3, stores, car_used) 0.5 0.5;
   (Existing_credits_paid_duly_till_now, lt1_year, 3, stores, car_used) 0.5 0.5;
   (No_credits_taken__all_paid_duly, lt1_year, 3, stores, car_used) 0.5 0.5;
   (All_credits_at_this_bank_paid_duly, unemployed, 3, stores, car_used) 0.5 0.5;
   (Critical_account__other_credits_elsewhere, unemployed, 3, stores, car_used) 0.5 0.5;
   (Delay_in_paying_off_in_the_past, unemployed, 3, stores, car_used) 0.5 0.5;
   (Existing_credits_paid_duly_till_now, unemployed, 3, stores, car_used) 0.5 0.5;
   (No_credits_taken__all_paid_duly, unemployed, 3, stores, car_used) 0.5 0.5;
   (All_credits_at_this_bank_paid_duly, _1to4_years, 4, stores, car_used) 0.5 0.5;
   (Critical_account__other_credits_elsewhere, _1to4_years, 4, stores, car_used) 0.5 0.5;
   (Delay_in_paying_off_in_the_past, _1to4_years, 4, stores, car_used) 0.5 0.5;
   (Existing_credits_paid_duly_till_now, _1to4_years, 4, stores, car_used) 0.5 0.5;
   (No_credits_taken__all_paid_duly, _1to4_years, 4, stores, car_used) 0.5 0.5;
   (All_credits_at_this_bank_paid_duly, _4to7_years, 4, stores, car_used) 0.5 0.5;
   (Critical_account__other_credits_elsewhere, _4to7_years, 4, stores, car_used) 0.5 0.5;
   (Delay_in_paying_off_in_the_past, _4to7_years, 4, stores, car_used) 0.5 0.5;
   (Existing_credits_paid_duly_till_now, _4to7_years, 4, stores, car_used) 0.5 0.5;
   (No_credits_taken__all_paid_duly, _4to7_years, 4, stores, car_used) 0.5 0.5;
   (All_credits_at_this_bank_paid_duly, ge7_years, 4, stores, car_used) 0.5 0.5;
   (Critical_account__other_credits_elsewhere, ge7_years, 4, stores, car_used) 0.333333 0.666667;
   (Delay_in_paying_off_in_the_past, ge7_years, 4, stores, car_used) 0.5 0.5;
   (Existing_credits_paid_duly_till_now, ge7_years, 4, stores, car_used) 0.5 0.5;
   (No_credits_taken__all_paid_duly, ge7_years, 4, stores, car_used) 0.5 0.5;
   (All_credits_at_this_bank_paid_duly, lt1_year, 4, stores, car_used) 0.5 0.5;
   (Critical_account__other_credits_elsewhere, lt1_year, 4, stores, car_used) 0.5 0.5;
   (Delay_in_paying_off_in_the_past, lt1_year, 4, stores, car_used) 0.5 0.5;
   (Existing_credits_paid_duly_till_now, lt1_year, 4, stores, car_used) 0.5 0.5;
   (No_credits_taken__all_paid_duly, lt1_year, 4, stores, car_used) 0.5 0.5;
   (All_credits_at_this_bank_paid_duly, unemployed, 4, stores, car_used) 0.5 0.5;
   (Critical_account__other_credits_elsewhere, unemployed, 4, stores, car_used) 0.5 0.5;
   (Delay_in_paying_off_in_the_past, unemployed, 4, stores, car_used) 0.5 0.5;
   (Existing_credits_paid_duly_till_now, unemployed, 4, stores, car_used) 0.5 0.5;
   (No_credits_taken__all_paid_duly, unemployed, 4, stores, car_used) 0.5 0.5;
   (All_credits_at_this_bank_paid_duly, _1to4_years, 1, bank, domestic_appliances) 0.5 0.5;
   (Critical_account__other_credits_elsewhere, _1to4_years, 1, bank, domestic_appliances) 0.5 0.5;
   (Delay_in_paying_off_in_the_past, _1to4_years, 1, bank, domestic_appliances) 0.5 0.5;
   (Existing_credits_paid_duly_till_now, _1to4_years, 1, bank, domestic_appliances) 0.5 0.5;
   (No_credits_taken__all_paid_duly, _1to4_years, 1, bank, domestic_appliances) 0.5 0.5;
   (All_credits_at_this_bank_paid_duly, _4to7_years, 1, bank, domestic_appliances) 0.5 0.5;
   (Critical_account__other_credits_elsewhere, _4to7_years, 1, bank, domestic_appliances) 0.5 0.5;
   (Delay_in_paying_off_in_the_past, _4to7_years, 1, bank, domestic_appliances) 0.5 0.5;
   (Existing_credits_paid_duly_till_now, _4to7_years, 1, bank, domestic_appliances) 0.5 0.5;
   (No_credits_taken__all_paid_duly, _4to7_years, 1, bank, domestic_appliances) 0.5 0.5;
   (All_credits_at_this_bank_paid_duly, ge7_years, 1, bank, domestic_appliances) 0.5 0.5;
   (Critical_account__other_credits_elsewhere, ge7_years, 1, bank, domestic_appliances) 0.5 0.5;
   (Delay_in_paying_off_in_the_past, ge7_years, 1, bank, domestic_appliances) 0.5 0.5;
   (Existing_credits_paid_duly_till_now, ge7_years, 1, bank, domestic_appliances) 0.5 0.5;
   (No_credits_taken__all_paid_duly, ge7_years, 1, bank, domestic_appliances) 0.5 0.5;
   (All_credits_at_this_bank_paid_duly, lt1_year, 1, bank, domestic_appliances) 0.5 0.5;
   (Critical_account__other_credits_elsewhere, lt1_year, 1, bank, domestic_appliances) 0.5 0.5;
   (Delay_in_paying_off_in_the_past, lt1_year, 1, bank, domestic_appliances) 0.5 0.5;
   (Existing_credits_paid_duly_till_now, lt1_year, 1, bank, domestic_appliances) 0.5 0.5;
   (No_credits_taken__all_paid_duly, lt1_year, 1, bank, domestic_appliances) 0.5 0.5;
   (All_credits_at_this_bank_paid_duly, unemployed, 1, bank, domestic_appliances) 0.5 0.5;
   (Critical_account__other_credits_elsewhere, unemployed, 1, bank, domestic_appliances) 0.5 0.5;
   (Delay_in_paying_off_in_the_past, unemployed, 1, bank, domestic_appliances) 0.5 0.5;
   (Existing_credits_paid_duly_till_now, unemployed, 1, bank, domestic_appliances) 0.5 0.5;
   (No_credits_taken__all_paid_duly, unemployed, 1, bank, domestic_appliances) 0.5 0.5;
   (All_credits_at_this_bank_paid_duly, _1to4_years, 2, bank, domestic_appliances) 0.5 0.5;
   (Critical_account__other_credits_elsewhere, _1to4_years, 2, bank, domestic_appliances) 0.5 0.5;
   (Delay_in_paying_off_in_the_past, _1to4_years, 2, bank, domestic_appliances) 0.5 0.5;
   (Existing_credits_paid_duly_till_now, _1to4_years, 2, bank, domestic_appliances) 0.5 0.5;
   (No_credits_taken__all_paid_duly, _1to4_years, 2, bank, domestic_appliances) 0.5 0.5;
   (All_credits_at_this_bank_paid_duly, _4to7_years, 2, bank, domestic_appliances) 0.5 0.5;
   (Critical_account__other_credits_elsewhere, _4to7_years, 2, bank, domestic_appliances) 0.5 0.5;
   (Delay_in_paying_off_in_the_past, _4to7_years, 2, bank, domestic_appliances) 0.5 0.5;
   (Existing_credits_paid_duly_till_now, _4to7_years, 2, bank, domestic_appliances) 0.5 0.5;
   (No_credits_taken__all_paid_duly, _4to7_years, 2, bank, domestic_appliances) 0.5 0.5;
   (All_credits_at_this_bank_paid_duly, ge7_years, 2, bank, domestic_appliances) 0.5 0.5;
   (Critical_account__other_credits_elsewhere, ge7_years, 2, bank, domestic_appliances) 0.5 0.5;
   (Delay_in_paying_off_in_the_past, ge7_years, 2, bank, domestic_appliances) 0.5 0.5;
   (Existing_credits_paid_duly_till_now, ge7_years, 2, bank, domestic_appliances) 0.5 0.5;
   (No_credits_taken__all_paid_duly, ge7_years, 2, bank, domestic_appliances) 0.5 0.5;
   (All_credits_at_this_bank_paid_duly, lt1_year, 2, bank, domestic_appliances) 0.333333 0.666667;
   (Critical_account__other_credits_elsewhere, lt1_year, 2, bank, domestic_appliances) 0.5 0.5;
   (Delay_in_paying_off_in_the_past, lt1_year, 2, bank, domestic_appliances) 0.5 0.5;
   (Existing_credits_paid_duly_till_now, lt1_year, 2, bank, domestic_appliances) 0.5 0.5;
   (No_credits_taken__all_paid_duly, lt1_year, 2, bank, domestic_appliances) 0.5 0.5;
   (All_credits_at_this_bank_paid_duly, unemployed, 2, bank, domestic_appliances) 0.5 0.5;
   (Critical_account__other_credits_elsewhere, unemployed, 2, bank, domestic_appliances) 0.5 0.5;
   (Delay_in_paying_off_in_the_past, unemployed, 2, bank, domestic_appliances) 0.5 0.5;
   (Existing_credits_paid_duly_till_now, unemployed, 2, bank, domestic_appliances) 0.5 0.5;
   (No_credits_taken__all_paid_duly, unemployed, 2, bank, domestic_appliances) 0.5 0.5;
   (All_credits_at_this_bank_paid_duly, _1to4_years, 3, bank, domestic_appliances) 0.5 0.5;
   (Critical_account__other_credits_elsewhere, _1to4_years, 3, bank, domestic_appliances) 0.5 0.5;
   (Delay_in_paying_off_in_the_past, _1to4_years, 3, bank, domestic_appliances) 0.5 0.5;
   (Existing_credits_paid_duly_till_now, _1to4_years, 3, bank, domestic_appliances) 0.5 0.5;
   (No_credits_taken__all_paid_duly, _1to4_years, 3, bank, domestic_appliances) 0.5 0.5;
   (All_credits_at_this_bank_paid_duly, _4to7_years, 3, bank, domestic_appliances) 0.5 0.5;
   (Critical_account__other_credits_elsewhere, _4to7_years, 3, bank, domestic_appliances) 0.5 0.5;
   (Delay_in_paying_off_in_the_past, _4to7_years, 3, bank, domestic_appliances) 0.5 0.5;
   (Existing_credits_paid_duly_till_now, _4to7_years, 3, bank, domestic_appliances) 0.5 0.5;
   (No_credits_taken__all_paid_duly, _4to7_years, 3, bank, domestic_appliances) 0.5 0.5;
   (All_credits_at_this_bank_paid_duly, ge7_years, 3, bank, domestic_appliances) 0.5 0.5;
   (Critical_account__other_credits_elsewhere, ge7_years, 3, bank, domestic_appliances) 0.5 0.5;
   (Delay_in_paying_off_in_the_past, ge7_years, 3, bank, domestic_appliances) 0.5 0.5;
   (Existing_credits_paid_duly_till_now, ge7_years, 3, bank, domestic_appliances) 0.5 0.5;
   (No_credits_taken__all_paid_duly, ge7_years, 3, bank, domestic_appliances) 0.5 0.5;
   (All_credits_at_this_bank_paid_duly, lt1_year, 3, bank, domestic_appliances) 0.5 0.5;
   (Critical_account__other_credits_elsewhere, lt1_year, 3, bank, domestic_appliances) 0.5 0.5;
   (Delay_in_paying_off_in_the_past, lt1_year, 3, bank, domestic_appliances) 0.5 0.5;
   (Existing_credits_paid_duly_till_now, lt1_year, 3, bank, domestic_appliances) 0.5 0.5;
   (No_credits_taken__all_paid_duly, lt1_year, 3, bank, domestic_appliances) 0.5 0.5;
   (All_credits_at_this_bank_paid_duly, unemployed, 3, bank, domestic_appliances) 0.5 0.5;
   (Critical_account__other_credits_elsewhere, unemployed, 3, bank, domestic_appliances) 0.5 0.5;
   (Delay_in_paying_off_in_the_past, unemployed, 3, bank, domestic_appliances) 0.5 0.5;
   (Existing_credits_paid_duly_till_now, unemployed, 3, bank, domestic_appliances) 0.5 0.5;
   (No_credits_taken__all_paid_duly, unemployed, 3, bank, domestic_appliances) 0.5 0.5;
   (All_credits_at_this_bank_paid_duly, _1to4_years, 4, bank, domestic_appliances) 0.5 0.5;
   (Critical_account__other_credits_elsewhere, _1to4_years, 4, bank, domestic_appliances) 0.5 0.5;
   (Delay_in_paying_off_in_the_past, _1to4_years, 4, bank, domestic_appliances) 0.5 0.5;
   (Existing_credits_paid_duly_till_now, _1to4_years, 4, bank, domestic_appliances) 0.5 0.5;
   (No_credits_taken__all_paid_duly, _1to4_years, 4, bank, domestic_appliances) 0.5 0.5;
   (All_credits_at_this_bank_paid_duly, _4to7_years, 4, bank, domestic_appliances) 0.5 0.5;
   (Critical_account__other_credits_elsewhere, _4to7_years, 4, bank, domestic_appliances) 0.5 0.5;
   (Delay_in_paying_off_in_the_past, _4to7_years, 4, bank, domestic_appliances) 0.5 0.5;
   (Existing_credits_paid_duly_till_now, _4to7_years, 4, bank, domestic_appliances) 0.5 0.5;
   (No_credits_taken__all_paid_duly, _4to7_years, 4, bank, domestic_appliances) 0.5 0.5;
   (All_credits_at_this_bank_paid_duly, ge7_years, 4, bank, domestic_appliances) 0.5 0.5;
   (Critical_account__other_credits_elsewhere, ge7_years, 4, bank, domestic_appliances) 0.5 0.5;
   (Delay_in_paying_off_in_the_past, ge7_years, 4, bank, domestic_appliances) 0.5 0.5;
   (Existing_credits_paid_duly_till_now, ge7_years, 4, bank, domestic_appliances) 0.5 0.5;
   (No_credits_taken__all_paid_duly, ge7_years, 4, bank, domestic_appliances) 0.5 0.5;
   (All_credits_at_this_bank_paid_duly, lt1_year, 4, bank, domestic_appliances) 0.5 0.5;
   (Critical_account__other_credits_elsewhere, lt1_year, 4, bank, domestic_appliances) 0.5 0.5;
   (Delay_in_paying_off_in_the_past, lt1_year, 4, bank, domestic_appliances) 0.5 0.5;
   (Existing_credits_paid_duly_till_now, lt1_year, 4, bank, domestic_appliances) 0.5 0.5;
   (No_credits_taken__all_paid_duly, lt1_year, 4, bank, domestic_appliances) 0.5 0.5;
   (All_credits_at_this_bank_paid_duly, unemployed, 4, bank, domestic_appliances) 0.5 0.5;
   (Critical_account__other_credits_elsewhere, unemployed, 4, bank, domestic_appliances) 0.5 0.5;
   (Delay_in_paying_off_in_the_past, unemployed, 4, bank, domestic_appliances) 0.5 0.5;
   (Existing_credits_paid_duly_till_now, unemployed, 4, bank, domestic_appliances) 0.5 0.5;
   (No_credits_taken__all_paid_duly, unemployed, 4, bank, domestic_appliances) 0.5 0.5;
   (All_credits_at_this_bank_paid_duly, _1to4_years, 1, none, domestic_appliances) 0.5 0.5;
   (Critical_account__other_credits_elsewhere, _1to4_years, 1, none, domestic_appliances) 0.5 0.5;
   (Delay_in_paying_off_in_the_past, _1to4_years, 1, none, domestic_appliances) 0.5 0.5;
   (Existing_credits_paid_duly_till_now, _1to4_years, 1, none, domestic_appliances) 0.5 0.5;
   (No_credits_taken__all_paid_duly, _1to4_years, 1, none, domestic_appliances) 0.5 0.5;
   (All_credits_at_this_bank_paid_duly, _4to7_years, 1, none, domestic_appliances) 0.5 0.5;
   (Critical_account__other_credits_elsewhere, _4to7_years, 1, none, domestic_appliances) 0.5 0.5;
   (Delay_in_paying_off_in_the_past, _4to7_years, 1, none, domestic_appliances) 0.5 0.5;
   (Existing_credits_paid_duly_till_now, _4to7_years, 1, none, domestic_appliances) 0.5 0.5;
   (No_credits_taken__all_paid_duly, _4to7_years, 1, none, domestic_appliances) 0.5 0.5;
   (All_credits_at_this_bank_paid_duly, ge7_years, 1, none, domestic_appliances) 0.5 0.5;
   (Critical_account__other_credits_elsewhere, ge7_years, 1, none, domestic_appliances) 0.5 0.5;
   (Delay_in_paying_off_in_the_past, ge7_years, 1, none, domestic_appliances) 0.5 0.5;
   (Existing_credits_paid_duly_till_now, ge7_years, 1, none, domestic_appliances) 0.5 0.5;
   (No_credits_taken__all_paid_duly, ge7_years, 1, none, domestic_appliances) 0.5 0.5;
   (All_credits_at_this_bank_paid_duly, lt1_year, 1, none, domestic_appliances) 0.5 0.5;
   (Critical_account__other_credits_elsewhere, lt1_year, 1, none, domestic_appliances) 0.5 0.5;
   (Delay_in_paying_off_in_the_past, lt1_year, 1, none, domestic_appliances) 0.5 0.5;
   (Existing_credits_paid_duly_till_now, lt1_year, 1, none, domestic_appliances) 0.25 0.75;
   (No_credits_taken__all_paid_duly, lt1_year, 1, none, domestic_appliances) 0.5 0.5;
   (All_credits_at_this_bank_paid_duly, unemployed, 1, none, domestic_appliances) 0.5 0.5;
   (Critical_account__other_credits_elsewhere, unemployed, 1, none, domestic_appliances) 0.5 0.5;
   (Delay_in_paying_off_in_the_past, unemployed, 1, none, domestic_appliances) 0.5 0.5;
   (Existing_credits_paid_duly_till_now, unemployed, 1, none, domestic_appliances) 0.5 0.5;
   (No_credits_taken__all_paid_duly, unemployed, 1, none, domestic_appliances) 0.5 0.5;
   (All_credits_at_this_bank_paid_duly, _1to4_years, 2, none, domestic_appliances) 0.5 0.5;
   (Critical_account__other_credits_elsewhere, _1to4_years, 2, none, domestic_appliances) 0.5 0.5;
   (Delay_in_paying_off_in_the_past, _1to4_years, 2, none, domestic_appliances) 0.5 0.5;
   (Existing_credits_paid_duly_till_now, _1to4_years, 2, none, domestic_appliances) 0.25 0.75;
   (No_credits_taken__all_paid_duly, _1to4_years, 2, none, domestic_appliances) 0.5 0.5;
   (All_credits_at_this_bank_paid_duly, _4to7_years, 2, none, domestic_appliances) 0.5 0.5;
   (Critical_account__other_credits_elsewhere, _4to7_years, 2, none, domestic_appliances) 0.5 0.5;
   (Delay_in_paying_off_in_the_past, _4to7_years, 2, none, domestic_appliances) 0.5 0.5;
   (Existing_credits_paid_duly_till_now, _4to7_years, 2, none, domestic_appliances) 0.5 0.5;
   (No_credits_taken__all_paid_duly, _4to7_years, 2, none, domestic_appliances) 0.5 0.5;
   (All_credits_at_this_bank_paid_duly, ge7_years, 2, none, domestic_appliances) 0.5 0.5;
   (Critical_account__other_credits_elsewhere, ge7_years, 2, none, domestic_appliances) 0.5 0.5;
   (Delay_in_paying_off_in_the_past, ge7_years, 2, none, domestic_appliances) 0.5 0.5;
   (Existing_credits_paid_duly_till_now, ge7_years, 2, none, domestic_appliances) 0.5 0.5;
   (No_credits_taken__all_paid_duly, ge7_years, 2, none, domestic_appliances) 0.5 0.5;
   (All_credits_at_this_bank_paid_duly, lt1_year, 2, none, domestic_appliances) 0.5 0.5;
   (Critical_account__other_credits_elsewhere, lt1_year, 2, none, domestic_appliances) 0.5 0.5;
   (Delay_in_paying_off_in_the_past, lt1_year, 2, none, domestic_appliances) 0.5 0.5;
   (Existing_credits_paid_duly_till_now, lt1_year, 2, none, domestic_appliances) 0.5 0.5;
   (No_credits_taken__all_paid_duly, lt1_year, 2, none, domestic_appliances) 0.5 0.5;
   (All_credits_at_this_bank_paid_duly, unemployed, 2, none, domestic_appliances) 0.5 0.5;
   (Critical_account__other_credits_elsewhere, unemployed, 2, none, domestic_appliances) 0.5 0.5;
   (Delay_in_paying_off_in_the_past, unemployed, 2, none, domestic_appliances) 0.5 0.5;
   (Existing_credits_paid_duly_till_now, unemployed, 2, none, domestic_appliances) 0.5 0.5;
   (No_credits_taken__all_paid_duly, unemployed, 2, none, domestic_appliances) 0.5 0.5;
   (All_credits_at_this_bank_paid_duly, _1to4_years, 3, none, domestic_appliances) 0.5 0.5;
   (Critical_account__other_credits_elsewhere, _1to4_years, 3, none, domestic_appliances) 0.5 0.5;
   (Delay_in_paying_off_in_the_past, _1to4_years, 3, none, domestic_appliances) 0.5 0.5;
   (Existing_credits_paid_duly_till_now, _1to4_years, 3, none, domestic_appliances) 0.333333 0.666667;
   (No_credits_taken__all_paid_duly, _1to4_years, 3, none, domestic_appliances) 0.5 0.5;
   (All_credits_at_this_bank_paid_duly, _4to7_years, 3, none, domestic_appliances) 0.5 0.5;
   (Critical_account__other_credits_elsewhere, _4to7_years, 3, none, domestic_appliances) 0.333333 0.666667;
   (Delay_in_paying_off_in_the_past, _4to7_years, 3, none, domestic_appliances) 0.5 0.5;
   (Existing_credits_paid_duly_till_now, _4to7_years, 3, none, domestic_appliances) 0.333333 0.666667;
   (No_credits_taken__all_paid_duly, _4to7_years, 3, none, domestic_appliances) 0.5 0.5;
   (All_credits_at_this_bank_paid_duly, ge7_years, 3, none, domestic_appliances) 0.5 0.5;
   (Critical_account__other_credits_elsewhere, ge7_years, 3, none, domestic_appliances) 0.5 0.5;
   (Delay_in_paying_off_in_the_past, ge7_years, 3, none, domestic_appliances) 0.5 0.5;
   (Existing_credits_paid_duly_till_now, ge7_years, 3, none, domestic_appliances) 0.5 0.5;
   (No_credits_taken__all_paid_duly, ge7_years, 3, none, domestic_appliances) 0.5 0.5;
   (All_credits_at_this_bank_paid_duly, lt1_year, 3, none, domestic_appliances) 0.5 0.5;
   (Critical_account__other_credits_elsewhere, lt1_year, 3, none, domestic_appliances) 0.5 0.5;
   (Delay_in_paying_off_in_the_past, lt1_year, 3, none, domestic_appliances) 0.5 0.5;
   (Existing_credits_paid_duly_till_now, lt1_year, 3, none, domestic_appliances) 0.5 0.5;
   (No_credits_taken__all_paid_duly, lt1_year, 3, none, domestic_appliances) 0.5 0.5;
   (All_credits_at_this_bank_paid_duly, unemployed, 3, none, domestic_appliances) 0.5 0.5;
   (Critical_account__other_credits_elsewhere, unemployed, 3, none, domestic_appliances) 0.5 0.5;
   (Delay_in_paying_off_in_the_past, unemployed, 3, none, domestic_appliances) 0.5 0.5;
   (Existing_credits_paid_duly_till_now, unemployed, 3, none, domestic_appliances) 0.333333 0.666667;
   (No_credits_taken__all_paid_duly, unemployed, 3, none, domestic_appliances) 0.5 0.5;
   (All_credits_at_this_bank_paid_duly, _1to4_years, 4, none, domestic_appliances) 0.5 0.5;
   (Critical_account__other_credits_elsewhere, _1to4_years, 4, none, domestic_appliances) 0.5 0.5;
   (Delay_in_paying_off_in_the_past, _1to4_years, 4, none, domestic_appliances) 0.5 0.5;
   (Existing_credits_paid_duly_till_now, _1to4_years, 4, none, domestic_appliances) 0.5 0.5;
   (No_credits_taken__all_paid_duly, _1to4_years, 4, none, domestic_appliances) 0.5 0.5;
   (All_credits_at_this_bank_paid_duly, _4to7_years, 4, none, domestic_appliances) 0.5 0.5;
   (Critical_account__other_credits_elsewhere, _4to7_years, 4, none, domestic_appliances) 0.5 0.5;
   (Delay_in_paying_off_in_the_past, _4to7_years, 4, none, domestic_appliances) 0.5 0.5;
   (Existing_credits_paid_duly_till_now, _4to7_years, 4, none, domestic_appliances) 0.5 0.5;
   (No_credits_taken__all_paid_duly, _4to7_years, 4, none, domestic_appliances) 0.5 0.5;
   (All_credits_at_this_bank_paid_duly, ge7_years, 4, none, domestic_appliances) 0.5 0.5;
   (Critical_account__other_credits_elsewhere, ge7_years, 4, none, domestic_appliances) 0.5 0.5;
   (Delay_in_paying_off_in_the_past, ge7_years, 4, none, domestic_appliances) 0.5 0.5;
