network ""GermanCreditManualBN"" {
// written by aGrUM 2.2.1
}

variable CreditAmount {
   type discrete[3] {High, Low, Medium};
}

variable ForeignWorker {
   type discrete[2] {no, yes};
}

variable OtherDebtors {
   type discrete[3] {co_applicant, guarantor, none};
}

variable CreditRisk {
   type discrete[2] {Bad, Good};
}

variable Capacity {
   type discrete[3] {low, medium, high};
}

variable ExistingCredits {
   type discrete[4] {1, 2, 3, 4};
}

variable Character {
   type discrete[2] {bad, good};
}

variable Income {
   type discrete[3] {low, medium, high};
}

variable Job {
   type discrete[4] {management_self_employed_highly_qualified_officer, skilled_employee_official, unemployed_unskilled__non_resident, unskilled__resident};
}

variable Purpose {
   type discrete[10] {business, car_new, car_used, domestic_appliances, education, furniture_equipment, others, radio_television, repairs, retraining};
}

variable PersonalStatusSex {
   type discrete[4] {female_divorced_separated_married, male_divorced_separated, male_married_widowed, male_single};
}

variable CreditHistory {
   type discrete[5] {All_credits_at_this_bank_paid_duly, Critical_account__other_credits_elsewhere, Delay_in_paying_off_in_the_past, Existing_credits_paid_duly_till_now, No_credits_taken__all_paid_duly};
}

variable Capital {
   type discrete[3] {low, medium, high};
}

variable Collateral {
   type discrete[3] {none, some, good};
}

variable Property {
   type discrete[4] {building_society_savings__life_insurance, car_or_other, real_estate, unknown__no_property};
}

variable EmploymentSince {
   type discrete[5] {_1to4_years, _4to7_years, ge7_years, lt1_year, unemployed};
}

variable Terms {
   type discrete[3] {short, medium, long};
}

variable ResidenceSince {
   type discrete[4] {1, 2, 3, 4};
}

variable InstallmentRate {
   type discrete[4] {1, 2, 3, 4};
}

variable OtherInstallmentPlans {
   type discrete[3] {bank, none, stores};
}

variable Housing {
   type discrete[3] {for_free, own, rent};
}

variable CheckingAccount {
   type discrete[4] {_0to200, No_Checking, ge200, lt0};
}

variable Age {
   type discrete[3] {Middle, Old, Young};
}

variable Duration {
   type discrete[3] {Long, Medium, Short};
}

variable LiablePeople {
   type discrete[2] {1, 2};
}

variable SavingsAccount {
   type discrete[5] {_100to500_DM, _500to1000_DM, ge1000_DM, lt100_DM, unknown__no_savings};
}

probability (CreditAmount) {
   table 0.0199402 0.86341 0.11665;
}
probability (ForeignWorker) {
   table 0.0379242 0.962076;
}
probability (OtherDebtors | Age) {
   (Middle) 0.046595 0.0501792 0.903226;
   (Old) 0.0422535 0.056338 0.901408;
   (Young) 0.0424886 0.0561457 0.901366;
}
probability (CreditRisk | Character, Capacity, Capital, Collateral, Terms) {
   (bad, low, low, none, short) 0.363636 0.636364;
   (good, low, low, none, short) 0.209677 0.790323;
   (bad, medium, low, none, short) 0.352941 0.647059;
   (good, medium, low, none, short) 0.217949 0.782051;
   (bad, high, low, none, short) 0.214286 0.785714;
   (good, high, low, none, short) 0.372881 0.627119;
   (bad, low, medium, none, short) 0.222222 0.777778;
   (good, low, medium, none, short) 0.263158 0.736842;
   (bad, medium, medium, none, short) 0.428571 0.571429;
   (good, medium, medium, none, short) 0.333333 0.666667;
   (bad, high, medium, none, short) 0.714286 0.285714;
   (good, high, medium, none, short) 0.4375 0.5625;
   (bad, low, high, none, short) 0.333333 0.666667;
   (good, low, high, none, short) 0.416667 0.583333;
   (bad, medium, high, none, short) 0.5 0.5;
   (good, medium, high, none, short) 0.230769 0.769231;
   (bad, high, high, none, short) 0.5 0.5;
   (good, high, high, none, short) 0.363636 0.636364;
   (bad, low, low, some, short) 0.333333 0.666667;
   (good, low, low, some, short) 0.5 0.5;
   (bad, medium, low, some, short) 0.25 0.75;
   (good, medium, low, some, short) 0.263158 0.736842;
   (bad, high, low, some, short) 0.5 0.5;
   (good, high, low, some, short) 0.272727 0.727273;
   (bad, low, medium, some, short) 0.25 0.75;
   (good, low, medium, some, short) 0.428571 0.571429;
   (bad, medium, medium, some, short) 0.666667 0.333333;
   (good, medium, medium, some, short) 0.125 0.875;
   (bad, high, medium, some, short) 0.333333 0.666667;
   (good, high, medium, some, short) 0.5 0.5;
   (bad, low, high, some, short) 0.5 0.5;
   (good, low, high, some, short) 0.25 0.75;
   (bad, medium, high, some, short) 0.333333 0.666667;
   (good, medium, high, some, short) 0.5 0.5;
   (bad, high, high, some, short) 0.333333 0.666667;
   (good, high, high, some, short) 0.5 0.5;
   (bad, low, low, good, short) 0.25 0.75;
   (good, low, low, good, short) 0.545455 0.454545;
   (bad, medium, low, good, short) 0.6 0.4;
   (good, medium, low, good, short) 0.266667 0.733333;
   (bad, high, low, good, short) 0.428571 0.571429;
   (good, high, low, good, short) 0.272727 0.727273;
   (bad, low, medium, good, short) 0.5 0.5;
   (good, low, medium, good, short) 0.333333 0.666667;
   (bad, medium, medium, good, short) 0.5 0.5;
   (good, medium, medium, good, short) 0.5 0.5;
   (bad, high, medium, good, short) 0.5 0.5;
   (good, high, medium, good, short) 0.4 0.6;
   (bad, low, high, good, short) 0.5 0.5;
   (good, low, high, good, short) 0.5 0.5;
   (bad, medium, high, good, short) 0.5 0.5;
   (good, medium, high, good, short) 0.4 0.6;
   (bad, high, high, good, short) 0.5 0.5;
   (good, high, high, good, short) 0.333333 0.666667;
   (bad, low, low, none, medium) 0.285714 0.714286;
   (good, low, low, none, medium) 0.282609 0.717391;
   (bad, medium, low, none, medium) 0.32 0.68;
   (good, medium, low, none, medium) 0.358491 0.641509;
   (bad, high, low, none, medium) 0.285714 0.714286;
   (good, high, low, none, medium) 0.444444 0.555556;
   (bad, low, medium, none, medium) 0.4 0.6;
   (good, low, medium, none, medium) 0.555556 0.444444;
   (bad, medium, medium, none, medium) 0.166667 0.833333;
   (good, medium, medium, none, medium) 0.444444 0.555556;
   (bad, high, medium, none, medium) 0.25 0.75;
   (good, high, medium, none, medium) 0.285714 0.714286;
   (bad, low, high, none, medium) 0.5 0.5;
   (good, low, high, none, medium) 0.333333 0.666667;
   (bad, medium, high, none, medium) 0.375 0.625;
   (good, medium, high, none, medium) 0.181818 0.818182;
   (bad, high, high, none, medium) 0.5 0.5;
   (good, high, high, none, medium) 0.166667 0.833333;
   (bad, low, low, some, medium) 0.25 0.75;
   (good, low, low, some, medium) 0.333333 0.666667;
   (bad, medium, low, some, medium) 0.4 0.6;
   (good, medium, low, some, medium) 0.470588 0.529412;
   (bad, high, low, some, medium) 0.333333 0.666667;
   (good, high, low, some, medium) 0.461538 0.538462;
   (bad, low, medium, some, medium) 0.333333 0.666667;
   (good, low, medium, some, medium) 0.428571 0.571429;
   (bad, medium, medium, some, medium) 0.2 0.8;
   (good, medium, medium, some, medium) 0.166667 0.833333;
   (bad, high, medium, some, medium) 0.333333 0.666667;
   (good, high, medium, some, medium) 0.666667 0.333333;
   (bad, low, high, some, medium) 0.5 0.5;
   (good, low, high, some, medium) 0.25 0.75;
   (bad, medium, high, some, medium) 0.333333 0.666667;
   (good, medium, high, some, medium) 0.25 0.75;
   (bad, high, high, some, medium) 0.5 0.5;
   (good, high, high, some, medium) 0.333333 0.666667;
   (bad, low, low, good, medium) 0.5 0.5;
   (good, low, low, good, medium) 0.8 0.2;
   (bad, medium, low, good, medium) 0.333333 0.666667;
   (good, medium, low, good, medium) 0.333333 0.666667;
   (bad, high, low, good, medium) 0.75 0.25;
   (good, high, low, good, medium) 0.375 0.625;
   (bad, low, medium, good, medium) 0.666667 0.333333;
   (good, low, medium, good, medium) 0.285714 0.714286;
   (bad, medium, medium, good, medium) 0.5 0.5;
   (good, medium, medium, good, medium) 0.333333 0.666667;
   (bad, high, medium, good, medium) 0.5 0.5;
   (good, high, medium, good, medium) 0.333333 0.666667;
   (bad, low, high, good, medium) 0.333333 0.666667;
   (good, low, high, good, medium) 0.5 0.5;
   (bad, medium, high, good, medium) 0.5 0.5;
   (good, medium, high, good, medium) 0.666667 0.333333;
   (bad, high, high, good, medium) 0.5 0.5;
   (good, high, high, good, medium) 0.5 0.5;
   (bad, low, low, none, long) 0.454545 0.545455;
   (good, low, low, none, long) 0.21875 0.78125;
   (bad, medium, low, none, long) 0.3 0.7;
   (good, medium, low, none, long) 0.333333 0.666667;
   (bad, high, low, none, long) 0.285714 0.714286;
   (good, high, low, none, long) 0.25 0.75;
   (bad, low, medium, none, long) 0.4 0.6;
   (good, low, medium, none, long) 0.285714 0.714286;
   (bad, medium, medium, none, long) 0.25 0.75;
   (good, medium, medium, none, long) 0.307692 0.692308;
   (bad, high, medium, none, long) 0.333333 0.666667;
   (good, high, medium, none, long) 0.272727 0.727273;
   (bad, low, high, none, long) 0.5 0.5;
   (good, low, high, none, long) 0.166667 0.833333;
   (bad, medium, high, none, long) 0.333333 0.666667;
   (good, medium, high, none, long) 0.25 0.75;
   (bad, high, high, none, long) 0.5 0.5;
   (good, high, high, none, long) 0.333333 0.666667;
   (bad, low, low, some, long) 0.25 0.75;
   (good, low, low, some, long) 0.571429 0.428571;
   (bad, medium, low, some, long) 0.666667 0.333333;
   (good, medium, low, some, long) 0.333333 0.666667;
   (bad, high, low, some, long) 0.666667 0.333333;
   (good, high, low, some, long) 0.666667 0.333333;
   (bad, low, medium, some, long) 0.5 0.5;
   (good, low, medium, some, long) 0.25 0.75;
   (bad, medium, medium, some, long) 0.5 0.5;
   (good, medium, medium, some, long) 0.333333 0.666667;
   (bad, high, medium, some, long) 0.5 0.5;
   (good, high, medium, some, long) 0.222222 0.777778;
   (bad, low, high, some, long) 0.5 0.5;
   (good, low, high, some, long) 0.333333 0.666667;
   (bad, medium, high, some, long) 0.5 0.5;
   (good, medium, high, some, long) 0.5 0.5;
   (bad, high, high, some, long) 0.5 0.5;
   (good, high, high, some, long) 0.5 0.5;
   (bad, low, low, good, long) 0.333333 0.666667;
   (good, low, low, good, long) 0.5 0.5;
   (bad, medium, low, good, long) 0.25 0.75;
   (good, medium, low, good, long) 0.5 0.5;
   (bad, high, low, good, long) 0.333333 0.666667;
   (good, high, low, good, long) 0.666667 0.333333;
   (bad, low, medium, good, long) 0.5 0.5;
   (good, low, medium, good, long) 0.333333 0.666667;
   (bad, medium, medium, good, long) 0.666667 0.333333;
   (good, medium, medium, good, long) 0.333333 0.666667;
   (bad, high, medium, good, long) 0.5 0.5;
   (good, high, medium, good, long) 0.5 0.5;
   (bad, low, high, good, long) 0.5 0.5;
   (good, low, high, good, long) 0.5 0.5;
   (bad, medium, high, good, long) 0.5 0.5;
   (good, medium, high, good, long) 0.5 0.5;
   (bad, high, high, good, long) 0.5 0.5;
   (good, high, high, good, long) 0.5 0.5;
}
probability (Capacity | Income, ExistingCredits, OtherDebtors, LiablePeople) {
   (low, 1, co_applicant, 1) 0.5 0.166667 0.333333;
   (medium, 1, co_applicant, 1) 0.285714 0.428571 0.285714;
   (high, 1, co_applicant, 1) 0.444444 0.166667 0.388889;
   (low, 2, co_applicant, 1) 0.6 0.2 0.2;
   (medium, 2, co_applicant, 1) 0.125 0.375 0.5;
   (high, 2, co_applicant, 1) 0.181818 0.454545 0.363636;
   (low, 3, co_applicant, 1) 0.333333 0.333333 0.333333;
   (medium, 3, co_applicant, 1) 0.333333 0.333333 0.333333;
   (high, 3, co_applicant, 1) 0.333333 0.333333 0.333333;
   (low, 4, co_applicant, 1) 0.333333 0.333333 0.333333;
   (medium, 4, co_applicant, 1) 0.333333 0.333333 0.333333;
   (high, 4, co_applicant, 1) 0.333333 0.333333 0.333333;
   (low, 1, guarantor, 1) 0.25 0.5 0.25;
   (medium, 1, guarantor, 1) 0.4 0.4 0.2;
   (high, 1, guarantor, 1) 0.333333 0.285714 0.380952;
   (low, 2, guarantor, 1) 0.5 0.25 0.25;
   (medium, 2, guarantor, 1) 0.166667 0.666667 0.166667;
   (high, 2, guarantor, 1) 0.461538 0.461538 0.0769231;
   (low, 3, guarantor, 1) 0.333333 0.333333 0.333333;
   (medium, 3, guarantor, 1) 0.333333 0.333333 0.333333;
   (high, 3, guarantor, 1) 0.25 0.5 0.25;
   (low, 4, guarantor, 1) 0.333333 0.333333 0.333333;
   (medium, 4, guarantor, 1) 0.333333 0.333333 0.333333;
   (high, 4, guarantor, 1) 0.333333 0.333333 0.333333;
   (low, 1, none, 1) 0.366667 0.283333 0.35;
   (medium, 1, none, 1) 0.333333 0.375 0.291667;
   (high, 1, none, 1) 0.282686 0.44523 0.272085;
   (low, 2, none, 1) 0.34375 0.34375 0.3125;
   (medium, 2, none, 1) 0.246377 0.376812 0.376812;
   (high, 2, none, 1) 0.355263 0.401316 0.243421;
   (low, 3, none, 1) 0.4 0.4 0.2;
   (medium, 3, none, 1) 0.25 0.625 0.125;
   (high, 3, none, 1) 0.461538 0.384615 0.153846;
   (low, 4, none, 1) 0.333333 0.333333 0.333333;
   (medium, 4, none, 1) 0.2 0.2 0.6;
   (high, 4, none, 1) 0.4 0.2 0.4;
   (low, 1, co_applicant, 2) 0.5 0.25 0.25;
   (medium, 1, co_applicant, 2) 0.25 0.25 0.5;
   (high, 1, co_applicant, 2) 0.5 0.25 0.25;
   (low, 2, co_applicant, 2) 0.333333 0.333333 0.333333;
   (medium, 2, co_applicant, 2) 0.333333 0.333333 0.333333;
   (high, 2, co_applicant, 2) 0.5 0.25 0.25;
   (low, 3, co_applicant, 2) 0.333333 0.333333 0.333333;
   (medium, 3, co_applicant, 2) 0.333333 0.333333 0.333333;
   (high, 3, co_applicant, 2) 0.333333 0.333333 0.333333;
   (low, 4, co_applicant, 2) 0.333333 0.333333 0.333333;
   (medium, 4, co_applicant, 2) 0.333333 0.333333 0.333333;
   (high, 4, co_applicant, 2) 0.333333 0.333333 0.333333;
   (low, 1, guarantor, 2) 0.333333 0.333333 0.333333;
   (medium, 1, guarantor, 2) 0.4 0.2 0.4;
   (high, 1, guarantor, 2) 0.3 0.5 0.2;
   (low, 2, guarantor, 2) 0.333333 0.333333 0.333333;
   (medium, 2, guarantor, 2) 0.333333 0.333333 0.333333;
   (high, 2, guarantor, 2) 0.4 0.4 0.2;
   (low, 3, guarantor, 2) 0.333333 0.333333 0.333333;
   (medium, 3, guarantor, 2) 0.333333 0.333333 0.333333;
   (high, 3, guarantor, 2) 0.333333 0.333333 0.333333;
   (low, 4, guarantor, 2) 0.333333 0.333333 0.333333;
   (medium, 4, guarantor, 2) 0.333333 0.333333 0.333333;
   (high, 4, guarantor, 2) 0.333333 0.333333 0.333333;
   (low, 1, none, 2) 0.25 0.5 0.25;
   (medium, 1, none, 2) 0.285714 0.321429 0.392857;
   (high, 1, none, 2) 0.295455 0.363636 0.340909;
   (low, 2, none, 2) 0.142857 0.428571 0.428571;
   (medium, 2, none, 2) 0.304348 0.347826 0.347826;
   (high, 2, none, 2) 0.333333 0.388889 0.277778;
   (low, 3, none, 2) 0.25 0.5 0.25;
   (medium, 3, none, 2) 0.428571 0.285714 0.285714;
   (high, 3, none, 2) 0.5 0.375 0.125;
   (low, 4, none, 2) 0.333333 0.333333 0.333333;
   (medium, 4, none, 2) 0.25 0.5 0.25;
   (high, 4, none, 2) 0.25 0.25 0.5;
}
probability (ExistingCredits) {
   table 0.631474 0.332669 0.0288845 0.00697211;
}
probability (Character | CreditHistory, EmploymentSince, ResidenceSince, OtherInstallmentPlans, Purpose) {
   (All_credits_at_this_bank_paid_duly, _1to4_years, 1, bank, business) 0.5 0.5;
   (Critical_account__other_credits_elsewhere, _1to4_years, 1, bank, business) 0.5 0.5;
   (Delay_in_paying_off_in_the_past, _1to4_years, 1, bank, business) 0.5 0.5;
   (Existing_credits_paid_duly_till_now, _1to4_years, 1, bank, business) 0.666667 0.333333;
   (No_credits_taken__all_paid_duly, _1to4_years, 1, bank, business) 0.5 0.5;
   (All_credits_at_this_bank_paid_duly, _4to7_years, 1, bank, business) 0.5 0.5;
   (Critical_account__other_credits_elsewhere, _4to7_years, 1, bank, business) 0.333333 0.666667;
   (Delay_in_paying_off_in_the_past, _4to7_years, 1, bank, business) 0.5 0.5;
   (Existing_credits_paid_duly_till_now, _4to7_years, 1, bank, business) 0.5 0.5;
   (No_credits_taken__all_paid_duly, _4to7_years, 1, bank, business) 0.333333 0.666667;
   (All_credits_at_this_bank_paid_duly, ge7_years, 1, bank, business) 0.5 0.5;
   (Critical_account__other_credits_elsewhere, ge7_years, 1, bank, business) 0.5 0.5;
   (Delay_in_paying_off_in_the_past, ge7_years, 1, bank, business) 0.5 0.5;
   (Existing_credits_paid_duly_till_now, ge7_years, 1, bank, business) 0.333333 0.666667;
   (No_credits_taken__all_paid_duly, ge7_years, 1, bank, business) 0.5 0.5;
   (All_credits_at_this_bank_paid_duly, lt1_year, 1, bank, business) 0.5 0.5;
   (Critical_account__other_credits_elsewhere, lt1_year, 1, bank, business) 0.333333 0.666667;
   (Delay_in_paying_off_in_the_past, lt1_year, 1, bank, business) 0.5 0.5;
   (Existing_credits_paid_duly_till_now, lt1_year, 1, bank, business) 0.5 0.5;
   (No_credits_taken__all_paid_duly, lt1_year, 1, bank, business) 0.5 0.5;
   (All_credits_at_this_bank_paid_duly, unemployed, 1, bank, business) 0.5 0.5;
   (Critical_account__other_credits_elsewhere, unemployed, 1, bank, business) 0.5 0.5;
   (Delay_in_paying_off_in_the_past, unemployed, 1, bank, business) 0.5 0.5;
   (Existing_credits_paid_duly_till_now, unemployed, 1, bank, business) 0.5 0.5;
   (No_credits_taken__all_paid_duly, unemployed, 1, bank, business) 0.5 0.5;
   (All_credits_at_this_bank_paid_duly, _1to4_years, 2, bank, business) 0.5 0.5;
   (Critical_account__other_credits_elsewhere, _1to4_years, 2, bank, business) 0.5 0.5;
   (Delay_in_paying_off_in_the_past, _1to4_years, 2, bank, business) 0.333333 0.666667;
   (Existing_credits_paid_duly_till_now, _1to4_years, 2, bank, business) 0.333333 0.666667;
   (No_credits_taken__all_paid_duly, _1to4_years, 2, bank, business) 0.666667 0.333333;
   (All_credits_at_this_bank_paid_duly, _4to7_years, 2, bank, business) 0.5 0.5;
   (Critical_account__other_credits_elsewhere, _4to7_years, 2, bank, business) 0.5 0.5;
   (Delay_in_paying_off_in_the_past, _4to7_years, 2, bank, business) 0.5 0.5;
   (Existing_credits_paid_duly_till_now, _4to7_years, 2, bank, business) 0.5 0.5;
   (No_credits_taken__all_paid_duly, _4to7_years, 2, bank, business) 0.5 0.5;
   (All_credits_at_this_bank_paid_duly, ge7_years, 2, bank, business) 0.5 0.5;
   (Critical_account__other_credits_elsewhere, ge7_years, 2, bank, business) 0.666667 0.333333;
   (Delay_in_paying_off_in_the_past, ge7_years, 2, bank, business) 0.666667 0.333333;
   (Existing_credits_paid_duly_till_now, ge7_years, 2, bank, business) 0.666667 0.333333;
   (No_credits_taken__all_paid_duly, ge7_years, 2, bank, business) 0.5 0.5;
   (All_credits_at_this_bank_paid_duly, lt1_year, 2, bank, business) 0.5 0.5;
   (Critical_account__other_credits_elsewhere, lt1_year, 2, bank, business) 0.5 0.5;
   (Delay_in_paying_off_in_the_past, lt1_year, 2, bank, business) 0.25 0.75;
   (Existing_credits_paid_duly_till_now, lt1_year, 2, bank, business) 0.5 0.5;
   (No_credits_taken__all_paid_duly, lt1_year, 2, bank, business) 0.5 0.5;
   (All_credits_at_this_bank_paid_duly, unemployed, 2, bank, business) 0.5 0.5;
   (Critical_account__other_credits_elsewhere, unemployed, 2, bank, business) 0.5 0.5;
   (Delay_in_paying_off_in_the_past, unemployed, 2, bank, business) 0.5 0.5;
   (Existing_credits_paid_duly_till_now, unemployed, 2, bank, business) 0.333333 0.666667;
   (No_credits_taken__all_paid_duly, unemployed, 2, bank, business) 0.5 0.5;
   (All_credits_at_this_bank_paid_duly, _1to4_years, 3, bank, business) 0.5 0.5;
   (Critical_account__other_credits_elsewhere, _1to4_years, 3, bank, business) 0.5 0.5;
   (Delay_in_paying_off_in_the_past, _1to4_years, 3, bank, business) 0.5 0.5;
   (Existing_credits_paid_duly_till_now, _1to4_years, 3, bank, business) 0.5 0.5;
   (No_credits_taken__all_paid_duly, _1to4_years, 3, bank, business) 0.5 0.5;
   (All_credits_at_this_bank_paid_duly, _4to7_years, 3, bank, business) 0.5 0.5;
   (Critical_account__other_credits_elsewhere, _4to7_years, 3, bank, business) 0.5 0.5;
   (Delay_in_paying_off_in_the_past, _4to7_years, 3, bank, business) 0.5 0.5;
   (Existing_credits_paid_duly_till_now, _4to7_years, 3, bank, business) 0.5 0.5;
   (No_credits_taken__all_paid_duly, _4to7_years, 3, bank, business) 0.5 0.5;
   (All_credits_at_this_bank_paid_duly, ge7_years, 3, bank, business) 0.5 0.5;
   (Critical_account__other_credits_elsewhere, ge7_years, 3, bank, business) 0.5 0.5;
   (Delay_in_paying_off_in_the_past, ge7_years, 3, bank, business) 0.5 0.5;
   (Existing_credits_paid_duly_till_now, ge7_years, 3, bank, business) 0.5 0.5;
   (No_credits_taken__all_paid_duly, ge7_years, 3, bank, business) 0.5 0.5;
   (All_credits_at_this_bank_paid_duly, lt1_year, 3, bank, business) 0.5 0.5;
   (Critical_account__other_credits_elsewhere, lt1_year, 3, bank, business) 0.5 0.5;
   (Delay_in_paying_off_in_the_past, lt1_year, 3, bank, business) 0.5 0.5;
   (Existing_credits_paid_duly_till_now, lt1_year, 3, bank, business) 0.666667 0.333333;
   (No_credits_taken__all_paid_duly, lt1_year, 3, bank, business) 0.333333 0.666667;
   (All_credits_at_this_bank_paid_duly, unemployed, 3, bank, business) 0.5 0.5;
   (Critical_account__other_credits_elsewhere, unemployed, 3, bank, business) 0.5 0.5;
   (Delay_in_paying_off_in_the_past, unemployed, 3, bank, business) 0.5 0.5;
   (Existing_credits_paid_duly_till_now, unemployed, 3, bank, business) 0.5 0.5;
   (No_credits_taken__all_paid_duly, unemployed, 3, bank, business) 0.5 0.5;
   (All_credits_at_this_bank_paid_duly, _1to4_years, 4, bank, business) 0.5 0.5;
   (Critical_account__other_credits_elsewhere, _1to4_years, 4, bank, business) 0.5 0.5;
   (Delay_in_paying_off_in_the_past, _1to4_years, 4, bank, business) 0.5 0.5;
   (Existing_credits_paid_duly_till_now, _1to4_years, 4, bank, business) 0.5 0.5;
   (No_credits_taken__all_paid_duly, _1to4_years, 4, bank, business) 0.5 0.5;
   (All_credits_at_this_bank_paid_duly, _4to7_years, 4, bank, business) 0.333333 0.666667;
   (Critical_account__other_credits_elsewhere, _4to7_years, 4, bank, business) 0.5 0.5;
   (Delay_in_paying_off_in_the_past, _4to7_years, 4, bank, business) 0.5 0.5;
   (Existing_credits_paid_duly_till_now, _4to7_years, 4, bank, business) 0.5 0.5;
   (No_credits_taken__all_paid_duly, _4to7_years, 4, bank, business) 0.5 0.5;
   (All_credits_at_this_bank_paid_duly, ge7_years, 4, bank, business) 0.5 0.5;
   (Critical_account__other_credits_elsewhere, ge7_years, 4, bank, business) 0.5 0.5;
   (Delay_in_paying_off_in_the_past, ge7_years, 4, bank, business) 0.5 0.5;
   (Existing_credits_paid_duly_till_now, ge7_years, 4, bank, business) 0.333333 0.666667;
   (No_credits_taken__all_paid_duly, ge7_years, 4, bank, business) 0.5 0.5;
   (All_credits_at_this_bank_paid_duly, lt1_year, 4, bank, business) 0.5 0.5;
   (Critical_account__other_credits_elsewhere, lt1_year, 4, bank, business) 0.5 0.5;
   (Delay_in_paying_off_in_the_past, lt1_year, 4, bank, business) 0.5 0.5;
   (Existing_credits_paid_duly_till_now, lt1_year, 4, bank, business) 0.5 0.5;
   (No_credits_taken__all_paid_duly, lt1_year, 4, bank, business) 0.5 0.5;
   (All_credits_at_this_bank_paid_duly, unemployed, 4, bank, business) 0.5 0.5;
   (Critical_account__other_credits_elsewhere, unemployed, 4, bank, business) 0.5 0.5;
   (Delay_in_paying_off_in_the_past, unemployed, 4, bank, business) 0.5 0.5;
   (Existing_credits_paid_duly_till_now, unemployed, 4, bank, business) 0.5 0.5;
   (No_credits_taken__all_paid_duly, unemployed, 4, bank, business) 0.5 0.5;
   (All_credits_at_this_bank_paid_duly, _1to4_years, 1, none, business) 0.5 0.5;
   (Critical_account__other_credits_elsewhere, _1to4_years, 1, none, business) 0.5 0.5;
   (Delay_in_paying_off_in_the_past, _1to4_years, 1, none, business) 0.5 0.5;
   (Existing_credits_paid_duly_till_now, _1to4_years, 1, none, business) 0.5 0.5;
   (No_credits_taken__all_paid_duly, _1to4_years, 1, none, business) 0.666667 0.333333;
   (All_credits_at_this_bank_paid_duly, _4to7_years, 1, none, business) 0.5 0.5;
   (Critical_account__other_credits_elsewhere, _4to7_years, 1, none, business) 0.333333 0.666667;
   (Delay_in_paying_off_in_the_past, _4to7_years, 1, none, business) 0.333333 0.666667;
   (Existing_credits_paid_duly_till_now, _4to7_years, 1, none, business) 0.333333 0.666667;
   (No_credits_taken__all_paid_duly, _4to7_years, 1, none, business) 0.5 0.5;
   (All_credits_at_this_bank_paid_duly, ge7_years, 1, none, business) 0.5 0.5;
   (Critical_account__other_credits_elsewhere, ge7_years, 1, none, business) 0.5 0.5;
   (Delay_in_paying_off_in_the_past, ge7_years, 1, none, business) 0.5 0.5;
   (Existing_credits_paid_duly_till_now, ge7_years, 1, none, business) 0.5 0.5;
   (No_credits_taken__all_paid_duly, ge7_years, 1, none, business) 0.5 0.5;
   (All_credits_at_this_bank_paid_duly, lt1_year, 1, none, business) 0.666667 0.333333;
   (Critical_account__other_credits_elsewhere, lt1_year, 1, none, business) 0.5 0.5;
   (Delay_in_paying_off_in_the_past, lt1_year, 1, none, business) 0.333333 0.666667;
   (Existing_credits_paid_duly_till_now, lt1_year, 1, none, business) 0.333333 0.666667;
   (No_credits_taken__all_paid_duly, lt1_year, 1, none, business) 0.666667 0.333333;
   (All_credits_at_this_bank_paid_duly, unemployed, 1, none, business) 0.5 0.5;
   (Critical_account__other_credits_elsewhere, unemployed, 1, none, business) 0.5 0.5;
   (Delay_in_paying_off_in_the_past, unemployed, 1, none, business) 0.5 0.5;
   (Existing_credits_paid_duly_till_now, unemployed, 1, none, business) 0.5 0.5;
   (No_credits_taken__all_paid_duly, unemployed, 1, none, business) 0.5 0.5;
   (All_credits_at_this_bank_paid_duly, _1to4_years, 2, none, business) 0.333333 0.666667;
   (Critical_account__other_credits_elsewhere, _1to4_years, 2, none, business) 0.4 0.6;
   (Delay_in_paying_off_in_the_past, _1to4_years, 2, none, business) 0.25 0.75;
   (Existing_credits_paid_duly_till_now, _1to4_years, 2, none, business) 0.166667 0.833333;
   (No_credits_taken__all_paid_duly, _1to4_years, 2, none, business) 0.333333 0.666667;
   (All_credits_at_this_bank_paid_duly, _4to7_years, 2, none, business) 0.333333 0.666667;
   (Critical_account__other_credits_elsewhere, _4to7_years, 2, none, business) 0.5 0.5;
   (Delay_in_paying_off_in_the_past, _4to7_years, 2, none, business) 0.5 0.5;
   (Existing_credits_paid_duly_till_now, _4to7_years, 2, none, business) 0.25 0.75;
   (No_credits_taken__all_paid_duly, _4to7_years, 2, none, business) 0.5 0.5;
   (All_credits_at_this_bank_paid_duly, ge7_years, 2, none, business) 0.5 0.5;
   (Critical_account__other_credits_elsewhere, ge7_years, 2, none, business) 0.5 0.5;
   (Delay_in_paying_off_in_the_past, ge7_years, 2, none, business) 0.666667 0.333333;
   (Existing_credits_paid_duly_till_now, ge7_years, 2, none, business) 0.2 0.8;
   (No_credits_taken__all_paid_duly, ge7_years, 2, none, business) 0.5 0.5;
   (All_credits_at_this_bank_paid_duly, lt1_year, 2, none, business) 0.5 0.5;
   (Critical_account__other_credits_elsewhere, lt1_year, 2, none, business) 0.5 0.5;
   (Delay_in_paying_off_in_the_past, lt1_year, 2, none, business) 0.5 0.5;
   (Existing_credits_paid_duly_till_now, lt1_year, 2, none, business) 0.333333 0.666667;
   (No_credits_taken__all_paid_duly, lt1_year, 2, none, business) 0.5 0.5;
   (All_credits_at_this_bank_paid_duly, unemployed, 2, none, business) 0.5 0.5;
   (Critical_account__other_credits_elsewhere, unemployed, 2, none, business) 0.5 0.5;
   (Delay_in_paying_off_in_the_past, unemployed, 2, none, business) 0.5 0.5;
   (Existing_credits_paid_duly_till_now, unemployed, 2, none, business) 0.5 0.5;
   (No_credits_taken__all_paid_duly, unemployed, 2, none, business) 0.5 0.5;
   (All_credits_at_this_bank_paid_duly, _1to4_years, 3, none, business) 0.5 0.5;
   (Critical_account__other_credits_elsewhere, _1to4_years, 3, none, business) 0.333333 0.666667;
   (Delay_in_paying_off_in_the_past, _1to4_years, 3, none, business) 0.5 0.5;
   (Existing_credits_paid_duly_till_now, _1to4_years, 3, none, business) 0.333333 0.666667;
   (No_credits_taken__all_paid_duly, _1to4_years, 3, none, business) 0.5 0.5;
   (All_credits_at_this_bank_paid_duly, _4to7_years, 3, none, business) 0.5 0.5;
   (Critical_account__other_credits_elsewhere, _4to7_years, 3, none, business) 0.25 0.75;
   (Delay_in_paying_off_in_the_past, _4to7_years, 3, none, business) 0.333333 0.666667;
   (Existing_credits_paid_duly_till_now, _4to7_years, 3, none, business) 0.5 0.5;
   (No_credits_taken__all_paid_duly, _4to7_years, 3, none, business) 0.5 0.5;
   (All_credits_at_this_bank_paid_duly, ge7_years, 3, none, business) 0.333333 0.666667;
   (Critical_account__other_credits_elsewhere, ge7_years, 3, none, business) 0.5 0.5;
   (Delay_in_paying_off_in_the_past, ge7_years, 3, none, business) 0.5 0.5;
   (Existing_credits_paid_duly_till_now, ge7_years, 3, none, business) 0.5 0.5;
   (No_credits_taken__all_paid_duly, ge7_years, 3, none, business) 0.5 0.5;
   (All_credits_at_this_bank_paid_duly, lt1_year, 3, none, business) 0.5 0.5;
   (Critical_account__other_credits_elsewhere, lt1_year, 3, none, business) 0.5 0.5;
   (Delay_in_paying_off_in_the_past, lt1_year, 3, none, business) 0.5 0.5;
   (Existing_credits_paid_duly_till_now, lt1_year, 3, none, business) 0.5 0.5;
   (No_credits_taken__all_paid_duly, lt1_year, 3, none, business) 0.5 0.5;
   (All_credits_at_this_bank_paid_duly, unemployed, 3, none, business) 0.5 0.5;
   (Critical_account__other_credits_elsewhere, unemployed, 3, none, business) 0.333333 0.666667;
   (Delay_in_paying_off_in_the_past, unemployed, 3, none, business) 0.5 0.5;
   (Existing_credits_paid_duly_till_now, unemployed, 3, none, business) 0.5 0.5;
   (No_credits_taken__all_paid_duly, unemployed, 3, none, business) 0.5 0.5;
   (All_credits_at_this_bank_paid_duly, _1to4_years, 4, none, business) 0.5 0.5;
   (Critical_account__other_credits_elsewhere, _1to4_years, 4, none, business) 0.333333 0.666667;
   (Delay_in_paying_off_in_the_past, _1to4_years, 4, none, business) 0.5 0.5;
   (Existing_credits_paid_duly_till_now, _1to4_years, 4, none, business) 0.2 0.8;
   (No_credits_taken__all_paid_duly, _1to4_years, 4, none, business) 0.5 0.5;
   (All_credits_at_this_bank_paid_duly, _4to7_years, 4, none, business) 0.333333 0.666667;
   (Critical_account__other_credits_elsewhere, _4to7_years, 4, none, business) 0.5 0.5;
   (Delay_in_paying_off_in_the_past, _4to7_years, 4, none, business) 0.5 0.5;
   (Existing_credits_paid_duly_till_now, _4to7_years, 4, none, business) 0.428571 0.571429;
   (No_credits_taken__all_paid_duly, _4to7_years, 4, none, business) 0.333333 0.666667;
   (All_credits_at_this_bank_paid_duly, ge7_years, 4, none, business) 0.5 0.5;
   (Critical_account__other_credits_elsewhere, ge7_years, 4, none, business) 0.2 0.8;
   (Delay_in_paying_off_in_the_past, ge7_years, 4, none, business) 0.25 0.75;
   (Existing_credits_paid_duly_till_now, ge7_years, 4, none, business) 0.25 0.75;
   (No_credits_taken__all_paid_duly, ge7_years, 4, none, business) 0.6 0.4;
   (All_credits_at_this_bank_paid_duly, lt1_year, 4, none, business) 0.5 0.5;
   (Critical_account__other_credits_elsewhere, lt1_year, 4, none, business) 0.5 0.5;
   (Delay_in_paying_off_in_the_past, lt1_year, 4, none, business) 0.333333 0.666667;
   (Existing_credits_paid_duly_till_now, lt1_year, 4, none, business) 0.666667 0.333333;
   (No_credits_taken__all_paid_duly, lt1_year, 4, none, business) 0.333333 0.666667;
   (All_credits_at_this_bank_paid_duly, unemployed, 4, none, business) 0.5 0.5;
   (Critical_account__other_credits_elsewhere, unemployed, 4, none, business) 0.5 0.5;
   (Delay_in_paying_off_in_the_past, unemployed, 4, none, business) 0.5 0.5;
   (Existing_credits_paid_duly_till_now, unemployed, 4, none, business) 0.5 0.5;
   (No_credits_taken__all_paid_duly, unemployed, 4, none, business) 0.5 0.5;
   (All_credits_at_this_bank_paid_duly, _1to4_years, 1, stores, business) 0.333333 0.666667;
   (Critical_account__other_credits_elsewhere, _1to4_years, 1, stores, business) 0.5 0.5;
   (Delay_in_paying_off_in_the_past, _1to4_years, 1, stores, business) 0.5 0.5;
   (Existing_credits_paid_duly_till_now, _1to4_years, 1, stores, business) 0.5 0.5;
   (No_credits_taken__all_paid_duly, _1to4_years, 1, stores, business) 0.5 0.5;
   (All_credits_at_this_bank_paid_duly, _4to7_years, 1, stores, business) 0.5 0.5;
   (Critical_account__other_credits_elsewhere, _4to7_years, 1, stores, business) 0.5 0.5;
   (Delay_in_paying_off_in_the_past, _4to7_years, 1, stores, business) 0.5 0.5;
   (Existing_credits_paid_duly_till_now, _4to7_years, 1, stores, business) 0.333333 0.666667;
   (No_credits_taken__all_paid_duly, _4to7_years, 1, stores, business) 0.5 0.5;
   (All_credits_at_this_bank_paid_duly, ge7_years, 1, stores, business) 0.5 0.5;
   (Critical_account__other_credits_elsewhere, ge7_years, 1, stores, business) 0.5 0.5;
   (Delay_in_paying_off_in_the_past, ge7_years, 1, stores, business) 0.5 0.5;
   (Existing_credits_paid_duly_till_now, ge7_years, 1, stores, business) 0.5 0.5;
   (No_credits_taken__all_paid_duly, ge7_years, 1, stores, business) 0.5 0.5;
   (All_credits_at_this_bank_paid_duly, lt1_year, 1, stores, business) 0.5 0.5;
   (Critical_account__other_credits_elsewhere, lt1_year, 1, stores, business) 0.5 0.5;
   (Delay_in_paying_off_in_the_past, lt1_year, 1, stores, business) 0.5 0.5;
   (Existing_credits_paid_duly_till_now, lt1_year, 1, stores, business) 0.5 0.5;
   (No_credits_taken__all_paid_duly, lt1_year, 1, stores, business) 0.5 0.5;
   (All_credits_at_this_bank_paid_duly, unemployed, 1, stores, business) 0.5 0.5;
   (Critical_account__other_credits_elsewhere, unemployed, 1, stores, business) 0.5 0.5;
   (Delay_in_paying_off_in_the_past, unemployed, 1, stores, business) 0.5 0.5;
   (Existing_credits_paid_duly_till_now, unemployed, 1, stores, business) 0.5 0.5;
   (No_credits_taken__all_paid_duly, unemployed, 1, stores, business) 0.5 0.5;
   (All_credits_at_this_bank_paid_duly, _1to4_years, 2, stores, business) 0.5 0.5;
   (Critical_account__other_credits_elsewhere, _1to4_years, 2, stores, business) 0.5 0.5;
   (Delay_in_paying_off_in_the_past, _1to4_years, 2, stores, business) 0.666667 0.333333;
   (Existing_credits_paid_duly_till_now, _1to4_years, 2, stores, business) 0.333333 0.666667;
   (No_credits_taken__all_paid_duly, _1to4_years, 2, stores, business) 0.666667 0.333333;
   (All_credits_at_this_bank_paid_duly, _4to7_years, 2, stores, business) 0.5 0.5;
   (Critical_account__other_credits_elsewhere, _4to7_years, 2, stores, business) 0.5 0.5;
   (Delay_in_paying_off_in_the_past, _4to7_years, 2, stores, business) 0.5 0.5;
   (Existing_credits_paid_duly_till_now, _4to7_years, 2, stores, business) 0.5 0.5;
   (No_credits_taken__all_paid_duly, _4to7_years, 2, stores, business) 0.5 0.5;
   (All_credits_at_this_bank_paid_duly, ge7_years, 2, stores, business) 0.5 0.5;
   (Critical_account__other_credits_elsewhere, ge7_years, 2, stores, business) 0.5 0.5;
   (Delay_in_paying_off_in_the_past, ge7_years, 2, stores, business) 0.666667 0.333333;
   (Existing_credits_paid_duly_till_now, ge7_years, 2, stores, business) 0.5 0.5;
   (No_credits_taken__all_paid_duly, ge7_years, 2, stores, business) 0.5 0.5;
   (All_credits_at_this_bank_paid_duly, lt1_year, 2, stores, business) 0.5 0.5;
   (Critical_account__other_credits_elsewhere, lt1_year, 2, stores, business) 0.5 0.5;
   (Delay_in_paying_off_in_the_past, lt1_year, 2, stores, business) 0.5 0.5;
   (Existing_credits_paid_duly_till_now, lt1_year, 2, stores, business) 0.5 0.5;
   (No_credits_taken__all_paid_duly, lt1_year, 2, stores, business) 0.5 0.5;
   (All_credits_at_this_bank_paid_duly, unemployed, 2, stores, business) 0.5 0.5;
   (Critical_account__other_credits_elsewhere, unemployed, 2, stores, business) 0.333333 0.666667;
   (Delay_in_paying_off_in_the_past, unemployed, 2, stores, business) 0.5 0.5;
   (Existing_credits_paid_duly_till_now, unemployed, 2, stores, business) 0.5 0.5;
   (No_credits_taken__all_paid_duly, unemployed, 2, stores, business) 0.5 0.5;
   (All_credits_at_this_bank_paid_duly, _1to4_years, 3, stores, business) 0.5 0.5;
   (Critical_account__other_credits_elsewhere, _1to4_years, 3, stores, business) 0.5 0.5;
   (Delay_in_paying_off_in_the_past, _1to4_years, 3, stores, business) 0.5 0.5;
   (Existing_credits_paid_duly_till_now, _1to4_years, 3, stores, business) 0.5 0.5;
   (No_credits_taken__all_paid_duly, _1to4_years, 3, stores, business) 0.5 0.5;
   (All_credits_at_this_bank_paid_duly, _4to7_years, 3, stores, business) 0.5 0.5;
   (Critical_account__other_credits_elsewhere, _4to7_years, 3, stores, business) 0.5 0.5;
   (Delay_in_paying_off_in_the_past, _4to7_years, 3, stores, business) 0.5 0.5;
   (Existing_credits_paid_duly_till_now, _4to7_years, 3, stores, business) 0.5 0.5;
   (No_credits_taken__all_paid_duly, _4to7_years, 3, stores, business) 0.5 0.5;
   (All_credits_at_this_bank_paid_duly, ge7_years, 3, stores, business) 0.5 0.5;
   (Critical_account__other_credits_elsewhere, ge7_years, 3, stores, business) 0.5 0.5;
   (Delay_in_paying_off_in_the_past, ge7_years, 3, stores, business) 0.5 0.5;
   (Existing_credits_paid_duly_till_now, ge7_years, 3, stores, business) 0.5 0.5;
   (No_credits_taken__all_paid_duly, ge7_years, 3, stores, business) 0.5 0.5;
   (All_credits_at_this_bank_paid_duly, lt1_year, 3, stores, business) 0.5 0.5;
   (Critical_account__other_credits_elsewhere, lt1_year, 3, stores, business) 0.5 0.5;
   (Delay_in_paying_off_in_the_past, lt1_year, 3, stores, business) 0.5 0.5;
   (Existing_credits_paid_duly_till_now, lt1_year, 3, stores, business) 0.5 0.5;
   (No_credits_taken__all_paid_duly, lt1_year, 3, stores, business) 0.5 0.5;
   (All_credits_at_this_bank_paid_duly, unemployed, 3, stores, business) 0.5 0.5;
   (Critical_account__other_credits_elsewhere, unemployed, 3, stores, business) 0.5 0.5;
   (Delay_in_paying_off_in_the_past, unemployed, 3, stores, business) 0.5 0.5;
   (Existing_credits_paid_duly_till_now, unemployed, 3, stores, business) 0.5 0.5;
   (No_credits_taken__all_paid_duly, unemployed, 3, stores, business) 0.5 0.5;
   (All_credits_at_this_bank_paid_duly, _1to4_years, 4, stores, business) 0.5 0.5;
   (Critical_account__other_credits_elsewhere, _1to4_years, 4, stores, business) 0.5 0.5;
   (Delay_in_paying_off_in_the_past, _1to4_years, 4, stores, business) 0.5 0.5;
   (Existing_credits_paid_duly_till_now, _1to4_years, 4, stores, business) 0.5 0.5;
   (No_credits_taken__all_paid_duly, _1to4_years, 4, stores, business) 0.5 0.5;
   (All_credits_at_this_bank_paid_duly, _4to7_years, 4, stores, business) 0.5 0.5;
   (Critical_account__other_credits_elsewhere, _4to7_years, 4, stores, business) 0.5 0.5;
   (Delay_in_paying_off_in_the_past, _4to7_years, 4, stores, business) 0.5 0.5;
   (Existing_credits_paid_duly_till_now, _4to7_years, 4, stores, business) 0.5 0.5;
   (No_credits_taken__all_paid_duly, _4to7_years, 4, stores, business) 0.5 0.5;
   (All_credits_at_this_bank_paid_duly, ge7_years, 4, stores, business) 0.5 0.5;
   (Critical_account__other_credits_elsewhere, ge7_years, 4, stores, business) 0.333333 0.666667;
   (Delay_in_paying_off_in_the_past, ge7_years, 4, stores, business) 0.5 0.5;
   (Existing_credits_paid_duly_till_now, ge7_years, 4, stores, business) 0.5 0.5;
   (No_credits_taken__all_paid_duly, ge7_years, 4, stores, business) 0.5 0.5;
   (All_credits_at_this_bank_paid_duly, lt1_year, 4, stores, business) 0.5 0.5;
   (Critical_account__other_credits_elsewhere, lt1_year, 4, stores, business) 0.5 0.5;
   (Delay_in_paying_off_in_the_past, lt1_year, 4, stores, business) 0.5 0.5;
   (Existing_credits_paid_duly_till_now, lt1_year, 4, stores, business) 0.5 0.5;
   (No_credits_taken__all_paid_duly, lt1_year, 4, stores, business) 0.5 0.5;
   (All_credits_at_this_bank_paid_duly, unemployed, 4, stores, business) 0.5 0.5;
   (Critical_account__other_credits_elsewhere, unemployed, 4, stores, business) 0.5 0.5;
   (Delay_in_paying_off_in_the_past, unemployed, 4, stores, business) 0.5 0.5;
   (Existing_credits_paid_duly_till_now, unemployed, 4, stores, business) 0.5 0.5;
   (No_credits_taken__all_paid_duly, unemployed, 4, stores, business) 0.666667 0.333333;
   (All_credits_at_this_bank_paid_duly, _1to4_years, 1, bank, car_new) 0.5 0.5;
   (Critical_account__other_credits_elsewhere, _1to4_years, 1, bank, car_new) 0.5 0.5;
   (Delay_in_paying_off_in_the_past, _1to4_years, 1, bank, car_new) 0.5 0.5;
   (Existing_credits_paid_duly_till_now, _1to4_years, 1, bank, car_new) 0.333333 0.666667;
   (No_credits_taken__all_paid_duly, _1to4_years, 1, bank, car_new) 0.333333 0.666667;
   (All_credits_at_this_bank_paid_duly, _4to7_years, 1, bank, car_new) 0.5 0.5;
   (Critical_account__other_credits_elsewhere, _4to7_years, 1, bank, car_new) 0.5 0.5;
   (Delay_in_paying_off_in_the_past, _4to7_years, 1, bank, car_new) 0.5 0.5;
   (Existing_credits_paid_duly_till_now, _4to7_years, 1, bank, car_new) 0.5 0.5;
   (No_credits_taken__all_paid_duly, _4to7_years, 1, bank, car_new) 0.5 0.5;
   (All_credits_at_this_bank_paid_duly, ge7_years, 1, bank, car_new) 0.5 0.5;
   (Critical_account__other_credits_elsewhere, ge7_years, 1, bank, car_new) 0.5 0.5;
   (Delay_in_paying_off_in_the_past, ge7_years, 1, bank, car_new) 0.5 0.5;
   (Existing_credits_paid_duly_till_now, ge7_years, 1, bank, car_new) 0.5 0.5;
   (No_credits_taken__all_paid_duly, ge7_years, 1, bank, car_new) 0.5 0.5;
   (All_credits_at_this_bank_paid_duly, lt1_year, 1, bank, car_new) 0.5 0.5;
   (Critical_account__other_credits_elsewhere, lt1_year, 1, bank, car_new) 0.5 0.5;
   (Delay_in_paying_off_in_the_past, lt1_year, 1, bank, car_new) 0.5 0.5;
   (Existing_credits_paid_duly_till_now, lt1_year, 1, bank, car_new) 0.5 0.5;
   (No_credits_taken__all_paid_duly, lt1_year, 1, bank, car_new) 0.5 0.5;
   (All_credits_at_this_bank_paid_duly, unemployed, 1, bank, car_new) 0.5 0.5;
   (Critical_account__other_credits_elsewhere, unemployed, 1, bank, car_new) 0.5 0.5;
   (Delay_in_paying_off_in_the_past, unemployed, 1, bank, car_new) 0.5 0.5;
   (Existing_credits_paid_duly_till_now, unemployed, 1, bank, car_new) 0.5 0.5;
   (No_credits_taken__all_paid_duly, unemployed, 1, bank, car_new) 0.5 0.5;
   (All_credits_at_this_bank_paid_duly, _1to4_years, 2, bank, car_new) 0.5 0.5;
   (Critical_account__other_credits_elsewhere, _1to4_years, 2, bank, car_new) 0.166667 0.833333;
   (Delay_in_paying_off_in_the_past, _1to4_years, 2, bank, car_new) 0.5 0.5;
   (Existing_credits_paid_duly_till_now, _1to4_years, 2, bank, car_new) 0.333333 0.666667;
   (No_credits_taken__all_paid_duly, _1to4_years, 2, bank, car_new) 0.5 0.5;
   (All_credits_at_this_bank_paid_duly, _4to7_years, 2, bank, car_new) 0.5 0.5;
   (Critical_account__other_credits_elsewhere, _4to7_years, 2, bank, car_new) 0.25 0.75;
   (Delay_in_paying_off_in_the_past, _4to7_years, 2, bank, car_new) 0.5 0.5;
   (Existing_credits_paid_duly_till_now, _4to7_years, 2, bank, car_new) 0.666667 0.333333;
   (No_credits_taken__all_paid_duly, _4to7_years, 2, bank, car_new) 0.5 0.5;
   (All_credits_at_this_bank_paid_duly, ge7_years, 2, bank, car_new) 0.5 0.5;
   (Critical_account__other_credits_elsewhere, ge7_years, 2, bank, car_new) 0.5 0.5;
   (Delay_in_paying_off_in_the_past, ge7_years, 2, bank, car_new) 0.5 0.5;
   (Existing_credits_paid_duly_till_now, ge7_years, 2, bank, car_new) 0.333333 0.666667;
   (No_credits_taken__all_paid_duly, ge7_years, 2, bank, car_new) 0.5 0.5;
   (All_credits_at_this_bank_paid_duly, lt1_year, 2, bank, car_new) 0.333333 0.666667;
   (Critical_account__other_credits_elsewhere, lt1_year, 2, bank, car_new) 0.5 0.5;
   (Delay_in_paying_off_in_the_past, lt1_year, 2, bank, car_new) 0.5 0.5;
   (Existing_credits_paid_duly_till_now, lt1_year, 2, bank, car_new) 0.333333 0.666667;
   (No_credits_taken__all_paid_duly, lt1_year, 2, bank, car_new) 0.5 0.5;
   (All_credits_at_this_bank_paid_duly, unemployed, 2, bank, car_new) 0.5 0.5;
   (Critical_account__other_credits_elsewhere, unemployed, 2, bank, car_new) 0.5 0.5;
   (Delay_in_paying_off_in_the_past, unemployed, 2, bank, car_new) 0.5 0.5;
   (Existing_credits_paid_duly_till_now, unemployed, 2, bank, car_new) 0.5 0.5;
   (No_credits_taken__all_paid_duly, unemployed, 2, bank, car_new) 0.5 0.5;
   (All_credits_at_this_bank_paid_duly, _1to4_years, 3, bank, car_new) 0.5 0.5;
   (Critical_account__other_credits_elsewhere, _1to4_years, 3, bank, car_new) 0.5 0.5;
   (Delay_in_paying_off_in_the_past, _1to4_years, 3, bank, car_new) 0.5 0.5;
   (Existing_credits_paid_duly_till_now, _1to4_years, 3, bank, car_new) 0.5 0.5;
   (No_credits_taken__all_paid_duly, _1to4_years, 3, bank, car_new) 0.5 0.5;
   (All_credits_at_this_bank_paid_duly, _4to7_years, 3, bank, car_new) 0.333333 0.666667;
   (Critical_account__other_credits_elsewhere, _4to7_years, 3, bank, car_new) 0.5 0.5;
   (Delay_in_paying_off_in_the_past, _4to7_years, 3, bank, car_new) 0.5 0.5;
   (Existing_credits_paid_duly_till_now, _4to7_years, 3, bank, car_new) 0.2 0.8;
   (No_credits_taken__all_paid_duly, _4to7_years, 3, bank, car_new) 0.5 0.5;
   (All_credits_at_this_bank_paid_duly, ge7_years, 3, bank, car_new) 0.5 0.5;
   (Critical_account__other_credits_elsewhere, ge7_years, 3, bank, car_new) 0.666667 0.333333;
   (Delay_in_paying_off_in_the_past, ge7_years, 3, bank, car_new) 0.5 0.5;
   (Existing_credits_paid_duly_till_now, ge7_years, 3, bank, car_new) 0.5 0.5;
   (No_credits_taken__all_paid_duly, ge7_years, 3, bank, car_new) 0.5 0.5;
   (All_credits_at_this_bank_paid_duly, lt1_year, 3, bank, car_new) 0.5 0.5;
   (Critical_account__other_credits_elsewhere, lt1_year, 3, bank, car_new) 0.333333 0.666667;
   (Delay_in_paying_off_in_the_past, lt1_year, 3, bank, car_new) 0.5 0.5;
   (Existing_credits_paid_duly_till_now, lt1_year, 3, bank, car_new) 0.5 0.5;
   (No_credits_taken__all_paid_duly, lt1_year, 3, bank, car_new) 0.5 0.5;
   (All_credits_at_this_bank_paid_duly, unemployed, 3, bank, car_new) 0.5 0.5;
   (Critical_account__other_credits_elsewhere, unemployed, 3, bank, car_new) 0.5 0.5;
   (Delay_in_paying_off_in_the_past, unemployed, 3, bank, car_new) 0.5 0.5;
   (Existing_credits_paid_duly_till_now, unemployed, 3, bank, car_new) 0.5 0.5;
   (No_credits_taken__all_paid_duly, unemployed, 3, bank, car_new) 0.5 0.5;
   (All_credits_at_this_bank_paid_duly, _1to4_years, 4, bank, car_new) 0.5 0.5;
   (Critical_account__other_credits_elsewhere, _1to4_years, 4, bank, car_new) 0.333333 0.666667;
   (Delay_in_paying_off_in_the_past, _1to4_years, 4, bank, car_new) 0.5 0.5;
   (Existing_credits_paid_duly_till_now, _1to4_years, 4, bank, car_new) 0.5 0.5;
   (No_credits_taken__all_paid_duly, _1to4_years, 4, bank, car_new) 0.25 0.75;
   (All_credits_at_this_bank_paid_duly, _4to7_years, 4, bank, car_new) 0.5 0.5;
   (Critical_account__other_credits_elsewhere, _4to7_years, 4, bank, car_new) 0.5 0.5;
   (Delay_in_paying_off_in_the_past, _4to7_years, 4, bank, car_new) 0.5 0.5;
   (Existing_credits_paid_duly_till_now, _4to7_years, 4, bank, car_new) 0.333333 0.666667;
   (No_credits_taken__all_paid_duly, _4to7_years, 4, bank, car_new) 0.5 0.5;
   (All_credits_at_this_bank_paid_duly, ge7_years, 4, bank, car_new) 0.333333 0.666667;
   (Critical_account__other_credits_elsewhere, ge7_years, 4, bank, car_new) 0.333333 0.666667;
   (Delay_in_paying_off_in_the_past, ge7_years, 4, bank, car_new) 0.333333 0.666667;
   (Existing_credits_paid_duly_till_now, ge7_years, 4, bank, car_new) 0.2 0.8;
   (No_credits_taken__all_paid_duly, ge7_years, 4, bank, car_new) 0.5 0.5;
   (All_credits_at_this_bank_paid_duly, lt1_year, 4, bank, car_new) 0.5 0.5;
   (Critical_account__other_credits_elsewhere, lt1_year, 4, bank, car_new) 0.5 0.5;
   (Delay_in_paying_off_in_the_past, lt1_year, 4, bank, car_new) 0.5 0.5;
   (Existing_credits_paid_duly_till_now, lt1_year, 4, bank, car_new) 0.5 0.5;
   (No_credits_taken__all_paid_duly, lt1_year, 4, bank, car_new) 0.5 0.5;
   (All_credits_at_this_bank_paid_duly, unemployed, 4, bank, car_new) 0.5 0.5;
   (Critical_account__other_credits_elsewhere, unemployed, 4, bank, car_new) 0.333333 0.666667;
   (Delay_in_paying_off_in_the_past, unemployed, 4, bank, car_new) 0.5 0.5;
   (Existing_credits_paid_duly_till_now, unemployed, 4, bank, car_new) 0.333333 0.666667;
   (No_credits_taken__all_paid_duly, unemployed, 4, bank, car_new) 0.5 0.5;
   (All_credits_at_this_bank_paid_duly, _1to4_years, 1, none, car_new) 0.5 0.5;
   (Critical_account__other_credits_elsewhere, _1to4_years, 1, none, car_new) 0.5 0.5;
   (Delay_in_paying_off_in_the_past, _1to4_years, 1, none, car_new) 0.5 0.5;
   (Existing_credits_paid_duly_till_now, _1to4_years, 1, none, car_new) 0.333333 0.666667;
   (No_credits_taken__all_paid_duly, _1to4_years, 1, none, car_new) 0.5 0.5;
   (All_credits_at_this_bank_paid_duly, _4to7_years, 1, none, car_new) 0.5 0.5;
   (Critical_account__other_credits_elsewhere, _4to7_years, 1, none, car_new) 0.25 0.75;
   (Delay_in_paying_off_in_the_past, _4to7_years, 1, none, car_new) 0.5 0.5;
   (Existing_credits_paid_duly_till_now, _4to7_years, 1, none, car_new) 0.333333 0.666667;
   (No_credits_taken__all_paid_duly, _4to7_years, 1, none, car_new) 0.5 0.5;
   (All_credits_at_this_bank_paid_duly, ge7_years, 1, none, car_new) 0.5 0.5;
   (Critical_account__other_credits_elsewhere, ge7_years, 1, none, car_new) 0.333333 0.666667;
   (Delay_in_paying_off_in_the_past, ge7_years, 1, none, car_new) 0.5 0.5;
   (Existing_credits_paid_duly_till_now, ge7_years, 1, none, car_new) 0.25 0.75;
   (No_credits_taken__all_paid_duly, ge7_years, 1, none, car_new) 0.5 0.5;
   (All_credits_at_this_bank_paid_duly, lt1_year, 1, none, car_new) 0.5 0.5;
   (Critical_account__other_credits_elsewhere, lt1_year, 1, none, car_new) 0.25 0.75;
   (Delay_in_paying_off_in_the_past, lt1_year, 1, none, car_new) 0.5 0.5;
   (Existing_credits_paid_duly_till_now, lt1_year, 1, none, car_new) 0.272727 0.727273;
   (No_credits_taken__all_paid_duly, lt1_year, 1, none, car_new) 0.5 0.5;
   (All_credits_at_this_bank_paid_duly, unemployed, 1, none, car_new) 0.5 0.5;
   (Critical_account__other_credits_elsewhere, unemployed, 1, none, car_new) 0.5 0.5;
   (Delay_in_paying_off_in_the_past, unemployed, 1, none, car_new) 0.5 0.5;
   (Existing_credits_paid_duly_till_now, unemployed, 1, none, car_new) 0.5 0.5;
   (No_credits_taken__all_paid_duly, unemployed, 1, none, car_new) 0.5 0.5;
   (All_credits_at_this_bank_paid_duly, _1to4_years, 2, none, car_new) 0.5 0.5;
   (Critical_account__other_credits_elsewhere, _1to4_years, 2, none, car_new) 0.333333 0.666667;
   (Delay_in_paying_off_in_the_past, _1to4_years, 2, none, car_new) 0.2 0.8;
   (Existing_credits_paid_duly_till_now, _1to4_years, 2, none, car_new) 0.2 0.8;
   (No_credits_taken__all_paid_duly, _1to4_years, 2, none, car_new) 0.5 0.5;
   (All_credits_at_this_bank_paid_duly, _4to7_years, 2, none, car_new) 0.5 0.5;
   (Critical_account__other_credits_elsewhere, _4to7_years, 2, none, car_new) 0.333333 0.666667;
   (Delay_in_paying_off_in_the_past, _4to7_years, 2, none, car_new) 0.5 0.5;
   (Existing_credits_paid_duly_till_now, _4to7_years, 2, none, car_new) 0.625 0.375;
   (No_credits_taken__all_paid_duly, _4to7_years, 2, none, car_new) 0.5 0.5;
   (All_credits_at_this_bank_paid_duly, ge7_years, 2, none, car_new) 0.5 0.5;
   (Critical_account__other_credits_elsewhere, ge7_years, 2, none, car_new) 0.5 0.5;
   (Delay_in_paying_off_in_the_past, ge7_years, 2, none, car_new) 0.666667 0.333333;
   (Existing_credits_paid_duly_till_now, ge7_years, 2, none, car_new) 0.333333 0.666667;
   (No_credits_taken__all_paid_duly, ge7_years, 2, none, car_new) 0.5 0.5;
   (All_credits_at_this_bank_paid_duly, lt1_year, 2, none, car_new) 0.5 0.5;
   (Critical_account__other_credits_elsewhere, lt1_year, 2, none, car_new) 0.666667 0.333333;
   (Delay_in_paying_off_in_the_past, lt1_year, 2, none, car_new) 0.5 0.5;
   (Existing_credits_paid_duly_till_now, lt1_year, 2, none, car_new) 0.222222 0.777778;
   (No_credits_taken__all_paid_duly, lt1_year, 2, none, car_new) 0.5 0.5;
   (All_credits_at_this_bank_paid_duly, unemployed, 2, none, car_new) 0.333333 0.666667;
   (Critical_account__other_credits_elsewhere, unemployed, 2, none, car_new) 0.2 0.8;
   (Delay_in_paying_off_in_the_past, unemployed, 2, none, car_new) 0.333333 0.666667;
   (Existing_credits_paid_duly_till_now, unemployed, 2, none, car_new) 0.25 0.75;
   (No_credits_taken__all_paid_duly, unemployed, 2, none, car_new) 0.5 0.5;
   (All_credits_at_this_bank_paid_duly, _1to4_years, 3, none, car_new) 0.5 0.5;
   (Critical_account__other_credits_elsewhere, _1to4_years, 3, none, car_new) 0.25 0.75;
   (Delay_in_paying_off_in_the_past, _1to4_years, 3, none, car_new) 0.5 0.5;
   (Existing_credits_paid_duly_till_now, _1to4_years, 3, none, car_new) 0.285714 0.714286;
   (No_credits_taken__all_paid_duly, _1to4_years, 3, none, car_new) 0.5 0.5;
   (All_credits_at_this_bank_paid_duly, _4to7_years, 3, none, car_new) 0.333333 0.666667;
   (Critical_account__other_credits_elsewhere, _4to7_years, 3, none, car_new) 0.222222 0.777778;
   (Delay_in_paying_off_in_the_past, _4to7_years, 3, none, car_new) 0.5 0.5;
   (Existing_credits_paid_duly_till_now, _4to7_years, 3, none, car_new) 0.555556 0.444444;
   (No_credits_taken__all_paid_duly, _4to7_years, 3, none, car_new) 0.5 0.5;
   (All_credits_at_this_bank_paid_duly, ge7_years, 3, none, car_new) 0.5 0.5;
   (Critical_account__other_credits_elsewhere, ge7_years, 3, none, car_new) 0.5 0.5;
   (Delay_in_paying_off_in_the_past, ge7_years, 3, none, car_new) 0.333333 0.666667;
   (Existing_credits_paid_duly_till_now, ge7_years, 3, none, car_new) 0.666667 0.333333;
   (No_credits_taken__all_paid_duly, ge7_years, 3, none, car_new) 0.333333 0.666667;
   (All_credits_at_this_bank_paid_duly, lt1_year, 3, none, car_new) 0.5 0.5;
   (Critical_account__other_credits_elsewhere, lt1_year, 3, none, car_new) 0.25 0.75;
   (Delay_in_paying_off_in_the_past, lt1_year, 3, none, car_new) 0.5 0.5;
   (Existing_credits_paid_duly_till_now, lt1_year, 3, none, car_new) 0.166667 0.833333;
   (No_credits_taken__all_paid_duly, lt1_year, 3, none, car_new) 0.333333 0.666667;
   (All_credits_at_this_bank_paid_duly, unemployed, 3, none, car_new) 0.5 0.5;
   (Critical_account__other_credits_elsewhere, unemployed, 3, none, car_new) 0.333333 0.666667;
   (Delay_in_paying_off_in_the_past, unemployed, 3, none, car_new) 0.5 0.5;
   (Existing_credits_paid_duly_till_now, unemployed, 3, none, car_new) 0.333333 0.666667;
   (No_credits_taken__all_paid_duly, unemployed, 3, none, car_new) 0.5 0.5;
   (All_credits_at_this_bank_paid_duly, _1to4_years, 4, none, car_new) 0.5 0.5;
   (Critical_account__other_credits_elsewhere, _1to4_years, 4, none, car_new) 0.25 0.75;
   (Delay_in_paying_off_in_the_past, _1to4_years, 4, none, car_new) 0.2 0.8;
   (Existing_credits_paid_duly_till_now, _1to4_years, 4, none, car_new) 0.375 0.625;
   (No_credits_taken__all_paid_duly, _1to4_years, 4, none, car_new) 0.5 0.5;
   (All_credits_at_this_bank_paid_duly, _4to7_years, 4, none, car_new) 0.333333 0.666667;
   (Critical_account__other_credits_elsewhere, _4to7_years, 4, none, car_new) 0.6 0.4;
   (Delay_in_paying_off_in_the_past, _4to7_years, 4, none, car_new) 0.5 0.5;
   (Existing_credits_paid_duly_till_now, _4to7_years, 4, none, car_new) 0.285714 0.714286;
   (No_credits_taken__all_paid_duly, _4to7_years, 4, none, car_new) 0.5 0.5;
   (All_credits_at_this_bank_paid_duly, ge7_years, 4, none, car_new) 0.5 0.5;
   (Critical_account__other_credits_elsewhere, ge7_years, 4, none, car_new) 0.263158 0.736842;
   (Delay_in_paying_off_in_the_past, ge7_years, 4, none, car_new) 0.285714 0.714286;
   (Existing_credits_paid_duly_till_now, ge7_years, 4, none, car_new) 0.230769 0.769231;
   (No_credits_taken__all_paid_duly, ge7_years, 4, none, car_new) 0.5 0.5;
   (All_credits_at_this_bank_paid_duly, lt1_year, 4, none, car_new) 0.5 0.5;
   (Critical_account__other_credits_elsewhere, lt1_year, 4, none, car_new) 0.333333 0.666667;
   (Delay_in_paying_off_in_the_past, lt1_year, 4, none, car_new) 0.5 0.5;
   (Existing_credits_paid_duly_till_now, lt1_year, 4, none, car_new) 0.333333 0.666667;
   (No_credits_taken__all_paid_duly, lt1_year, 4, none, car_new) 0.5 0.5;
   (All_credits_at_this_bank_paid_duly, unemployed, 4, none, car_new) 0.25 0.75;
   (Critical_account__other_credits_elsewhere, unemployed, 4, none, car_new) 0.5 0.5;
   (Delay_in_paying_off_in_the_past, unemployed, 4, none, car_new) 0.333333 0.666667;
   (Existing_credits_paid_duly_till_now, unemployed, 4, none, car_new) 0.166667 0.833333;
   (No_credits_taken__all_paid_duly, unemployed, 4, none, car_new) 0.5 0.5;
   (All_credits_at_this_bank_paid_duly, _1to4_years, 1, stores, car_new) 0.5 0.5;
   (Critical_account__other_credits_elsewhere, _1to4_years, 1, stores, car_new) 0.5 0.5;
   (Delay_in_paying_off_in_the_past, _1to4_years, 1, stores, car_new) 0.5 0.5;
   (Existing_credits_paid_duly_till_now, _1to4_years, 1, stores, car_new) 0.5 0.5;
   (No_credits_taken__all_paid_duly, _1to4_years, 1, stores, car_new) 0.5 0.5;
   (All_credits_at_this_bank_paid_duly, _4to7_years, 1, stores, car_new) 0.5 0.5;
   (Critical_account__other_credits_elsewhere, _4to7_years, 1, stores, car_new) 0.5 0.5;
   (Delay_in_paying_off_in_the_past, _4to7_years, 1, stores, car_new) 0.5 0.5;
   (Existing_credits_paid_duly_till_now, _4to7_years, 1, stores, car_new) 0.5 0.5;
   (No_credits_taken__all_paid_duly, _4to7_years, 1, stores, car_new) 0.5 0.5;
   (All_credits_at_this_bank_paid_duly, ge7_years, 1, stores, car_new) 0.5 0.5;
   (Critical_account__other_credits_elsewhere, ge7_years, 1, stores, car_new) 0.5 0.5;
   (Delay_in_paying_off_in_the_past, ge7_years, 1, stores, car_new) 0.5 0.5;
   (Existing_credits_paid_duly_till_now, ge7_years, 1, stores, car_new) 0.5 0.5;
   (No_credits_taken__all_paid_duly, ge7_years, 1, stores, car_new) 0.5 0.5;
   (All_credits_at_this_bank_paid_duly, lt1_year, 1, stores, car_new) 0.333333 0.666667;
   (Critical_account__other_credits_elsewhere, lt1_year, 1, stores, car_new) 0.5 0.5;
   (Delay_in_paying_off_in_the_past, lt1_year, 1, stores, car_new) 0.5 0.5;
   (Existing_credits_paid_duly_till_now, lt1_year, 1, stores, car_new) 0.5 0.5;
   (No_credits_taken__all_paid_duly, lt1_year, 1, stores, car_new) 0.5 0.5;
   (All_credits_at_this_bank_paid_duly, unemployed, 1, stores, car_new) 0.5 0.5;
   (Critical_account__other_credits_elsewhere, unemployed, 1, stores, car_new) 0.5 0.5;
   (Delay_in_paying_off_in_the_past, unemployed, 1, stores, car_new) 0.5 0.5;
   (Existing_credits_paid_duly_till_now, unemployed, 1, stores, car_new) 0.5 0.5;
   (No_credits_taken__all_paid_duly, unemployed, 1, stores, car_new) 0.5 0.5;
   (All_credits_at_this_bank_paid_duly, _1to4_years, 2, stores, car_new) 0.333333 0.666667;
   (Critical_account__other_credits_elsewhere, _1to4_years, 2, stores, car_new) 0.333333 0.666667;
   (Delay_in_paying_off_in_the_past, _1to4_years, 2, stores, car_new) 0.333333 0.666667;
   (Existing_credits_paid_duly_till_now, _1to4_years, 2, stores, car_new) 0.5 0.5;
   (No_credits_taken__all_paid_duly, _1to4_years, 2, stores, car_new) 0.5 0.5;
   (All_credits_at_this_bank_paid_duly, _4to7_years, 2, stores, car_new) 0.5 0.5;
   (Critical_account__other_credits_elsewhere, _4to7_years, 2, stores, car_new) 0.5 0.5;
   (Delay_in_paying_off_in_the_past, _4to7_years, 2, stores, car_new) 0.5 0.5;
   (Existing_credits_paid_duly_till_now, _4to7_years, 2, stores, car_new) 0.5 0.5;
   (No_credits_taken__all_paid_duly, _4to7_years, 2, stores, car_new) 0.5 0.5;
   (All_credits_at_this_bank_paid_duly, ge7_years, 2, stores, car_new) 0.5 0.5;
   (Critical_account__other_credits_elsewhere, ge7_years, 2, stores, car_new) 0.5 0.5;
   (Delay_in_paying_off_in_the_past, ge7_years, 2, stores, car_new) 0.5 0.5;
   (Existing_credits_paid_duly_till_now, ge7_years, 2, stores, car_new) 0.5 0.5;
   (No_credits_taken__all_paid_duly, ge7_years, 2, stores, car_new) 0.5 0.5;
   (All_credits_at_this_bank_paid_duly, lt1_year, 2, stores, car_new) 0.5 0.5;
   (Critical_account__other_credits_elsewhere, lt1_year, 2, stores, car_new) 0.5 0.5;
   (Delay_in_paying_off_in_the_past, lt1_year, 2, stores, car_new) 0.5 0.5;
   (Existing_credits_paid_duly_till_now, lt1_year, 2, stores, car_new) 0.666667 0.333333;
   (No_credits_taken__all_paid_duly, lt1_year, 2, stores, car_new) 0.5 0.5;
   (All_credits_at_this_bank_paid_duly, unemployed, 2, stores, car_new) 0.5 0.5;
   (Critical_account__other_credits_elsewhere, unemployed, 2, stores, car_new) 0.5 0.5;
   (Delay_in_paying_off_in_the_past, unemployed, 2, stores, car_new) 0.5 0.5;
   (Existing_credits_paid_duly_till_now, unemployed, 2, stores, car_new) 0.5 0.5;
   (No_credits_taken__all_paid_duly, unemployed, 2, stores, car_new) 0.5 0.5;
   (All_credits_at_this_bank_paid_duly, _1to4_years, 3, stores, car_new) 0.5 0.5;
   (Critical_account__other_credits_elsewhere, _1to4_years, 3, stores, car_new) 0.5 0.5;
   (Delay_in_paying_off_in_the_past, _1to4_years, 3, stores, car_new) 0.5 0.5;
   (Existing_credits_paid_duly_till_now, _1to4_years, 3, stores, car_new) 0.5 0.5;
   (No_credits_taken__all_paid_duly, _1to4_years, 3, stores, car_new) 0.5 0.5;
   (All_credits_at_this_bank_paid_duly, _4to7_years, 3, stores, car_new) 0.5 0.5;
   (Critical_account__other_credits_elsewhere, _4to7_years, 3, stores, car_new) 0.5 0.5;
   (Delay_in_paying_off_in_the_past, _4to7_years, 3, stores, car_new) 0.5 0.5;
   (Existing_credits_paid_duly_till_now, _4to7_years, 3, stores, car_new) 0.5 0.5;
   (No_credits_taken__all_paid_duly, _4to7_years, 3, stores, car_new) 0.5 0.5;
   (All_credits_at_this_bank_paid_duly, ge7_years, 3, stores, car_new) 0.5 0.5;
   (Critical_account__other_credits_elsewhere, ge7_years, 3, stores, car_new) 0.5 0.5;
   (Delay_in_paying_off_in_the_past, ge7_years, 3, stores, car_new) 0.5 0.5;
   (Existing_credits_paid_duly_till_now, ge7_years, 3, stores, car_new) 0.5 0.5;
   (No_credits_taken__all_paid_duly, ge7_years, 3, stores, car_new) 0.5 0.5;
   (All_credits_at_this_bank_paid_duly, lt1_year, 3, stores, car_new) 0.5 0.5;
   (Critical_account__other_credits_elsewhere, lt1_year, 3, stores, car_new) 0.5 0.5;
   (Delay_in_paying_off_in_the_past, lt1_year, 3, stores, car_new) 0.5 0.5;
   (Existing_credits_paid_duly_till_now, lt1_year, 3, stores, car_new) 0.5 0.5;
   (No_credits_taken__all_paid_duly, lt1_year, 3, stores, car_new) 0.5 0.5;
   (All_credits_at_this_bank_paid_duly, unemployed, 3, stores, car_new) 0.5 0.5;
   (Critical_account__other_credits_elsewhere, unemployed, 3, stores, car_new) 0.5 0.5;
   (Delay_in_paying_off_in_the_past, unemployed, 3, stores, car_new) 0.5 0.5;
   (Existing_credits_paid_duly_till_now, unemployed, 3, stores, car_new) 0.5 0.5;
   (No_credits_taken__all_paid_duly, unemployed, 3, stores, car_new) 0.5 0.5;
   (All_credits_at_this_bank_paid_duly, _1to4_years, 4, stores, car_new) 0.5 0.5;
   (Critical_account__other_credits_elsewhere, _1to4_years, 4, stores, car_new) 0.5 0.5;
   (Delay_in_paying_off_in_the_past, _1to4_years, 4, stores, car_new) 0.5 0.5;
   (Existing_credits_paid_duly_till_now, _1to4_years, 4, stores, car_new) 0.5 0.5;
   (No_credits_taken__all_paid_duly, _1to4_years, 4, stores, car_new) 0.5 0.5;
   (All_credits_at_this_bank_paid_duly, _4to7_years, 4, stores, car_new) 0.5 0.5;
   (Critical_account__other_credits_elsewhere, _4to7_years, 4, stores, car_new) 0.5 0.5;
   (Delay_in_paying_off_in_the_past, _4to7_years, 4, stores, car_new) 0.5 0.5;
   (Existing_credits_paid_duly_till_now, _4to7_years, 4, stores, car_new) 0.5 0.5;
   (No_credits_taken__all_paid_duly, _4to7_years, 4, stores, car_new) 0.5 0.5;
   (All_credits_at_this_bank_paid_duly, ge7_years, 4, stores, car_new) 0.5 0.5;
   (Critical_account__other_credits_elsewhere, ge7_years, 4, stores, car_new) 0.5 0.5;
   (Delay_in_paying_off_in_the_past, ge7_years, 4, stores, car_new) 0.5 0.5;
   (Existing_credits_paid_duly_till_now, ge7_years, 4, stores, car_new) 0.5 0.5;
   (No_credits_taken__all_paid_duly, ge7_years, 4, stores, car_new) 0.5 0.5;
   (All_credits_at_this_bank_paid_duly, lt1_year, 4, stores, car_new) 0.5 0.5;
   (Critical_account__other_credits_elsewhere, lt1_year, 4, stores, car_new) 0.5 0.5;
   (Delay_in_paying_off_in_the_past, lt1_year, 4, stores, car_new) 0.5 0.5;
   (Existing_credits_paid_duly_till_now, lt1_year, 4, stores, car_new) 0.5 0.5;
   (No_credits_taken__all_paid_duly, lt1_year, 4, stores, car_new) 0.5 0.5;
   (All_credits_at_this_bank_paid_duly, unemployed, 4, stores, car_new) 0.5 0.5;
   (Critical_account__other_credits_elsewhere, unemployed, 4, stores, car_new) 0.5 0.5;
   (Delay_in_paying_off_in_the_past, unemployed, 4, stores, car_new) 0.5 0.5;
   (Existing_credits_paid_duly_till_now, unemployed, 4, stores, car_new) 0.5 0.5;
   (No_credits_taken__all_paid_duly, unemployed, 4, stores, car_new) 0.5 0.5;
   (All_credits_at_this_bank_paid_duly, _1to4_years, 1, bank, car_used) 0.5 0.5;
   (Critical_account__other_credits_elsewhere, _1to4_years, 1, bank, car_used) 0.5 0.5;
   (Delay_in_paying_off_in_the_past, _1to4_years, 1, bank, car_used) 0.5 0.5;
   (Existing_credits_paid_duly_till_now, _1to4_years, 1, bank, car_used) 0.5 0.5;
   (No_credits_taken__all_paid_duly, _1to4_years, 1, bank, car_used) 0.5 0.5;
   (All_credits_at_this_bank_paid_duly, _4to7_years, 1, bank, car_used) 0.5 0.5;
   (Critical_account__other_credits_elsewhere, _4to7_years, 1, bank, car_used) 0.5 0.5;
   (Delay_in_paying_off_in_the_past, _4to7_years, 1, bank, car_used) 0.5 0.5;
   (Existing_credits_paid_duly_till_now, _4to7_years, 1, bank, car_used) 0.5 0.5;
   (No_credits_taken__all_paid_duly, _4to7_years, 1, bank, car_used) 0.5 0.5;
   (All_credits_at_this_bank_paid_duly, ge7_years, 1, bank, car_used) 0.5 0.5;
   (Critical_account__other_credits_elsewhere, ge7_years, 1, bank, car_used) 0.5 0.5;
   (Delay_in_paying_off_in_the_past, ge7_years, 1, bank, car_used) 0.5 0.5;
   (Existing_credits_paid_duly_till_now, ge7_years, 1, bank, car_used) 0.5 0.5;
   (No_credits_taken__all_paid_duly, ge7_years, 1, bank, car_used) 0.5 0.5;
   (All_credits_at_this_bank_paid_duly, lt1_year, 1, bank, car_used) 0.5 0.5;
   (Critical_account__other_credits_elsewhere, lt1_year, 1, bank, car_used) 0.5 0.5;
   (Delay_in_paying_off_in_the_past, lt1_year, 1, bank, car_used) 0.5 0.5;
   (Existing_credits_paid_duly_till_now, lt1_year, 1, bank, car_used) 0.5 0.5;
   (No_credits_taken__all_paid_duly, lt1_year, 1, bank, car_used) 0.5 0.5;
   (All_credits_at_this_bank_paid_duly, unemployed, 1, bank, car_used) 0.333333 0.666667;
   (Critical_account__other_credits_elsewhere, unemployed, 1, bank, car_used) 0.5 0.5;
   (Delay_in_paying_off_in_the_past, unemployed, 1, bank, car_used) 0.5 0.5;
   (Existing_credits_paid_duly_till_now, unemployed, 1, bank, car_used) 0.5 0.5;
   (No_credits_taken__all_paid_duly, unemployed, 1, bank, car_used) 0.5 0.5;
   (All_credits_at_this_bank_paid_duly, _1to4_years, 2, bank, car_used) 0.5 0.5;
   (Critical_account__other_credits_elsewhere, _1to4_years, 2, bank, car_used) 0.5 0.5;
   (Delay_in_paying_off_in_the_past, _1to4_years, 2, bank, car_used) 0.5 0.5;
   (Existing_credits_paid_duly_till_now, _1to4_years, 2, bank, car_used) 0.333333 0.666667;
   (No_credits_taken__all_paid_duly, _1to4_years, 2, bank, car_used) 0.5 0.5;
   (All_credits_at_this_bank_paid_duly, _4to7_years, 2, bank, car_used) 0.5 0.5;
   (Critical_account__other_credits_elsewhere, _4to7_years, 2, bank, car_used) 0.5 0.5;
   (Delay_in_paying_off_in_the_past, _4to7_years, 2, bank, car_used) 0.5 0.5;
   (Existing_credits_paid_duly_till_now, _4to7_years, 2, bank, car_used) 0.5 0.5;
   (No_credits_taken__all_paid_duly, _4to7_years, 2, bank, car_used) 0.5 0.5;
   (All_credits_at_this_bank_paid_duly, ge7_years, 2, bank, car_used) 0.5 0.5;
   (Critical_account__other_credits_elsewhere, ge7_years, 2, bank, car_used) 0.5 0.5;
   (Delay_in_paying_off_in_the_past, ge7_years, 2, bank, car_used) 0.5 0.5;
   (Existing_credits_paid_duly_till_now, ge7_years, 2, bank, car_used) 0.5 0.5;
   (No_credits_taken__all_paid_duly, ge7_years, 2, bank, car_used) 0.5 0.5;
   (All_credits_at_this_bank_paid_duly, lt1_year, 2, bank, car_used) 0.5 0.5;
   (Critical_account__other_credits_elsewhere, lt1_year, 2, bank, car_used) 0.5 0.5;
   (Delay_in_paying_off_in_the_past, lt1_year, 2, bank, car_used) 0.5 0.5;
   (Existing_credits_paid_duly_till_now, lt1_year, 2, bank, car_used) 0.5 0.5;
   (No_credits_taken__all_paid_duly, lt1_year, 2, bank, car_used) 0.5 0.5;
   (All_credits_at_this_bank_paid_duly, unemployed, 2, bank, car_used) 0.333333 0.666667;
   (Critical_account__other_credits_elsewhere, unemployed, 2, bank, car_used) 0.5 0.5;
   (Delay_in_paying_off_in_the_past, unemployed, 2, bank, car_used) 0.5 0.5;
   (Existing_credits_paid_duly_till_now, unemployed, 2, bank, car_used) 0.5 0.5;
   (No_credits_taken__all_paid_duly, unemployed, 2, bank, car_used) 0.5 0.5;
   (All_credits_at_this_bank_paid_duly, _1to4_years, 3, bank, car_used) 0.5 0.5;
   (Critical_account__other_credits_elsewhere, _1to4_years, 3, bank, car_used) 0.5 0.5;
   (Delay_in_paying_off_in_the_past, _1to4_years, 3, bank, car_used) 0.5 0.5;
   (Existing_credits_paid_duly_till_now, _1to4_years, 3, bank, car_used) 0.5 0.5;
   (No_credits_taken__all_paid_duly, _1to4_years, 3, bank, car_used) 0.5 0.5;
   (All_credits_at_this_bank_paid_duly, _4to7_years, 3, bank, car_used) 0.5 0.5;
   (Critical_account__other_credits_elsewhere, _4to7_years, 3, bank, car_used) 0.5 0.5;
   (Delay_in_paying_off_in_the_past, _4to7_years, 3, bank, car_used) 0.5 0.5;
   (Existing_credits_paid_duly_till_now, _4to7_years, 3, bank, car_used) 0.5 0.5;
   (No_credits_taken__all_paid_duly, _4to7_years, 3, bank, car_used) 0.5 0.5;
   (All_credits_at_this_bank_paid_duly, ge7_years, 3, bank, car_used) 0.5 0.5;
   (Critical_account__other_credits_elsewhere, ge7_years, 3, bank, car_used) 0.5 0.5;
   (Delay_in_paying_off_in_the_past, ge7_years, 3, bank, car_used) 0.5 0.5;
   (Existing_credits_paid_duly_till_now, ge7_years, 3, bank, car_used) 0.5 0.5;
   (No_credits_taken__all_paid_duly, ge7_years, 3, bank, car_used) 0.5 0.5;
   (All_credits_at_this_bank_paid_duly, lt1_year, 3, bank, car_used) 0.5 0.5;
   (Critical_account__other_credits_elsewhere, lt1_year, 3, bank, car_used) 0.5 0.5;
   (Delay_in_paying_off_in_the_past, lt1_year, 3, bank, car_used) 0.5 0.5;
   (Existing_credits_paid_duly_till_now, lt1_year, 3, bank, car_used) 0.5 0.5;
   (No_credits_taken__all_paid_duly, lt1_year, 3, bank, car_used) 0.5 0.5;
   (All_credits_at_this_bank_paid_duly, unemployed, 3, bank, car_used) 0.5 0.5;
   (Critical_account__other_credits_elsewhere, unemployed, 3, bank, car_used) 0.5 0.5;
   (Delay_in_paying_off_in_the_past, unemployed, 3, bank, car_used) 0.5 0.5;
   (Existing_credits_paid_duly_till_now, unemployed, 3, bank, car_used) 0.5 0.5;
   (No_credits_taken__all_paid_duly, unemployed, 3, bank, car_used) 0.5 0.5;
   (All_credits_at_this_bank_paid_duly, _1to4_years, 4, bank, car_used) 0.333333 0.666667;
   (Critical_account__other_credits_elsewhere, _1to4_years, 4, bank, car_used) 0.333333 0.666667;
   (Delay_in_paying_off_in_the_past, _1to4_years, 4, bank, car_used) 0.5 0.5;
   (Existing_credits_paid_duly_till_now, _1to4_years, 4, bank, car_used) 0.666667 0.333333;
   (No_credits_taken__all_paid_duly, _1to4_years, 4, bank, car_used) 0.5 0.5;
   (All_credits_at_this_bank_paid_duly, _4to7_years, 4, bank, car_used) 0.5 0.5;
   (Critical_account__other_credits_elsewhere, _4to7_years, 4, bank, car_used) 0.5 0.5;
   (Delay_in_paying_off_in_the_past, _4to7_years, 4, bank, car_used) 0.333333 0.666667;
   (Existing_credits_paid_duly_till_now, _4to7_years, 4, bank, car_used) 0.5 0.5;
   (No_credits_taken__all_paid_duly, _4to7_years, 4, bank, car_used) 0.5 0.5;
   (All_credits_at_this_bank_paid_duly, ge7_years, 4, bank, car_used) 0.333333 0.666667;
   (Critical_account__other_credits_elsewhere, ge7_years, 4, bank, car_used) 0.5 0.5;
   (Delay_in_paying_off_in_the_past, ge7_years, 4, bank, car_used) 0.5 0.5;
   (Existing_credits_paid_duly_till_now, ge7_years, 4, bank, car_used) 0.4 0.6;
   (No_credits_taken__all_paid_duly, ge7_years, 4, bank, car_used) 0.666667 0.333333;
   (All_credits_at_this_bank_paid_duly, lt1_year, 4, bank, car_used) 0.333333 0.666667;
   (Critical_account__other_credits_elsewhere, lt1_year, 4, bank, car_used) 0.5 0.5;
   (Delay_in_paying_off_in_the_past, lt1_year, 4, bank, car_used) 0.5 0.5;
   (Existing_credits_paid_duly_till_now, lt1_year, 4, bank, car_used) 0.5 0.5;
   (No_credits_taken__all_paid_duly, lt1_year, 4, bank, car_used) 0.5 0.5;
   (All_credits_at_this_bank_paid_duly, unemployed, 4, bank, car_used) 0.5 0.5;
   (Critical_account__other_credits_elsewhere, unemployed, 4, bank, car_used) 0.5 0.5;
   (Delay_in_paying_off_in_the_past, unemployed, 4, bank, car_used) 0.5 0.5;
   (Existing_credits_paid_duly_till_now, unemployed, 4, bank, car_used) 0.5 0.5;
   (No_credits_taken__all_paid_duly, unemployed, 4, bank, car_used) 0.5 0.5;
   (All_credits_at_this_bank_paid_duly, _1to4_years, 1, none, car_used) 0.5 0.5;
   (Critical_account__other_credits_elsewhere, _1to4_years, 1, none, car_used) 0.5 0.5;
   (Delay_in_paying_off_in_the_past, _1to4_years, 1, none, car_used) 0.5 0.5;
   (Existing_credits_paid_duly_till_now, _1to4_years, 1, none, car_used) 0.333333 0.666667;
   (No_credits_taken__all_paid_duly, _1to4_years, 1, none, car_used) 0.5 0.5;
   (All_credits_at_this_bank_paid_duly, _4to7_years, 1, none, car_used) 0.5 0.5;
   (Critical_account__other_credits_elsewhere, _4to7_years, 1, none, car_used) 0.75 0.25;
   (Delay_in_paying_off_in_the_past, _4to7_years, 1, none, car_used) 0.5 0.5;
   (Existing_credits_paid_duly_till_now, _4to7_years, 1, none, car_used) 0.333333 0.666667;
   (No_credits_taken__all_paid_duly, _4to7_years, 1, none, car_used) 0.5 0.5;
   (All_credits_at_this_bank_paid_duly, ge7_years, 1, none, car_used) 0.5 0.5;
   (Critical_account__other_credits_elsewhere, ge7_years, 1, none, car_used) 0.5 0.5;
   (Delay_in_paying_off_in_the_past, ge7_years, 1, none, car_used) 0.5 0.5;
   (Existing_credits_paid_duly_till_now, ge7_years, 1, none, car_used) 0.5 0.5;
   (No_credits_taken__all_paid_duly, ge7_years, 1, none, car_used) 0.5 0.5;
   (All_credits_at_this_bank_paid_duly, lt1_year, 1, none, car_used) 0.5 0.5;
   (Critical_account__other_credits_elsewhere, lt1_year, 1, none, car_used) 0.5 0.5;
   (Delay_in_paying_off_in_the_past, lt1_year, 1, none, car_used) 0.5 0.5;
   (Existing_credits_paid_duly_till_now, lt1_year, 1, none, car_used) 0.666667 0.333333;
   (No_credits_taken__all_paid_duly, lt1_year, 1, none, car_used) 0.5 0.5;
   (All_credits_at_this_bank_paid_duly, unemployed, 1, none, car_used) 0.5 0.5;
   (Critical_account__other_credits_elsewhere, unemployed, 1, none, car_used) 0.5 0.5;
   (Delay_in_paying_off_in_the_past, unemployed, 1, none, car_used) 0.5 0.5;
   (Existing_credits_paid_duly_till_now, unemployed, 1, none, car_used) 0.5 0.5;
   (No_credits_taken__all_paid_duly, unemployed, 1, none, car_used) 0.5 0.5;
   (All_credits_at_this_bank_paid_duly, _1to4_years, 2, none, car_used) 0.5 0.5;
   (Critical_account__other_credits_elsewhere, _1to4_years, 2, none, car_used) 0.2 0.8;
   (Delay_in_paying_off_in_the_past, _1to4_years, 2, none, car_used) 0.666667 0.333333;
   (Existing_credits_paid_duly_till_now, _1to4_years, 2, none, car_used) 0.375 0.625;
   (No_credits_taken__all_paid_duly, _1to4_years, 2, none, car_used) 0.333333 0.666667;
   (All_credits_at_this_bank_paid_duly, _4to7_years, 2, none, car_used) 0.5 0.5;
   (Critical_account__other_credits_elsewhere, _4to7_years, 2, none, car_used) 0.666667 0.333333;
   (Delay_in_paying_off_in_the_past, _4to7_years, 2, none, car_used) 0.5 0.5;
   (Existing_credits_paid_duly_till_now, _4to7_years, 2, none, car_used) 0.25 0.75;
   (No_credits_taken__all_paid_duly, _4to7_years, 2, none, car_used) 0.5 0.5;
   (All_credits_at_this_bank_paid_duly, ge7_years, 2, none, car_used) 0.5 0.5;
   (Critical_account__other_credits_elsewhere, ge7_years, 2, none, car_used) 0.2 0.8;
   (Delay_in_paying_off_in_the_past, ge7_years, 2, none, car_used) 0.333333 0.666667;
   (Existing_credits_paid_duly_till_now, ge7_years, 2, none, car_used) 0.5 0.5;
   (No_credits_taken__all_paid_duly, ge7_years, 2, none, car_used) 0.5 0.5;
   (All_credits_at_this_bank_paid_duly, lt1_year, 2, none, car_used) 0.5 0.5;
   (Critical_account__other_credits_elsewhere, lt1_year, 2, none, car_used) 0.5 0.5;
   (Delay_in_paying_off_in_the_past, lt1_year, 2, none, car_used) 0.333333 0.666667;
   (Existing_credits_paid_duly_till_now, lt1_year, 2, none, car_used) 0.5 0.5;
   (No_credits_taken__all_paid_duly, lt1_year, 2, none, car_used) 0.5 0.5;
   (All_credits_at_this_bank_paid_duly, unemployed, 2, none, car_used) 0.5 0.5;
   (Critical_account__other_credits_elsewhere, unemployed, 2, none, car_used) 0.333333 0.666667;
   (Delay_in_paying_off_in_the_past, unemployed, 2, none, car_used) 0.5 0.5;
   (Existing_credits_paid_duly_till_now, unemployed, 2, none, car_used) 0.25 0.75;
   (No_credits_taken__all_paid_duly, unemployed, 2, none, car_used) 0.5 0.5;
   (All_credits_at_this_bank_paid_duly, _1to4_years, 3, none, car_used) 0.5 0.5;
   (Critical_account__other_credits_elsewhere, _1to4_years, 3, none, car_used) 0.5 0.5;
   (Delay_in_paying_off_in_the_past, _1to4_years, 3, none, car_used) 0.5 0.5;
   (Existing_credits_paid_duly_till_now, _1to4_years, 3, none, car_used) 0.25 0.75;
   (No_credits_taken__all_paid_duly, _1to4_years, 3, none, car_used) 0.5 0.5;
   (All_credits_at_this_bank_paid_duly, _4to7_years, 3, none, car_used) 0.5 0.5;
   (Critical_account__other_credits_elsewhere, _4to7_years, 3, none, car_used) 0.333333 0.666667;
   (Delay_in_paying_off_in_the_past, _4to7_years, 3, none, car_used) 0.333333 0.666667;
   (Existing_credits_paid_duly_till_now, _4to7_years, 3, none, car_used) 0.25 0.75;
   (No_credits_taken__all_paid_duly, _4to7_years, 3, none, car_used) 0.5 0.5;
   (All_credits_at_this_bank_paid_duly, ge7_years, 3, none, car_used) 0.5 0.5;
   (Critical_account__other_credits_elsewhere, ge7_years, 3, none, car_used) 0.5 0.5;
   (Delay_in_paying_off_in_the_past, ge7_years, 3, none, car_used) 0.5 0.5;
   (Existing_credits_paid_duly_till_now, ge7_years, 3, none, car_used) 0.5 0.5;
   (No_credits_taken__all_paid_duly, ge7_years, 3, none, car_used) 0.5 0.5;
   (All_credits_at_this_bank_paid_duly, lt1_year, 3, none, car_used) 0.5 0.5;
   (Critical_account__other_credits_elsewhere, lt1_year, 3, none, car_used) 0.5 0.5;
   (Delay_in_paying_off_in_the_past, lt1_year, 3, none, car_used) 0.5 0.5;
   (Existing_credits_paid_duly_till_now, lt1_year, 3, none, car_used) 0.333333 0.666667;
   (No_credits_taken__all_paid_duly, lt1_year, 3, none, car_used) 0.5 0.5;
   (All_credits_at_this_bank_paid_duly, unemployed, 3, none, car_used) 0.5 0.5;
   (Critical_account__other_credits_elsewhere, unemployed, 3, none, car_used) 0.5 0.5;
   (Delay_in_paying_off_in_the_past, unemployed, 3, none, car_used) 0.5 0.5;
   (Existing_credits_paid_duly_till_now, unemployed, 3, none, car_used) 0.5 0.5;
   (No_credits_taken__all_paid_duly, unemployed, 3, none, car_used) 0.5 0.5;
   (All_credits_at_this_bank_paid_duly, _1to4_years, 4, none, car_used) 0.5 0.5;
   (Critical_account__other_credits_elsewhere, _1to4_years, 4, none, car_used) 0.5 0.5;
   (Delay_in_paying_off_in_the_past, _1to4_years, 4, none, car_used) 0.333333 0.666667;
   (Existing_credits_paid_duly_till_now, _1to4_years, 4, none, car_used) 0.375 0.625;
   (No_credits_taken__all_paid_duly, _1to4_years, 4, none, car_used) 0.5 0.5;
   (All_credits_at_this_bank_paid_duly, _4to7_years, 4, none, car_used) 0.5 0.5;
   (Critical_account__other_credits_elsewhere, _4to7_years, 4, none, car_used) 0.333333 0.666667;
   (Delay_in_paying_off_in_the_past, _4to7_years, 4, none, car_used) 0.5 0.5;
   (Existing_credits_paid_duly_till_now, _4to7_years, 4, none, car_used) 0.333333 0.666667;
   (No_credits_taken__all_paid_duly, _4to7_years, 4, none, car_used) 0.5 0.5;
   (All_credits_at_this_bank_paid_duly, ge7_years, 4, none, car_used) 0.5 0.5;
   (Critical_account__other_credits_elsewhere, ge7_years, 4, none, car_used) 0.230769 0.769231;
   (Delay_in_paying_off_in_the_past, ge7_years, 4, none, car_used) 0.5 0.5;
   (Existing_credits_paid_duly_till_now, ge7_years, 4, none, car_used) 0.3 0.7;
   (No_credits_taken__all_paid_duly, ge7_years, 4, none, car_used) 0.333333 0.666667;
   (All_credits_at_this_bank_paid_duly, lt1_year, 4, none, car_used) 0.5 0.5;
   (Critical_account__other_credits_elsewhere, lt1_year, 4, none, car_used) 0.666667 0.333333;
   (Delay_in_paying_off_in_the_past, lt1_year, 4, none, car_used) 0.5 0.5;
   (Existing_credits_paid_duly_till_now, lt1_year, 4, none, car_used) 0.25 0.75;
   (No_credits_taken__all_paid_duly, lt1_year, 4, none, car_used) 0.5 0.5;
   (All_credits_at_this_bank_paid_duly, unemployed, 4, none, car_used) 0.5 0.5;
   (Critical_account__other_credits_elsewhere, unemployed, 4, none, car_used) 0.2 0.8;
   (Delay_in_paying_off_in_the_past, unemployed, 4, none, car_used) 0.5 0.5;
   (Existing_credits_paid_duly_till_now, unemployed, 4, none, car_used) 0.2 0.8;
   (No_credits_taken__all_paid_duly, unemployed, 4, none, car_used) 0.5 0.5;
   (All_credits_at_this_bank_paid_duly, _1to4_years, 1, stores, car_used) 0.5 0.5;
   (Critical_account__other_credits_elsewhere, _1to4_years, 1, stores, car_used) 0.5 0.5;
   (Delay_in_paying_off_in_the_past, _1to4_years, 1, stores, car_used) 0.5 0.5;
   (Existing_credits_paid_duly_till_now, _1to4_years, 1, stores, car_used) 0.5 0.5;
   (No_credits_taken__all_paid_duly, _1to4_years, 1, stores, car_used) 0.5 0.5;
   (All_credits_at_this_bank_paid_duly, _4to7_years, 1, stores, car_used) 0.5 0.5;
   (Critical_account__other_credits_elsewhere, _4to7_years, 1, stores, car_used) 0.5 0.5;
   (Delay_in_paying_off_in_the_past, _4to7_years, 1, stores, car_used) 0.5 0.5;
   (Existing_credits_paid_duly_till_now, _4to7_years, 1, stores, car_used) 0.5 0.5;
   (No_credits_taken__all_paid_duly, _4to7_years, 1, stores, car_used) 0.5 0.5;
   (All_credits_at_this_bank_paid_duly, ge7_years, 1, stores, car_used) 0.5 0.5;
   (Critical_account__other_credits_elsewhere, ge7_years, 1, stores, car_used) 0.5 0.5;
   (Delay_in_paying_off_in_the_past, ge7_years, 1, stores, car_used) 0.5 0.5;
   (Existing_credits_paid_duly_till_now, ge7_years, 1, stores, car_used) 0.5 0.5;
   (No_credits_taken__all_paid_duly, ge7_years, 1, stores, car_used) 0.5 0.5;
   (All_credits_at_this_bank_paid_duly, lt1_year, 1, stores, car_used) 0.5 0.5;
   (Critical_account__other_credits_elsewhere, lt1_year, 1, stores, car_used) 0.5 0.5;
   (Delay_in_paying_off_in_the_past, lt1_year, 1, stores, car_used) 0.5 0.5;
   (Existing_credits_paid_duly_till_now, lt1_year, 1, stores, car_used) 0.5 0.5;
   (No_credits_taken__all_paid_duly, lt1_year, 1, stores, car_used) 0.5 0.5;
   (All_credits_at_this_bank_paid_duly, unemployed, 1, stores, car_used) 0.5 0.5;
   (Critical_account__other_credits_elsewhere, unemployed, 1, stores, car_used) 0.5 0.5;
   (Delay_in_paying_off_in_the_past, unemployed, 1, stores, car_used) 0.5 0.5;
   (Existing_credits_paid_duly_till_now, unemployed, 1, stores, car_used) 0.5 0.5;
   (No_credits_taken__all_paid_duly, unemployed, 1, stores, car_used) 0.5 0.5;
   (All_credits_at_this_bank_paid_duly, _1to4_years, 2, stores, car_used) 0.5 0.5;
   (Critical_account__other_credits_elsewhere, _1to4_years, 2, stores, car_used) 0.5 0.5;
   (Delay_in_paying_off_in_the_past, _1to4_years, 2, stores, car_used) 0.333333 0.666667;
   (Existing_credits_paid_duly_till_now, _1to4_years, 2, stores, car_used) 0.5 0.5;
   (No_credits_taken__all_paid_duly, _1to4_years, 2, stores, car_used) 0.5 0.5;
   (All_credits_at_this_bank_paid_duly, _4to7_years, 2, stores, car_used) 0.5 0.5;
   (Critical_account__other_credits_elsewhere, _4to7_years, 2, stores, car_used) 0.5 0.5;
   (Delay_in_paying_off_in_the_past, _4to7_years, 2, stores, car_used) 0.333333 0.666667;
   (Existing_credits_paid_duly_till_now, _4to7_years, 2, stores, car_used) 0.5 0.5;
   (No_credits_taken__all_paid_duly, _4to7_years, 2, stores, car_used) 0.5 0.5;
   (All_credits_at_this_bank_paid_duly, ge7_years, 2, stores, car_used) 0.5 0.5;
   (Critical_account__other_credits_elsewhere, ge7_years, 2, stores, car_used) 0.5 0.5;
   (Delay_in_paying_off_in_the_past, ge7_years, 2, stores, car_used) 0.5 0.5;
   (Existing_credits_paid_duly_till_now, ge7_years, 2, stores, car_used) 0.5 0.5;
   (No_credits_taken__all_paid_duly, ge7_years, 2, stores, car_used) 0.5 0.5;
   (All_credits_at_this_bank_paid_duly, lt1_year, 2, stores, car_used) 0.5 0.5;
   (Critical_account__other_credits_elsewhere, lt1_year, 2, stores, car_used) 0.5 0.5;
   (Delay_in_paying_off_in_the_past, lt1_year, 2, stores, car_used) 0.5 0.5;
   (Existing_credits_paid_duly_till_now, lt1_year, 2, stores, car_used) 0.5 0.5;
   (No_credits_taken__all_paid_duly, lt1_year, 2, stores, car_used) 0.5 0.5;
   (All_credits_at_this_bank_paid_duly, unemployed, 2, stores, car_used) 0.5 0.5;
   (Critical_account__other_credits_elsewhere, unemployed, 2, stores, car_used) 0.5 0.5;
   (Delay_in_paying_off_in_the_past, unemployed, 2, stores, car_used) 0.5 0.5;
   (Existing_credits_paid_duly_till_now, unemployed, 2, stores, car_used) 0.5 0.5;
   (No_credits_taken__all_paid_duly, unemployed, 2, stores, car_used) 0.5 0.5;
   (All_credits_at_this_bank_paid_duly, _1to4_years, 3, stores, car_used) 0.5 0.5;
   (Critical_account__other_credits_elsewhere, _1to4_years, 3, stores, car_used) 0.5 0.5;
   (Delay_in_paying_off_in_the_past, _1to4_years, 3, stores, car_used) 0.5 0.5;
   (Existing_credits_paid_duly_till_now, _1to4_years, 3, stores, car_used) 0.5 0.5;
   (No_credits_taken__all_paid_duly, _1to4_years, 3, stores, car_used) 0.5 0.5;
   (All_credits_at_this_bank_paid_duly, _4to7_years, 3, stores, car_used) 0.5 0.5;
   (Critical_account__other_credits_elsewhere, _4to7_years, 3, stores, car_used) 0.5 0.5;
   (Delay_in_paying_off_in_the_past, _4to7_years, 3, stores, car_used) 0.5 0.5;
   (Existing_credits_paid_duly_till_now, _4to7_years, 3, stores, car_used) 0.5 0.5;
   (No_credits_taken__all_paid_duly, _4to7_years, 3, stores, car_used) 0.5 0.5;
   (All_credits_at_this_bank_paid_duly, ge7_years, 3, stores, car_used) 0.5 0.5;
   (Critical_account__other_credits_elsewhere, ge7_years, 3, stores, car_used) 0.5 0.5;
   (Delay_in_paying_off_in_the_past, ge7_years, 3, stores, car_used) 0.5 0.5;
   (Existing_credits_paid_duly_till_now, ge7_years, 3, stores, car_used) 0.5 0.5;
   (No_credits_taken__all_paid_duly, ge7_years, 3, stores, car_used) 0.5 0.5;
   (All_credits_at_this_bank_paid_duly, lt1_year, 3, stores, car_used) 0.5 0.5;
   (Critical_account__other_credits_elsewhere, lt1_year, 3, stores, car_used) 0.5 0.5;
   (Delay_in_paying_off_in_the_past, lt1_year, 3, stores, car_used) 0.5 0.5;
   (Existing_credits_paid_duly_till_now, lt1_year, 3, stores, car_used) 0.5 0.5;
   (No_credits_taken__all_paid_duly, lt1_year, 3, stores, car_used) 0.5 0.5;
   (All_credits_at_this_bank_paid_duly, unemployed, 3, stores, car_used) 0.5 0.5;
   (Critical_account__other_credits_elsewhere, unemployed, 3, stores, car_used) 0.5 0.5;
   (Delay_in_paying_off_in_the_past, unemployed, 3, stores, car_used) 0.5 0.5;
   (Existing_credits_paid_duly_till_now, unemployed, 3, stores, car_used) 0.5 0.5;
   (No_credits_taken__all_paid_duly, unemployed, 3, stores, car_used) 0.5 0.5;
   (All_credits_at_this_bank_paid_duly, _1to4_years, 4, stores, car_used) 0.5 0.5;
   (Critical_account__other_credits_elsewhere, _1to4_years, 4, stores, car_used) 0.5 0.5;
   (Delay_in_paying_off_in_the_past, _1to4_years, 4, stores, car_used) 0.5 0.5;
   (Existing_credits_paid_duly_till_now, _1to4_years, 4, stores, car_used) 0.5 0.5;
   (No_credits_taken__all_paid_duly, _1to4_years, 4, stores, car_used) 0.5 0.5;
   (All_credits_at_this_bank_paid_duly, _4to7_years, 4, stores, car_used) 0.5 0.5;
   (Critical_account__other_credits_elsewhere, _4to7_years, 4, stores, car_used) 0.5 0.5;
   (Delay_in_paying_off_in_the_past, _4to7_years, 4, stores, car_used) 0.5 0.5;
   (Existing_credits_paid_duly_till_now, _4to7_years, 4, stores, car_used) 0.5 0.5;
   (No_credits_taken__all_paid_duly, _4to7_years, 4, stores, car_used) 0.5 0.5;
   (All_credits_at_this_bank_paid_duly, ge7_years, 4, stores, car_used) 0.5 0.5;
   (Critical_account__other_credits_elsewhere, ge7_years, 4, stores, car_used) 0.333333 0.666667;
   (Delay_in_paying_off_in_the_past, ge7_years, 4, stores, car_used) 0.5 0.5;
   (Existing_credits_paid_duly_till_now, ge7_years, 4, stores, car_used) 0.5 0.5;
   (No_credits_taken__all_paid_duly, ge7_years, 4, stores, car_used) 0.5 0.5;
   (All_credits_at_this_bank_paid_duly, lt1_year, 4, stores, car_used) 0.5 0.5;
   (Critical_account__other_credits_elsewhere, lt1_year, 4, stores, car_used) 0.5 0.5;
   (Delay_in_paying_off_in_the_past, lt1_year, 4, stores, car_used) 0.5 0.5;
   (Existing_credits_paid_duly_till_now, lt1_year, 4, stores, car_used) 0.5 0.5;
   (No_credits_taken__all_paid_duly, lt1_year, 4, stores, car_used) 0.5 0.5;
   (All_credits_at_this_bank_paid_duly, unemployed, 4, stores, car_used) 0.5 0.5;
   (Critical_account__other_credits_elsewhere, unemployed, 4, stores, car_used) 0.5 0.5;
   (Delay_in_paying_off_in_the_past, unemployed, 4, stores, car_used) 0.5 0.5;
   (Existing_credits_paid_duly_till_now, unemployed, 4, stores, car_used) 0.5 0.5;
   (No_credits_taken__all_paid_duly, unemployed, 4, stores, car_used) 0.5 0.5;
   (All_credits_at_this_bank_paid_duly, _1to4_years, 1, bank, domestic_appliances) 0.5 0.5;
   (Critical_account__other_credits_elsewhere, _1to4_years, 1, bank, domestic_appliances) 0.5 0.5;
   (Delay_in_paying_off_in_the_past, _1to4_years, 1, bank, domestic_appliances) 0.5 0.5;
   (Existing_credits_paid_duly_till_now, _1to4_years, 1, bank, domestic_appliances) 0.5 0.5;
   (No_credits_taken__all_paid_duly, _1to4_years, 1, bank, domestic_appliances) 0.5 0.5;
   (All_credits_at_this_bank_paid_duly, _4to7_years, 1, bank, domestic_appliances) 0.5 0.5;
   (Critical_account__other_credits_elsewhere, _4to7_years, 1, bank, domestic_appliances) 0.5 0.5;
   (Delay_in_paying_off_in_the_past, _4to7_years, 1, bank, domestic_appliances) 0.5 0.5;
   (Existing_credits_paid_duly_till_now, _4to7_years, 1, bank, domestic_appliances) 0.5 0.5;
   (No_credits_taken__all_paid_duly, _4to7_years, 1, bank, domestic_appliances) 0.5 0.5;
   (All_credits_at_this_bank_paid_duly, ge7_years, 1, bank, domestic_appliances) 0.5 0.5;
   (Critical_account__other_credits_elsewhere, ge7_years, 1, bank, domestic_appliances) 0.5 0.5;
   (Delay_in_paying_off_in_the_past, ge7_years, 1, bank, domestic_appliances) 0.5 0.5;
   (Existing_credits_paid_duly_till_now, ge7_years, 1, bank, domestic_appliances) 0.5 0.5;
   (No_credits_taken__all_paid_duly, ge7_years, 1, bank, domestic_appliances) 0.5 0.5;
   (All_credits_at_this_bank_paid_duly, lt1_year, 1, bank, domestic_appliances) 0.5 0.5;
   (Critical_account__other_credits_elsewhere, lt1_year, 1, bank, domestic_appliances) 0.5 0.5;
   (Delay_in_paying_off_in_the_past, lt1_year, 1, bank, domestic_appliances) 0.5 0.5;
   (Existing_credits_paid_duly_till_now, lt1_year, 1, bank, domestic_appliances) 0.5 0.5;
   (No_credits_taken__all_paid_duly, lt1_year, 1, bank, domestic_appliances) 0.5 0.5;
   (All_credits_at_this_bank_paid_duly, unemployed, 1, bank, domestic_appliances) 0.5 0.5;
   (Critical_account__other_credits_elsewhere, unemployed, 1, bank, domestic_appliances) 0.5 0.5;
   (Delay_in_paying_off_in_the_past, unemployed, 1, bank, domestic_appliances) 0.5 0.5;
   (Existing_credits_paid_duly_till_now, unemployed, 1, bank, domestic_appliances) 0.5 0.5;
   (No_credits_taken__all_paid_duly, unemployed, 1, bank, domestic_appliances) 0.5 0.5;
   (All_credits_at_this_bank_paid_duly, _1to4_years, 2, bank, domestic_appliances) 0.5 0.5;
   (Critical_account__other_credits_elsewhere, _1to4_years, 2, bank, domestic_appliances) 0.5 0.5;
   (Delay_in_paying_off_in_the_past, _1to4_years, 2, bank, domestic_appliances) 0.5 0.5;
   (Existing_credits_paid_duly_till_now, _1to4_years, 2, bank, domestic_appliances) 0.5 0.5;
   (No_credits_taken__all_paid_duly, _1to4_years, 2, bank, domestic_appliances) 0.5 0.5;
   (All_credits_at_this_bank_paid_duly, _4to7_years, 2, bank, domestic_appliances) 0.5 0.5;
   (Critical_account__other_credits_elsewhere, _4to7_years, 2, bank, domestic_appliances) 0.5 0.5;
   (Delay_in_paying_off_in_the_past, _4to7_years, 2, bank, domestic_appliances) 0.5 0.5;
   (Existing_credits_paid_duly_till_now, _4to7_years, 2, bank, domestic_appliances) 0.5 0.5;
   (No_credits_taken__all_paid_duly, _4to7_years, 2, bank, domestic_appliances) 0.5 0.5;
   (All_credits_at_this_bank_paid_duly, ge7_years, 2, bank, domestic_appliances) 0.5 0.5;
   (Critical_account__other_credits_elsewhere, ge7_years, 2, bank, domestic_appliances) 0.5 0.5;
   (Delay_in_paying_off_in_the_past, ge7_years, 2, bank, domestic_appliances) 0.5 0.5;
   (Existing_credits_paid_duly_till_now, ge7_years, 2, bank, domestic_appliances) 0.5 0.5;
   (No_credits_taken__all_paid_duly, ge7_years, 2, bank, domestic_appliances) 0.5 0.5;
   (All_credits_at_this_bank_paid_duly, lt1_year, 2, bank, domestic_appliances) 0.333333 0.666667;
   (Critical_account__other_credits_elsewhere, lt1_year, 2, bank, domestic_appliances) 0.5 0.5;
   (Delay_in_paying_off_in_the_past, lt1_year, 2, bank, domestic_appliances) 0.5 0.5;
   (Existing_credits_paid_duly_till_now, lt1_year, 2, bank, domestic_appliances) 0.5 0.5;
   (No_credits_taken__all_paid_duly, lt1_year, 2, bank, domestic_appliances) 0.5 0.5;
   (All_credits_at_this_bank_paid_duly, unemployed, 2, bank, domestic_appliances) 0.5 0.5;
   (Critical_account__other_credits_elsewhere, unemployed, 2, bank, domestic_appliances) 0.5 0.5;
   (Delay_in_paying_off_in_the_past, unemployed, 2, bank, domestic_appliances) 0.5 0.5;
   (Existing_credits_paid_duly_till_now, unemployed, 2, bank, domestic_appliances) 0.5 0.5;
   (No_credits_taken__all_paid_duly, unemployed, 2, bank, domestic_appliances) 0.5 0.5;
   (All_credits_at_this_bank_paid_duly, _1to4_years, 3, bank, domestic_appliances) 0.5 0.5;
   (Critical_account__other_credits_elsewhere, _1to4_years, 3, bank, domestic_appliances) 0.5 0.5;
   (Delay_in_paying_off_in_the_past, _1to4_years, 3, bank, domestic_appliances) 0.5 0.5;
   (Existing_credits_paid_duly_till_now, _1to4_years, 3, bank, domestic_appliances) 0.5 0.5;
   (No_credits_taken__all_paid_duly, _1to4_years, 3, bank, domestic_appliances) 0.5 0.5;
   (All_credits_at_this_bank_paid_duly, _4to7_years, 3, bank, domestic_appliances) 0.5 0.5;
   (Critical_account__other_credits_elsewhere, _4to7_years, 3, bank, domestic_appliances) 0.5 0.5;
   (Delay_in_paying_off_in_the_past, _4to7_years, 3, bank, domestic_appliances) 0.5 0.5;
   (Existing_credits_paid_duly_till_now, _4to7_years, 3, bank, domestic_appliances) 0.5 0.5;
   (No_credits_taken__all_paid_duly, _4to7_years, 3, bank, domestic_appliances) 0.5 0.5;
   (All_credits_at_this_bank_paid_duly, ge7_years, 3, bank, domestic_appliances) 0.5 0.5;
   (Critical_account__other_credits_elsewhere, ge7_years, 3, bank, domestic_appliances) 0.5 0.5;
   (Delay_in_paying_off_in_the_past, ge7_years, 3, bank, domestic_appliances) 0.5 0.5;
   (Existing_credits_paid_duly_till_now, ge7_years, 3, bank, domestic_appliances) 0.5 0.5;
   (No_credits_taken__all_paid_duly, ge7_years, 3, bank, domestic_appliances) 0.5 0.5;
   (All_credits_at_this_bank_paid_duly, lt1_year, 3, bank, domestic_appliances) 0.5 0.5;
   (Critical_account__other_credits_elsewhere, lt1_year, 3, bank, domestic_appliances) 0.5 0.5;
   (Delay_in_paying_off_in_the_past, lt1_year, 3, bank, domestic_appliances) 0.5 0.5;
   (Existing_credits_paid_duly_till_now, lt1_year, 3, bank, domestic_appliances) 0.5 0.5;
   (No_credits_taken__all_paid_duly, lt1_year, 3, bank, domestic_appliances) 0.5 0.5;
   (All_credits_at_this_bank_paid_duly, unemployed, 3, bank, domestic_appliances) 0.5 0.5;
   (Critical_account__other_credits_elsewhere, unemployed, 3, bank, domestic_appliances) 0.5 0.5;
   (Delay_in_paying_off_in_the_past, unemployed, 3, bank, domestic_appliances) 0.5 0.5;
   (Existing_credits_paid_duly_till_now, unemployed, 3, bank, domestic_appliances) 0.5 0.5;
   (No_credits_taken__all_paid_duly, unemployed, 3, bank, domestic_appliances) 0.5 0.5;
   (All_credits_at_this_bank_paid_duly, _1to4_years, 4, bank, domestic_appliances) 0.5 0.5;
   (Critical_account__other_credits_elsewhere, _1to4_years, 4, bank, domestic_appliances) 0.5 0.5;
   (Delay_in_paying_off_in_the_past, _1to4_years, 4, bank, domestic_appliances) 0.5 0.5;
   (Existing_credits_paid_duly_till_now, _1to4_years, 4, bank, domestic_appliances) 0.5 0.5;
   (No_credits_taken__all_paid_duly, _1to4_years, 4, bank, domestic_appliances) 0.5 0.5;
   (All_credits_at_this_bank_paid_duly, _4to7_years, 4, bank, domestic_appliances) 0.5 0.5;
   (Critical_account__other_credits_elsewhere, _4to7_years, 4, bank, domestic_appliances) 0.5 0.5;
   (Delay_in_paying_off_in_the_past, _4to7_years, 4, bank, domestic_appliances) 0.5 0.5;
   (Existing_credits_paid_duly_till_now, _4to7_years, 4, bank, domestic_appliances) 0.5 0.5;
   (No_credits_taken__all_paid_duly, _4to7_years, 4, bank, domestic_appliances) 0.5 0.5;
   (All_credits_at_this_bank_paid_duly, ge7_years, 4, bank, domestic_appliances) 0.5 0.5;
   (Critical_account__other_credits_elsewhere, ge7_years, 4, bank, domestic_appliances) 0.5 0.5;
   (Delay_in_paying_off_in_the_past, ge7_years, 4, bank, domestic_appliances) 0.5 0.5;
   (Existing_credits_paid_duly_till_now, ge7_years, 4, bank, domestic_appliances) 0.5 0.5;
   (No_credits_taken__all_paid_duly, ge7_years, 4, bank, domestic_appliances) 0.5 0.5;
   (All_credits_at_this_bank_paid_duly, lt1_year, 4, bank, domestic_appliances) 0.5 0.5;
   (Critical_account__other_credits_elsewhere, lt1_year, 4, bank, domestic_appliances) 0.5 0.5;
   (Delay_in_paying_off_in_the_past, lt1_year, 4, bank, domestic_appliances) 0.5 0.5;
   (Existing_credits_paid_duly_till_now, lt1_year, 4, bank, domestic_appliances) 0.5 0.5;
   (No_credits_taken__all_paid_duly, lt1_year, 4, bank, domestic_appliances) 0.5 0.5;
   (All_credits_at_this_bank_paid_duly, unemployed, 4, bank, domestic_appliances) 0.5 0.5;
   (Critical_account__other_credits_elsewhere, unemployed, 4, bank, domestic_appliances) 0.5 0.5;
   (Delay_in_paying_off_in_the_past, unemployed, 4, bank, domestic_appliances) 0.5 0.5;
   (Existing_credits_paid_duly_till_now, unemployed, 4, bank, domestic_appliances) 0.5 0.5;
   (No_credits_taken__all_paid_duly, unemployed, 4, bank, domestic_appliances) 0.5 0.5;
   (All_credits_at_this_bank_paid_duly, _1to4_years, 1, none, domestic_appliances) 0.5 0.5;
   (Critical_account__other_credits_elsewhere, _1to4_years, 1, none, domestic_appliances) 0.5 0.5;
   (Delay_in_paying_off_in_the_past, _1to4_years, 1, none, domestic_appliances) 0.5 0.5;
   (Existing_credits_paid_duly_till_now, _1to4_years, 1, none, domestic_appliances) 0.5 0.5;
   (No_credits_taken__all_paid_duly, _1to4_years, 1, none, domestic_appliances) 0.5 0.5;
   (All_credits_at_this_bank_paid_duly, _4to7_years, 1, none, domestic_appliances) 0.5 0.5;
   (Critical_account__other_credits_elsewhere, _4to7_years, 1, none, domestic_appliances) 0.5 0.5;
   (Delay_in_paying_off_in_the_past, _4to7_years, 1, none, domestic_appliances) 0.5 0.5;
   (Existing_credits_paid_duly_till_now, _4to7_years, 1, none, domestic_appliances) 0.5 0.5;
   (No_credits_taken__all_paid_duly, _4to7_years, 1, none, domestic_appliances) 0.5 0.5;
   (All_credits_at_this_bank_paid_duly, ge7_years, 1, none, domestic_appliances) 0.5 0.5;
   (Critical_account__other_credits_elsewhere, ge7_years, 1, none, domestic_appliances) 0.5 0.5;
   (Delay_in_paying_off_in_the_past, ge7_years, 1, none, domestic_appliances) 0.5 0.5;
   (Existing_credits_paid_duly_till_now, ge7_years, 1, none, domestic_appliances) 0.5 0.5;
   (No_credits_taken__all_paid_duly, ge7_years, 1, none, domestic_appliances) 0.5 0.5;
   (All_credits_at_this_bank_paid_duly, lt1_year, 1, none, domestic_appliances) 0.5 0.5;
   (Critical_account__other_credits_elsewhere, lt1_year, 1, none, domestic_appliances) 0.5 0.5;
   (Delay_in_paying_off_in_the_past, lt1_year, 1, none, domestic_appliances) 0.5 0.5;
   (Existing_credits_paid_duly_till_now, lt1_year, 1, none, domestic_appliances) 0.25 0.75;
   (No_credits_taken__all_paid_duly, lt1_year, 1, none, domestic_appliances) 0.5 0.5;
   (All_credits_at_this_bank_paid_duly, unemployed, 1, none, domestic_appliances) 0.5 0.5;
   (Critical_account__other_credits_elsewhere, unemployed, 1, none, domestic_appliances) 0.5 0.5;
   (Delay_in_paying_off_in_the_past, unemployed, 1, none, domestic_appliances) 0.5 0.5;
   (Existing_credits_paid_duly_till_now, unemployed, 1, none, domestic_appliances) 0.5 0.5;
