<?xml version="1.0" ?>

<BIF VERSION="0.3">
<NETWORK>

<!-- Variables -->
<VARIABLE TYPE="nature">
	<NAME>CreditRisk</NAME>
	<PROPERTY>description = </PROPERTY>
	<PROPERTY>fast = CreditRisk{Bad|Good}</PROPERTY>
<!- OUTCOME are not used in pyAgrum BIFXML (see fast property) but are kept for compatibility->
	<OUTCOME>Bad</OUTCOME>
	<OUTCOME>Good</OUTCOME>
</VARIABLE>

<VARIABLE TYPE="nature">
	<NAME>SavingsAccount</NAME>
	<PROPERTY>description = </PROPERTY>
	<PROPERTY>fast = SavingsAccount{_100to500_DM|_500to1000_DM|ge1000_DM|lt100_DM|unknown_no_savings}</PROPERTY>
<!- OUTCOME are not used in pyAgrum BIFXML (see fast property) but are kept for compatibility->
	<OUTCOME>_100to500_DM</OUTCOME>
	<OUTCOME>_500to1000_DM</OUTCOME>
	<OUTCOME>ge1000_DM</OUTCOME>
	<OUTCOME>lt100_DM</OUTCOME>
	<OUTCOME>unknown_no_savings</OUTCOME>
</VARIABLE>

<VARIABLE TYPE="nature">
	<NAME>ExistingCredits</NAME>
	<PROPERTY>description = </PROPERTY>
	<PROPERTY>fast = ExistingCredits{1|2|3|4}</PROPERTY>
<!- OUTCOME are not used in pyAgrum BIFXML (see fast property) but are kept for compatibility->
	<OUTCOME>1</OUTCOME>
	<OUTCOME>2</OUTCOME>
	<OUTCOME>3</OUTCOME>
	<OUTCOME>4</OUTCOME>
</VARIABLE>

<VARIABLE TYPE="nature">
	<NAME>PersonalStatusSex</NAME>
	<PROPERTY>description = </PROPERTY>
	<PROPERTY>fast = PersonalStatusSex{female_divorced_separated_married|male_divorced_separated|male_married_widowed|male_single}</PROPERTY>
<!- OUTCOME are not used in pyAgrum BIFXML (see fast property) but are kept for compatibility->
	<OUTCOME>female_divorced_separated_married</OUTCOME>
	<OUTCOME>male_divorced_separated</OUTCOME>
	<OUTCOME>male_married_widowed</OUTCOME>
	<OUTCOME>male_single</OUTCOME>
</VARIABLE>

<VARIABLE TYPE="nature">
	<NAME>Telephone</NAME>
	<PROPERTY>description = </PROPERTY>
	<PROPERTY>fast = Telephone{none|yes_registered_}</PROPERTY>
<!- OUTCOME are not used in pyAgrum BIFXML (see fast property) but are kept for compatibility->
	<OUTCOME>none</OUTCOME>
	<OUTCOME>yes_registered_</OUTCOME>
</VARIABLE>

<VARIABLE TYPE="nature">
	<NAME>CheckingAccount</NAME>
	<PROPERTY>description = </PROPERTY>
	<PROPERTY>fast = CheckingAccount{_0to200|No_Checking|ge200|lt0}</PROPERTY>
<!- OUTCOME are not used in pyAgrum BIFXML (see fast property) but are kept for compatibility->
	<OUTCOME>_0to200</OUTCOME>
	<OUTCOME>No_Checking</OUTCOME>
	<OUTCOME>ge200</OUTCOME>
	<OUTCOME>lt0</OUTCOME>
</VARIABLE>

<VARIABLE TYPE="nature">
	<NAME>Job</NAME>
	<PROPERTY>description = </PROPERTY>
	<PROPERTY>fast = Job{management_self_employed_highly_qualified_officer|skilled_employee_official|unemployed_unskilled_non_resident|unskilled_resident}</PROPERTY>
<!- OUTCOME are not used in pyAgrum BIFXML (see fast property) but are kept for compatibility->
	<OUTCOME>management_self_employed_highly_qualified_officer</OUTCOME>
	<OUTCOME>skilled_employee_official</OUTCOME>
	<OUTCOME>unemployed_unskilled_non_resident</OUTCOME>
	<OUTCOME>unskilled_resident</OUTCOME>
</VARIABLE>

<VARIABLE TYPE="nature">
	<NAME>Property</NAME>
	<PROPERTY>description = </PROPERTY>
	<PROPERTY>fast = Property{building_society_savings_life_insurance|car_or_other|real_estate|unknown_no_property}</PROPERTY>
<!- OUTCOME are not used in pyAgrum BIFXML (see fast property) but are kept for compatibility->
	<OUTCOME>building_society_savings_life_insurance</OUTCOME>
	<OUTCOME>car_or_other</OUTCOME>
	<OUTCOME>real_estate</OUTCOME>
	<OUTCOME>unknown_no_property</OUTCOME>
</VARIABLE>

<VARIABLE TYPE="nature">
	<NAME>Purpose</NAME>
	<PROPERTY>description = </PROPERTY>
	<PROPERTY>fast = Purpose{business|car_new_|car_used_|domestic_appliances|education|furniture_equipment|others|radio_television|repairs|retraining}</PROPERTY>
<!- OUTCOME are not used in pyAgrum BIFXML (see fast property) but are kept for compatibility->
	<OUTCOME>business</OUTCOME>
	<OUTCOME>car_new_</OUTCOME>
	<OUTCOME>car_used_</OUTCOME>
	<OUTCOME>domestic_appliances</OUTCOME>
	<OUTCOME>education</OUTCOME>
	<OUTCOME>furniture_equipment</OUTCOME>
	<OUTCOME>others</OUTCOME>
	<OUTCOME>radio_television</OUTCOME>
	<OUTCOME>repairs</OUTCOME>
	<OUTCOME>retraining</OUTCOME>
</VARIABLE>

<VARIABLE TYPE="nature">
	<NAME>ResidenceSince</NAME>
	<PROPERTY>description = </PROPERTY>
	<PROPERTY>fast = ResidenceSince{1|2|3|4}</PROPERTY>
<!- OUTCOME are not used in pyAgrum BIFXML (see fast property) but are kept for compatibility->
	<OUTCOME>1</OUTCOME>
	<OUTCOME>2</OUTCOME>
	<OUTCOME>3</OUTCOME>
	<OUTCOME>4</OUTCOME>
</VARIABLE>

<VARIABLE TYPE="nature">
	<NAME>Duration</NAME>
	<PROPERTY>description = </PROPERTY>
	<PROPERTY>fast = Duration{Long|Medium|Short}</PROPERTY>
<!- OUTCOME are not used in pyAgrum BIFXML (see fast property) but are kept for compatibility->
	<OUTCOME>Long</OUTCOME>
	<OUTCOME>Medium</OUTCOME>
	<OUTCOME>Short</OUTCOME>
</VARIABLE>

<VARIABLE TYPE="nature">
	<NAME>Housing</NAME>
	<PROPERTY>description = </PROPERTY>
	<PROPERTY>fast = Housing{for_free|own|rent}</PROPERTY>
<!- OUTCOME are not used in pyAgrum BIFXML (see fast property) but are kept for compatibility->
	<OUTCOME>for_free</OUTCOME>
	<OUTCOME>own</OUTCOME>
	<OUTCOME>rent</OUTCOME>
</VARIABLE>

<VARIABLE TYPE="nature">
	<NAME>OtherDebtors</NAME>
	<PROPERTY>description = </PROPERTY>
	<PROPERTY>fast = OtherDebtors{co_applicant|guarantor|none}</PROPERTY>
<!- OUTCOME are not used in pyAgrum BIFXML (see fast property) but are kept for compatibility->
	<OUTCOME>co_applicant</OUTCOME>
	<OUTCOME>guarantor</OUTCOME>
	<OUTCOME>none</OUTCOME>
</VARIABLE>

<VARIABLE TYPE="nature">
	<NAME>CreditHistory</NAME>
	<PROPERTY>description = </PROPERTY>
	<PROPERTY>fast = CreditHistory{All_credits_at_this_bank_paid_duly|Critical_account_other_credits_elsewhere|Delay_in_paying_off_in_the_past|Existing_credits_paid_duly_till_now|No_credits_taken_all_paid_duly}</PROPERTY>
<!- OUTCOME are not used in pyAgrum BIFXML (see fast property) but are kept for compatibility->
	<OUTCOME>All_credits_at_this_bank_paid_duly</OUTCOME>
	<OUTCOME>Critical_account_other_credits_elsewhere</OUTCOME>
	<OUTCOME>Delay_in_paying_off_in_the_past</OUTCOME>
	<OUTCOME>Existing_credits_paid_duly_till_now</OUTCOME>
	<OUTCOME>No_credits_taken_all_paid_duly</OUTCOME>
</VARIABLE>

<VARIABLE TYPE="nature">
	<NAME>EmploymentSince</NAME>
	<PROPERTY>description = </PROPERTY>
	<PROPERTY>fast = EmploymentSince{_1to4_years|_4to7_years|ge7_years|lt1_year|unemployed}</PROPERTY>
<!- OUTCOME are not used in pyAgrum BIFXML (see fast property) but are kept for compatibility->
	<OUTCOME>_1to4_years</OUTCOME>
	<OUTCOME>_4to7_years</OUTCOME>
	<OUTCOME>ge7_years</OUTCOME>
	<OUTCOME>lt1_year</OUTCOME>
	<OUTCOME>unemployed</OUTCOME>
</VARIABLE>

<VARIABLE TYPE="nature">
	<NAME>Age</NAME>
	<PROPERTY>description = </PROPERTY>
	<PROPERTY>fast = Age{Middle|Old|Young}</PROPERTY>
<!- OUTCOME are not used in pyAgrum BIFXML (see fast property) but are kept for compatibility->
	<OUTCOME>Middle</OUTCOME>
	<OUTCOME>Old</OUTCOME>
	<OUTCOME>Young</OUTCOME>
</VARIABLE>

<VARIABLE TYPE="nature">
	<NAME>OtherInstallmentPlans</NAME>
	<PROPERTY>description = </PROPERTY>
	<PROPERTY>fast = OtherInstallmentPlans{bank|none|stores}</PROPERTY>
<!- OUTCOME are not used in pyAgrum BIFXML (see fast property) but are kept for compatibility->
	<OUTCOME>bank</OUTCOME>
	<OUTCOME>none</OUTCOME>
	<OUTCOME>stores</OUTCOME>
</VARIABLE>

<VARIABLE TYPE="nature">
	<NAME>CreditAmount</NAME>
	<PROPERTY>description = </PROPERTY>
	<PROPERTY>fast = CreditAmount{High|Low|Medium}</PROPERTY>
<!- OUTCOME are not used in pyAgrum BIFXML (see fast property) but are kept for compatibility->
	<OUTCOME>High</OUTCOME>
	<OUTCOME>Low</OUTCOME>
	<OUTCOME>Medium</OUTCOME>
</VARIABLE>

<VARIABLE TYPE="nature">
	<NAME>InstallmentRate</NAME>
	<PROPERTY>description = </PROPERTY>
	<PROPERTY>fast = InstallmentRate{1|2|3|4}</PROPERTY>
<!- OUTCOME are not used in pyAgrum BIFXML (see fast property) but are kept for compatibility->
	<OUTCOME>1</OUTCOME>
	<OUTCOME>2</OUTCOME>
	<OUTCOME>3</OUTCOME>
	<OUTCOME>4</OUTCOME>
</VARIABLE>

<VARIABLE TYPE="nature">
	<NAME>ForeignWorker</NAME>
	<PROPERTY>description = </PROPERTY>
	<PROPERTY>fast = ForeignWorker{no|yes}</PROPERTY>
<!- OUTCOME are not used in pyAgrum BIFXML (see fast property) but are kept for compatibility->
	<OUTCOME>no</OUTCOME>
	<OUTCOME>yes</OUTCOME>
</VARIABLE>

<VARIABLE TYPE="nature">
	<NAME>LiablePeople</NAME>
	<PROPERTY>description = </PROPERTY>
	<PROPERTY>fast = LiablePeople{1|2}</PROPERTY>
<!- OUTCOME are not used in pyAgrum BIFXML (see fast property) but are kept for compatibility->
	<OUTCOME>1</OUTCOME>
	<OUTCOME>2</OUTCOME>
</VARIABLE>

<VARIABLE TYPE="decision">
	<NAME>ApproveLoan</NAME>
	<PROPERTY>description = Approve or reject the loan</PROPERTY>
	<PROPERTY>fast = ApproveLoan{Approve|Reject}</PROPERTY>
<!- OUTCOME are not used in pyAgrum BIFXML (see fast property) but are kept for compatibility->
	<OUTCOME>Approve</OUTCOME>
	<OUTCOME>Reject</OUTCOME>
</VARIABLE>

<VARIABLE TYPE="utility">
	<NAME>Utility</NAME>
	<PROPERTY>description = Financial outcome of decision</PROPERTY>
	<PROPERTY>fast = Utility{0}</PROPERTY>
<!- OUTCOME are not used in pyAgrum BIFXML (see fast property) but are kept for compatibility->
	<OUTCOME>0</OUTCOME>
</VARIABLE>

<!-- Probability distributions -->
<DEFINITION>
	<FOR>CreditRisk</FOR><!--CreditRisk | -->
	<TABLE>0.300004 0.699996 </TABLE>
</DEFINITION>
<DEFINITION>
	<FOR>SavingsAccount</FOR><!--SavingsAccount | Purpose,CreditRisk,-->
	<GIVEN>CreditRisk</GIVEN>
	<GIVEN>Purpose</GIVEN>
	<TABLE>0.0883994 0.0296623 0.0296623 0.793245 0.0590308 0.123638 0.0338012 0.000112296 0.685121 0.157327 0.0592375 0.0592375 0.00058651 0.704399 0.17654 0.249383 0.00246914 0.00246914 0.496296 0.249383 0.136508 0.000453515 0.0911565 0.726077 0.045805 0.0690784 0.0518519 0.000172265 0.809819 0.0690784 0.2 0.0019802 0.0019802 0.59604 0.2 0.161322 0.0485093 0.0162772 0.677035 0.0968574 0.00124224 0.00124224 0.249689 0.746584 0.00124224 0.00952381 0.00952381 0.00952381 0.961905 0.00952381 0.222205 0.0477399 0.0794607 0.460111 0.190484 0.131058 0.0690107 0.0759049 0.53092 0.193106 0.0930854 0.0466008 0.0814643 0.44172 0.33713 0.00124224 0.249689 0.00124224 0.498137 0.249689 0.0716578 0.0716578 0.000356506 0.499465 0.356863 0.0407152 0.0732223 0.0894758 0.65835 0.138236 0.143262 0.00141844 0.00141844 0.710638 0.143262 0.0780096 0.0917679 0.0367347 0.582481 0.211007 0.214235 0.0718861 0.000711744 0.570107 0.14306 0.00124224 0.125466 0.00124224 0.373913 0.498137 </TABLE>
</DEFINITION>
<DEFINITION>
	<FOR>ExistingCredits</FOR><!--ExistingCredits | CreditHistory,CreditRisk,-->
	<GIVEN>CreditRisk</GIVEN>
	<GIVEN>CreditHistory</GIVEN>
	<TABLE>0.78495 0.214337 0.000356633 0.000356633 0.240008 0.69964 0.0601519 0.00019984 0.392653 0.57097 0.000356633 0.03602 0.875592 0.106543 0.0118907 0.00597492 0.279952 0.679313 0.0403355 0.000399361 0.903517 0.0955323 0.000475285 0.000475285 0.238685 0.670713 0.0782176 0.0123848 0.333278 0.666389 0.000166556 0.000166556 0.914054 0.0775814 0.00556725 0.00279747 0.399601 0.53258 0.0671543 0.000664894 </TABLE>
</DEFINITION>
<DEFINITION>
	<FOR>PersonalStatusSex</FOR><!--PersonalStatusSex | EmploymentSince,CreditRisk,-->
	<GIVEN>CreditRisk</GIVEN>
	<GIVEN>EmploymentSince</GIVEN>
	<TABLE>0.394175 0.0481546 0.105825 0.451845 0.179559 0.0514857 0.12833 0.640625 0.21877 0.0782324 0.000156152 0.702842 0.528412 0.100086 0.100086 0.271416 0.434462 0.0438368 0.0872396 0.434462 0.280846 0.0596069 0.114917 0.544631 0.296283 0.0148845 0.0741262 0.614707 0.174619 0.042372 0.0635315 0.719477 0.480302 0.0392983 0.156899 0.323501 0.333248 0.0514857 0.0514857 0.563781 </TABLE>
</DEFINITION>
<DEFINITION>
	<FOR>Telephone</FOR><!--Telephone | Job,CreditRisk,-->
	<GIVEN>Job</GIVEN>
	<GIVEN>CreditRisk</GIVEN>
	<TABLE>0.137397 0.862603 0.144403 0.855597 0.682776 0.317224 0.592338 0.407662 0.856125 0.143875 0.666445 0.333555 0.839165 0.160835 0.847174 0.152826 </TABLE>
</DEFINITION>
<DEFINITION>
	<FOR>CheckingAccount</FOR><!--CheckingAccount | CreditRisk,-->
	<GIVEN>CreditRisk</GIVEN>
	<TABLE>0.349987 0.153346 0.0466938 0.449973 0.234287 0.497129 0.0700103 0.198574 </TABLE>
</DEFINITION>
<DEFINITION>
	<FOR>Job</FOR><!--Job | EmploymentSince,CreditRisk,-->
	<GIVEN>CreditRisk</GIVEN>
	<GIVEN>EmploymentSince</GIVEN>
	<TABLE>0.115436 0.682526 9.61169e-05 0.201942 0.0514857 0.794314 0.000256148 0.153945 0.296846 0.562305 0.000156152 0.140693 0.0858081 0.5998 0.0286979 0.285694 0.521267 0.260851 0.217448 0.000434028 0.0681161 0.676523 0.00429714 0.251064 0.140773 0.651733 7.40521e-05 0.20742 0.164039 0.666579 5.28989e-05 0.169329 0.0980988 0.637103 0.0294982 0.2353 0.538166 0.153945 0.282018 0.0258709 </TABLE>
</DEFINITION>
<DEFINITION>
	<FOR>Property</FOR><!--Property | Purpose,CreditRisk,-->
	<GIVEN>CreditRisk</GIVEN>
	<GIVEN>Purpose</GIVEN>
	<TABLE>0.14718 0.440952 0.205934 0.205934 0.292116 0.303347 0.191038 0.2135 0.117958 0.294014 0.0592723 0.528756 0.25 0.497525 0.25 0.00247525 0.272686 0.181942 0.0911978 0.454174 0.310303 0.379221 0.189697 0.120779 0.200397 0.597222 0.00198413 0.200397 0.161348 0.37089 0.306415 0.161348 0.125622 0.125622 0.25 0.498756 0.971154 0.00961538 0.00961538 0.00961538 0.253966 0.317418 0.365006 0.0636104 0.186224 0.275855 0.393064 0.144857 0.197699 0.441771 0.116341 0.244189 0.25 0.125622 0.498756 0.125622 0.25 0.321327 0.0716833 0.35699 0.414581 0.243904 0.252032 0.0894831 0.00142045 0.285511 0.143466 0.569602 0.160567 0.385296 0.389883 0.0642543 0.143162 0.285613 0.499288 0.0719373 0.498756 0.25 0.25 0.00124378 </TABLE>
</DEFINITION>
<DEFINITION>
	<FOR>Purpose</FOR><!--Purpose | CreditRisk,CheckingAccount,-->
	<GIVEN>CheckingAccount</GIVEN>
	<GIVEN>CreditRisk</GIVEN>
	<TABLE>0.133302 0.295052 0.0571836 9.51475e-05 0.0666984 0.171361 0.0381541 0.20942 0.0286394 9.51475e-05 0.158501 0.176782 0.0914686 0.0122486 0.036624 0.128032 0.0183425 0.323035 0.036624 0.0183425 0.217137 0.260521 0.0436009 0.00021692 0.0869848 0.195445 0.00021692 0.152061 0.0436009 0.00021692 0.0775926 0.195375 0.149411 0.0115197 0.0459925 0.143666 0.00290147 0.344757 0.0172652 0.0115197 0.142553 0.284397 0.00070922 0.00070922 0.0716312 0.0716312 0.00070922 0.426241 0.00070922 0.00070922 0.0613035 0.244603 0.0409369 0.0205703 0.0613035 0.20387 0.000203666 0.366802 0.000203666 0.000203666 0.0592894 0.310955 0.0666913 0.0296817 0.0740933 0.222132 0.00747594 0.199926 0.0222798 0.00747594 0.0503954 0.258879 0.122286 0.00726096 0.0216391 0.302013 0.0216391 0.194177 0.01445 0.00726096 </TABLE>
</DEFINITION>
<DEFINITION>
	<FOR>ResidenceSince</FOR><!--ResidenceSince | Housing,CreditRisk,-->
	<GIVEN>Housing</GIVEN>
	<GIVEN>CreditRisk</GIVEN>
	<TABLE>0.0229337 0.11376 0.0456403 0.817666 0.0626171 0.125078 0.0626171 0.749688 0.150559 0.424694 0.188185 0.236562 0.163194 0.333959 0.161297 0.341549 0.100086 0.185751 0.0858081 0.628355 0.0367755 0.247707 0.155998 0.559519 </TABLE>
</DEFINITION>
<DEFINITION>
	<FOR>Duration</FOR><!--Duration | CreditAmount,CreditRisk,-->
	<GIVEN>CreditAmount</GIVEN>
	<GIVEN>CreditRisk</GIVEN>
	<TABLE>0.21454 0.428368 0.357092 0.399602 0.59841 0.00198807 0.00847994 0.227861 0.763659 1.59228e-05 0.125806 0.874178 0.061391 0.693657 0.244952 0.0896613 0.552141 0.358198 </TABLE>
</DEFINITION>
<DEFINITION>
	<FOR>Housing</FOR><!--Housing | Property,CreditRisk,-->
	<GIVEN>CreditRisk</GIVEN>
	<GIVEN>Property</GIVEN>
	<TABLE>0.0142193 0.746304 0.239476 9.80104e-05 0.715574 0.284328 0.0168249 0.733133 0.250042 0.626734 0.238848 0.134417 0.00627212 0.813575 0.180153 0.00439073 0.860801 0.134809 4.5039e-05 0.819754 0.180201 0.712513 0.18396 0.103528 </TABLE>
</DEFINITION>
<DEFINITION>
	<FOR>OtherDebtors</FOR><!--OtherDebtors | Purpose,CreditRisk,-->
	<GIVEN>Purpose</GIVEN>
	<GIVEN>CreditRisk</GIVEN>
	<TABLE>0.0296797 0.0296797 0.940641 0.0160241 0.0160241 0.967952 0.0562732 0.0562732 0.887454 0.0345446 0.0414397 0.924016 0.000587199 0.000587199 0.998826 0.0117401 0.0349878 0.953272 0.00248139 0.00248139 0.995037 0.00124533 0.00124533 0.997509 0.000453926 0.000453926 0.999092 0.000356761 0.000356761 0.999286 0.103567 0.000172325 0.896261 0.0488499 0.056978 0.894172 0.399602 0.00198807 0.59841 0.285917 0.14367 0.570413 0.0646461 0.0646461 0.870708 0.0321515 0.100949 0.866899 0.00124533 0.00124533 0.997509 0.0719886 0.143264 0.784747 0.00970874 0.00970874 0.980583 0.00124533 0.00124533 0.997509 </TABLE>
</DEFINITION>
<DEFINITION>
	<FOR>CreditHistory</FOR><!--CreditHistory | Purpose,CreditRisk,-->
	<GIVEN>CreditRisk</GIVEN>
	<GIVEN>Purpose</GIVEN>
	<TABLE>0.117768 0.0590308 0.264611 0.264611 0.293979 0.101179 0.213476 0.0674902 0.561595 0.0562605 0.117889 0.235191 0.00058651 0.587097 0.0592375 0.00246914 0.00246914 0.00246914 0.990123 0.00246914 0.136508 0.272562 0.136508 0.453968 0.000453515 0.0863049 0.172438 0.0518519 0.620327 0.0690784 0.39802 0.2 0.0019802 0.2 0.2 0.0485093 0.112973 0.0807413 0.709267 0.0485093 0.00124224 0.125466 0.249689 0.498137 0.125466 0.00952381 0.00952381 0.00952381 0.961905 0.00952381 0.0477399 0.269786 0.222205 0.380809 0.0794607 0.0207515 0.406825 0.0759049 0.482661 0.0138573 0.0349797 0.371993 0.0930854 0.476583 0.0233585 0.125466 0.125466 0.00124224 0.746584 0.00124224 0.000356506 0.463815 0.0716578 0.463815 0.000356506 0.0244616 0.325152 0.0569687 0.568956 0.0244616 0.00141844 0.285106 0.285106 0.42695 0.00141844 0.0275625 0.334831 0.0688374 0.564137 0.00463197 0.000711744 0.356584 0.0718861 0.498932 0.0718861 0.249689 0.125466 0.00124224 0.498137 0.125466 </TABLE>
</DEFINITION>
<DEFINITION>
	<FOR>EmploymentSince</FOR><!--EmploymentSince | ResidenceSince,CreditRisk,-->
	<GIVEN>ResidenceSince</GIVEN>
	<GIVEN>CreditRisk</GIVEN>
	<TABLE>0.138974 0.138974 0.0557559 0.527323 0.138974 0.287188 0.244657 0.0851675 0.372249 0.010739 0.494693 0.123751 0.0928387 0.17527 0.113447 0.54968 0.142194 0.175361 0.0995499 0.0332149 0.325436 0.186063 0.255749 0.209292 0.0234611 0.254691 0.358416 0.132107 0.188685 0.0661009 0.298347 0.112938 0.338654 0.201612 0.0484482 0.224909 0.152257 0.449784 0.0899844 0.0830652 </TABLE>
</DEFINITION>
<DEFINITION>
	<FOR>Age</FOR><!--Age | EmploymentSince,CreditRisk,-->
	<GIVEN>CreditRisk</GIVEN>
	<GIVEN>EmploymentSince</GIVEN>
	<TABLE>0.201961 0.0385466 0.759492 0.128363 0.000256213 0.871381 0.421834 0.218804 0.359363 0.11438 0.0144224 0.871198 0.347807 0.000434216 0.651759 0.208527 0.0383355 0.753138 0.244464 0.0445086 0.711027 0.513199 0.121727 0.365074 0.176517 9.80104e-05 0.823385 0.256469 0.282091 0.46144 </TABLE>
</DEFINITION>
<DEFINITION>
	<FOR>OtherInstallmentPlans</FOR><!--OtherInstallmentPlans | CreditRisk,CreditHistory,-->
	<GIVEN>CreditHistory</GIVEN>
	<GIVEN>CreditRisk</GIVEN>
	<TABLE>0.464146 0.464146 0.0717089 0.523538 0.19068 0.285782 0.280032 0.659804 0.0601639 0.0782208 0.89705 0.0247295 0.143061 0.678202 0.178737 0.133433 0.783108 0.0834583 0.130214 0.828315 0.0414719 0.105282 0.864222 0.0304961 0.160208 0.759489 0.0803036 0.399867 0.599468 0.000665336 </TABLE>
</DEFINITION>
<DEFINITION>
	<FOR>CreditAmount</FOR><!--CreditAmount | Purpose,CreditRisk,-->
	<GIVEN>Purpose</GIVEN>
	<GIVEN>CreditRisk</GIVEN>
	<TABLE>0.0884514 0.646782 0.264766 0.000158655 0.872759 0.127082 0.0675053 0.808828 0.123666 0.00696408 0.896435 0.0966007 0.118027 0.294187 0.587786 0.000116239 0.709171 0.290713 0.00248139 0.995037 0.00248139 0.00124533 0.997509 0.00124533 0.0458466 0.862914 0.0912392 0.000356761 0.856582 0.143061 0.000172325 0.844563 0.155265 0.00820938 0.951069 0.0407218 0.399602 0.200795 0.399602 0.14367 0.570413 0.285917 0.000161212 0.919071 0.0807674 0.00921891 0.949456 0.0413246 0.00124533 0.872976 0.125778 0.000712758 0.998574 0.000712758 0.00970874 0.980583 0.00970874 0.00124533 0.997509 0.00124533 </TABLE>
</DEFINITION>
<DEFINITION>
	<FOR>InstallmentRate</FOR><!--InstallmentRate | Purpose,CreditRisk,-->
	<GIVEN>Purpose</GIVEN>
	<GIVEN>CreditRisk</GIVEN>
	<TABLE>0.0590482 0.35282 0.117803 0.470329 0.142925 0.269829 0.206377 0.380869 0.134883 0.168576 0.168576 0.527965 0.227592 0.227592 0.110383 0.434432 0.176643 0.176643 0.294014 0.3527 0.186076 0.290679 0.232566 0.290679 0.00247525 0.00247525 0.25 0.74505 0.25 0.125622 0.125622 0.498756 0.0458258 0.13657 0.0911978 0.726407 0.14301 0.285663 0.0716833 0.499643 0.155238 0.275844 0.120779 0.448139 0.16263 0.284542 0.138248 0.414581 0.200397 0.39881 0.200397 0.200397 0.00142045 0.427557 0.285511 0.285511 0.0807544 0.161348 0.145229 0.612669 0.0780132 0.197257 0.169739 0.55499 0.125622 0.125622 0.125622 0.623134 0.000712251 0.214387 0.285613 0.499288 0.00961538 0.00961538 0.00961538 0.971154 0.125622 0.125622 0.00124378 0.747512 </TABLE>
</DEFINITION>
<DEFINITION>
	<FOR>ForeignWorker</FOR><!--ForeignWorker | Purpose,CreditRisk,-->
	<GIVEN>Purpose</GIVEN>
	<GIVEN>CreditRisk</GIVEN>
	<TABLE>0.000293945 0.999706 0.0160267 0.983973 0.0225792 0.977421 0.131085 0.868915 0.000587544 0.999412 0.0233667 0.976633 0.00248756 0.997512 0.00124688 0.998753 0.000454133 0.999546 0.000356888 0.999643 0.0174078 0.982592 0.0407251 0.959275 0.201195 0.798805 0.0014245 0.998575 0.000161238 0.999839 0.0229795 0.97702 0.00124688 0.998753 0.0720399 0.92796 0.00980392 0.990196 0.00124688 0.998753 </TABLE>
</DEFINITION>
<DEFINITION>
	<FOR>LiablePeople</FOR><!--LiablePeople | PersonalStatusSex,CreditRisk,-->
	<GIVEN>CreditRisk</GIVEN>
	<GIVEN>PersonalStatusSex</GIVEN>
	<TABLE>0.944873 0.0551275 0.9995 0.0004995 0.959632 0.0403677 0.732845 0.267155 0.960153 0.0398468 0.899734 0.100266 0.98493 0.0150701 0.758694 0.241306 </TABLE>
</DEFINITION>
<DEFINITION>
	<FOR>ApproveLoan</FOR><!--ApproveLoan | CreditRisk,-->
	<GIVEN>CreditRisk</GIVEN>
</DEFINITION>
<DEFINITION>
	<FOR>Utility</FOR><!--Utility | ApproveLoan,CreditRisk,-->
	<GIVEN>CreditRisk</GIVEN>
	<GIVEN>ApproveLoan</GIVEN>
	<TABLE>-5 0 0 -1 </TABLE>
</DEFINITION>

</NETWORK>
</BIF>
