<?xml version="1.0" ?>

<BIF VERSION="0.3">
<NETWORK>

<!-- Variables -->
<VARIABLE TYPE="nature">
	<NAME>CreditRisk</NAME>
	<PROPERTY>description = </PROPERTY>
	<PROPERTY>fast = CreditRisk{Bad|Good}</PROPERTY>
<!- OUTCOME are not used in pyAgrum BIFXML (see fast property) but are kept for compatibility->
	<OUTCOME>Bad</OUTCOME>
	<OUTCOME>Good</OUTCOME>
</VARIABLE>

<VARIABLE TYPE="nature">
	<NAME>Duration</NAME>
	<PROPERTY>description = </PROPERTY>
	<PROPERTY>fast = Duration{Long|Medium|Short}</PROPERTY>
<!- OUTCOME are not used in pyAgrum BIFXML (see fast property) but are kept for compatibility->
	<OUTCOME>Long</OUTCOME>
	<OUTCOME>Medium</OUTCOME>
	<OUTCOME>Short</OUTCOME>
</VARIABLE>

<VARIABLE TYPE="nature">
	<NAME>ResidenceSince</NAME>
	<PROPERTY>description = </PROPERTY>
	<PROPERTY>fast = ResidenceSince{1|2|3|4}</PROPERTY>
<!- OUTCOME are not used in pyAgrum BIFXML (see fast property) but are kept for compatibility->
	<OUTCOME>1</OUTCOME>
	<OUTCOME>2</OUTCOME>
	<OUTCOME>3</OUTCOME>
	<OUTCOME>4</OUTCOME>
</VARIABLE>

<VARIABLE TYPE="nature">
	<NAME>ExistingCredits</NAME>
	<PROPERTY>description = </PROPERTY>
	<PROPERTY>fast = ExistingCredits{1|2|3|4}</PROPERTY>
<!- OUTCOME are not used in pyAgrum BIFXML (see fast property) but are kept for compatibility->
	<OUTCOME>1</OUTCOME>
	<OUTCOME>2</OUTCOME>
	<OUTCOME>3</OUTCOME>
	<OUTCOME>4</OUTCOME>
</VARIABLE>

<VARIABLE TYPE="nature">
	<NAME>EmploymentSince</NAME>
	<PROPERTY>description = </PROPERTY>
	<PROPERTY>fast = EmploymentSince{_1to4_years|_4to7_years|ge7_years|lt1_year|unemployed}</PROPERTY>
<!- OUTCOME are not used in pyAgrum BIFXML (see fast property) but are kept for compatibility->
	<OUTCOME>_1to4_years</OUTCOME>
	<OUTCOME>_4to7_years</OUTCOME>
	<OUTCOME>ge7_years</OUTCOME>
	<OUTCOME>lt1_year</OUTCOME>
	<OUTCOME>unemployed</OUTCOME>
</VARIABLE>

<VARIABLE TYPE="nature">
	<NAME>SavingsAccount</NAME>
	<PROPERTY>description = </PROPERTY>
	<PROPERTY>fast = SavingsAccount{_100to500_DM|_500to1000_DM|ge1000_DM|lt100_DM|unknown_no_savings}</PROPERTY>
<!- OUTCOME are not used in pyAgrum BIFXML (see fast property) but are kept for compatibility->
	<OUTCOME>_100to500_DM</OUTCOME>
	<OUTCOME>_500to1000_DM</OUTCOME>
	<OUTCOME>ge1000_DM</OUTCOME>
	<OUTCOME>lt100_DM</OUTCOME>
	<OUTCOME>unknown_no_savings</OUTCOME>
</VARIABLE>

<VARIABLE TYPE="nature">
	<NAME>OtherInstallmentPlans</NAME>
	<PROPERTY>description = </PROPERTY>
	<PROPERTY>fast = OtherInstallmentPlans{bank|none|stores}</PROPERTY>
<!- OUTCOME are not used in pyAgrum BIFXML (see fast property) but are kept for compatibility->
	<OUTCOME>bank</OUTCOME>
	<OUTCOME>none</OUTCOME>
	<OUTCOME>stores</OUTCOME>
</VARIABLE>

<VARIABLE TYPE="nature">
	<NAME>Telephone</NAME>
	<PROPERTY>description = </PROPERTY>
	<PROPERTY>fast = Telephone{none|yes_registered_}</PROPERTY>
<!- OUTCOME are not used in pyAgrum BIFXML (see fast property) but are kept for compatibility->
	<OUTCOME>none</OUTCOME>
	<OUTCOME>yes_registered_</OUTCOME>
</VARIABLE>

<VARIABLE TYPE="nature">
	<NAME>CreditAmount</NAME>
	<PROPERTY>description = </PROPERTY>
	<PROPERTY>fast = CreditAmount{High|Low|Medium}</PROPERTY>
<!- OUTCOME are not used in pyAgrum BIFXML (see fast property) but are kept for compatibility->
	<OUTCOME>High</OUTCOME>
	<OUTCOME>Low</OUTCOME>
	<OUTCOME>Medium</OUTCOME>
</VARIABLE>

<VARIABLE TYPE="nature">
	<NAME>Job</NAME>
	<PROPERTY>description = </PROPERTY>
	<PROPERTY>fast = Job{management_self_employed_highly_qualified_officer|skilled_employee_official|unemployed_unskilled_non_resident|unskilled_resident}</PROPERTY>
<!- OUTCOME are not used in pyAgrum BIFXML (see fast property) but are kept for compatibility->
	<OUTCOME>management_self_employed_highly_qualified_officer</OUTCOME>
	<OUTCOME>skilled_employee_official</OUTCOME>
	<OUTCOME>unemployed_unskilled_non_resident</OUTCOME>
	<OUTCOME>unskilled_resident</OUTCOME>
</VARIABLE>

<VARIABLE TYPE="nature">
	<NAME>CheckingAccount</NAME>
	<PROPERTY>description = </PROPERTY>
	<PROPERTY>fast = CheckingAccount{_0to200|No_Checking|ge200|lt0}</PROPERTY>
<!- OUTCOME are not used in pyAgrum BIFXML (see fast property) but are kept for compatibility->
	<OUTCOME>_0to200</OUTCOME>
	<OUTCOME>No_Checking</OUTCOME>
	<OUTCOME>ge200</OUTCOME>
	<OUTCOME>lt0</OUTCOME>
</VARIABLE>

<VARIABLE TYPE="nature">
	<NAME>Housing</NAME>
	<PROPERTY>description = </PROPERTY>
	<PROPERTY>fast = Housing{for_free|own|rent}</PROPERTY>
<!- OUTCOME are not used in pyAgrum BIFXML (see fast property) but are kept for compatibility->
	<OUTCOME>for_free</OUTCOME>
	<OUTCOME>own</OUTCOME>
	<OUTCOME>rent</OUTCOME>
</VARIABLE>

<VARIABLE TYPE="nature">
	<NAME>Property</NAME>
	<PROPERTY>description = </PROPERTY>
	<PROPERTY>fast = Property{building_society_savings_life_insurance|car_or_other|real_estate|unknown_no_property}</PROPERTY>
<!- OUTCOME are not used in pyAgrum BIFXML (see fast property) but are kept for compatibility->
	<OUTCOME>building_society_savings_life_insurance</OUTCOME>
	<OUTCOME>car_or_other</OUTCOME>
	<OUTCOME>real_estate</OUTCOME>
	<OUTCOME>unknown_no_property</OUTCOME>
</VARIABLE>

<VARIABLE TYPE="nature">
	<NAME>Age</NAME>
	<PROPERTY>description = </PROPERTY>
	<PROPERTY>fast = Age{Middle|Old|Young}</PROPERTY>
<!- OUTCOME are not used in pyAgrum BIFXML (see fast property) but are kept for compatibility->
	<OUTCOME>Middle</OUTCOME>
	<OUTCOME>Old</OUTCOME>
	<OUTCOME>Young</OUTCOME>
</VARIABLE>

<VARIABLE TYPE="nature">
	<NAME>PersonalStatusSex</NAME>
	<PROPERTY>description = </PROPERTY>
	<PROPERTY>fast = PersonalStatusSex{female_divorced_separated_married|male_divorced_separated|male_married_widowed|male_single}</PROPERTY>
<!- OUTCOME are not used in pyAgrum BIFXML (see fast property) but are kept for compatibility->
	<OUTCOME>female_divorced_separated_married</OUTCOME>
	<OUTCOME>male_divorced_separated</OUTCOME>
	<OUTCOME>male_married_widowed</OUTCOME>
	<OUTCOME>male_single</OUTCOME>
</VARIABLE>

<VARIABLE TYPE="nature">
	<NAME>CreditHistory</NAME>
	<PROPERTY>description = </PROPERTY>
	<PROPERTY>fast = CreditHistory{All_credits_at_this_bank_paid_duly|Critical_account_other_credits_elsewhere|Delay_in_paying_off_in_the_past|Existing_credits_paid_duly_till_now|No_credits_taken_all_paid_duly}</PROPERTY>
<!- OUTCOME are not used in pyAgrum BIFXML (see fast property) but are kept for compatibility->
	<OUTCOME>All_credits_at_this_bank_paid_duly</OUTCOME>
	<OUTCOME>Critical_account_other_credits_elsewhere</OUTCOME>
	<OUTCOME>Delay_in_paying_off_in_the_past</OUTCOME>
	<OUTCOME>Existing_credits_paid_duly_till_now</OUTCOME>
	<OUTCOME>No_credits_taken_all_paid_duly</OUTCOME>
</VARIABLE>

<VARIABLE TYPE="nature">
	<NAME>InstallmentRate</NAME>
	<PROPERTY>description = </PROPERTY>
	<PROPERTY>fast = InstallmentRate{1|2|3|4}</PROPERTY>
<!- OUTCOME are not used in pyAgrum BIFXML (see fast property) but are kept for compatibility->
	<OUTCOME>1</OUTCOME>
	<OUTCOME>2</OUTCOME>
	<OUTCOME>3</OUTCOME>
	<OUTCOME>4</OUTCOME>
</VARIABLE>

<VARIABLE TYPE="nature">
	<NAME>Purpose</NAME>
	<PROPERTY>description = </PROPERTY>
	<PROPERTY>fast = Purpose{business|car_new_|car_used_|domestic_appliances|education|furniture_equipment|others|radio_television|repairs|retraining}</PROPERTY>
<!- OUTCOME are not used in pyAgrum BIFXML (see fast property) but are kept for compatibility->
	<OUTCOME>business</OUTCOME>
	<OUTCOME>car_new_</OUTCOME>
	<OUTCOME>car_used_</OUTCOME>
	<OUTCOME>domestic_appliances</OUTCOME>
	<OUTCOME>education</OUTCOME>
	<OUTCOME>furniture_equipment</OUTCOME>
	<OUTCOME>others</OUTCOME>
	<OUTCOME>radio_television</OUTCOME>
	<OUTCOME>repairs</OUTCOME>
	<OUTCOME>retraining</OUTCOME>
</VARIABLE>

<VARIABLE TYPE="nature">
	<NAME>OtherDebtors</NAME>
	<PROPERTY>description = </PROPERTY>
	<PROPERTY>fast = OtherDebtors{co_applicant|guarantor|none}</PROPERTY>
<!- OUTCOME are not used in pyAgrum BIFXML (see fast property) but are kept for compatibility->
	<OUTCOME>co_applicant</OUTCOME>
	<OUTCOME>guarantor</OUTCOME>
	<OUTCOME>none</OUTCOME>
</VARIABLE>

<VARIABLE TYPE="nature">
	<NAME>LiablePeople</NAME>
	<PROPERTY>description = </PROPERTY>
	<PROPERTY>fast = LiablePeople{1|2}</PROPERTY>
<!- OUTCOME are not used in pyAgrum BIFXML (see fast property) but are kept for compatibility->
	<OUTCOME>1</OUTCOME>
	<OUTCOME>2</OUTCOME>
</VARIABLE>

<VARIABLE TYPE="nature">
	<NAME>ForeignWorker</NAME>
	<PROPERTY>description = </PROPERTY>
	<PROPERTY>fast = ForeignWorker{no|yes}</PROPERTY>
<!- OUTCOME are not used in pyAgrum BIFXML (see fast property) but are kept for compatibility->
	<OUTCOME>no</OUTCOME>
	<OUTCOME>yes</OUTCOME>
</VARIABLE>

<VARIABLE TYPE="decision">
	<NAME>ApproveLoan</NAME>
	<PROPERTY>description = Approve or reject the loan</PROPERTY>
	<PROPERTY>fast = ApproveLoan{Approve|Reject}</PROPERTY>
<!- OUTCOME are not used in pyAgrum BIFXML (see fast property) but are kept for compatibility->
	<OUTCOME>Approve</OUTCOME>
	<OUTCOME>Reject</OUTCOME>
</VARIABLE>

<VARIABLE TYPE="utility">
	<NAME>Utility</NAME>
	<PROPERTY>description = Financial outcome of decision</PROPERTY>
	<PROPERTY>fast = Utility{0}</PROPERTY>
<!- OUTCOME are not used in pyAgrum BIFXML (see fast property) but are kept for compatibility->
	<OUTCOME>0</OUTCOME>
</VARIABLE>

<!-- Probability distributions -->
<DEFINITION>
	<FOR>CreditRisk</FOR><!--CreditRisk | CheckingAccount,-->
	<GIVEN>CheckingAccount</GIVEN>
	<TABLE>0.390343 0.609657 0.116771 0.883229 0.22231 0.77769 0.492701 0.507299 </TABLE>
</DEFINITION>
<DEFINITION>
	<FOR>Duration</FOR><!--Duration | CreditAmount,-->
	<GIVEN>CreditAmount</GIVEN>
	<TABLE>0.263269 0.473463 0.263269 0.00232362 0.153763 0.843913 0.0776523 0.611997 0.310351 </TABLE>
</DEFINITION>
<DEFINITION>
	<FOR>ResidenceSince</FOR><!--ResidenceSince | EmploymentSince,-->
	<GIVEN>EmploymentSince</GIVEN>
	<TABLE>0.0944136 0.483748 0.120959 0.300879 0.16094 0.241381 0.264365 0.333314 0.039559 0.181829 0.0988381 0.679774 0.313939 0.220937 0.168624 0.296501 0.096873 0.290297 0.12911 0.48372 </TABLE>
</DEFINITION>
<DEFINITION>
	<FOR>ExistingCredits</FOR><!--ExistingCredits | CreditHistory,-->
	<GIVEN>CreditHistory</GIVEN>
	<TABLE>0.836256 0.163336 0.000203915 0.000203915 0.238909 0.67571 0.0751092 0.0102716 0.352226 0.636188 0.000113585 0.0114721 0.901838 0.0868048 0.00756547 0.00379217 0.324925 0.624625 0.0501998 0.00024975 </TABLE>
</DEFINITION>
<DEFINITION>
	<FOR>EmploymentSince</FOR><!--EmploymentSince | Job,-->
	<GIVEN>Job</GIVEN>
	<TABLE>0.189193 0.141912 0.337791 0.108139 0.222965 0.365066 0.18889 0.257138 0.169844 0.019062 0.045805 0.000453515 0.000453515 0.227211 0.726077 0.39995 0.170007 0.204999 0.219995 0.00504874 </TABLE>
</DEFINITION>
<DEFINITION>
	<FOR>SavingsAccount</FOR><!--SavingsAccount | -->
	<TABLE>0.103005 0.0630068 0.0480076 0.60298 0.183001 </TABLE>
</DEFINITION>
<DEFINITION>
	<FOR>OtherInstallmentPlans</FOR><!--OtherInstallmentPlans | CreditHistory,-->
	<GIVEN>CreditHistory</GIVEN>
	<TABLE>0.4897 0.34693 0.163369 0.112651 0.856602 0.0307477 0.136431 0.749858 0.113711 0.11322 0.852801 0.0339792 0.250062 0.699725 0.0502123 </TABLE>
</DEFINITION>
<DEFINITION>
	<FOR>Telephone</FOR><!--Telephone | Job,-->
	<GIVEN>Job</GIVEN>
	<TABLE>0.14194 0.85806 0.619044 0.380956 0.727066 0.272934 0.844966 0.155034 </TABLE>
</DEFINITION>
<DEFINITION>
	<FOR>CreditAmount</FOR><!--CreditAmount | CreditRisk,-->
	<GIVEN>CreditRisk</GIVEN>
	<TABLE>0.0466953 0.789954 0.16335 0.00715684 0.897119 0.0957245 </TABLE>
</DEFINITION>
<DEFINITION>
	<FOR>Job</FOR><!--Job | CreditAmount,-->
	<GIVEN>CreditAmount</GIVEN>
	<TABLE>0.630777 0.315651 0.0530462 0.00052521 0.104053 0.653161 0.0231319 0.219655 0.396501 0.508532 0.0087039 0.0862634 </TABLE>
</DEFINITION>
<DEFINITION>
	<FOR>CheckingAccount</FOR><!--CheckingAccount | SavingsAccount,-->
	<GIVEN>SavingsAccount</GIVEN>
	<TABLE>0.456231 0.378591 0.0486219 0.116557 0.174651 0.634676 0.0636104 0.127062 0.291632 0.520608 0.0626561 0.125104 0.252073 0.316745 0.0680054 0.363177 0.245903 0.54092 0.0546875 0.15849 </TABLE>
</DEFINITION>
<DEFINITION>
	<FOR>Housing</FOR><!--Housing | ResidenceSince,-->
	<GIVEN>ResidenceSince</GIVEN>
	<TABLE>0.0385296 0.876798 0.0846728 0.0422361 0.827874 0.12989 0.0403275 0.805274 0.154398 0.203399 0.542358 0.254243 </TABLE>
</DEFINITION>
<DEFINITION>
	<FOR>Property</FOR><!--Property | Housing,-->
	<GIVEN>Housing</GIVEN>
	<TABLE>0.0186042 0.00934839 0.00934839 0.962699 0.258064 0.380077 0.316967 0.0448923 0.256982 0.335176 0.30725 0.100592 </TABLE>
</DEFINITION>
<DEFINITION>
	<FOR>Age</FOR><!--Age | EmploymentSince,-->
	<GIVEN>EmploymentSince</GIVEN>
	<TABLE>0.206501 0.0383742 0.755125 0.218411 0.0345343 0.747055 0.4901 0.146267 0.363633 0.151195 0.00587107 0.842934 0.290343 0.177495 0.532162 </TABLE>
</DEFINITION>
<DEFINITION>
	<FOR>PersonalStatusSex</FOR><!--PersonalStatusSex | Housing,LiablePeople,-->
	<GIVEN>LiablePeople</GIVEN>
	<GIVEN>Housing</GIVEN>
	<TABLE>0.192337 0.03857 0.0129421 0.756151 0.309716 0.0626153 0.108741 0.518928 0.581167 0.0375531 0.143777 0.237503 0.133489 0.000332889 0.000332889 0.865846 0.0755375 0.0283855 0.0189551 0.877122 0.105567 0.00052521 0.00052521 0.893382 </TABLE>
</DEFINITION>
<DEFINITION>
	<FOR>CreditHistory</FOR><!--CreditHistory | CreditRisk,-->
	<GIVEN>CreditRisk</GIVEN>
	<TABLE>0.0933511 0.166672 0.0933511 0.563273 0.0833528 0.0300121 0.347132 0.0857224 0.515692 0.0214413 </TABLE>
</DEFINITION>
<DEFINITION>
	<FOR>InstallmentRate</FOR><!--InstallmentRate | -->
	<TABLE>0.136005 0.231001 0.157004 0.475991 </TABLE>
</DEFINITION>
<DEFINITION>
	<FOR>Purpose</FOR><!--Purpose | -->
	<TABLE>0.0970003 0.233987 0.103 0.0120088 0.050005 0.180992 0.0120088 0.279982 0.0220078 0.0090091 </TABLE>
</DEFINITION>
<DEFINITION>
	<FOR>OtherDebtors</FOR><!--OtherDebtors | Property,-->
	<GIVEN>Property</GIVEN>
	<TABLE>0.0345214 0.0646899 0.900789 0.0301479 0.0120772 0.957775 0.0425841 0.109953 0.847463 0.0714796 0.0130494 0.915471 </TABLE>
</DEFINITION>
<DEFINITION>
	<FOR>LiablePeople</FOR><!--LiablePeople | Age,-->
	<GIVEN>Age</GIVEN>
	<TABLE>0.71013 0.28987 0.955748 0.0442517 0.890232 0.109768 </TABLE>
</DEFINITION>
<DEFINITION>
	<FOR>ForeignWorker</FOR><!--ForeignWorker | Telephone,-->
	<GIVEN>Telephone</GIVEN>
	<TABLE>0.0537063 0.946294 0.0124004 0.9876 </TABLE>
</DEFINITION>
<DEFINITION>
	<FOR>ApproveLoan</FOR><!--ApproveLoan | CreditRisk,-->
	<GIVEN>CreditRisk</GIVEN>
</DEFINITION>
<DEFINITION>
	<FOR>Utility</FOR><!--Utility | ApproveLoan,CreditRisk,-->
	<GIVEN>CreditRisk</GIVEN>
	<GIVEN>ApproveLoan</GIVEN>
	<TABLE>-5 0 0 -1 </TABLE>
</DEFINITION>

</NETWORK>
</BIF>
